tree
version=v4
num_class=1
num_tree_per_iteration=1
label_index=0
max_feature_idx=15
objective=poisson
feature_names=hour quarter dayofweek dayofyear weekofyear month tod_sin tod_cos dayofweek_sin dayofweek_cos is_weekend is_business_hours lag_15m lag_1h lag_1d lag_1w
feature_infos=[0:23] [0:3] [0:6] [76:292] [12:42] [3:10] [-1:1] [-1:1] [-0.97492791218182362:0.97492791218182362] [-0.90096886790241903:1] [0:1] [0:1] [0:15] [0:15] [0:15] [0:15]
tree_sizes=3328 3376 3374 3407 3409 3402 3412 3417 3419 3409 3427 3440 3439 3440 3449 3437 3423 3435 3457 3436 3453 3428 3454 3448 3452 3457 3462 3430 3459 3463 3443 3448 3466 3462 3450 3463 3456 3470 3484 3460 3441 3477 3477 3465 3451 3472 3458 3461 3463 3466 3452 3474 3469 3478 3475 3450 3457 3458 3458 3443 3472 3457 3435 3480 3463 3459 3478 3474 3460 3467 3476 3475 3462 3467 3472 3489 3490 3476 3441 3464 3468 3458 3436 3465 3446 3458 3468 3490 3454 3451 3455 3465 3449 3453 3435 3484 3455 3450 3466 3477

Tree=0
num_leaves=31
num_cat=0
split_feature=12 12 3 13 3 6 3 3 9 3 6 8 7 9 7 1 0 1 14 6 7 14 7 7 3 3 3 14 1 6
split_gain=276.41 51.8828 27.7793 24.1693 23.1043 11.8236 8.25188 9.44823 6.73093 7.86347 5.79377 6.75856 5.42403 6.27508 5.04629 4.61959 4.39437 4.33945 3.94371 3.83932 3.62493 3.59434 3.1494 3.06229 4.4469 4.01521 2.96398 2.7981 2.39594 3.03966
threshold=1.0000000180025095e-35 2.5000000000000004 282.50000000000006 1.0000000180025095e-35 272.50000000000006 0.63405362205439475 282.50000000000006 273.50000000000006 -0.56174490092936669 280.50000000000006 0.29012925520284133 1.0000000180025095e-35 -0.84874750804349175 0.81174490092936691 -0.98611507088852035 1.0000000180025095e-35 22.500000000000004 2.5000000000000004 1.0000000180025095e-35 0.91037613702198772 0.99465189230620699 1.0000000180025095e-35 -0.88144907265856332 -0.98611507088852035 280.50000000000006 269.50000000000006 280.50000000000006 1.0000000180025095e-35 2.5000000000000004 0.91037613702198772
decision_type=2 2 2 2 2 2 2 2 2 2 2 2 2 2 2 2 2 2 2 2 2 2 2 2 2 2 2 2 2 2
left_child=3 2 4 21 18 8 7 -5 17 12 11 16 -10 27 -13 -16 20 -6 -2 -7 -3 -1 -4 -23 25 -25 -17 -14 29 -9
right_child=1 10 22 6 5 19 -8 28 9 -11 -12 14 13 -15 15 26 -18 -19 -20 -21 -22 23 -24 24 -26 -27 -28 -29 -30 -31
leaf_value=-1.4011100437721264 -1.3270777289659665 -1.1335162762037301 -1.3132645061786634 -1.3708288234993147 -1.1824970883714958 -1.3475564195021028 -1.3963209562054195 -1.3016079685435291 -1.188783368589263 -1.1362526620147295 -1.2002213704957627 -0.76908201753175209 -1.2594106453025975 -1.1829905452124487 -0.85495390881661026 -1.0139959073603588 -1.4167264836833422 -1.0755475408807644 -1.2606529397480872 -1.2529250885400856 -0.84253173718319063 -1.3086267797435374 -1.3798201982071847 -1.4006893433908998 -1.4115371012912812 -1.3428760805593249 -1.1830877090630811 -1.3323912446578092 -1.2556879270142463 -1.3835786210952798
leaf_weight=645.42969322288627 34.07929703775153 4.8571960395511287 10.825161933898928 35.370690429415845 13.525894224643709 7.8729390203952816 26.412919878959656 31.678130328655243 13.564237728714941 8.7161697745323163 3.48870945019189 0.90855725040637469 11.484295904636388 6.9012773334980002 1.3087935051862585 3.3218836078376626 0.50426911089016346 5.2727513015270224 12.115708578821794 9.4135744422674161 0.46949594676516415 5.6452872183835998 20.715363711118698 19.734820491361461 35.919706106185913 30.702179193496704 1.5068973898887632 9.6829744428396207 8.9654054194688779 5.2775113135576239
leaf_count=12436 1939 250 26 1767 56 31 64 121 56 29 353 18 48 25 54 160 22 22 1217 37 12 110 50 1511 97 131 5 38 34 21
internal_value=-1.36802 -1.2557 -1.27262 -1.39201 -1.25256 -1.22205 -1.34776 -1.33198 -1.20356 -1.22262 -1.08591 -1.05494 -1.24071 -1.2658 -0.989036 -1.0216 -1.13458 -1.1525 -1.30966 -1.29602 -1.10787 -1.39847 -1.35698 -1.37998 -1.38465 -1.3655 -1.06676 -1.2928 -1.30206 -1.31331
internal_weight=1025.67 180.535 164.17 845.136 132.629 86.4341 107.705 81.2917 69.1476 50.349 16.3658 12.8771 41.6328 28.0685 7.04613 6.13757 5.83096 18.7986 46.195 17.2865 5.32669 737.432 31.5405 92.002 86.3567 50.437 4.82878 21.1673 45.921 36.9556
internal_count=20740 4448 3574 16292 3498 342 2007 1943 274 196 874 521 167 111 237 219 284 78 3156 68 262 14285 76 1849 1739 1642 165 86 176 142
is_linear=0
shrinkage=1


Tree=1
num_leaves=31
num_cat=0
split_feature=12 12 13 2 3 3 0 3 3 9 8 14 1 12 7 14 13 14 6 7 7 3 3 3 3 3 7 7 7 6
split_gain=225.764 28.8602 22.5654 15.4789 11.6632 13.1164 9.06059 7.23239 7.68448 6.73637 6.2505 6.09726 4.82893 4.71008 4.03769 3.58391 4.00094 3.50138 3.39697 3.0939 2.67944 4.25966 3.64762 2.54738 2.53931 2.41082 2.38305 2.27127 2.82799 2.55864
threshold=1.0000000180025095e-35 1.5000000000000002 1.0000000180025095e-35 4.5000000000000009 282.50000000000006 268.50000000000006 9.5000000000000018 282.50000000000006 273.50000000000006 -0.56174490092936669 0.87837969732492682 1.5000000000000002 1.5000000000000002 2.5000000000000004 0.68322629814330826 1.5000000000000002 1.0000000180025095e-35 1.0000000180025095e-35 -0.35206144883412549 -0.88144907265856332 -0.98611507088852035 280.50000000000006 269.50000000000006 240.50000000000003 279.50000000000006 280.50000000000006 0.88144907265856365 0.72947329433276265 -0.95642797789208689 0.88144907265856365
decision_type=2 2 2 2 2 2 2 2 2 2 2 2 2 2 2 2 2 2 2 2 2 2 2 2 2 2 2 2 2 2
left_child=2 4 17 10 5 23 25 8 -4 18 13 12 14 27 -12 16 -15 -1 -8 -6 -19 22 -22 -2 -11 -7 -17 28 -3 -30
right_child=1 3 7 -5 19 6 9 -9 -10 24 11 -13 -14 15 -16 26 -18 20 -20 -21 21 -23 -24 -25 -26 -27 -28 -29 29 -31
leaf_value=-0.032534647198825234 0.054062394104189615 0.16926545763197695 -0.0026789520226350914 0.051638198144034503 0.056328479089153866 0.032041814847752002 0.14603843886207157 -0.027689889590408519 0.058512215473798493 0.11643771495443844 0.15747660018569662 0.35130182169927743 0.1319044442808375 0.14843359188561731 0.3311216803164243 0.16046493541807769 0.27692606649474272 0.053103203672975878 0.24705998830608739 -0.010384572657446266 -0.032107177520057005 -0.043246013671166754 0.023284741972891262 -0.013766385108868748 0.057165498616028002 0.10960179667749986 -0.033715589187209773 0.17997266372806653 0.069046292463480416 0.17031953714413592
leaf_weight=624.42064280199156 9.803424533578438 6.0827692351958822 35.271409506249256 13.849302158590943 10.664298892021181 17.961568385362629 9.1695854663848859 25.67583629488945 49.080560833215714 33.272576451301575 2.2585344312628859 3.0558553131813815 6.1791776149966609 3.9519951390611805 3.2893149956926209 2.1677226270785463 6.2647335007150105 5.9907242154986298 5.2255120873451224 19.967628806829453 19.100476387575327 34.39003923535347 31.483876749873161 12.722386613488196 9.2338033318519575 5.1586745977401725 0.8921028134136576 6.1877281061970271 12.661883570381184 3.1068333924304161
leaf_count=12436 2096 61 1767 509 24 73 34 64 176 133 82 76 128 47 37 224 177 110 20 49 1511 97 131 117 26 15 46 139 275 60
internal_value=-0.000138526 0.0943041 -0.0233801 0.146315 0.066987 0.0831609 0.102136 0.0187804 0.0329254 0.123585 0.169689 0.225492 0.192708 0.149722 0.260431 0.19879 0.227223 -0.0298644 0.18271 0.0128411 -0.0115349 -0.0160919 0.00236895 0.0157533 0.103562 0.0493473 0.103851 0.126488 0.111343 0.0889997
internal_weight=1028.54 203.127 825.414 69.948 133.179 102.548 80.0217 110.028 84.352 56.9015 56.0987 14.7829 11.727 41.3158 5.54785 13.2766 10.2167 715.386 14.3951 30.6319 90.9651 84.9744 50.5844 22.5258 42.5064 23.1202 3.05983 28.0392 21.8515 15.7687
internal_count=20740 4448 16292 1861 2587 2514 301 2007 1943 213 1352 323 247 1029 119 494 224 14285 54 73 1849 1739 1642 2213 159 88 270 535 396 335
is_linear=0
shrinkage=0.1


Tree=2
num_leaves=31
num_cat=0
split_feature=12 13 3 3 6 1 3 3 3 6 12 3 7 14 8 14 0 3 11 3 3 3 7 7 9 0 6 6 8 12
split_gain=188.338 21.0894 19.4011 13.4671 7.76474 6.86894 6.3717 6.33008 4.74879 4.04907 3.50847 4.70942 3.41139 3.40564 3.17883 3.79732 3.00526 2.3988 2.97403 2.7707 2.38509 3.51246 2.55408 2.24955 1.81309 5.89703 5.61651 3.76278 3.35938 1.77593
threshold=1.0000000180025095e-35 1.0000000180025095e-35 282.50000000000006 272.50000000000006 0.63405362205439475 1.0000000180025095e-35 282.50000000000006 273.50000000000006 210.50000000000003 0.88144907265856365 1.5000000000000002 276.50000000000006 -0.84874750804349175 1.0000000180025095e-35 0.87837969732492682 1.0000000180025095e-35 19.500000000000004 268.50000000000006 1.0000000180025095e-35 244.50000000000003 280.50000000000006 269.50000000000006 -0.81241147629689003 -0.88144907265856332 -0.56174490092936669 8.5000000000000018 0.58216583101416142 0.0327015646150716 0.6078576107927941 1.5000000000000002
decision_type=2 2 2 2 2 2 2 2 2 2 2 2 2 2 2 2 2 2 2 2 2 2 2 2 2 2 2 2 2 2
left_child=1 13 3 8 5 -5 7 -3 -2 -6 11 12 -7 -1 15 -12 -14 19 -19 29 21 -15 -22 -4 25 -9 27 28 -26 -10
right_child=2 6 23 4 9 10 -8 24 17 -11 14 -13 16 20 -16 -17 -18 18 -20 -21 22 -23 -24 -25 26 -27 -28 -29 -30 -31
leaf_value=-0.03196836571868842 0.14439310232229816 -0.0025529269629859957 0.043397605099403963 0.16575085595719388 0.0074102326653985931 0.184534583262742 -0.027073080194863909 0.14311440825958269 0.027396477844357243 0.093167668684610072 0.14920858664924394 0.060063923837473478 0.052446380535236571 -0.030974089953471836 0.17322269993519843 0.077768584691412415 0.14594329346675455 0.017526668064364519 0.091024574704073338 -0.011705397501533304 0.011094182810430326 0.022158291374849225 -0.047365012461928563 -0.01101385314315367 0.0040762917971508428 0.022205241439491128 -0.023623306657487034 0.13145042517960576 0.087305203626957498 0.10387504975015223
leaf_weight=604.43225890785288 5.0130224830936632 35.177045409278435 12.146186143159865 25.964613407850266 9.6734427362680453 6.4361582994461086 24.974628239870071 7.7489880472421673 9.0719802221283334 12.778793349862097 13.986618310213091 25.966428011655807 7.3170454949140531 19.807716743160199 11.424585640430449 15.896971046924589 6.4845934808254242 8.4943607896566391 15.64658896625042 12.863317802548407 10.446560114622114 33.459251940250397 26.260954052209854 20.292777419090271 10.43742591142655 8.4135710597038251 10.042719542980192 6.3366424888372412 9.0587073266506177 4.5637521315366021
leaf_count=12436 3320 1767 26 74 34 20 64 26 302 40 37 75 25 1607 27 45 20 41 71 105 27 136 79 50 35 29 35 22 29 136
internal_value=-0.00023831 -0.022767 0.0808771 0.0929865 0.109951 0.120582 0.0174615 0.0302143 0.0515512 0.0562195 0.107181 0.088249 0.124412 -0.0292664 0.128357 0.111205 0.0963752 0.0423604 0.0651632 0.0215868 -0.0111152 0.00240062 -0.0307282 0.00935954 0.0523645 0.080174 0.0398358 0.0645061 0.0427479 0.0529931
internal_weight=1030.62 806.596 224.021 191.582 135.929 113.477 112.19 87.2151 55.653 22.4522 87.5124 46.2042 20.2378 694.407 41.3082 29.8836 13.8016 50.64 24.1409 26.4991 89.9745 53.267 36.7075 32.439 52.0381 16.1626 35.8755 25.8328 19.4961 13.6357
internal_count=20740 16292 4448 4372 397 323 2007 1943 3975 74 249 140 65 14285 109 82 45 655 112 543 1849 1743 106 76 176 55 121 86 64 438
is_linear=0
shrinkage=0.1


Tree=3
num_leaves=31
num_cat=0
split_feature=12 13 3 3 3 6 3 1 14 13 14 12 6 13 7 3 3 7 7 14 3 14 1 3 3 7 7 8 3 2
split_gain=159.666 19.6765 14.4106 9.28863 5.61622 5.50165 5.22577 4.19966 3.93915 3.4357 3.30814 2.83056 2.61594 2.33127 2.30185 3.9252 3.02139 2.16301 2.12786 3.10392 3.11674 2.07418 1.99366 1.9723 1.90176 1.87092 1.82311 1.96611 1.80591 1.78677
threshold=1.0000000180025095e-35 1.0000000180025095e-35 282.50000000000006 273.50000000000006 282.50000000000006 0.25881904510252091 273.50000000000006 1.0000000180025095e-35 1.0000000180025095e-35 1.0000000180025095e-35 1.0000000180025095e-35 2.5000000000000004 -0.35206144883412549 1.0000000180025095e-35 -0.98611507088852035 280.50000000000006 269.50000000000006 0.41248606129204557 -0.93540483100319616 1.5000000000000002 272.50000000000006 1.0000000180025095e-35 1.5000000000000002 230.50000000000003 276.50000000000006 -1.0000000180025095e-35 -0.25881904510252068 1.0000000180025095e-35 227.50000000000003 5.5000000000000009
decision_type=2 2 2 2 2 2 2 2 2 2 2 2 2 2 2 2 2 2 2 2 2 2 2 2 2 2 2 2 2 2
left_child=1 10 3 8 6 7 -3 9 28 -5 29 12 17 -14 -12 16 -16 -9 19 -10 -21 -19 -4 -20 25 -7 -18 -28 -2 -1
right_child=2 4 22 5 -6 24 -8 11 18 -11 14 -13 13 -15 15 -17 26 21 23 20 -22 -23 -24 -25 -26 -27 27 -29 -30 -31
leaf_value=-0.033653749976253637 0.080110744824551883 -0.0024325163610795409 -0.019843285212238992 0.19361669849105648 -0.026453269815913463 0.060923219292419034 0.046968567873936856 0.050057931503482624 0.10439480420243533 0.11524864096586521 0.047331759365402459 0.13321080031908716 0.073269775269957177 0.13727309481269531 -0.030964349504828459 -0.042722442319337701 -0.0071272061080006515 0.13705798562091862 0.13817764388104442 0.17182964712144885 0.55364423809728247 0.063699458450884039 0.030046550159269297 0.048589329776150166 0.048131428049759964 0.13103241450514178 0.069862457414269066 0.004963712805864863 0.024196621991177312 -0.017888901736446354
leaf_weight=501.49010615400584 6.7910860587871857 35.087355582500095 13.956500768661497 8.644899398088457 24.307558804750443 8.5607699900865537 54.944016560912132 22.817090630531311 4.1285617469220623 15.852496564388273 6.3472045971757316 15.804589301347731 9.4385367929935473 14.33326607942581 17.93281019297865 31.794104099273682 14.114934608340262 7.3343143761157981 3.086340057428969 0.60897730548094831 0.32945647835731506 8.1231121122837049 18.798907727003098 12.058315854519604 27.203773975372314 6.8536021560430518 10.28567495942116 8.546996206045149 38.657231830060482 83.925033645056828
leaf_count=10746 1788 1767 33 20 64 27 176 64 111 38 110 31 24 35 1511 97 57 19 1509 136 1 22 43 82 73 22 42 32 370 1690
internal_value=-0.000312042 -0.0221595 0.0704932 0.080089 0.0161999 0.0942221 0.0277158 0.106793 0.0488856 0.142904 -0.0286626 0.09543 0.0858064 0.111861 -0.0107026 -0.0151581 0.00206621 0.0696244 0.0856145 0.14171 0.305874 0.098507 0.00878937 0.0668466 0.0640326 0.0920955 0.0200442 0.0404089 0.0325516 -0.0313937
internal_weight=1032.16 788.776 243.382 210.626 114.339 144.966 90.0314 102.348 65.66 24.4974 674.437 77.8509 62.0463 23.7718 89.0217 82.6745 50.8804 38.2745 20.2117 5.067 0.938434 15.4574 32.7554 15.1447 42.6181 15.4144 32.9476 18.8327 45.4483 585.415
internal_count=20740 16292 4448 4372 2007 375 1943 253 3997 58 14285 195 164 59 1849 1739 1642 105 1839 248 137 41 76 1591 122 49 131 74 2158 12436
is_linear=0
shrinkage=0.1


Tree=4
num_leaves=31
num_cat=0
split_feature=12 13 3 3 3 3 6 14 1 14 6 12 9 3 3 7 7 2 14 1 7 3 7 15 3 2 1 3 3 7
split_gain=136.853 18.3995 10.9873 6.63015 4.98279 4.37957 3.93243 3.20561 3.17711 2.94184 2.71298 2.13482 2.96888 2.08266 2.92324 2.46268 1.89145 1.75681 1.58726 1.56566 1.46848 1.90467 1.46228 2.5244 1.41114 1.34785 1.95177 1.30279 6.3975 2.37958
threshold=1.0000000180025095e-35 1.0000000180025095e-35 282.50000000000006 273.50000000000006 282.50000000000006 273.50000000000006 0.63405362205439475 1.0000000180025095e-35 1.0000000180025095e-35 1.0000000180025095e-35 0.88144907265856365 1.5000000000000002 -0.56174490092936669 280.50000000000006 269.50000000000006 -0.81241147629689003 -0.88144907265856332 5.5000000000000009 1.5000000000000002 1.0000000180025095e-35 0.52778511650980109 230.50000000000003 0.81241147629689026 1.0000000180025095e-35 227.50000000000003 2.5000000000000004 1.5000000000000002 281.50000000000006 268.50000000000006 -0.84874750804349175
decision_type=2 2 2 2 2 2 2 2 2 2 2 2 2 2 2 2 2 2 2 2 2 2 2 2 2 2 2 2 2 2
left_child=1 7 3 9 5 -3 8 17 -5 24 -8 12 -10 14 -9 -15 -4 27 22 -16 -11 -22 23 -14 -2 26 -13 28 -1 -30
right_child=2 4 16 6 -6 -7 10 13 11 20 -12 25 18 15 19 -17 -18 -19 -20 -21 21 -23 -24 -25 -26 -27 -28 -29 29 -31
leaf_value=-0.036783173879576851 0.070120342722934978 -0.0023174987183532283 0.038238304141003501 0.11503445207347998 -0.025831223793594246 0.042535065014797424 0.0048577287144612692 -0.029886771793134682 0.09984332888086174 0.086641103404611799 0.071827544764050066 0.14068152714255847 0.10672093487285611 0.010982505213449314 0.054787055806487697 -0.047148802151187039 -0.010827663677726709 -0.017315464603083881 0.0077082368314568446 0.0065379698630604992 0.10432106526622809 -0.033587721512648022 0.024059864566673785 0.033229613496348481 0.022431023623033425 0.075355394752900276 0.086966349081712066 -0.038671972139877331 0.073336657761918445 -0.0048683489470468487
leaf_weight=200.75057830034984 7.3575104700212242 35.002108597862389 12.859133481979368 32.746987909078598 23.672974795103073 57.586222812533379 10.1263624727726 18.718420811615033 16.426845908164978 17.890592982781531 15.023503750562666 11.220350086688997 10.730506867170339 10.465798765420912 9.088191017508505 23.99860605597496 20.195475667715073 82.437055666718152 7.5573025047779074 25.868438094854355 1.6551499862907793 2.5357433520257473 8.1407391428947431 8.28099477291107 39.60401457361877 22.162590712308884 17.033628642559052 225.20904412865639 4.1884017139673224 54.745887890458107
leaf_count=9801 1788 1767 26 68 64 176 33 1607 38 1277 40 19 29 27 34 79 50 1690 19 102 542 20 22 21 370 52 34 634 20 291
internal_value=-0.000365604 -0.0215521 0.0621481 0.0699437 0.0151109 0.025579 0.0811529 -0.0280551 0.0879488 0.044057 0.0448628 0.0792148 0.0648183 -0.0103127 0.00200483 -0.0294961 0.00826032 -0.0308115 0.0482421 0.019082 0.0741598 0.0208779 0.059524 0.0747097 0.0299026 0.0938168 0.108298 -0.033106 -0.0282789 0.000689604
internal_weight=1033.28 771.732 261.547 228.493 116.261 92.5883 159.45 655.47 134.3 69.043 25.1499 101.553 51.1364 88.1395 53.675 34.4644 33.0546 567.331 34.7095 34.9566 22.0815 4.19089 27.1522 19.0115 46.9615 50.4166 28.254 484.894 259.685 58.9343
internal_count=20740 16292 4448 4372 2007 1943 375 14285 302 3997 73 234 129 1849 1743 106 76 12436 91 136 1839 562 72 50 2158 105 53 10746 10112 311
is_linear=0
shrinkage=0.1


Tree=5
num_leaves=31
num_cat=0
split_feature=12 13 3 12 3 2 3 3 0 14 8 0 0 7 3 3 1 3 9 2 1 1 9 2 3 7 8 8 13 7
split_gain=118.365 17.2063 8.55941 5.01481 5.19417 4.58634 4.47267 3.31964 3.16301 3.10381 3.09147 4.81759 2.30634 1.97721 3.60939 2.51129 1.80572 2.27546 1.72841 1.72478 1.72258 1.71615 1.80991 1.59889 1.85582 1.53233 1.51561 1.49504 1.83167 1.66823
threshold=1.0000000180025095e-35 1.0000000180025095e-35 282.50000000000006 1.5000000000000002 268.50000000000006 4.5000000000000009 284.50000000000006 273.50000000000006 9.5000000000000018 1.0000000180025095e-35 0.6078576107927941 13.500000000000002 17.500000000000004 -0.98611507088852035 280.50000000000006 269.50000000000006 1.5000000000000002 276.50000000000006 1.0000000180025095e-35 5.5000000000000009 1.5000000000000002 2.5000000000000004 1.0000000180025095e-35 5.5000000000000009 279.50000000000006 -0.25881904510252068 1.0000000180025095e-35 1.0000000180025095e-35 1.5000000000000002 -0.81241147629689003
decision_type=2 2 2 2 2 2 2 2 2 2 2 2 2 2 2 2 2 2 2 2 2 2 2 2 2 2 2 2 2 2
left_child=1 9 3 4 -2 -5 7 -3 21 19 12 -12 16 23 15 -15 -10 -18 -14 -1 -4 22 -6 24 -11 -17 -27 29 -29 -9
right_child=2 6 20 5 8 -7 -8 27 10 13 11 -13 18 14 -16 25 17 -19 -20 -21 -22 -23 -24 -25 -26 26 -28 28 -30 -31
leaf_value=-0.032550618451747608 0.008319996955514922 -0.0022076583096125135 -0.019377416034746214 0.087056848070964643 0.067348170563007806 0.030971726997981237 -0.030471193529436287 0.061444101414682518 0.090283806411473558 -0.018732306555479635 0.098545671037248345 0.0079204076878224335 0.084201048784680488 -0.029791463923328949 -0.04216540763268533 -0.0076639801733847952 0.070868425310845543 0.00099060202340256996 0.14458029371421457 -0.016750552348715236 0.026802223377220449 -0.010752148489593903 0.0070469414867477716 -0.010382160162625715 0.13612278953365939 0.059435036986398938 0.0039030642707338931 0.032054290395519908 0.081545901795433112 0.0087275801895409719
leaf_weight=469.15363338365023 25.413787723144196 34.921085370693618 13.741783052682875 90.005036401773395 13.131383180618291 17.399039198815444 18.898969650268555 7.8803458511829367 17.602611303329468 1.1267304891116503 8.9993034601211566 16.846837192773819 11.556522265076639 16.874116599377885 29.430545538663864 14.295351356267927 13.45019054412842 7.1305611133575431 8.0389786660671216 81.021907263655521 19.59656947851181 7.6603991389274588 8.0158102214336378 3.0969487453694455 2.471372127532959 11.26880404353142 8.7162471860647184 18.73708970844746 12.444683521986006 25.196710765361786
leaf_count=10746 2213 1767 33 1351 38 507 50 24 46 76 20 42 28 1511 97 57 40 17 20 1690 43 24 26 28 6 42 32 53 34 79
internal_value=-0.000405843 -0.0209496 0.0553089 0.0617715 0.0491493 0.0779713 0.0141139 0.0226097 0.0583782 -0.0274446 0.0682226 0.039475 0.0810822 -0.00992531 -0.0142636 0.00178905 0.0667696 0.046658 0.108971 -0.0302238 0.00776737 0.029801 0.0444911 0.0422925 0.0876306 0.0173342 0.0352154 0.0360966 0.0518065 0.0212869
internal_weight=1034.12 755.535 278.589 245.25 137.846 107.404 118.079 99.1799 112.433 637.456 83.625 25.8461 57.7789 87.2801 80.5851 51.1545 38.1834 20.5808 19.5955 550.176 33.3384 28.8076 21.1472 6.69505 3.5981 34.2804 19.9851 64.2588 31.1818 33.0771
internal_count=20740 16292 4448 4372 2514 1858 2007 1957 301 14285 213 62 151 1849 1739 1642 103 57 48 12436 76 88 64 110 82 131 74 190 87 103
is_linear=0
shrinkage=0.1


Tree=6
num_leaves=31
num_cat=0
split_feature=12 13 3 3 3 3 14 6 3 6 3 3 7 2 7 1 3 3 11 3 3 6 7 2 6 14 7 1 13 14
split_gain=103.062 16.0806 6.77694 4.01404 3.99683 3.16416 2.99649 2.38696 2.08224 2.06142 1.83421 2.43034 2.33234 1.68999 1.60286 1.59347 1.48265 1.55121 1.52984 1.34569 6.37461 2.11166 2.70416 1.29005 1.62985 1.54784 1.31679 1.2702 1.2656 1.23005
threshold=1.0000000180025095e-35 1.0000000180025095e-35 282.50000000000006 282.50000000000006 272.50000000000006 272.50000000000006 1.0000000180025095e-35 0.63405362205439475 222.50000000000003 0.88144907265856365 280.50000000000006 269.50000000000006 -0.81241147629689003 5.5000000000000009 -0.88144907265856332 1.0000000180025095e-35 268.50000000000006 244.50000000000003 1.0000000180025095e-35 281.50000000000006 268.50000000000006 -0.77259657388510627 -0.84874750804349175 4.5000000000000009 -0.35206144883412549 1.5000000000000002 0.41248606129204557 1.0000000180025095e-35 1.5000000000000002 2.5000000000000004
decision_type=2 2 2 2 2 2 2 2 2 2 2 2 2 2 2 2 2 2 2 2 2 2 2 2 2 2 2 2 2 2
left_child=1 6 4 5 8 29 13 15 28 -9 11 -8 -12 19 -4 -6 17 -10 -18 20 -1 -22 -23 24 26 -26 -17 -13 -2 -3
right_child=2 3 14 -5 7 -7 10 9 16 -11 12 27 -14 -15 -16 23 18 -19 -20 -21 21 22 -24 -25 25 -27 -28 -29 -30 -31
leaf_value=-0.035858801784307677 0.052421161713058766 -0.0063858835092733034 0.03392301948549567 -0.024739358394231345 0.083717910041061702 0.034785468732042107 -0.028689135770166227 0.0011997235115274807 0.033407939002731833 0.056901061948340215 0.010205081102581781 0.04734054757876844 -0.046914333032243238 -0.016194682968448181 -0.0106119846615983 0.039398163229886762 0.0095114628337528082 -0.013795267565963895 0.05781332331146654 -0.037860942048903674 0.043960193485253325 0.06842109488533156 -0.014232049310692083 0.03712663941377236 0.066105535358352938 0.102260706804137 0.072957996183848919 0.0051839537651274274 0.13119829453827964 0.12722794847221142
leaf_weight=187.30333995851834 6.3067929420158162 31.717220918382736 13.523045957088469 22.635712891817093 41.934103727340698 64.765380889177322 17.649345850448299 10.854706257581713 14.249141661450269 17.127941608428955 10.601713746786116 9.7858810871839506 21.948121085762978 79.676048943581918 20.083923190832138 30.43735334277153 9.6450123339891451 13.612905543297527 20.481741338968277 209.7269529402256 10.033218219876288 4.3627616018056861 42.701988592743874 18.916235327720642 38.390625774860382 17.121867805719376 18.983765125274658 26.507108792662621 3.0139561332580342 0.70429899090777226
leaf_count=9801 2224 1686 26 64 74 188 1607 34 340 40 27 34 79 1690 50 68 41 105 71 634 53 20 238 46 72 27 36 102 1194 69
internal_value=-0.000438154 -0.0203516 0.049576 0.0131859 0.0550169 0.022019 -0.02683 0.0623094 0.0340239 0.035294 -0.00956334 0.00174883 -0.0283101 -0.0296278 0.00730837 0.0668693 0.0269724 0.0103453 0.0423496 -0.0319846 -0.0269419 0.00230884 -0.00657035 0.0611645 0.0654978 0.077257 0.0522893 0.0165509 0.0778945 -0.00348336
internal_weight=1034.8 740.119 294.683 119.823 261.076 97.1869 620.296 193.767 67.3095 27.9826 86.4922 53.9423 32.5498 533.804 33.607 165.784 57.9888 27.862 30.1268 454.128 244.401 57.098 47.0648 123.85 104.934 55.5125 49.4211 36.293 9.32075 32.4215
internal_count=20740 16292 4448 2007 4372 1943 14285 397 3975 74 1849 1743 106 12436 76 323 557 445 112 10746 10112 311 258 249 203 99 104 136 3418 1755
is_linear=0
shrinkage=0.1


Tree=7
num_leaves=31
num_cat=0
split_feature=12 13 3 3 12 14 3 3 3 6 3 7 3 2 1 3 3 6 7 7 7 13 7 7 8 3 7 1 3 1
split_gain=90.2777 15.0316 5.4449 3.65078 3.25997 2.89254 2.84444 2.45814 2.19501 1.76552 1.71924 2.25251 2.21883 1.65358 1.49654 1.34073 6.17886 1.85137 2.09641 1.24437 2.04383 2.17612 1.73378 1.17509 1.19258 1.09528 1.92939 1.30548 1.46261 1.6527
threshold=1.0000000180025095e-35 1.0000000180025095e-35 282.50000000000006 284.50000000000006 2.5000000000000004 1.0000000180025095e-35 268.50000000000006 272.50000000000006 244.50000000000003 0.63405362205439475 280.50000000000006 -0.81241147629689003 269.50000000000006 5.5000000000000009 1.5000000000000002 281.50000000000006 266.50000000000006 -0.77259657388510627 -0.93540483100319616 0.95642797789208711 -0.065403129230143256 1.5000000000000002 -0.84874750804349175 -0.25881904510252068 1.0000000180025095e-35 274.50000000000006 0.68322629814330826 1.0000000180025095e-35 276.50000000000006 2.5000000000000004
decision_type=2 2 2 2 2 2 2 2 2 2 2 2 2 2 2 2 2 2 2 2 2 2 2 2 2 2 2 2 2 2
left_child=1 5 4 7 6 13 8 -3 -2 25 12 -12 -7 15 -4 16 -1 -18 -19 20 21 22 -9 -14 -25 26 -8 -27 29 -29
right_child=2 3 14 -5 -6 10 9 19 -10 -11 11 -13 23 -15 -16 -17 17 18 -20 -21 -22 -23 -24 24 -26 27 -28 28 -30 -31
leaf_value=-0.037106171622660097 0.038052254489546342 -0.0033314140929527948 -0.018895962613798296 -0.029382060476098506 0.074403612178673584 -0.028078829214285003 0.048257318783167066 0.057496367048945556 -0.01398649074609188 0.026957294285845673 0.0095972751349219319 -0.046782522984726994 -0.0051011383006484279 -0.015648334564417988 0.024026179682695412 -0.037405710767243368 0.031227474449126949 0.060557868347805036 -0.014721936157783271 0.066789549304913376 0.0048000665792916845 0.070945842626487413 -0.0017497846608641187 0.051245616230352425 0.0030296678086597683 0.076642276880147492 -0.011260975103488842 0.052059973627825828 0.043259066238239358 0.100867913156497
leaf_weight=164.39743332310445 21.078662497471669 32.315179106482901 13.526715368032454 17.883828282356262 43.765337285418354 17.150195666289619 43.880676999688148 7.9198400825262061 13.169903706759213 30.111641556024551 10.710459113121034 20.942219778895378 15.86104980111122 78.396112656751939 20.334862798452377 201.93493096530437 13.497804485261439 3.9604339748620978 56.104580663144588 8.111877888441084 27.651012420654297 14.448726266622542 13.12522228062153 12.183384627103807 8.8607337027788144 29.725964903831482 6.218341886997222 18.288280248641968 58.550262540578842 11.178015857934954
leaf_count=9669 2944 1755 33 50 874 1607 126 23 103 87 27 79 62 1690 43 634 77 24 342 23 78 39 39 42 32 47 20 36 115 20
internal_value=-0.000461045 -0.0197592 0.0447251 0.0123409 0.0493687 -0.0262141 0.0446502 0.0195452 0.0180413 0.0492538 -0.00919652 -0.027705 0.00164134 -0.0290282 0.00688003 -0.0314127 -0.026327 -0.00223795 -0.0097583 0.0299198 0.0251834 0.0410628 0.0205462 0.0154526 0.030944 0.0532539 0.0408698 0.0585233 0.052404 0.0705752
internal_weight=1035.28 725.455 309.829 121.456 275.967 603.999 232.202 103.572 34.2486 197.953 85.708 31.6527 54.0554 518.291 33.8616 439.895 237.96 73.5628 60.065 71.2567 63.1448 35.4938 21.0451 36.9052 21.0441 167.842 50.099 117.743 88.0166 29.4663
internal_count=20740 16292 4448 2007 4372 14285 3498 1957 3047 451 1849 106 1743 12436 76 10746 10112 443 366 202 179 101 62 136 74 364 146 218 171 56
is_linear=0
shrinkage=0.1


Tree=8
num_leaves=31
num_cat=0
split_feature=12 13 3 3 14 12 3 2 3 6 7 3 3 2 8 0 0 9 1 7 3 3 6 7 8 2 8 0 7 7
split_gain=79.4608 14.0385 4.42695 3.29117 2.78714 2.6357 2.83547 2.67336 2.36457 1.85675 1.66699 3.18098 1.91071 1.61511 1.37785 3.14645 1.91418 1.50756 1.82149 1.36724 1.33364 5.96666 1.65794 3.47338 2.07241 1.31022 1.38861 1.23167 1.20519 1.1398
threshold=1.0000000180025095e-35 1.0000000180025095e-35 282.50000000000006 282.50000000000006 1.0000000180025095e-35 1.5000000000000002 268.50000000000006 4.5000000000000009 273.50000000000006 0.77259657388510639 -0.98611507088852035 280.50000000000006 269.50000000000006 5.5000000000000009 0.6078576107927941 13.500000000000002 17.500000000000004 1.0000000180025095e-35 1.5000000000000002 -0.88144907265856332 281.50000000000006 266.50000000000006 0.81241147629689026 0.77259657388510627 -1.0000000180025095e-35 5.5000000000000009 0.6078576107927941 16.500000000000004 0.65934581510006873 -0.25881904510252068
decision_type=2 2 2 2 2 2 2 2 2 2 2 2 2 2 2 2 2 2 2 2 2 2 2 2 2 2 2 2 2 2
left_child=1 4 5 8 13 6 -2 -7 -3 14 25 12 -12 20 16 -16 17 18 -8 -4 21 -1 23 24 27 26 -6 -23 -9 -14
right_child=2 3 19 -5 10 7 9 28 -10 -11 11 -13 29 -15 15 -17 -18 -19 -20 -21 -22 22 -24 -25 -26 -27 -28 -29 -30 -31
leaf_value=-0.036631652306936539 0.0060319915404659988 -0.0020034199063789378 0.030269344776190223 -0.023737153653578633 0.1258861856434825 0.061114000985740304 0.078975698954761378 0.035993516728962754 0.030177464926494382 0.0090275334486159681 -0.027995159769178886 -0.041298175023549717 -0.0078489734676186942 -0.015111946087669321 0.060512348585053291 0.0016798334741898544 0.076679541973511067 0.020471931377335884 0.034613409008160359 -0.010372808034472047 -0.036938705434493499 0.11466117695313172 -0.025643212503829851 -0.028617142207286846 0.013608387684319524 -0.010646940535234196 0.0050072882892933396 0.030384587630319079 -0.020000769494240764 0.028465989036873526
leaf_weight=158.40906351689318 26.457895214161908 34.771421613344501 14.141213446855543 21.760543048381805 2.3114056205995435 111.08415138961209 17.109928324818611 14.571023837703253 66.499839663505554 15.225541725754736 15.474932499398163 26.377669647336006 14.358603566884993 77.178892572082987 17.519154697656631 18.89470037817955 24.60408753156662 19.175053045153618 20.161935150623322 19.961649775505066 194.5209387242794 3.6578441858291617 21.310112647712231 17.644656427204609 27.508321598172188 3.1179683759401087 1.6139016588058437 3.2973653376102448 5.2212634252646231 21.711623519659042
leaf_count=9669 2213 1767 26 64 60 1351 37 381 176 44 1511 97 57 1690 34 42 48 48 48 50 634 22 128 116 158 28 22 19 126 74
internal_value=-0.000478575 -0.0191739 0.0405613 0.0115466 -0.0255964 0.0445688 0.0359239 0.0550812 0.0191282 0.0418842 -0.00884319 -0.0130543 0.00139915 -0.0284233 0.0461431 0.0299849 0.0534025 0.0432564 0.0549783 0.00648001 -0.030833 -0.0257098 -0.00214461 0.00746535 0.0259389 0.0377464 0.0761865 0.0747069 0.0212221 0.01401
internal_weight=1035.65 711.525 324.128 123.032 588.493 290.025 159.148 130.876 101.271 132.69 84.9661 77.9228 51.5452 503.527 117.465 36.4139 81.051 56.4469 37.2719 34.1029 426.348 231.827 73.4183 52.1082 34.4635 7.04328 3.92531 6.95521 19.7923 36.0702
internal_count=20740 16292 4448 2007 14285 4372 2514 1858 1943 301 1849 1739 1642 12436 257 76 181 133 85 76 10746 10112 443 315 199 110 82 41 507 131
is_linear=0
shrinkage=0.1


Tree=9
num_leaves=31
num_cat=0
split_feature=12 13 3 3 3 3 7 6 12 3 2 3 8 7 3 6 1 2 0 6 14 8 7 3 3 7 7 7 13 7
split_gain=70.1967 13.1173 3.63325 3.00246 2.71885 10.4567 3.08382 2.1077 2.19341 2.26065 2.13865 2.00062 1.86332 2.12438 1.84884 1.40592 1.3062 1.25682 1.78583 1.74314 1.58902 1.08964 1.05019 1.37949 1.02225 1.00625 0.988544 1.69556 1.62432 1.43808
threshold=1.0000000180025095e-35 1.0000000180025095e-35 282.50000000000006 284.50000000000006 282.50000000000006 268.50000000000006 -0.63405362205439475 -0.99892946161930163 1.5000000000000002 268.50000000000006 4.5000000000000009 291.50000000000006 1.0000000180025095e-35 -0.91037613702198739 272.50000000000006 0.77259657388510639 1.5000000000000002 2.5000000000000004 13.500000000000002 0.25881904510252091 1.0000000180025095e-35 0.6078576107927941 0.99465189230620699 270.50000000000006 240.50000000000003 0.65934581510006873 0.95642797789208711 -0.065403129230143256 1.5000000000000002 -0.84874750804349175
decision_type=2 2 2 2 2 2 2 2 2 2 2 2 2 2 2 2 2 2 2 2 2 2 2 2 2 2 2 2 2 2
left_child=1 4 7 14 5 -1 11 -2 9 24 -10 21 -7 -14 22 17 -4 18 20 -19 -11 -6 -3 -24 -9 -12 27 28 29 -16
right_child=2 3 16 -5 6 12 -8 8 10 15 25 -13 13 -15 26 -17 -18 19 -20 -21 -22 -23 23 -25 -26 -27 -28 -29 -30 -31
leaf_value=-0.032594079301617222 0.13128375518440444 -0.0059765185146879451 -0.018402385595168779 -0.028275870635758232 -0.012072471407823731 0.015829209415490032 -0.039739739446272362 0.024545507024321036 0.054176820616076628 0.02633199854943263 0.031942925027711899 0.036891045033030936 0.050524111605435532 -0.015254164069657581 0.049673833914868008 0.0085001274821403447 0.021630040672352087 0.057521474782617335 0.013359083553254707 0.016217589222463663 0.077864749059217572 -0.044151476280318375 -0.014161204933437616 0.24841606077716105 -0.01477903945958331 -0.019401620364183143 0.05693434788922476 0.0029952975017903233 0.059521487581450566 -0.0028107092330540173
leaf_weight=210.56476984835899 2.5320553044402905 31.340459164654021 13.313110142946242 16.958643466234207 41.586843103170395 64.775702908635139 178.88575559854507 13.352432553823748 116.97129218163172 13.186622440814974 15.015872777297774 6.8858604729175559 5.4278985857963553 51.442392468452454 8.5435362309217435 15.363613054156302 21.01835435628891 54.509797394275665 30.682037085294724 12.574676647782324 10.9542328864336 14.205659240484236 0.4236255079122192 0.37915737926959991 13.091754782944916 5.1178715517853552 8.8618734776973707 28.59878209233284 15.960608795285223 13.42245849967003
leaf_count=12917 42 1701 33 50 135 325 592 2073 1338 29 377 16 19 235 23 44 43 110 65 32 19 46 52 2 117 126 23 78 39 39
internal_value=-0.000492582 -0.0185949 0.0369395 0.0108301 -0.0249791 -0.0191092 -0.0330517 0.040429 0.0396643 0.03185 0.0489952 -0.0139638 0.00423259 -0.00897606 0.0169975 0.0370076 0.0061062 0.0406003 0.0293684 0.0497793 0.0497157 -0.0202403 -0.00308361 0.109855 0.00507706 0.0188915 0.0255596 0.0213802 0.0352434 0.0176028
internal_weight=1035.95 698.264 337.684 124.489 573.775 332.211 241.564 303.352 300.82 163.715 137.105 62.6784 121.646 56.8703 107.531 137.271 34.3315 121.907 54.8229 67.0845 24.1409 55.7925 32.1432 0.802783 26.4442 20.1337 75.3873 66.5254 37.9266 21.966
internal_count=20740 16292 4448 2007 14285 13496 789 4372 4330 2489 1841 197 579 254 1957 299 76 255 113 142 48 181 1755 54 2190 503 202 179 101 62
is_linear=0
shrinkage=0.1


Tree=10
num_leaves=31
num_cat=0
split_feature=12 13 3 3 3 3 7 3 12 15 6 3 6 3 3 7 8 8 8 7 7 1 13 3 14 2 13 0 6 7
split_gain=62.2194 12.2393 3.00773 2.71689 2.66859 11.0973 3.40517 1.78539 1.74512 2.12893 1.99639 1.72112 1.44071 1.38385 1.52026 1.17273 1.16708 1.58477 1.05171 1.01998 1.60369 1.78413 1.38277 1.01044 0.996119 1.11124 1.08672 1.17964 0.991628 1.29857
threshold=1.0000000180025095e-35 1.0000000180025095e-35 282.50000000000006 282.50000000000006 281.50000000000006 268.50000000000006 -0.63405362205439475 272.50000000000006 2.5000000000000004 2.5000000000000004 -0.99892946161930163 291.50000000000006 -0.9733555533461492 268.50000000000006 222.50000000000003 -0.88144907265856332 0.6078576107927941 1.0000000180025095e-35 1.0000000180025095e-35 0.95642797789208711 -0.065403129230143256 1.0000000180025095e-35 1.5000000000000002 244.50000000000003 2.5000000000000004 4.5000000000000009 1.5000000000000002 20.500000000000004 0.35206144883412582 -0.3520614488341256
decision_type=2 2 2 2 2 2 2 2 2 2 2 2 2 2 2 2 2 2 2 2 2 2 2 2 2 2 2 2 2 2
left_child=1 4 8 7 5 23 11 24 9 10 -2 16 -7 14 -12 -4 17 -6 -14 20 21 -9 -23 -1 26 -26 -3 -28 29 -20
right_child=2 3 15 -5 6 12 -8 19 -10 -11 13 -13 18 -15 -16 -17 -18 -19 28 -21 -22 22 -24 -25 25 -27 27 -29 -30 -31
leaf_value=-0.020676358019196445 0.14024094839900764 -0.016394317102650033 0.027143622393952117 -0.022733480534762911 -0.018968948782117197 0.047656211675272203 -0.039199570509139234 -0.002221933007617249 0.053451599843270019 0.1191080935978952 0.051510289249106944 0.033756318335312528 0.01240657701989277 0.034761420412209684 0.0021503429987547781 -0.010115094338851409 -0.043902884818889314 0.031226969281518135 0.054227012029093108 0.058895953917578361 0.0033699571544135993 0.025076853465158928 0.070385811473523435 -0.036395808251416133 -0.02745935484385037 0.21171161061400279 0.0089098503532405188 0.11224823089155521 -0.021085622632293164 -0.0080911643629770821
leaf_weight=56.622017109066292 1.7105896889952408 23.593357564928741 14.716737657785414 20.949384957551956 36.956742525100708 8.2401066273450834 181.19029061496258 9.4893643260002118 52.65846842690371 2.8738539704354471 8.0946549454420147 7.1446309089660636 61.256824046373367 223.39637266099453 27.229946464300156 19.831554651260376 13.592102706432341 7.5796697735786429 4.84140169620514 8.0647986233234388 28.39672414958477 13.200151547789574 13.753924340009689 147.19023195281625 0.34329455975239298 0.44748840861939243 6.3353826417787777 1.3379337314418078 24.311720713973045 10.809361025691029
leaf_count=10809 36 1267 26 64 122 36 634 25 874 218 2384 16 305 446 414 50 46 26 18 19 77 36 31 2108 50 19 370 49 116 49
internal_value=-0.00050261 -0.0180233 0.0337701 0.0101467 -0.0243601 -0.0182357 -0.0321446 0.0167092 0.0368332 0.0335097 0.0325651 -0.012561 0.00744684 0.0318532 0.0134612 0.00575622 -0.0182539 -0.0104261 0.00417345 0.0253576 0.0211861 0.0350684 0.0481968 -0.0320287 -0.00295897 0.107883 -0.00576233 0.0269281 -0.00844676 0.0111863
internal_weight=1036.16 685.647 350.512 125.912 559.735 313.272 246.463 104.962 315.964 263.305 260.432 65.2731 109.459 258.721 35.3246 34.5483 58.1285 44.5364 101.219 72.905 64.8402 36.4434 26.9541 203.812 32.0575 0.790783 31.2667 7.67332 39.9625 15.6508
internal_count=20740 16292 4448 2007 14285 13441 844 1943 4372 3498 3280 210 524 3244 2798 76 194 148 488 188 169 92 67 12917 1755 69 1686 419 183 67
is_linear=0
shrinkage=0.1


Tree=11
num_leaves=31
num_cat=0
split_feature=12 13 3 3 7 3 3 8 3 3 6 1 2 14 14 3 8 3 8 3 6 2 6 6 6 7 7 3 1 12
split_gain=55.3257 11.4127 2.60067 10.4701 3.34913 2.51039 2.48045 1.62101 1.46731 1.40337 1.22314 1.14456 1.10538 1.59393 1.06591 1.06439 1.42836 0.999751 0.943335 0.933237 0.930847 1.04686 0.911497 1.20806 0.911284 0.874262 1.31967 0.961536 1.35231 0.909289
threshold=1.0000000180025095e-35 1.0000000180025095e-35 281.50000000000006 268.50000000000006 -0.63405362205439475 282.50000000000006 284.50000000000006 0.6078576107927941 273.50000000000006 272.50000000000006 -0.9733555533461492 1.5000000000000002 4.5000000000000009 1.0000000180025095e-35 1.0000000180025095e-35 291.50000000000006 1.0000000180025095e-35 244.50000000000003 1.0000000180025095e-35 265.50000000000006 0.41248606129204562 4.5000000000000009 0.35206144883412582 -0.097964660725097477 0.16280825711808991 0.63405362205439464 -0.95642797789208689 279.50000000000006 1.0000000180025095e-35 1.5000000000000002
decision_type=2 2 2 2 2 2 2 2 2 2 2 2 2 2 2 2 2 2 2 2 2 2 2 2 2 2 2 2 2 2
left_child=1 2 3 17 7 8 9 15 14 20 -5 -7 25 -14 -2 16 24 -1 -12 -19 21 -3 23 -20 -4 26 -10 28 -28 -29
right_child=5 6 4 10 -6 11 -8 -9 12 -11 18 -13 13 -15 -16 -17 -18 19 22 -21 -22 -23 -24 -25 -26 -27 27 29 -30 -31
leaf_value=-0.020070874238689872 0.014737631986992381 -0.0093131797776393188 -0.0037484771452323019 0.043127332497773709 -0.038781441932832728 -0.01789968224189686 -0.027156857401832227 -0.043644565898922086 0.05225640114758711 0.021965339221845306 0.011641318459799918 0.019546141760849022 0.047214789020919676 0.0033417699419742691 0.037628917970955793 0.030987534544382314 0.0287401901760817 -0.039643684285668397 -0.0103497838200831 -0.018320577510427257 -0.030590890209869694 0.034249506848193993 -0.020476748530717639 0.047106077556572923 -0.035555253607977802 0.049627906102003502 0.06150467409856978 -0.0025383167868394943 0.028515217063401866 0.032791195991803829
leaf_weight=55.463300314181652 58.020694716416983 14.176590859644426 19.579771935939789 8.6423064172267896 174.22511722147465 13.102380007505415 16.115286439657211 13.008279800415037 35.893324792385101 79.170395493507385 62.021545544266701 21.651261746883392 13.956042885780333 20.363710165023804 31.322854297581216 7.3899240195751181 7.8200943171977988 117.03899435326457 10.092063099145888 24.890446111559868 8.7787045580844261 9.0303668248197919 23.804459735751152 5.7413756102323523 16.682547330856323 70.109701007604599 16.25174868106842 14.995416671037676 52.783462136983871 14.167865991592405
leaf_count=10809 2158 824 63 36 634 33 50 46 42 202 305 43 26 42 1839 16 26 1882 43 226 531 400 116 24 59 93 26 28 99 19
internal_value=-0.000508821 -0.0174609 -0.0237427 -0.0176661 -0.0315755 0.0309848 0.00950781 -0.012105 0.0336937 0.0148234 0.00701074 0.00542879 0.037788 0.0211826 0.0227631 -0.00413426 -0.010022 -0.0314554 0.00394039 -0.0359042 -0.00285415 0.00763807 -0.00810928 0.0104843 -0.0183812 0.0405788 0.0358476 0.0298498 0.0362813 0.0146252
internal_weight=1036.29 673.672 546.4 307.694 238.706 362.618 127.271 64.4806 327.865 111.156 110.302 34.7536 238.521 34.3198 89.3435 51.4723 44.0824 197.393 101.659 141.929 31.9857 23.207 39.6379 15.8334 36.2623 204.202 134.092 98.1985 69.0352 29.1633
internal_count=20740 16292 14285 13441 844 4448 2007 210 4372 1957 524 76 375 68 3997 164 148 12917 488 2108 1755 1224 183 67 122 307 214 172 125 47
is_linear=0
shrinkage=0.1


Tree=12
num_leaves=31
num_cat=0
split_feature=12 13 3 3 7 3 3 8 12 0 15 2 3 2 3 3 7 6 3 7 3 3 8 3 6 9 1 7 9 3
split_gain=49.3035 10.6469 2.53006 9.87191 3.28882 2.24769 2.20733 1.55661 1.50017 1.49666 1.98767 2.14068 1.57982 1.45986 1.22917 1.17381 1.50883 1.04416 0.987572 0.976782 0.965665 0.94499 1.28965 0.944263 0.938777 1.3211 0.987302 1.02878 1.64407 0.92784
threshold=1.0000000180025095e-35 1.0000000180025095e-35 281.50000000000006 268.50000000000006 -0.63405362205439475 284.50000000000006 291.50000000000006 0.6078576107927941 1.5000000000000002 9.5000000000000018 1.0000000180025095e-35 1.5000000000000002 268.50000000000006 4.5000000000000009 273.50000000000006 279.50000000000006 -0.88144907265856332 -0.9733555533461492 244.50000000000003 -0.93540483100319616 236.50000000000003 291.50000000000006 1.0000000180025095e-35 243.50000000000003 0.77259657388510639 -1.0000000180025095e-35 2.5000000000000004 0.81241147629689026 -0.56174490092936669 265.50000000000006
decision_type=2 2 2 2 2 2 2 2 2 2 2 2 2 2 2 2 2 2 2 2 2 2 2 2 2 2 2 2 2 2
left_child=1 2 3 18 7 14 8 21 9 10 24 -12 23 -10 19 -14 -17 -5 -1 -3 -21 22 -4 -11 25 26 27 28 -2 -20
right_child=6 5 4 17 -6 -7 -8 -9 13 12 11 -13 15 -15 -16 16 -18 -19 29 20 -22 -23 -24 -25 -26 -27 -28 -29 -30 -31
leaf_value=-0.019471024527527064 0.023255760600028017 0.042666009233202476 -0.0178050107992552 0.039210788249296587 -0.038351326405139378 -0.02653740965815303 -0.03263971394007284 -0.043376277452003703 0.040703061291756826 0.022154985471548448 0.1487105117563923 0.027463337314117254 0.038230841216275069 0.01312522864094237 0.020811439336059907 0.038239365726047268 -0.00071436240240386692 0.0037215508732442075 -0.039238684126167524 0.028385695003797541 -0.016873943349709371 0.028526832968700008 0.026519064824949923 -0.0225566600406754 -0.018125580548856834 -0.017747101662155432 -0.0090752890592223478 0.021457077009394532 0.14640152672736523 -0.017741155978810663
leaf_weight=54.361200443474445 2.1873918830169714 4.3205288278440994 35.606331154704094 9.0231799781322461 167.59775587916374 15.683535009622572 5.8115689456462851 12.452750056982039 136.17591752834778 10.329543967071006 1.7959868104517207 7.6957923993322765 99.54156681895256 22.344775508867315 78.196758151054382 19.063519090414047 20.785191386938095 102.07620711624622 112.48990426212549 5.8386560396793383 24.477103251963854 7.6225045621395102 8.0481062531471235 8.7029477804899198 17.296584776086092 9.1742033673144761 4.5205705896296431 6.5284866892943683 2.1494677360824408 24.438590526580811
leaf_count=10809 26 252 122 36 634 50 10 46 1352 1335 56 184 185 508 190 29 46 488 1882 1297 218 16 26 72 325 143 48 96 33 226
internal_value=-0.000511031 -0.0169048 -0.0231268 -0.0171048 -0.0309987 0.00893453 0.028509 -0.0116626 0.0294739 0.0239258 0.00908926 0.0504051 0.0287347 0.0368157 0.0138651 0.0324247 0.017921 0.00660389 -0.0308746 -0.00181749 -0.00815717 -0.00396079 -0.00963345 0.00170978 -0.000279874 0.0122881 0.0301972 0.0465367 0.0842902 -0.0354019
internal_weight=1036.34 662.233 533.717 302.389 231.327 128.517 374.104 63.7297 368.292 209.771 51.3485 9.49178 158.423 158.521 112.833 139.39 39.8487 111.099 191.29 34.6363 30.3158 51.2769 43.6544 19.0325 41.8567 24.5601 15.3859 10.8653 4.33686 136.928
internal_count=20740 16292 14285 13441 844 2007 4448 210 4438 2578 911 240 1667 1860 1957 260 75 524 12917 1767 1515 164 148 1407 671 346 203 155 59 2108
is_linear=0
shrinkage=0.1


Tree=13
num_leaves=31
num_cat=0
split_feature=12 13 3 3 7 3 3 8 12 3 14 6 6 3 15 14 9 6 6 6 14 15 2 9 3 9 3 0 6 8
split_gain=44.0089 9.92601 2.45741 9.30415 3.22544 2.05201 1.94451 1.49378 1.28784 1.25084 2.93961 1.63046 2.17133 2.1539 1.15122 1.02215 1.01368 1.52032 3.07097 1.00889 1.05356 1.01705 1.72173 1.10209 0.973882 0.925609 0.921085 0.900008 1.00118 1.02202
threshold=1.0000000180025095e-35 1.0000000180025095e-35 281.50000000000006 268.50000000000006 -0.63405362205439475 282.50000000000006 291.50000000000006 0.6078576107927941 2.5000000000000004 279.50000000000006 1.0000000180025095e-35 0.41248606129204562 0.16280825711808991 275.50000000000006 2.5000000000000004 1.0000000180025095e-35 -0.56174490092936669 0.72947329433276253 0.88144907265856365 0.68322629814330826 3.5000000000000004 1.0000000180025095e-35 1.5000000000000002 1.0000000180025095e-35 244.50000000000003 -0.22252093395631442 265.50000000000006 1.5000000000000002 0.9946518923062071 1.0000000180025095e-35
decision_type=2 2 2 2 2 2 2 2 2 2 2 2 2 2 2 2 2 2 2 2 2 2 2 2 2 2 2 2 2 2
left_child=1 2 3 24 7 9 8 -4 14 11 -11 12 -3 25 19 -16 17 -13 -19 20 -2 23 -23 -21 -1 -14 -26 -5 29 -29
right_child=6 5 4 27 -6 -7 -8 -9 -10 10 -12 16 13 -15 15 -17 -18 18 -20 21 -22 22 -24 -25 26 -27 -28 28 -30 -31
leaf_value=-0.018877483107972701 0.027011779995414011 0.0090337613638353052 -0.0037894812659338807 -0.022492455024861083 -0.037909257318796769 -0.021208883373937885 -0.032075060849273772 -0.043097780153487142 0.040574324489053543 0.061419348396681631 -0.0050944674823048697 -0.04820043344117414 0.096656843865314049 0.11484590991145747 -0.0010342959829908178 0.10590918424402239 -0.026888077837707587 0.17248844551631115 1.8417794232361695e-05 0.013962317985961254 -0.020738839954783404 0.12250141357176103 0.016268509873425041 -0.024626627056035622 -0.038821695507043279 -0.015422412206042414 -0.017169852234901677 0.019486132273219881 -0.037297983217640433 -0.0014336331399119374
leaf_weight=53.312970376990961 266.60273935355326 49.585939696993591 51.085441827774048 9.9393097013235074 161.29185205698013 19.826721251010895 5.6249432563781729 11.924143597483633 60.17344300163677 15.243885278701784 11.778681010007857 2.4423945445796589 0.97624579528019273 4.1789962947368622 1.2491579913839803 3.1410291443971801 17.486707741652936 1.4249057349497887 3.7479083098351111 24.182580928798416 4.7021063373395 1.9736489776551005 6.7207043593371054 10.664947275057783 108.16142583265901 3.0047861439143144 24.008845061063766 58.627593606710434 4.4600523114204398 38.81385500729084
leaf_count=10809 2567 1127 164 55 634 64 10 46 874 30 23 47 86 9 123 97 424 33 73 349 112 24 92 200 1882 91 226 274 23 172
internal_value=-0.000512043 -0.0163561 -0.0225118 -0.0165502 -0.0304142 0.00840118 0.0262897 -0.0112283 0.027155 0.0137445 0.0324271 0.00765075 0.0169 0.0647008 0.0246255 0.0754801 -0.0136268 0.0168248 0.0475271 0.0239164 0.0261842 0.0097863 0.0403838 0.00215232 -0.0302866 0.0120621 -0.0348886 0.00623091 0.00903254 0.0111532
internal_weight=1036.36 651.323 521.625 297.324 224.301 129.697 385.035 63.0096 379.41 109.87 27.0226 82.8479 57.746 8.16003 319.237 4.39019 25.1019 7.61521 5.17281 314.847 271.305 43.5419 8.69435 34.8475 185.483 3.98103 132.17 111.841 101.902 97.4414
internal_count=20740 16292 14285 13441 844 2007 4448 210 4438 1943 53 1890 1313 186 3564 220 577 153 106 3344 2679 665 116 549 12917 177 2108 524 469 446
is_linear=0
shrinkage=0.1


Tree=14
num_leaves=31
num_cat=0
split_feature=12 13 3 3 7 3 3 8 12 0 15 6 3 2 3 3 3 7 3 6 6 6 3 1 6 2 9 6 3 0
split_gain=39.3766 9.23286 2.3819 8.76033 3.15982 1.8696 1.72044 1.43288 1.11045 1.16512 1.50657 1.6694 1.30347 1.13719 0.990647 0.958735 0.948235 1.23485 0.912988 0.886738 1.36952 0.873705 0.829788 0.806567 0.795791 0.904725 0.781061 1.26971 0.771167 1.27097
threshold=1.0000000180025095e-35 1.0000000180025095e-35 281.50000000000006 268.50000000000006 -0.63405362205439475 284.50000000000006 291.50000000000006 0.6078576107927941 1.5000000000000002 9.5000000000000018 1.0000000180025095e-35 0.95642797789208711 268.50000000000006 4.5000000000000009 272.50000000000006 244.50000000000003 279.50000000000006 -0.88144907265856332 265.50000000000006 -0.065403129230143256 -0.47114434510950071 -0.9733555533461492 243.50000000000003 1.5000000000000002 0.41248606129204562 4.5000000000000009 1.0000000180025095e-35 0.72947329433276253 273.50000000000006 19.500000000000004
decision_type=2 2 2 2 2 2 2 2 2 2 2 2 2 2 2 2 2 2 2 2 2 2 2 2 2 2 2 2 2 2
left_child=1 2 3 15 7 14 8 19 9 10 26 -12 22 -10 24 -1 -14 -18 -17 20 -4 -5 -11 -19 25 -3 27 -2 -23 -30
right_child=6 5 4 21 -6 -7 -8 -9 13 12 11 -13 16 -15 -16 18 17 23 -20 -21 -22 28 -24 -25 -26 -27 -28 -29 29 -31
leaf_value=-0.018290895266651928 0.028509595561469255 -0.0094217583511863462 -0.012419759562491889 0.034928272647287685 -0.037455301095399587 -0.025406682665520586 -0.031501926577956647 -0.04280884429247396 0.034435815632540334 0.018725382545594884 0.022795110590934059 0.12707419427987418 0.032717085922229883 0.010635335337223207 0.017867870218878239 -0.038392718199543693 0.032511751469540287 -0.019877918685185174 -0.016607209933349205 -0.014748292536777344 0.038508552087038773 -0.0068982176751018051 -0.022677133831167942 0.019158268689703453 -0.029474934009216597 0.030497310193599466 -0.018620670094566024 -0.01550465678814076 0.0050995526992922416 0.04938860433573862
leaf_weight=52.315995432622913 15.166290895067506 14.214846332033636 10.996129751205446 9.4800113886594755 155.29184405505657 14.952300131320952 5.4473857581615439 11.421156123280523 146.32461288612103 10.847593153388518 8.5437927226739685 1.8714880234620057 106.20431309938431 23.267524518054415 83.974416494369507 104.04287777096033 20.392326503992081 11.501582980155947 23.600135572254658 29.738218128681183 10.15787288546562 43.597635269165039 8.7418069466948491 9.8055960237979871 8.2933278529762884 9.4530897241529583 15.693621286114647 11.542201975680653 52.076584354043007 7.4002520889043799
leaf_count=10809 182 824 37 36 634 50 10 46 1352 1335 195 45 185 508 202 1882 29 25 226 97 30 252 72 21 531 400 259 230 212 24
internal_value=-0.000511989 -0.0158202 -0.0218995 -0.0160058 -0.029822 0.00787296 0.0243082 -0.0107989 0.0250879 0.0204056 0.00745542 0.0415327 0.0244894 0.0311705 0.0121651 -0.0296919 0.0276999 0.0149215 -0.0343648 -0.00361533 0.0120353 0.00587653 0.000249431 -0.00191341 -0.00281842 0.00652211 -0.000915021 0.00948863 0.00320457 0.0106101
internal_weight=1036.36 641.007 510.119 292.513 217.605 130.888 395.35 62.3134 389.903 220.311 52.8174 10.4153 167.493 169.592 115.936 179.959 147.904 41.6995 127.643 50.8922 21.154 112.554 19.5894 21.3072 31.9613 23.6679 42.4021 26.7085 103.074 59.4768
internal_count=20740 16292 14285 13441 844 2007 4448 210 4438 2578 911 240 1667 1860 1957 12917 260 75 2108 164 67 524 1407 46 1755 1224 671 412 488 236
is_linear=0
shrinkage=0.1


Tree=15
num_leaves=31
num_cat=0
split_feature=12 13 3 3 7 3 3 8 14 6 3 3 7 3 3 3 14 13 0 3 8 7 6 7 1 15 6 2 6 0
split_gain=35.2724 8.59795 2.30508 8.2416 3.08962 1.69857 1.52726 1.37254 1.06452 1.07236 0.942195 0.938601 1.07214 1.41979 0.903573 0.871299 1.06619 0.896796 0.941047 0.839035 1.15655 0.913241 0.80231 0.930613 1.79045 0.812564 0.79314 1.5446 1.47127 1.3679
threshold=1.0000000180025095e-35 1.0000000180025095e-35 281.50000000000006 268.50000000000006 -0.63405362205439475 284.50000000000006 291.50000000000006 0.6078576107927941 3.5000000000000004 0.5277851165098012 244.50000000000003 274.50000000000006 0.84874750804349197 255.50000000000003 265.50000000000006 272.50000000000006 3.5000000000000004 1.5000000000000002 22.500000000000004 291.50000000000006 1.0000000180025095e-35 -0.98611507088852035 0.9946518923062071 0.77259657388510627 2.5000000000000004 1.5000000000000002 0.81241147629689026 1.5000000000000002 0.95642797789208711 8.5000000000000018
decision_type=2 2 2 2 2 2 2 2 2 2 2 2 2 2 2 2 2 2 2 2 2 2 2 2 2 2 2 2 2 2
left_child=1 2 3 10 7 15 8 19 9 11 -1 12 -2 -14 -12 16 17 -3 -19 20 21 -4 23 25 -25 26 29 -28 -29 -5
right_child=6 5 4 22 -6 -7 -8 -9 -10 -11 14 -13 13 -15 -16 -17 -18 18 -20 -21 -22 -23 -24 24 -26 -27 27 28 -30 -31
leaf_value=-0.017711873772299141 0.022498882733775313 -0.014465294956949948 0.01588934824293467 0.053983807692151935 -0.036989557543548005 -0.024782629757022938 -0.030920854199667825 -0.042509250616070665 -0.020697094373887392 0.01215836377794762 -0.037951782923596411 0.029851686180848491 0.02598028409060435 -0.035635575614191915 -0.016053736864311632 0.016672032783420568 0.17106487076148066 0.013420125286042417 0.13249888092619053 0.026700635983828477 0.024727260084363527 -0.024968699617709166 -0.036832532418494712 -0.025375106629717467 0.03761397742729216 -0.023056159980283753 -0.037733718099036431 -0.008032009240882829 0.055102510189272973 0.013818262200614285
leaf_weight=51.367787287736974 91.304742597254517 23.520476374222206 6.8068059086799542 10.442106753587721 149.58292345702648 14.577197000384329 5.2784573733806601 10.942547053098677 5.4434302366535112 65.628403974576941 100.12409653142095 222.50640454888344 7.1267204122559615 7.8688647001981735 23.211439646780491 85.488345488905907 0.34924652608060469 7.2798727451772702 0.73022523264808104 7.8048034608364096 8.2419689893722516 27.866342619061477 4.2981986701488486 18.456708490848545 5.9730697721242896 6.0723664760589591 7.5621768683195141 9.1283661723136884 6.1968757808208457 45.102783933281898
leaf_count=10809 2046 1290 20 47 634 50 10 46 403 1067 1882 295 598 29 226 202 33 411 21 16 26 102 23 100 30 22 39 47 31 185
internal_value=-0.000508523 -0.0152905 -0.0212912 -0.0154707 -0.0292248 0.00741191 0.0225178 -0.0103887 0.0232232 0.0238293 -0.0290913 0.0261588 0.0184289 -0.00635236 -0.0338306 0.0114105 -0.00269876 -0.00462344 0.0242757 -0.00345892 -0.00894392 -0.0169477 0.00554392 0.00721596 -0.0099743 0.0121856 0.014914 -0.000751713 0.0174969 0.0213691
internal_weight=1036.28 631.127 499.181 287.936 211.245 131.945 405.157 61.6625 399.879 394.435 174.703 328.807 106.3 14.9956 123.336 117.368 31.8798 31.5306 8.0101 50.7199 42.9151 34.6731 113.233 108.934 24.4298 84.5047 78.4323 22.8874 15.3252 55.5449
internal_count=20740 16292 14285 13441 844 2007 4448 210 4438 4035 12917 2968 2673 627 2108 1957 1755 1722 432 164 148 122 524 501 130 371 349 117 78 232
is_linear=0
shrinkage=0.1


Tree=16
num_leaves=31
num_cat=0
split_feature=12 13 3 3 7 3 3 8 15 1 7 7 6 3 13 7 9 2 3 0 7 6 14 3 3 1 3 1 6 6
split_gain=31.6535 8.00151 2.22575 7.7412 3.01608 1.56322 1.41621 1.3134 1.0639 1.52518 2.17429 1.40874 1.72612 3.11185 1.55037 1.10365 1.21032 1.05411 2.24244 1.04522 2.68797 1.01034 0.991826 0.980635 0.924334 0.918509 0.897148 0.811237 0.811224 1.16345
threshold=1.0000000180025095e-35 1.0000000180025095e-35 281.50000000000006 268.50000000000006 -0.63405362205439475 282.50000000000006 282.50000000000006 0.6078576107927941 1.0000000180025095e-35 1.5000000000000002 0.065403129230142729 0.95642797789208711 0.097964660725097366 275.50000000000006 1.5000000000000002 -0.97335555334614932 0.81174490092936691 1.5000000000000002 279.50000000000006 13.500000000000002 -0.93540483100319616 -0.58216583101416131 3.5000000000000004 273.50000000000006 244.50000000000003 1.5000000000000002 263.50000000000006 2.5000000000000004 -0.065403129230143256 -0.5277851165098012
decision_type=2 2 2 2 2 2 2 2 2 2 2 2 2 2 2 2 2 2 2 2 2 2 2 2 2 2 2 2 2 2
left_child=1 2 3 24 7 8 22 28 11 17 19 14 -13 -14 15 16 -3 18 -10 20 -11 -12 23 -2 -1 -8 -26 -21 29 -4
right_child=6 5 4 -5 -6 -7 25 -9 9 10 21 12 13 -15 -16 -17 -18 -19 -20 27 -22 -23 -24 -25 26 -27 -28 -29 -30 -31
leaf_value=-0.017140997971448465 0.014837907649292329 0.076204909255882677 -0.015176043692852357 0.0052156352118351464 -0.036512162948219476 -0.019711561701980934 -0.018657883910802208 -0.042198788325783776 -0.024266926060367913 0.054117021378511147 0.059729319319014533 0.0092122992147341751 -0.015525757877982311 0.15204339742003814 0.020542829945132346 -0.012233473935404839 -0.049299794125154832 -0.013049517667497424 0.17725781659068182 0.086487129650595476 0.20846683813833031 -0.048643106753183042 -0.020091430734817173 0.026442917472132333 -0.039022247646628282 0.014134548075741072 -0.020168536751868891 -0.048446291409187485 -0.014134888985926268 0.031946017929096918
leaf_weight=50.465977503185968 99.317949776392197 2.8891573443652296 9.2510328143835086 113.91007032245398 144.15099896490574 18.835403099656105 13.422832846641539 10.487135782837866 1.2470086928697148 2.6463769403198962 1.4839110415814505 7.6055795576139626 1.81962760496026 2.8346632719039917 29.541934399916499 48.502426886714602 1.0467873509769563 7.6597072703334561 0.99093049764633168 1.0784959997872645 1.9667984230618443 2.0469115852865798 5.3319249838787064 272.85892206430435 82.963030509650707 23.487947314977646 36.274165026843548 0.75922219324638707 29.224714189767838 12.083563804626463
leaf_count=10809 3602 68 32 524 634 64 33 46 63 47 26 92 48 5 356 868 12 201 2 34 41 58 403 367 1716 43 392 22 97 35
internal_value=-0.000503849 -0.014773 -0.0206894 -0.0149497 -0.0286225 0.00697855 0.0209046 -0.00999247 0.0113837 0.0324064 0.0599882 0.00694915 0.0385653 0.0865311 0.00222106 -0.00810078 0.0428262 0.00459035 0.0649656 0.0945173 0.119923 -0.00309705 0.0227325 0.023346 -0.0284853 0.00220938 -0.0332866 0.0307417 -0.00331216 0.0115131
internal_weight=1036.19 621.766 488.811 283.613 205.197 132.955 414.42 61.0464 114.12 19.8794 9.98172 94.2402 12.2599 4.65429 81.9803 52.4384 3.93594 9.89765 2.23794 6.45089 4.61318 3.53082 377.509 372.177 169.703 36.9108 119.237 1.83772 50.5593 21.3346
internal_count=20740 16292 14285 13441 844 2007 4448 210 1943 494 228 1449 145 53 1304 948 80 266 65 144 88 84 4372 3969 12917 76 2108 56 164 67
is_linear=0
shrinkage=0.1


Tree=17
num_leaves=31
num_cat=0
split_feature=12 13 3 3 7 3 3 8 3 3 14 6 6 6 9 6 7 15 6 6 3 13 13 3 1 0 3 8 7 6
split_gain=28.4483 7.41936 2.14697 7.2734 2.94036 1.4174 1.29108 1.25597 0.905232 0.891881 0.827561 0.888453 0.800647 0.759993 3.01063 2.77054 2.10176 1.30226 1.05954 2.12504 1.87706 1.3065 1.30662 0.834504 0.753469 0.749567 0.747199 1.03463 0.852046 0.744079
threshold=1.0000000180025095e-35 1.0000000180025095e-35 281.50000000000006 268.50000000000006 -0.63405362205439475 284.50000000000006 291.50000000000006 0.6078576107927941 244.50000000000003 265.50000000000006 3.5000000000000004 0.5277851165098012 -0.99465189230620676 0.81241147629689026 -0.56174490092936669 0.72947329433276253 0.097964660725097394 1.5000000000000002 0.41248606129204562 0.065403129230143103 275.50000000000006 1.5000000000000002 2.5000000000000004 281.50000000000006 1.5000000000000002 1.5000000000000002 291.50000000000006 1.0000000180025095e-35 -0.98611507088852035 0.81241147629689026
decision_type=2 2 2 2 2 2 2 2 2 2 2 2 2 2 2 2 2 2 2 2 2 2 2 2 2 2 2 2 2 2
left_child=1 2 3 8 7 12 10 26 -1 -10 11 -2 -3 15 16 18 -15 -17 19 23 -21 -20 -23 -14 -7 -5 27 28 -4 -27
right_child=6 5 4 25 -6 24 -8 -9 9 -11 -12 -13 13 14 -16 17 -18 -19 21 20 -22 22 -24 -25 -26 29 -28 -29 -30 -31
leaf_value=-0.016578810657786713 0.022612075210534793 -0.04270893270719564 0.015165421205737285 -0.021718703915868619 -0.036023289969134793 -0.049658529964259991 -0.030396818693745983 -0.041877260338468947 -0.037048522283677478 -0.014814180487555357 -0.019491378141049665 0.010097318701373023 0.01277835051357009 0.078288675595939744 -0.032841105175832136 0.064705317304645127 -0.04763205879555174 0.20490988501545182 -0.040981681788890348 0.0082172344044426186 0.080891264762990578 0.050225766459397483 -0.048077079987970769 -0.022743429926241378 -0.00287238881238023 0.012396515456475578 0.024871240762975751 0.02284277067792205 -0.024239230092545958 -0.0067796500691565294
leaf_weight=49.60831187804888 344.94311512909553 2.8108328116704788 6.8828215897083203 9.6640558466315252 138.98266203701496 6.1922092437744123 5.1348514556884757 10.053798690438269 92.952161094173789 22.385713659226894 5.2258679125770859 67.891999562049023 56.846623805849049 5.3484633316875287 13.978996225298031 2.1441819822721295 1.7622788898115684 0.95868316010819388 7.712772719209168 6.0596950962299152 8.5949691236019117 4.427368726941495 1.9466201345385341 7.4843609929084769 7.7506050765514374 77.45105105638504 7.9963789582252494 8.4561983644962293 27.066649198532112 27.390629068017006
leaf_count=10809 2968 63 20 55 634 22 10 46 1882 226 403 1067 1027 56 236 59 34 10 140 232 15 50 17 18 28 328 16 26 102 141
internal_value=-0.00050004 -0.0142689 -0.0200893 -0.0144328 -0.0280151 0.00652902 0.0194413 -0.00960497 -0.0278746 -0.0327331 0.0200534 0.020554 0.0100334 0.0112976 -0.00589398 0.0150675 0.0470813 0.108024 0.0119685 0.0164744 0.0508406 -0.0132963 0.020204 0.00864569 -0.0236508 0.00493018 -0.00316755 -0.00845479 -0.0162504 0.00738661
internal_weight=1036.1 612.909 478.89 279.452 199.439 134.019 423.196 60.4558 164.946 115.338 418.061 412.835 120.076 117.265 21.0897 96.1753 7.11074 3.10287 93.0724 78.9856 14.6547 14.0868 6.37399 64.331 13.9428 114.506 50.402 42.4057 33.9495 104.842
internal_count=20740 16292 14285 13441 844 2007 4448 210 12917 2108 4438 4035 1957 1894 326 1568 90 69 1499 1292 247 207 67 1045 50 524 164 148 122 469
is_linear=0
shrinkage=0.1


Tree=18
num_leaves=31
num_cat=0
split_feature=12 13 3 3 7 3 7 7 3 3 3 3 12 15 3 15 6 1 7 6 8 3 6 6 6 6 9 6 7 6
split_gain=25.5943 6.87889 2.06726 6.82675 2.86182 1.28756 1.22507 1.83298 1.92886 1.15674 0.884975 0.8926 0.795006 0.766374 0.742193 0.780673 0.738938 0.736039 0.713492 0.70893 0.739483 0.810293 1.3525 0.98442 0.696302 0.673761 2.68973 2.15826 1.75769 0.944297
threshold=1.0000000180025095e-35 1.0000000180025095e-35 281.50000000000006 268.50000000000006 -0.63405362205439475 284.50000000000006 -0.99465189230620676 -0.98611507088852035 288.50000000000006 291.50000000000006 244.50000000000003 263.50000000000006 2.5000000000000004 2.5000000000000004 242.50000000000003 1.0000000180025095e-35 -0.99465189230620676 1.5000000000000002 -0.91037613702198739 -0.9733555533461492 1.0000000180025095e-35 273.50000000000006 0.35206144883412582 0.72947329433276253 -0.99892946161930163 0.81241147629689026 -0.56174490092936669 0.72947329433276253 0.097964660725097394 0.41248606129204562
decision_type=2 2 2 2 2 2 2 2 2 2 2 2 2 2 2 2 2 2 2 2 2 2 2 2 2 2 2 2 2 2
left_child=1 2 3 10 6 16 -4 -8 -9 12 14 -12 13 24 -1 -16 -3 -7 -10 -5 -21 -22 -23 -24 -2 27 28 29 -27 -18
right_child=9 5 4 19 -6 17 7 8 18 -11 11 -13 -14 -15 15 -17 25 -19 -20 20 21 22 23 -25 -26 26 -28 -29 -30 -31
leaf_value=-0.019692752257523767 0.065729568753706197 -0.042405693371351479 -0.049658530791043543 0.030010371721993341 -0.035523149577941775 -0.049658530018721093 0.04910225275220198 -0.028680949856340843 -0.012883947182895511 -0.029802333918929377 -0.038181567139405091 -0.018867925374792305 0.028452213566416407 0.054620682807322497 0.0040862118172628739 0.11764018295069288 0.015373617240332269 -0.0027378080749268755 0.025519770197017073 0.0088087653365952947 -0.03346096343701959 0.025453050452099481 -0.049658530317858794 -0.00064657564302272213 0.015796386268746694 0.068653923124139121 -0.032279633526674199 0.091576347353744258 -0.047533198410886497 -0.012844159335371584
leaf_weight=44.82976897680237 2.8151957122536251 2.6933125920422745 6.662039339542388 10.065205380320547 134.06515330076218 5.8922232687473279 5.7595691680908194 26.353101119399071 7.5026499927043941 4.9811166226863852 76.886039830744267 34.741925187408924 69.511840521492559 5.2683756609476395 3.2170952204614873 0.74578094854950894 80.322568168498037 7.7283742725849152 13.619904726743696 65.026290662586689 9.7973897457122785 12.135677918791773 6.2880344837904003 11.766538158059118 348.94243158357131 5.7840144200945387 13.527367245102139 3.4642105730217727 1.6803056590106278 13.913741557958927
leaf_count=10686 37 63 22 36 634 22 15 115 20 10 1716 392 874 220 100 23 1292 28 38 305 57 44 28 54 3307 56 236 69 34 207
internal_value=-0.000494456 -0.0137748 -0.0194954 -0.0139275 -0.027404 0.00611805 -0.00923144 -0.00417226 -0.0106353 0.0181085 -0.0272601 -0.0321706 0.018668 0.016763 -0.0160258 0.0254561 0.00938936 -0.0230355 0.0118789 0.00465818 0.00222826 -0.00847268 -0.000363445 -0.0177164 0.016196 0.0105647 -0.00568956 0.014057 0.0424988 0.0112073
internal_weight=1035.99 604.468 469.462 275.5 193.962 135.006 59.8973 53.2352 47.4757 431.519 160.421 111.628 426.538 357.026 48.7926 3.96288 121.386 13.6206 21.1226 115.079 105.014 39.9876 30.1903 18.0546 351.758 118.692 20.9917 97.7005 7.46432 94.2363
internal_count=20740 16292 14285 13441 844 2007 210 188 173 4448 12917 2108 4438 3564 10809 123 1957 50 58 524 488 183 126 82 3344 1894 326 1568 90 1499
is_linear=0
shrinkage=0.1


Tree=19
num_leaves=31
num_cat=0
split_feature=12 13 3 3 7 8 3 3 3 3 1 14 3 6 6 1 12 6 0 3 3 1 7 6 2 6 6 6 3 3
split_gain=23.0448 6.38356 1.98666 6.4001 2.78008 1.18155 1.17193 1.07145 0.863159 0.88328 0.817405 0.756467 0.781432 0.731894 1.01195 0.718473 0.698878 0.6834 0.67971 0.675603 0.65497 0.646494 0.703648 0.64267 1.16913 1.02007 0.875356 0.684121 0.673199 0.626969
threshold=1.0000000180025095e-35 1.0000000180025095e-35 281.50000000000006 268.50000000000006 -0.63405362205439475 0.6078576107927941 284.50000000000006 282.50000000000006 244.50000000000003 263.50000000000006 1.5000000000000002 3.5000000000000004 273.50000000000006 -0.065403129230143256 -0.5277851165098012 1.5000000000000002 3.5000000000000004 -0.99465189230620676 1.5000000000000002 242.50000000000003 273.50000000000006 1.5000000000000002 -0.91037613702198739 0.81241147629689026 5.5000000000000009 0.93540483100319627 0.97335555334614954 0.77259657388510639 274.50000000000006 243.50000000000003
decision_type=2 2 2 2 2 2 2 2 2 2 2 2 2 2 2 2 2 2 2 2 2 2 2 2 2 2 2 2 2 2
left_child=1 2 3 8 5 13 17 11 19 -10 -9 12 16 14 -4 -8 -2 -3 -5 -1 -13 22 -15 27 25 -25 -27 -20 -28 -21
right_child=7 6 4 18 -6 -7 15 10 9 -11 -12 20 -14 21 -16 -17 -18 -19 23 29 -22 -23 -24 24 -26 26 28 -29 -30 -31
leaf_value=-0.019096794802503352 0.0099504896991069007 -0.04209151741710903 -0.014287880402046699 -0.021232855052056989 -0.035011991033916959 -0.04135605519491161 -0.049658530831751022 -0.018894543222941693 -0.037734885407632812 -0.018281455339246442 0.011754141445147734 0.097179644129593304 0.021567008660555432 -0.049658530724511006 0.029719632445811217 -0.0026091718662826159 0.054644704841668057 0.0099110229428483847 0.0088595023655966328 0.06813355915127553 -0.030199816024394695 0.0028804656161895209 -0.006638516124856858 -0.044290708858594298 0.039620222633153034 0.029786972653239693 -0.049658530428345685 0.047363376457031064 0.006063182527934574 -0.011022086848114883
leaf_weight=43.955583236593156 101.11987150801724 2.5814885764229976 9.0187377780675906 9.4988786652684194 129.38633216917515 9.422651454806326 5.6067702919244748 13.526091128587721 74.005747316405177 34.092562444508076 24.398359745740891 0.44094876976669084 291.53810837864876 7.3176564872264844 12.422481566667555 7.7072444260120392 3.6240251314520711 119.99460426253427 73.972670033574104 1.7743851467967022 4.7742847502231598 13.280006125569342 7.9137599915266073 8.1031103283166939 4.5650921165943137 5.8756577670574179 4.0969691574573499 4.9215008467435828 4.6054424792528152 2.2947664372622967
leaf_count=10686 3347 63 32 55 634 46 22 33 1716 392 43 395 367 25 35 28 255 1894 308 52 8 44 28 44 22 28 27 20 20 71
internal_value=-0.000487268 -0.0132902 -0.01891 -0.0134361 -0.0267909 -0.00887605 0.00575522 0.0168897 -0.0266435 -0.0315996 0.000823017 0.0184073 0.0189053 -0.00274929 0.0112089 -0.0224225 0.0114969 0.00881583 0.00439506 -0.015488 -0.0194299 -0.0132462 -0.0273067 0.00668859 -0.00655247 -0.0158457 -3.48312e-05 0.0112614 -0.0201698 0.0234943
internal_weight=1035.84 596.414 460.524 271.762 188.762 59.3753 135.89 439.422 156.123 108.098 37.9245 401.497 396.282 49.9526 21.4412 13.314 104.744 122.576 115.639 48.0247 5.21523 28.5114 15.2314 106.14 27.2463 22.6812 14.5781 78.8942 8.70241 4.06915
internal_count=20740 16292 14285 13441 844 210 2007 4448 12917 2108 76 4372 3969 164 67 50 3602 1957 524 10809 403 97 53 469 141 119 75 328 47 123
is_linear=0
shrinkage=0.1


Tree=20
num_leaves=31
num_cat=0
split_feature=12 13 3 3 7 7 7 3 3 3 3 3 3 0 2 7 6 6 7 6 7 1 6 3 14 1 7 8 6 3
split_gain=20.7598 5.92657 1.90551 6.00658 2.69733 1.15278 1.56552 1.74698 1.14096 1.06838 0.99216 0.875442 0.963264 1.00379 1.35845 1.25841 0.969756 0.879022 0.776304 1.04212 0.832758 0.700806 0.668794 0.847934 0.71799 0.655547 1.36033 1.00264 0.633107 0.61582
threshold=1.0000000180025095e-35 1.0000000180025095e-35 281.50000000000006 266.50000000000006 -0.63405362205439475 -0.99465189230620676 -0.98611507088852035 288.50000000000006 244.50000000000003 284.50000000000006 291.50000000000006 273.50000000000006 279.50000000000006 2.5000000000000004 2.5000000000000004 -0.25881904510252068 -0.72947329433276231 1.0000000180025095e-35 0.97335555334614943 0.81241147629689026 -0.95642797789208689 1.5000000000000002 0.63405362205439475 287.50000000000006 3.5000000000000004 2.5000000000000004 0.65934581510006873 1.0000000180025095e-35 -0.99465189230620676 242.50000000000003
decision_type=2 2 2 2 2 2 2 2 2 2 2 2 2 2 2 2 2 2 2 2 2 2 2 2 2 2 2 2 2 2
left_child=1 2 3 8 5 -4 -7 -8 29 28 22 18 13 -13 -15 17 -17 -16 19 20 -5 -11 24 -24 -2 26 -22 -27 -3 -1
right_child=10 9 4 11 -6 6 7 -9 -10 21 -12 12 -14 14 15 16 -18 -19 -20 -21 25 -23 23 -25 -26 27 -28 -29 -30 -31
leaf_value=-0.018507555269145135 0.018251377314910881 -0.041766212271466652 -0.049658530679491969 -0.041053304381181051 -0.034490103842252692 0.043990343567666589 -0.027785293090011709 0.011033835463664666 -0.034133951174009323 -0.049658529503225385 -0.029240024202440332 -0.014018932364525578 -0.0067971027980881548 0.061123394735492109 -0.034461810067793495 0.0038717191901048603 0.054184099841851741 0.015669232640583879 -0.04365266499407075 -0.027068052678388972 0.017714247136588986 -0.0024862520330974783 0.0087900464064804545 -0.049658530615830393 -0.019533902111986141 0.057062421864108898 -0.027122191993447793 -0.0066024396403586306 0.0093235438465023319 0.021740502054907688
leaf_weight=43.124136733896194 380.59558593379916 2.4750848486874011 6.1071535944938651 3.6375139355659476 124.93464501202106 6.0739604830741873 25.274004966020584 21.41666567325592 90.260292556136847 5.3351464420557004 4.8439406156539908 7.9274650365114203 22.589806005358696 8.2145708799362165 6.2559042721986753 6.3066199421882656 9.7594694346189517 7.9333113580942154 5.093339078128337 13.557948745787142 18.511960394680504 7.68716099858284 53.79272008478074 2.6021374762058249 5.0962418677227097 5.9902304261922819 10.665305785834787 4.2137650176882744 121.18978674588288 4.1691061779856673
leaf_count=10686 3124 63 22 23 634 15 115 58 1961 22 10 36 81 33 22 18 37 31 38 101 114 28 1014 6 294 30 75 32 1894 123
internal_value=-0.000477733 -0.0128139 -0.0183313 -0.0129565 -0.0261744 -0.00852725 -0.00376658 -0.00997925 -0.0275415 0.00543208 0.0157716 0.00239838 0.0101376 0.0183828 0.0250598 0.0152682 0.0344344 -0.00643312 -0.00625915 -0.00289279 0.00472638 -0.0218124 0.0162648 0.00609315 0.0177521 0.00895489 0.00132497 0.0307719 0.00830101 -0.0149595
internal_weight=1035.63 588.704 452.017 268.211 183.806 58.8718 52.7646 46.6907 137.554 136.687 446.931 130.657 68.9871 46.3973 38.4699 30.2553 16.0661 14.1892 61.6701 56.5767 43.0188 13.0223 442.087 56.3949 385.692 39.3813 29.1773 10.204 123.665 47.2932
internal_count=20740 16292 14285 13441 844 210 188 173 12770 2007 4448 671 258 177 141 108 55 53 413 375 274 50 4438 1020 3418 251 189 62 1957 10809
is_linear=0
shrinkage=0.1


Tree=21
num_leaves=31
num_cat=0
split_feature=12 13 3 3 7 3 3 14 15 3 9 2 1 7 0 7 2 1 6 3 15 7 13 6 3 1 7 7 2 2
split_gain=18.7186 5.49961 1.8287 5.25876 2.59026 2.16798 1.11449 1.0348 1.28785 0.984536 0.93485 3.20075 0.963131 0.993033 0.914044 0.896606 1.43302 1.32843 0.9964 0.894532 0.760835 1.01791 1.21665 1.09547 1.36285 0.994112 1.32045 0.864298 0.824372 0.821796
threshold=1.0000000180025095e-35 1.0000000180025095e-35 282.50000000000006 266.50000000000006 -0.19509032201612828 291.50000000000006 244.50000000000003 2.5000000000000004 1.5000000000000002 282.50000000000006 -0.56174490092936669 3.5000000000000004 1.5000000000000002 -0.98611507088852035 12.500000000000002 0.77259657388510627 5.5000000000000009 2.5000000000000004 0.9946518923062071 291.50000000000006 1.0000000180025095e-35 0.95642797789208711 1.5000000000000002 0.097964660725097366 277.50000000000006 1.5000000000000002 0.81241147629689026 -0.97335555334614932 1.5000000000000002 1.5000000000000002
decision_type=2 2 2 2 2 2 2 2 2 2 2 2 2 2 2 2 2 2 2 2 2 2 2 2 2 2 2 2 2 2
left_child=1 2 3 6 5 10 -1 8 15 20 11 -4 -12 -14 -13 18 17 -17 -5 -2 21 22 27 -23 -25 29 -27 28 -3 -22
right_child=19 9 4 7 -6 -7 -8 -9 -10 -11 12 14 13 -15 -16 16 -18 -19 -20 -21 25 23 -24 24 -26 26 -28 -29 -30 -31
leaf_value=-0.014438849244282383 0.015199658531326963 -0.023322467362265436 0.057491425464650303 0.0081867004797490702 -0.037571435965914488 0.031201678823197944 -0.03359488803882768 0.045901739977992621 -0.037774397583893699 -0.017140876171929907 -0.040503561435167638 -0.043503083776175455 0.027699018873031819 -0.023136726681077167 0.006909046931256782 -0.038655748675253648 0.04202206748452203 0.017419355634556124 -0.038283422049959465 -0.028634173220619692 0.052293152403708791 0.0063099977340484829 0.016088454844150456 0.010118275311214276 0.10938493139136161 0.057669652667877519 -0.048368884836673481 -0.012501941367646298 0.06706118985312709 -0.013481802046461329
leaf_weight=46.594091782768373 449.34713661161368 1.5908062319576846 6.4163228422403344 96.245792545378208 89.828308463096619 9.8223035633563978 87.231341361999512 4.8996459841728202 8.8437066078186017 17.34636889398098 24.867532655596733 10.452413246035574 4.9359426945447948 17.34757100045681 5.4834957122802743 16.691742599010475 3.7920384109020224 5.6563583984971038 4.8464320302009574 4.7043542563915244 2.5161123515536037 7.999973933092404 31.543408076457126 2.5453791151849146 3.0288031101226807 10.181399261149634 1.3274572396803694 48.852871709908868 2.7597670407358237 7.7512348660311545
leaf_count=10809 4438 25 21 481 464 22 1961 15 40 64 117 44 14 82 25 108 20 32 30 10 65 92 356 49 4 191 37 868 55 201
internal_value=-0.000468953 -0.0123509 -0.0177624 -0.0127271 -0.0259428 -0.0127744 -0.0269253 0.000751063 -0.000874662 0.0051289 -0.0189892 -0.00214488 -0.0269744 -0.0118763 -0.0261564 0.00169018 -0.0148183 -0.024463 0.00595889 0.0147455 0.00834545 0.00459964 0.000527461 0.0300232 0.0640561 0.0252581 0.0454389 -0.00869838 0.034012 0.00263698
internal_weight=1035.45 581.399 443.955 274.801 169.154 79.3256 133.825 140.976 136.076 137.444 69.5033 22.3522 47.151 22.2835 15.9359 127.232 26.1401 22.3481 101.092 454.051 120.097 98.321 84.7469 13.5742 5.57418 21.7762 11.5089 53.2034 4.35057 10.2673
internal_count=20740 16292 14285 13496 789 325 12770 726 711 2007 303 90 213 96 69 671 160 140 511 4448 1943 1449 1304 145 53 494 228 948 80 266
is_linear=0
shrinkage=0.1


Tree=22
num_leaves=31
num_cat=0
split_feature=12 13 3 3 7 7 7 3 3 3 3 3 3 0 6 9 1 15 7 7 6 7 1 6 9 7 3 6 7 7
split_gain=16.8937 5.09231 1.75509 5.30131 2.54015 1.12955 1.28925 1.52649 1.087 0.898663 0.812456 0.776271 0.812395 0.899277 1.27656 1.00752 1.39595 0.753687 0.917783 0.724744 0.96035 0.779017 0.694884 0.645983 0.613392 0.652885 0.743918 0.592368 0.575858 0.747784
threshold=1.0000000180025095e-35 1.0000000180025095e-35 281.50000000000006 266.50000000000006 -0.63405362205439475 -0.99465189230620676 -0.98611507088852035 288.50000000000006 244.50000000000003 284.50000000000006 282.50000000000006 273.50000000000006 279.50000000000006 16.500000000000004 0.68322629814330826 -0.56174490092936669 1.5000000000000002 1.0000000180025095e-35 -0.88144907265856332 0.97335555334614943 0.81241147629689026 -0.95642797789208689 1.5000000000000002 -0.99892946161930163 1.0000000180025095e-35 0.93540483100319638 274.50000000000006 0.35206144883412582 0.81241147629689026 0.72947329433276265
decision_type=2 2 2 2 2 2 2 2 2 2 2 2 2 2 2 2 2 2 2 2 2 2 2 2 2 2 2 2 2 2
left_child=1 2 3 8 5 -4 -7 -8 -1 -3 23 19 13 14 -13 -16 -17 18 -12 20 21 -5 -11 -2 25 -25 -27 -14 29 -26
right_child=10 9 4 11 -6 6 7 -9 -10 22 17 12 27 -15 15 16 -18 -19 -20 -21 -22 -23 -24 24 28 26 -28 -29 -30 -31
leaf_value=-0.013926628439115419 0.052896563794382623 0.0073718561872223726 -0.049658530314168413 -0.040765780548815134 -0.033444172323805296 0.038741108150556806 -0.02652084700064751 0.01009343743291731 -0.033046064570194843 -0.049658530230800239 0.01036088775469389 -0.0075889052359579649 0.0092331883736135444 0.042342638403212 -0.0069097756156595892 0.012795833159316275 0.082368523309310535 0.021016757720637737 -0.026692174913644624 -0.043299520742511588 -0.026472050918923681 0.008314021402313505 -0.0015512503006226048 0.015413024139444998 0.010825379081400292 -0.0050608780504231565 0.034672055111889102 -0.023355970057685339 -0.0037695561685591353 0.053272272070459606
leaf_weight=45.926160383633032 4.4674120159470467 125.67965287013976 5.8079496920108786 3.5199045017361632 116.87554751336575 6.4346367269754401 23.892811819911003 21.753728657960892 84.349492942914367 4.9904043078422529 12.577722758054732 20.133746340870857 11.668744012713434 10.666744917631148 5.1676344275474575 6.0048361122608167 5.5490593016147614 11.770596593618391 14.268134564161302 4.8104829490184775 13.209445744752882 39.816609613597393 7.5377551317214966 236.1228836148839 110.18631722197097 5.4584845432545981 34.466200768947601 10.684851393103598 27.1702447413154 4.3127920902916221
leaf_count=10809 42 1957 22 23 634 15 115 58 1961 22 18 80 36 31 22 24 20 24 34 38 101 251 28 2402 1224 284 31 45 322 67
internal_value=-0.000460917 -0.0119016 -0.0172008 -0.0120157 -0.0249594 -0.00782905 -0.00316434 -0.00907161 -0.0263059 0.00482594 0.0138022 0.00217035 0.00937734 0.0167725 0.00937191 0.0297938 0.0462099 -8.16075e-05 -0.00933221 -0.00603732 -0.00286734 0.00432763 -0.0207141 0.0150721 0.0146676 0.0174128 0.0292398 -0.00634419 0.00931847 0.0124242
internal_weight=1035.28 574.48 436.272 261.508 174.765 57.8891 52.0812 45.6465 130.276 138.208 460.801 131.232 69.8756 47.522 36.8553 16.7215 11.5539 38.6165 26.8459 61.3564 56.546 43.3365 12.5282 422.184 417.717 276.048 39.9247 22.3536 141.669 114.499
internal_count=20740 16292 14285 13441 844 210 188 173 12770 2007 4448 671 258 177 146 66 44 76 52 413 375 274 50 4372 4330 2717 315 81 1613 1291
is_linear=0
shrinkage=0.1


Tree=23
num_leaves=31
num_cat=0
split_feature=12 13 3 3 7 3 3 7 8 3 9 2 1 0 7 3 3 6 8 15 3 14 7 8 1 9 6 3 6 1
split_gain=15.2451 4.71858 1.67765 4.66181 2.49479 1.92628 1.2135 1.12414 1.55459 0.895492 0.877827 2.81218 0.942021 0.902885 0.828608 0.821225 0.76705 0.764039 1.4163 0.691378 0.665938 1.76823 1.08738 0.927179 1.42853 0.705701 1.18858 0.932306 0.871962 1.17745
threshold=1.0000000180025095e-35 1.0000000180025095e-35 282.50000000000006 265.50000000000006 -0.19509032201612828 291.50000000000006 244.50000000000003 -0.93540483100319616 1.0000000180025095e-35 274.50000000000006 -0.56174490092936669 3.5000000000000004 1.5000000000000002 12.500000000000002 -0.98611507088852035 282.50000000000006 291.50000000000006 -0.83146961230254501 0.6078576107927941 1.0000000180025095e-35 279.50000000000006 1.0000000180025095e-35 -0.72947329433276242 -0.8783796973249266 1.5000000000000002 -0.56174490092936669 0.41248606129204562 274.50000000000006 0.22695468355932452 1.0000000180025095e-35
decision_type=2 2 2 2 2 2 2 2 2 2 2 2 2 2 2 2 2 2 2 2 2 2 2 2 2 2 2 2 2 2
left_child=1 2 3 6 5 10 -1 9 -9 -5 11 -4 -12 -13 -14 20 -2 18 -10 -19 22 -22 23 24 -3 27 28 -24 -27 -30
right_child=16 15 4 7 -6 -7 -8 8 17 -11 12 13 14 -15 -16 -17 -18 19 -20 -21 21 -23 25 -25 -26 26 -28 -29 29 -31
leaf_value=-0.013425522268524691 0.01332976213500593 -0.016538121101506428 0.052250236464247514 0.00014677844438979205 -0.03668185052904329 0.028951690864347613 -0.034130478926116613 0.008120467404754441 -0.042309961568004983 0.056392314239206653 -0.039876852255225428 -0.043168151435918845 0.023945712489671141 0.0076009020698486283 -0.021857756980181095 -0.016146357366674847 -0.027925826417512289 -0.013606455361986623 0.025354259873474075 -0.043533233130295584 0.039155112603897924 -0.0088320350287333111 -0.023600432982760704 0.01072594986043853 0.093951762009244266 -0.004311036375192397 -0.033861532616811671 0.028291385868613413 0.13126804814806006 -0.0057543264361642581
leaf_weight=45.290996882491527 462.68664017934134 1.7424073888760201 6.7463155835866937 5.2758694961667043 83.670340120792389 10.10343825817108 75.484519980847836 69.140794940292835 4.3023638352751723 6.1074676364660263 23.274277031421661 9.9130217880010587 5.1876414418220547 5.4172396212816247 16.549498870968819 16.831592217087746 4.5510227382183066 42.021906584501266 11.008529625833033 9.4568844586610776 19.065296351909641 12.856991112232206 4.8354549244941181 20.353349074412108 3.5629172982044111 30.270086119729967 14.646899714050958 12.191817849874495 1.1543753729056325 1.3730928678451164
leaf_count=10809 4438 40 21 36 464 22 1882 308 34 17 117 44 14 25 82 64 10 303 57 50 30 23 364 404 53 590 367 28 15 29
internal_value=-0.000451034 -0.0114598 -0.0166468 -0.0118025 -0.0247203 -0.0117547 -0.0263661 0.000137574 -0.00239036 0.030324 -0.0178851 -0.00155161 -0.0258961 -0.0252279 -0.0109266 0.00456057 0.0129279 -0.0132712 0.0063406 -0.0191041 0.00741614 0.0198279 0.00302017 0.0204311 0.057664 -0.00390909 -0.0101768 0.013555 0.000400516 0.0568282
internal_weight=1035.07 567.835 428.951 268.089 160.862 77.1914 120.776 147.314 135.93 11.3833 67.088 22.0766 45.0114 15.3303 21.7371 138.884 467.238 66.7897 15.3109 51.4788 122.053 31.9223 90.1304 25.6587 5.30532 64.4717 47.4445 17.0273 32.7976 2.52747
internal_count=20740 16292 14285 13496 789 325 12691 805 752 53 303 90 213 69 96 2007 4448 444 91 353 1943 53 1890 497 93 1393 1001 392 634 44
is_linear=0
shrinkage=0.1


Tree=24
num_leaves=31
num_cat=0
split_feature=12 13 3 3 7 3 3 7 8 9 8 1 6 13 7 3 7 7 7 13 7 6 3 15 15 6 3 3 9 3
split_gain=13.7732 4.36215 1.60086 4.37636 2.42559 1.74196 1.18233 0.984627 1.41637 0.82869 2.47498 0.920115 0.868179 0.771313 1.10457 2.41533 0.964247 1.28399 0.823308 0.812403 0.766763 0.759525 1.18419 0.740889 0.721014 0.969796 0.701091 0.694704 0.668366 0.636767
threshold=1.0000000180025095e-35 1.0000000180025095e-35 282.50000000000006 265.50000000000006 -0.19509032201612828 291.50000000000006 244.50000000000003 -0.93540483100319616 1.0000000180025095e-35 -0.56174490092936669 1.0000000180025095e-35 1.5000000000000002 -0.19509032201612828 1.5000000000000002 0.95642797789208711 277.50000000000006 -0.097964660725097477 -0.2269546835593246 -0.84874750804349175 2.5000000000000004 -0.77259657388510627 0.77259657388510639 277.50000000000006 1.0000000180025095e-35 1.0000000180025095e-35 -0.60876142900872077 279.50000000000006 291.50000000000006 -0.56174490092936669 286.50000000000006
decision_type=2 2 2 2 2 2 2 2 2 2 2 2 2 2 2 2 2 2 2 2 2 2 2 2 2 2 2 2 2 2
left_child=1 2 3 6 5 9 -1 23 -9 10 12 -11 -4 14 18 28 17 19 -3 26 29 22 -18 -5 25 -10 -15 -2 -16 -13
right_child=27 13 4 7 -6 -7 -8 8 24 11 -12 20 -14 16 15 -17 21 -19 -20 -21 -22 -23 -24 -25 -26 -27 -28 -29 -30 -31
leaf_value=-0.01293579514123352 0.012495714330157975 0.012595273232408059 0.0071673290099637703 0.0071599318256332341 -0.036197003696288636 0.026708423744528361 -0.033591351130034683 0.007653174463850128 0.015933654491372764 -0.039478908314337202 0.047062199060342959 0.027163151631451207 -0.042881838111533961 0.012430857337931296 0.049218439864447017 0.077533890949289863 0.033147199449360232 0.089004458965091821 -0.011123639947207234 -0.035057636684021447 -0.032716772160160959 -0.04926835765273118 -0.016992436212004441 0.058330065039913198 -0.032227891558997739 -0.01537815971076862 0.050230687281899757 -0.027310368610463077 -0.032258348744457668 -0.018053837902204949
leaf_weight=44.68700516059107 468.89543195577062 19.356010670197065 5.4585724472999599 6.9796048030257207 80.656766951084137 10.400225311517714 72.951666820794344 69.704536601901054 13.408415742218493 22.364433616399765 7.1081835925579062 6.5145796835422534 9.4941999167203885 14.125456060439328 1.2760022811417 5.2713326811790466 8.704953670208857 2.9746896100696167 59.991878410321078 2.4623394376503702 9.0233578383922559 2.8597070684900237 10.264906495809553 4.75881727039814 14.802592344582079 37.7123688980937 7.5184378474950782 4.4256898462772361 4.7723516871810698 5.9671135544776917
leaf_count=10809 4438 299 25 40 464 22 1882 308 91 117 21 22 44 178 34 10 196 25 1045 48 49 47 19 13 78 275 11 10 95 25
internal_value=-0.000442407 -0.0110336 -0.0161024 -0.0113619 -0.0241048 -0.0113272 -0.025745 0.000119827 -0.00228491 -0.0173272 -0.00151755 -0.0252775 -0.0246112 0.00429106 -0.0011688 0.0280539 0.0144123 0.0270185 -0.00533768 0.0193694 -0.0105086 -0.0012265 0.00601581 0.0279046 -0.012793 -0.00716542 0.0255614 0.0121235 -0.0150694 0.0055463
internal_weight=1034.89 561.571 421.992 265.005 156.987 76.3307 117.639 147.366 135.628 65.9304 22.061 43.8695 14.9528 139.578 90.6676 11.3197 48.9105 27.0809 79.3479 24.1062 21.5051 21.8296 18.9699 11.7384 65.9234 51.1208 21.6439 473.321 6.04835 12.4817
internal_count=20740 16292 14285 13496 789 325 12691 805 752 303 90 213 69 2007 1483 139 524 262 1344 237 96 262 215 53 444 366 189 4448 129 47
is_linear=0
shrinkage=0.1


Tree=25
num_leaves=31
num_cat=0
split_feature=12 13 3 3 7 3 3 3 9 2 7 1 0 7 6 3 6 0 7 3 1 1 3 15 15 7 6 13 3 7
split_gain=12.4482 4.02945 1.52666 4.37339 2.34749 1.5669 1.001 0.755819 0.749666 1.35733 0.923301 0.897134 0.834408 0.719646 0.715167 0.657151 0.94861 0.908778 0.74402 0.645378 0.711339 0.618904 0.594501 0.585341 0.579064 0.767168 1.04293 0.947659 0.788906 0.745114
threshold=1.0000000180025095e-35 1.0000000180025095e-35 281.50000000000006 266.50000000000006 -0.19509032201612828 291.50000000000006 244.50000000000003 282.50000000000006 -0.56174490092936669 3.5000000000000004 -0.93540483100319616 1.5000000000000002 12.500000000000002 -0.77259657388510627 0.9946518923062071 273.50000000000006 0.95642797789208711 19.500000000000004 0.97335555334614943 282.50000000000006 1.5000000000000002 1.5000000000000002 242.50000000000003 1.0000000180025095e-35 1.0000000180025095e-35 0.95642797789208711 0.22695468355932452 1.5000000000000002 279.50000000000006 0.65934581510006873
decision_type=2 2 2 2 2 2 2 2 2 2 2 2 2 2 2 2 2 2 2 2 2 2 2 2 2 2 2 2 2 2
left_child=1 2 3 6 5 8 22 24 9 10 -4 -10 -11 -13 15 18 17 -17 -5 -2 -21 -9 -1 -24 25 27 28 -3 -27 -26
right_child=19 7 4 14 -6 -7 -8 21 11 12 -12 13 -14 -15 -16 16 -18 -19 -20 20 -22 -23 23 -25 29 26 -28 -29 -30 -31
leaf_value=-0.016140621122745249 0.012475246277538873 -0.0084414091655819219 -0.012380323978463136 -0.0011921988149637876 -0.034996332243738132 0.024695778016154385 -0.031367520138066374 -0.039821044233055811 -0.039068989452593524 -0.042584921189339313 0.043471298149584843 0.0052269725865800509 0.0067614946563368042 -0.032153326096452085 -0.037367226242495021 0.0012378824486739943 0.046014983431557313 0.036425952135723187 -0.043024202117889522 -0.019289536220379086 0.0089484009247829642 -0.00042976116718849403 0.0045428892302423604 0.098199658467005443 0.027919902037064976 -0.0040965949453184844 0.088837521784733059 0.013151324530553649 0.049671459921109606 -0.02577332241781214
leaf_weight=40.078839714611604 439.82941245662005 52.871738856239972 4.9408709704875946 54.591560073196888 82.286080658435822 10.681741684675215 76.608838994055986 6.572997227311137 21.498711496591568 9.0956768691539747 7.3822609931230545 12.554312393069269 5.4978363066911706 8.7329197078943235 4.4851778596639624 53.182049781084061 6.5879216194152823 8.514586463570593 4.6108525544404975 13.702017366886137 25.566403567790985 10.144504144787787 3.1899893730878821 0.84383689984679211 20.115978589983573 8.3306770626440976 2.1585973518776873 33.018448950808306 4.0581275820732108 2.9655644685280995
leaf_count=10686 4372 948 12 358 498 22 1961 28 117 44 30 47 25 49 29 198 24 24 38 33 43 36 100 23 370 120 20 356 5 124
internal_value=-0.000433223 -0.0106186 -0.0155669 -0.0107027 -0.0231231 -0.0109689 -0.0244577 0.00403771 -0.0164344 -0.00335919 0.021078 -0.0246601 -0.0239946 -0.010108 0.00187969 0.00326046 0.00994556 0.00609409 -0.00445019 0.0113786 -0.000904725 -0.0159176 -0.0124577 0.024135 0.00673854 0.00345622 0.0246924 -0.000140594 0.0135159 0.0210213
internal_weight=1034.7 555.601 415.364 252.694 162.67 80.3843 120.722 140.237 69.7026 26.9166 12.3231 42.7859 14.5935 21.2872 131.972 127.487 68.2846 61.6966 59.2024 479.098 39.2684 16.7175 44.1127 4.03383 123.519 100.438 14.5474 85.8902 12.3888 23.0815
internal_count=20740 16292 14285 13441 844 346 12770 2007 324 111 42 213 69 96 671 642 246 222 396 4448 76 64 10809 123 1943 1449 145 1304 125 494
is_linear=0
shrinkage=0.1


Tree=26
num_leaves=31
num_cat=0
split_feature=12 13 3 3 7 3 3 9 2 1 6 7 6 8 7 6 1 3 7 12 2 6 15 15 7 3 3 7 0 3
split_gain=11.2521 3.72272 1.45106 4.10639 2.27334 1.41988 1.12014 0.707568 1.23347 0.873766 0.817068 0.790342 0.70421 0.704939 1.14315 1.15328 0.800738 0.690031 0.686607 0.608478 0.764293 0.758239 0.991276 1.74408 0.836186 0.869053 0.768127 0.573532 0.555455 0.623771
threshold=1.0000000180025095e-35 1.0000000180025095e-35 281.50000000000006 265.50000000000006 -0.19509032201612828 291.50000000000006 244.50000000000003 -0.56174490092936669 3.5000000000000004 1.5000000000000002 0.16280825711808991 -0.93540483100319616 0.9946518923062071 1.0000000180025095e-35 -0.97335555334614932 -0.60876142900872077 2.5000000000000004 284.50000000000006 -0.98611507088852035 1.5000000000000002 4.5000000000000009 0.81241147629689026 1.0000000180025095e-35 1.5000000000000002 0.99465189230620699 268.50000000000006 243.50000000000003 0.65934581510006873 1.5000000000000002 278.50000000000006
decision_type=2 2 2 2 2 2 2 2 2 2 2 2 2 2 2 2 2 2 2 2 2 2 2 2 2 2 2 2 2 2
left_child=1 2 3 6 5 7 -1 8 11 -9 -10 -4 13 28 -15 16 -16 -3 -11 21 -21 24 -23 -24 25 26 -2 -22 -5 -30
right_child=19 17 4 12 -6 -7 -8 9 10 18 -12 -13 -14 14 15 -17 -18 -19 -20 20 27 22 23 -25 -26 -27 -28 -29 29 -31
leaf_value=-0.011996542704557751 0.0080905263177344731 0.0059370604356333914 -0.011915938119246069 -0.019320534365380837 -0.034474124709263247 0.0228820287792879 -0.032513000224543995 -0.038647078618027755 -0.0015628855885563252 0.021035057509797811 -0.049658530374282354 0.039509558604899304 -0.037504862023412217 0.050668134091355413 0.024104787364898045 -0.017728339509899934 -0.029304150451021138 -0.019217976271075486 -0.020307643573884312 0.017044595220534978 0.0072576078212819783 -0.020745605942236383 0.062808948985250204 -0.049459902767116447 -0.022186572713980276 0.012491387645111998 -0.025501423608763691 -0.026305652209536075 0.0089746221423889303 0.043539548211948373
leaf_weight=43.572555666364678 15.864894975256904 128.9231584470599 4.8800785392522812 6.2044039145112029 79.456176578998566 10.948819875717161 68.363445052877069 20.674974590539932 7.787136048078537 5.401231303811076 6.4644696190953255 7.7102549374103546 4.5359711572527877 3.4463678225874892 13.660782329738142 40.972206622362137 3.5331491976976386 11.91242767870426 15.675467476248739 184.47520244967745 21.92766507292254 18.518183823598523 4.1503202696549115 2.0757911675391369 8.1950012715315079 210.82646355032921 11.922776296734808 6.6309160888849865 60.049002006649971 5.7181746661663047
leaf_count=10809 1706 1957 12 37 498 22 1882 117 33 14 36 30 32 19 80 285 23 50 82 1352 383 296 40 62 82 316 85 126 257 17
internal_value=-0.000422703 -0.0102132 -0.0150411 -0.0102918 -0.0225103 -0.0105594 -0.0245267 -0.0158973 -0.00323033 -0.0240408 -0.0233789 0.0195768 0.00124455 0.00256032 -0.00529103 -0.00860664 0.0131299 0.00380935 -0.00971293 0.0106872 0.0146879 0.00754858 -0.00913997 0.0253784 0.00922172 0.0103004 -0.00632268 -0.000535327 0.0092816 0.0119799
internal_weight=1034.48 549.89 409.055 250.056 158.999 79.5424 111.936 68.5936 26.8419 41.7517 14.2516 12.5903 138.12 133.584 61.6125 58.1661 17.1939 140.836 21.0767 484.587 213.034 271.553 24.7443 6.22611 246.809 238.614 27.7877 28.5586 71.9716 65.7672
internal_count=20740 16292 14285 13441 844 346 12691 324 111 213 69 42 750 718 407 388 103 2007 96 4448 1861 2587 398 102 2189 2107 1791 509 311 274
is_linear=0
shrinkage=0.1


Tree=27
num_leaves=31
num_cat=0
split_feature=12 13 3 3 7 3 3 3 6 7 0 1 9 2 1 6 7 3 0 1 1 11 3 1 7 1 3 3 6 13
split_gain=10.1683 3.44042 1.37686 3.83739 2.19819 1.28783 1.08596 0.675424 0.832447 1.08997 0.880342 0.8559 0.667055 1.12196 0.84977 0.796892 0.657868 0.6332 0.633191 0.939124 0.94079 1.97305 0.914893 1.48495 0.652658 0.600132 0.594381 0.5531 0.550265 0.559022
threshold=1.0000000180025095e-35 1.0000000180025095e-35 281.50000000000006 265.50000000000006 -0.19509032201612828 291.50000000000006 244.50000000000003 273.50000000000006 0.81241147629689026 0.77259657388510627 7.5000000000000009 2.5000000000000004 -0.56174490092936669 3.5000000000000004 1.5000000000000002 0.16280825711808991 -0.77259657388510627 282.50000000000006 19.500000000000004 2.5000000000000004 1.5000000000000002 1.0000000180025095e-35 276.50000000000006 1.0000000180025095e-35 -0.58216583101416164 1.5000000000000002 291.50000000000006 286.50000000000006 -0.99465189230620676 3.5000000000000004
decision_type=2 2 2 2 2 2 2 2 2 2 2 2 2 2 2 2 2 2 2 2 2 2 2 2 2 2 2 2 2 2
left_child=1 2 3 6 5 12 -1 8 9 10 -5 -11 13 -4 -14 -15 27 28 19 20 22 -22 -9 -24 -21 -19 -2 -16 -3 -30
right_child=26 17 4 7 -6 -7 -8 18 -10 11 -12 -13 14 15 16 -17 -18 25 -20 24 21 -23 23 -25 -26 -27 -28 -29 29 -31
leaf_value=-0.011542008167775588 0.010369906826983903 -0.041490324966549169 0.018213325133769175 0.056804495756252342 -0.033941527751422625 0.021241002132948841 -0.031946386354051622 0.029445683549972845 -0.027760432256070347 -0.035365044063482731 0.0042648629597283562 0.016119073346327881 -0.038213188038889762 -0.001487658307089126 0.024601223608750319 -0.049658530740659804 -0.031210469957225484 -0.039299082744969016 0.03290902982142016 0.014921279088432694 0.057526404546980575 -0.015583378314217369 0.013957703601640179 -0.038361749496565345 -0.028934470508176876 0.00020663042449974934 -0.026832251710970659 -0.017423743926078789 0.007871799400555976 -0.042089426362307995
leaf_weight=43.052958564296205 485.50058673847525 2.3914867408038836 12.84325447678566 3.5344467759132376 76.763671964406967 11.202239304780958 66.176489217206836 8.3611764907836932 13.98662745207548 12.092711225152017 32.645843744277954 4.4054199531674376 19.891190245747566 7.7749751210212708 6.739329546689989 6.1512938067317009 8.2865920811891538 6.2418164759874371 8.87726081907749 4.7880698293447521 10.270730316638948 5.7624089419841757 12.13704988360405 9.8091152757406235 11.649723112583159 10.01503738760948 4.3329897224903098 5.8504744172096252 120.44620721612409 2.281992192962206
leaf_count=10809 4438 63 42 23 498 22 1882 35 120 104 215 30 117 33 22 36 49 28 24 15 37 21 41 37 48 36 10 25 1848 32
internal_value=-0.000412502 -0.00981755 -0.0145256 -0.00989327 -0.0219 -0.0101606 -0.023904 0.00117075 -0.00607395 -0.000315983 0.00939745 -0.0216175 -0.0153692 -0.00310474 -0.0234224 -0.0227649 -0.00932967 0.00360476 0.00791089 0.00437599 0.0116605 0.0312503 0.00129708 -0.00942714 -0.01616 -0.0149616 0.0100408 0.00507225 0.0060171 0.00694283
internal_weight=1034.26 544.43 403.053 247.55 155.503 78.7393 109.229 138.321 66.665 52.6784 36.1803 16.4981 67.5371 26.7695 40.7676 13.9263 20.8764 141.377 71.6555 62.7783 46.3405 16.0331 30.3073 21.9462 16.4378 16.2569 489.834 12.5898 125.12 122.728
internal_count=20740 16292 14285 13441 844 346 12691 750 492 372 238 134 324 111 213 69 96 2007 258 234 171 58 113 78 63 64 4448 47 1943 1880
is_linear=0
shrinkage=0.1


Tree=28
num_leaves=31
num_cat=0
split_feature=12 13 2 14 1 3 3 7 7 6 1 3 6 6 3 14 6 7 1 14 8 7 7 3 2 3 14 7 7 3
split_gain=9.19815 3.17736 1.30854 1.66463 2.12274 1.28374 3.03167 1.39595 1.35219 1.52132 1.22414 0.997506 0.766252 0.915406 0.76397 0.752452 0.941763 0.734347 0.840871 0.877292 0.859311 0.731169 1.83882 2.51807 0.723093 0.718935 0.686446 0.766235 0.684043 1.53819
threshold=1.0000000180025095e-35 1.0000000180025095e-35 5.5000000000000009 2.5000000000000004 1.0000000180025095e-35 281.50000000000006 265.50000000000006 -0.58216583101416164 0.77259657388510627 0.81241147629689026 2.5000000000000004 237.50000000000003 0.93540483100319627 0.97335555334614954 234.50000000000003 1.5000000000000002 0.77259657388510639 -0.93540483100319616 1.0000000180025095e-35 1.0000000180025095e-35 -1.0000000180025095e-35 -0.91037613702198739 -0.88144907265856332 291.50000000000006 1.5000000000000002 274.50000000000006 3.5000000000000004 0.81241147629689026 0.98611507088852057 284.50000000000006
decision_type=2 2 2 2 2 2 2 2 2 2 2 2 2 2 2 2 2 2 2 2 2 2 2 2 2 2 2 2 2 2
left_child=1 2 3 5 -5 6 11 -7 9 15 -10 14 -11 -14 -1 16 17 -8 24 20 -20 -4 23 -23 -19 -15 27 -6 -24 -30
right_child=-2 -3 21 4 26 7 8 -9 10 12 -12 -13 13 25 -16 -17 -18 18 19 -21 -22 22 28 -25 -26 -27 -28 -29 29 -31
leaf_value=-0.014356716149914923 0.0094440369678019109 0.0034087668312246452 -0.024402821461093113 -0.012278541531002161 0.22136567727324188 -0.011203996422500046 0.044339662385240439 -0.03372891193454601 -0.038235849805218554 -0.041076715809440979 0.015180647324127848 -0.032885189791689209 0.023984658657427424 -0.049658530859895689 0.051037878856366681 -0.018474032424712499 0.060080311552842186 0.060756105391145121 0.043212160078874837 -0.026977401202954839 -0.0007167775884399653 -0.018031006402661681 -0.0034490413242167029 0.18571863710039813 0.010481907743950698 0.0042372870269963975 0.033323248416093049 0.079890395145533852 0.096543403195903266 -0.049658529982593375
leaf_weight=22.211163616861089 494.77964858585619 141.89869149362858 11.748869164526694 3.5290027918126716 0.75765605989909113 42.469730287790298 6.210415504872798 78.125846803188324 16.078152403235439 8.692203529179098 5.8516559600830069 65.239565813913941 6.7404943108558681 5.1541818082332593 1.9427103605121363 7.220811501145362 4.4281188547611228 4.7683333456516248 5.7735654860734931 9.0372048541903478 19.467963390052322 1.1645841508643562 52.911083337522541 1.2658772468566895 7.1519189402461052 4.761466771364212 0.75403869811998436 0.77381692295602988 2.0247626718291936 1.1164022535085676
leaf_count=8574 4448 2007 261 32 43 185 34 524 120 62 35 2119 39 48 102 24 19 25 25 37 120 41 1612 2 37 20 22 14 102 7
internal_value=-0.000402347 -0.00943639 -0.0140233 -0.0166822 0.0363462 -0.0176417 -0.0127425 -0.0257964 -0.00173047 0.00372753 -0.0239824 -0.0264577 -0.0170091 -0.00444911 -0.00909699 0.0119332 0.0157962 0.0120546 0.00771456 -0.000241148 0.00933121 -0.00163831 0.00293496 0.0880896 0.0305926 -0.0237779 0.111427 0.149882 -0.000757399 0.0445817
