tree
version=v4
num_class=1
num_tree_per_iteration=1
label_index=0
max_feature_idx=15
objective=poisson
feature_names=hour quarter dayofweek dayofyear weekofyear month tod_sin tod_cos dayofweek_sin dayofweek_cos is_weekend is_business_hours lag_15m lag_1h lag_1d lag_1w
feature_infos=[0:23] [0:3] [0:6] [11:254] [2:37] [1:9] [-1:1] [-1:1] [-0.97492791218182362:0.97492791218182362] [-0.90096886790241903:1] [0:1] [0:1] [0:10] [0:10] [0:10] [0:10]
tree_sizes=3380 3456 3451 3434 3470 3454 3460 3449 3450 3454 3481 3479 3489 3509 3499 3474 3479 3486 3493 3498 3495 3513 3493 3487 3502 3504 3500 3514 3477 3488 3508 3509 3519 3500 3506 3507 3518 3524 3531 3507 3526 3491 3510 3524 3519 3517 3525 3558 3535 3561 3538 3556 3535 3539 3539 3533 3564 3543 3569 3567 3577 3571 3552 3568 3567 3557 3565 3574 3576 3560 3570 3577 3576 3571 3590 3574 3569 3581 3584 3596 3585 3601 3590 3589 3603 3582 3593 3603 3597 3599 3614 3612 3605 3612 3624 3597 3616 3619 3606 3607

Tree=0
num_leaves=31
num_cat=0
split_feature=3 6 12 7 13 6 6 3 3 2 7 3 3 3 6 7 3 3 9 6 3 3 3 3 8 0 7 1 1 9
split_gain=59.7216 156.8 103.697 109.306 7.53342 2.06669 1.70825 3.21743 19.3769 28.0564 0.882619 2.64623 0.43637 4.78102 0.253867 0.800102 2.09665 16.5636 2.30901 8.1045 11.5054 0.327626 0.891328 0.11462 0.0531433 0.174631 1.663 1.90247 0.0495658 0.203652
threshold=253.50000000000003 1.0000000180025095e-35 1.5000000000000002 -0.77259657388510627 1.5000000000000002 -0.93540483100319605 -0.81241147629688981 237.50000000000003 233.50000000000003 4.5000000000000009 -0.47114434510950048 226.50000000000003 156.50000000000003 154.50000000000003 -0.35206144883412549 -0.81241147629689003 232.50000000000003 231.50000000000003 -0.56174490092936669 -0.38268343236508934 219.50000000000003 204.50000000000003 191.50000000000003 153.50000000000003 0.87837969732492682 3.5000000000000004 0.65934581510006873 2.5000000000000004 1.0000000180025095e-35 -0.56174490092936669
decision_type=2 2 2 2 2 2 2 2 2 2 2 2 2 2 2 2 2 2 2 2 2 2 2 2 2 2 2 2 2 2
left_child=2 -2 4 -4 6 -5 7 8 10 -10 11 -1 13 23 15 16 17 18 19 -8 21 22 -21 -12 -16 26 27 -26 29 -17
right_child=1 -3 3 5 -6 -7 14 -9 9 -11 12 -13 -14 -15 24 28 -18 -19 -20 20 -22 -23 -24 -25 25 -27 -28 -29 -30 -31
leaf_value=-4.7581381327879591 -2.2721936706435137 -4.7581470632776792 6.7106812199221446 -2.7386391641569858 -3.3421439731717371 -4.7542571237558438 -4.7508727209002695 -4.7581470628299511 -3.3146397647716332 -4.7581470629387415 -4.7548120264003826 -4.0801486323006921 -4.7581470628655138 -1.0936087976305795 -4.7581147361379852 -4.6596948936354705 -4.758147062656378 -2.0029027644678639 -4.7581470625407984 -4.7565550657650837 -0.63006627493123002 -4.7581470633066605 -2.6941065739503784 -4.0255085588111346 -3.9556549817998627 -4.758146502099196 -4.758147062893106 -4.758147063557427 -4.757126118378272 -4.7581470626490248
leaf_weight=0.20161941903487068 0.36107019707560428 0.85341141372919083 0.016180607105695799 0.0077527413490088284 0.038619482391651583 0.014794140128713162 0.091581973872592926 3.7712376872077584 0.25541967432945956 0.28475940646603703 0.051622170742131046 0.080574135296046734 2.3514923912734957 0.0038886170659679911 17.898878251326462 0.28102216530157875 0.93282808037474751 0.025123690720647573 0.37567989652951872 0.0053732699308852716 0.013170832535251975 0.011806260910816491 0.0034349582274444401 0.0022488529211841515 0.059068836841020711 2.5750192952841218 0.82387006795072182 0.059098377605963037 4.0471698543902619 0.83259851374951555
leaf_count=426 20 48 30 18 35 36 183 304 34 38 2395 14 1309 24 12171 204 84 4 627 50 3 5 3 15 35 1505 490 35 2653 520
internal_value=-4.70849 -4.01906 -4.73233 0.439372 -4.73804 -4.06119 -4.73958 -4.6954 -4.62218 -4.0756 -4.73188 -4.56455 -4.75148 -4.47993 -4.75062 -4.7335 -4.66811 -4.5085 -4.63414 -4.26252 -2.93876 -4.4138 -3.95226 -4.72437 -4.75591 -4.74467 -4.70783 -4.357 -4.75199 -4.7333
internal_weight=36.3304 1.21448 35.1159 0.0387275 35.0772 0.0225469 35.0386 7.00286 3.23162 0.540179 2.69145 0.282194 2.40925 0.0577596 28.0357 6.61979 1.459 0.526171 0.501047 0.125367 0.0337853 0.0206145 0.00880823 0.053871 21.4159 3.51706 0.942037 0.118167 5.16079 1.11362
internal_count=23318 68 23250 84 23166 54 23131 4559 4255 72 4183 440 3743 2434 18572 4336 959 875 871 244 61 58 53 2410 14236 2065 560 70 3377 724
is_linear=0
shrinkage=1


Tree=1
num_leaves=31
num_cat=0
split_feature=6 3 3 3 12 7 7 7 7 3 1 3 12 6 3 3 1 6 8 6 2 3 0 9 1 8 0 6 3 3
split_gain=16.9121 34.1228 2.38642 5.97487 9.00263 5.34358 2.02823 1.02316 0.9111 0.315469 0.413575 0.423768 0.140658 0.248293 0.565287 1.27574 1.05705 0.118186 0.399975 1.2461 0.230111 0.642009 0.101867 0.327928 1.09165 0.0557069 0.168753 1.06082 1.36162 3.38416
threshold=-0.68322629814330804 253.50000000000003 237.50000000000003 233.50000000000003 1.0000000180025095e-35 -0.16280825711808977 -0.38268343236508956 -0.47114434510950048 0.35206144883412571 156.50000000000003 2.5000000000000004 154.50000000000003 1.0000000180025095e-35 -0.35206144883412549 232.50000000000003 226.50000000000003 1.5000000000000002 -0.8814490726585632 0.87837969732492682 -0.84874750804349186 1.0000000180025095e-35 152.50000000000003 15.500000000000002 -0.56174490092936669 2.5000000000000004 0.87837969732492682 3.5000000000000004 0.77259657388510639 245.50000000000003 231.50000000000003
decision_type=2 2 2 2 2 2 2 2 2 2 2 2 2 2 2 2 2 2 2 2 2 2 2 2 2 2 2 2 2 2
left_child=1 2 3 4 9 6 -5 -6 -7 10 17 -12 13 14 15 -2 -17 -1 20 -20 21 -19 23 24 -11 -15 27 -27 29 -29
right_child=12 -3 -4 5 7 8 -8 -9 -10 22 11 -13 -14 25 -16 16 -18 18 19 -21 -22 -23 -24 -25 -26 26 -28 28 -30 -31
leaf_value=-0.036530870010649807 -0.044380457607947142 0.49178030578982529 -0.049658530268843398 0.26042648945493935 2.8431516994011288 0.14585196242487491 0.63373321397174864 1.4155169514813246 -0.049658530797520563 -0.049658530368213195 -0.04887723662723361 0.54787677503504106 -0.049532533088987085 -0.049628548961601904 -0.04965853038799993 0.24538760133069071 0.027944018937563243 -0.049658530606912867 3.3868479866572145 -0.049658530758182239 -0.049658530442926549 2.826068463283689 -0.049658530306379581 -0.049658529927072897 0.5155345306883633 -0.049658530510878776 -0.04965794115273886 -0.049658530270385914 -0.049658531354277537 1.2248139330788383
leaf_weight=0.13771768522984407 1.660440084429385 1.6578117758035666 4.731545559130609 0.28478261083364487 0.0094563242114134027 0.61998191755264975 0.29766555689275254 0.010700731929674023 0.38722812291234732 0.11675248733081389 0.01875608941239193 0.032552713892073371 1473.2731571494371 19.074836946946707 3.9315584967844188 0.32833216525614239 0.70062468526884913 0.0027079103710839761 0.0015173634926668456 0.0034640086645509873 0.031286686791531793 0.0010883459908654913 2.7928201459581032 0.43713005830068175 0.048315775260562077 0.78395710398929397 2.4502717999296806 0.047370438452148278 0.088879105634987354 0.037193643394857645
leaf_count=1572 2567 8 400 24 11 32 16 39 28 66 849 12 78 12220 258 28 39 151 42 125 825 8 1615 220 22 490 1504 62 4 3
internal_value=-0.0484669 0.0716932 0.00180936 0.0483371 -0.0222292 0.210109 0.451208 2.08527 0.0706867 -0.033951 0.0796272 0.329732 -0.0493965 -0.0425122 -0.0254917 0.00983708 0.0973286 0.00744582 0.158612 0.997127 0.0395525 0.774782 -0.0416151 -0.00431177 0.115774 -0.0475246 -0.0357477 -0.000147083 0.223643 0.51089
internal_weight=1514 11.6233 9.96547 5.23392 3.64427 1.58966 0.582448 0.0201571 1.00721 3.62411 0.229091 0.0513088 1502.38 29.1035 6.62096 2.6894 1.02896 0.177782 0.0400643 0.00498137 0.0350829 0.00379626 3.39502 0.602198 0.165068 22.4825 3.40767 0.9574 0.173443 0.0845641
internal_count=23318 6065 6057 5657 5557 100 40 50 60 5507 3584 861 17253 17175 2892 2634 67 2723 1151 167 984 159 1923 308 88 14283 2063 559 69 65
is_linear=0
shrinkage=0.1


Tree=2
num_leaves=31
num_cat=0
split_feature=6 7 3 3 3 0 12 3 13 7 9 3 2 12 6 3 3 1 3 1 0 3 0 3 8 0 6 3 3 7
split_gain=15.0808 18.6893 32.0814 1.71546 4.28566 2.81472 1.13475 0.753941 0.443747 0.419367 0.50559 0.412999 0.381685 0.146363 0.251708 0.542601 1.07282 0.640243 0.0951038 0.19846 0.251508 0.327122 0.101998 0.0616515 0.0566932 0.156796 0.652707 0.65397 0.0394046 0.0812185
threshold=-0.68322629814330804 -0.58216583101416164 253.50000000000003 237.50000000000003 233.50000000000003 17.500000000000004 5.5000000000000009 235.50000000000003 5.5000000000000009 -0.47114434510950048 -0.56174490092936669 253.50000000000003 3.5000000000000004 1.0000000180025095e-35 -0.35206144883412549 232.50000000000003 226.50000000000003 1.5000000000000002 156.50000000000003 2.5000000000000004 17.500000000000004 155.50000000000003 16.500000000000004 154.50000000000003 0.87837969732492682 3.5000000000000004 0.77259657388510639 238.50000000000003 169.50000000000003 -0.63405362205439475
decision_type=2 2 2 2 2 2 2 2 2 2 2 2 2 2 2 2 2 2 2 2 2 2 2 2 2 2 2 2 2 2
left_child=1 2 28 4 6 -6 8 -7 9 10 12 -5 -3 14 15 16 -2 -18 19 -11 21 22 -21 -24 -16 26 -26 -28 29 -1
right_child=13 3 -4 11 5 7 -8 -9 -10 18 -12 -13 -14 -15 24 -17 17 -19 -20 20 -22 -23 23 -25 25 -27 27 -29 -30 -31
leaf_value=-0.048409323700761106 -0.044140938715787059 -0.04965853050299783 0.73591405886759231 -0.049658530383530103 0.28067840244384029 0.13502669904920603 0.72891630660680207 -0.049658530496113733 0.42062811723824461 -0.039478583211537251 -0.049628899782892283 0.00931834551910545 0.21552884613438092 -0.04952613661829261 -0.049627023463044165 -0.049658530675894652 0.18118591694173899 0.025805506312123402 -0.049658530397950956 -0.048686714657447311 -0.049473142812898448 0.80738380249820318 -0.047799364141931533 0.46456685155043176 -0.049658530614172185 -0.049657911021895658 -0.049658530547243528 0.2732958995462581 -0.04965853062390474 0.33820789218821568
leaf_weight=0.016594808838050201 1.5883602778673265 0.073689823505660002 1.015315055847168 3.9614983573555946 1.0172559730708597 0.41640984918922175 0.020070458630698229 0.47112752916291356 0.022170037095747719 0.18094898107243285 0.2520231199054449 1.6955798864364622 0.20600203030133457 1402.0760348926401 18.151287236864722 3.7410913491621614 0.41964680654928066 0.72047908324748278 2.5257520816085162 0.013119321665541861 0.030835420440780581 0.010570037178695202 0.0030604340883400036 0.010094828903675079 0.74597774655545313 2.3315680300631954 0.10946164163135563 0.14677698072046041 1.0570533944701308 0.0080789725357839348
leaf_count=316 2567 64 3 352 36 26 10 26 9 2167 317 5 62 78 12220 258 28 39 1540 143 434 1 143 1 490 1504 64 5 252 158
internal_value=-0.0484083 0.0587814 0.332193 0.00622926 0.0473784 0.167132 -0.020747 0.0369911 -0.0252677 -0.0282578 0.0530969 -0.0319816 0.14566 -0.0493833 -0.0422185 -0.0249263 0.00898473 0.0829965 -0.0438496 0.0151617 0.161248 0.337601 0.148611 0.34537 -0.0474256 -0.0354393 -0.00236108 0.135334 -0.0467426 0.0781813
internal_weight=1443.04 13.0073 2.09704 10.9102 5.25313 1.90479 3.34834 0.887537 3.32827 3.3061 0.531715 5.65708 0.279692 1430.03 27.9546 6.46958 2.72849 1.14013 2.77438 0.248629 0.06768 0.0368446 0.0262746 0.0131553 21.4851 3.33378 1.00222 0.256239 1.08173 0.0246738
internal_count=23318 6065 729 5336 4979 88 4891 52 4881 4872 443 357 126 17253 17175 2892 2634 67 4429 2889 722 288 287 144 14283 2063 559 69 726 474
is_linear=0
shrinkage=0.1


Tree=3
num_leaves=31
num_cat=0
split_feature=6 7 3 3 3 7 12 1 3 0 2 3 13 7 12 6 3 3 3 6 3 1 0 3 8 0 7 3 3 0
split_gain=13.7777 9.70083 9.6773 1.48077 3.12851 1.57976 0.510021 0.401885 0.876414 0.304722 0.506377 1.1118 0.306044 0.27475 0.152486 0.254918 0.521943 0.919416 0.459687 0.926894 0.0852259 0.148115 0.127878 0.063603 0.0584399 0.15349 0.533232 0.452232 1.53985 0.05605
threshold=-0.68322629814330804 -0.58216583101416164 253.50000000000003 237.50000000000003 233.50000000000003 -0.16280825711808977 1.0000000180025095e-35 2.5000000000000004 253.50000000000003 15.500000000000002 3.5000000000000004 226.50000000000003 5.5000000000000009 0.16280825711809024 1.0000000180025095e-35 -0.35206144883412549 232.50000000000003 226.50000000000003 227.50000000000003 -0.5277851165098012 156.50000000000003 2.5000000000000004 17.500000000000004 155.50000000000003 0.87837969732492682 3.5000000000000004 0.65934581510006873 245.50000000000003 238.50000000000003 16.500000000000004
decision_type=2 2 2 2 2 2 2 2 2 2 2 2 2 2 2 2 2 2 2 2 2 2 2 2 2 2 2 2 2 2
left_child=1 2 -1 4 6 -6 9 -5 -9 10 -3 -12 20 -7 15 16 17 -2 -19 -20 21 -11 23 29 -17 26 27 28 -26 -23
right_child=14 3 -4 7 5 13 -8 8 -10 12 11 -13 -14 -15 -16 24 -18 18 19 -21 -22 22 -24 -25 25 -27 -28 -29 -30 -31
leaf_value=-0.046604958229523347 -0.043891931086995392 -0.049658531142481116 0.32668364901449132 -0.049658530464482764 0.2193733783963836 0.10579613940724363 0.11274861373047107 -0.049658530313197752 0.096416078988107765 -0.040094051418517795 -0.049620371594993169 0.68033767812125845 0.25905127680586526 0.009070819545772912 -0.049519413313119987 -0.049625420500967299 -0.04965853037702788 0.16262123615886401 0.16511629256863516 -0.049658530052315679 -0.04965853035235377 -0.048782430965641832 -0.049593441643539904 0.33260243515352239 -0.049658530455050365 -0.049657879614063385 -0.049658530201689137 -0.049658530374918991 0.53016008878692522 0.22400413467864114
leaf_weight=1.0329845119292849 1.5197734563834786 0.11414407486687039 2.1193576455116272 3.7696793684735894 1.0843658149242403 0.53219214361160971 0.26482391492288559 1.0267734434455631 0.6845816671848296 0.18902348493817633 0.047184271147784784 0.037408055737614632 0.033739903060450049 0.65522970352321863 1334.3281237315468 17.272479529655772 3.5598515798337758 0.38638393068686105 0.32229992654174566 0.53363411640748382 2.5319158294005319 0.012493364963816589 0.029313550893235174 0.023698389530181885 0.10415869355631391 2.2186149469700354 0.70983833074117797 0.11115375906229019 0.081753626465797424 0.018968671853897945
leaf_count=726 2567 126 3 259 28 20 44 96 2 2291 91 3 6 40 78 12220 258 9 28 30 1615 142 430 1 64 1504 490 4 1 142
internal_value=-0.0483468 0.0496178 0.204361 0.0054946 0.0417842 0.132111 -0.0203477 -0.0314138 0.0087747 -0.0319501 0.0877574 0.273179 -0.0403295 0.0524223 -0.0493694 -0.0419037 -0.0243487 0.00827124 0.0720844 0.0312144 -0.0439301 0.00910162 0.119184 0.208877 -0.047318 -0.0349621 -0.0025813 0.10991 0.205313 0.115682
internal_weight=1375.36 14.2079 3.15234 11.0555 5.5745 2.27179 3.30271 5.48103 1.71136 3.03789 0.198736 0.0845923 2.83915 1.18742 1361.15 26.8199 6.32194 2.76209 1.24232 0.855934 2.80541 0.273497 0.084474 0.0551604 20.498 3.22552 1.0069 0.297066 0.185912 0.031462
internal_count=23318 6065 729 5336 4979 88 4891 357 98 4847 220 94 4627 60 17253 17175 2892 2634 67 58 4621 3006 715 285 14283 2063 559 69 65 284
is_linear=0
shrinkage=0.1


Tree=4
num_leaves=31
num_cat=0
split_feature=6 3 3 3 8 1 12 13 12 12 6 3 3 1 1 9 0 3 3 8 0 7 3 3 3 6 3 3 3 3
split_gain=12.9391 6.60197 1.61896 2.43822 1.71154 1.2235 0.447945 0.204716 0.211889 0.158736 0.257761 0.501349 0.793755 0.420149 0.129442 0.220449 0.369267 0.42303 0.156525 0.0600228 0.14867 0.433121 0.290418 0.673512 0.0591867 0.054146 0.0257128 0.0693574 0.020601 0.233701
threshold=-0.68322629814330804 253.50000000000003 237.50000000000003 233.50000000000003 -0.60785761079279388 1.5000000000000002 5.5000000000000009 5.5000000000000009 1.0000000180025095e-35 1.0000000180025095e-35 -0.35206144883412549 232.50000000000003 226.50000000000003 1.5000000000000002 2.5000000000000004 -0.56174490092936669 16.500000000000004 226.50000000000003 156.50000000000003 0.87837969732492682 3.5000000000000004 0.65934581510006873 245.50000000000003 238.50000000000003 157.50000000000003 -0.98611507088852024 154.50000000000003 152.50000000000003 199.50000000000003 198.50000000000003
decision_type=2 2 2 2 2 2 2 2 2 2 2 2 2 2 2 2 2 2 2 2 2 2 2 2 2 2 2 2 2 2
left_child=1 2 3 6 -5 -6 7 8 14 10 11 12 28 -14 26 16 17 18 -16 -12 21 22 23 -21 25 -17 27 -1 29 -2
right_child=9 -3 -4 4 5 -7 -8 -9 -10 -11 19 -13 13 -15 15 24 -18 -19 -20 20 -22 -23 -24 -25 -26 -27 -28 -29 -30 -31
leaf_value=-0.047282634710128883 -0.043622087988669733 0.1425809065535214 -0.049658530440154974 -0.049658530823115755 0.22073568478379452 0.069047554384179033 0.2859012715081487 0.18876121815747246 0.059855914992387328 -0.049512353170942415 -0.049623735888541548 -0.049658530678149931 0.13186763165407714 0.017556458809722838 0.2107499921205927 0.1778434039263051 -0.049658530293885179 0.36137096783123857 -0.049658530928505751 -0.049658530660315163 -0.049657846528451018 -0.049658530505051444 -0.049658530091805153 0.291570943983604 -0.049658530104853632 -0.048909221783218902 -0.049658530299162604 0.15137435430622756 -0.04965853046628723 0.31504702212846669
leaf_weight=0.067475493281591858 0.27732075427923364 4.6691962480545035 4.0781506104394794 0.57737113581970367 1.0577616300433876 1.0692740781232712 0.046568015452066791 0.043746580341348706 0.25013355790974845 1269.8622918997064 16.436246312088006 3.3873920338228345 0.53365936549380399 0.8089008335955441 0.034787528383375843 0.022817463939233562 0.15313388422724472 0.066437424160540104 0.068597487479564734 0.099112652956719005 2.1111339563169622 0.67544971361083128 0.10576883889734745 0.13891611993312836 0.52632748943869956 0.019556674954813391 2.3250940800498938 0.023764182253216859 1.1577495870878918 0.019440045463852584
leaf_count=2653 2232 8 400 50 26 24 10 10 36 78 12220 258 28 39 82 103 248 4 40 64 1504 490 4 1 330 513 1491 37 324 11
internal_value=-0.0482821 0.0437512 -0.000487615 0.0310772 0.103034 0.144481 -0.0222606 -0.0262448 -0.0288882 -0.0493547 -0.0415819 -0.0237861 0.00754679 0.0629944 -0.0355986 -0.00303484 0.0629471 0.164487 0.0379651 -0.0472066 -0.0345154 -0.00315139 0.0882199 0.149487 -0.0405049 0.0731917 -0.0476151 0.00445934 -0.0436332 -0.0201266
internal_weight=1310.71 15.1002 10.431 6.35285 2.70441 2.12704 3.64844 3.60187 3.55813 1295.61 25.7511 6.18446 2.79707 1.34256 3.30799 0.891658 0.322956 0.169822 0.103385 19.5666 3.13038 1.01925 0.343798 0.238029 0.568702 0.0423741 2.41633 0.0912397 1.45451 0.296761
internal_count=23318 6065 6057 5657 100 50 5557 5547 5537 17253 17175 2892 2634 67 5501 1320 374 126 122 14283 2063 559 69 65 946 616 4181 2690 2567 2243
is_linear=0
shrinkage=0.1


Tree=5
num_leaves=31
num_cat=0
split_feature=6 7 3 7 7 3 3 3 11 3 12 1 3 0 9 2 13 12 6 3 3 3 6 3 1 0 8 0 6 3
split_gain=12.2961 5.58448 3.04632 1.70369 5.57222 2.94162 1.20993 1.9086 0.871706 0.768516 0.373396 0.370972 0.594383 0.231478 0.284533 0.38163 0.188844 0.16526 0.260591 0.482754 0.696783 0.342509 0.64838 0.0811382 0.100815 0.0626614 0.0617773 0.14541 0.370402 0.0368904
threshold=-0.68322629814330804 -0.68322629814330815 253.50000000000003 -0.58216583101416164 -0.63405362205439475 253.50000000000003 237.50000000000003 233.50000000000003 1.0000000180025095e-35 234.50000000000003 1.0000000180025095e-35 2.5000000000000004 253.50000000000003 15.500000000000002 -0.56174490092936669 3.5000000000000004 5.5000000000000009 1.0000000180025095e-35 -0.35206144883412549 232.50000000000003 226.50000000000003 227.50000000000003 -0.5277851165098012 156.50000000000003 2.5000000000000004 17.500000000000004 0.87837969732492682 3.5000000000000004 0.77259657388510639 196.50000000000003
decision_type=2 2 2 2 2 2 2 2 2 2 2 2 2 2 2 2 2 2 2 2 2 2 2 2 2 2 2 2 2 2
left_child=1 2 -1 4 -3 29 7 10 9 -9 13 -8 -13 14 15 -5 23 18 19 20 -2 -22 -23 24 -15 -26 -20 28 -28 -6
right_child=17 3 -4 6 5 -7 11 8 -10 -11 -12 12 -14 16 -16 -17 -18 -19 26 -21 21 22 -24 -25 25 -27 27 -29 -30 -31
leaf_value=-0.049601158602089065 -0.043370668373674995 -0.049656578574024335 0.3034231201075635 -0.049658530417826405 0.077849885310931913 0.30342310596526523 -0.049658530511659277 0.12131184010436043 0.13466735830838522 -0.049658531068309524 0.081764190555565885 -0.049658530605078639 0.065363137664638291 -0.039406620134663881 -0.049643244441571067 0.30612897737727057 0.14761460725734152 -0.049504933843629695 -0.049621965773966221 -0.049658530597640124 0.12637098664944418 0.11565499275525558 -0.049658530167947502 -0.049658530406183003 0.12758787007105366 -0.049586660501708457 -0.049658530791215988 -0.049657811662848883 0.074789862946608429 -0.049658529675222114
leaf_weight=0.31198924006008488 1.3937842554684494 1.4491483444629125 1.1289242506027222 0.049650760022487361 0.024575335783949437 1.1300537586212158 3.6103554964065552 0.44981332309544086 1.8230603523552418 0.6327495789155364 0.32725920675346731 0.92969774175435282 0.86940139532089233 0.17634869033401024 0.11779480951866972 0.07675294550094236 0.052799074630456633 1208.5195306597075 15.640524971089222 3.2232874482870102 0.46595303341746308 0.41873105382546782 0.54742611199617386 2.2971366244455567 0.080458228867101411 0.026548353215147813 0.64272707275209418 2.0088599599884844 0.38089904748177617 0.29577859718119726
leaf_count=242 2567 243 1 32 185 1 259 13 36 39 44 96 2 2291 157 31 6 78 12220 258 9 28 30 1615 285 430 490 1504 69 57
internal_value=-0.0482142 0.0392746 0.226986 0.0205168 0.0890308 0.227598 0.00327173 0.0337648 0.0924597 0.021381 -0.0194517 -0.0311724 0.00592484 -0.030963 0.0621748 0.166377 -0.0396002 -0.0493394 -0.0412457 -0.0232075 0.0069633 0.0559502 0.0219881 -0.0434307 0.00705737 0.0836308 -0.0470893 -0.0340266 -0.00335034 -0.039877
internal_weight=1249.1 15.8603 1.44091 14.4194 2.89956 1.45041 11.5198 6.11037 2.90562 1.08256 3.20475 5.40945 1.7991 2.87749 0.244199 0.126404 2.63329 1233.24 24.7222 6.04918 2.82589 1.43211 0.966157 2.58049 0.283355 0.107007 18.673 3.03249 1.02363 0.320354
internal_count=23318 6065 243 5822 486 243 5336 4979 88 52 4891 357 98 4847 220 63 4627 17253 17175 2892 2634 67 58 4621 3006 715 14283 2063 559 242
is_linear=0
shrinkage=0.1


Tree=6
num_leaves=31
num_cat=0
split_feature=6 7 12 3 3 3 1 7 3 1 6 3 12 7 9 3 3 12 6 3 3 1 1 13 8 0 7 0 13 3
split_gain=11.6964 3.96303 3.44307 4.6362 1.07778 1.53967 0.644963 1.51858 0.599337 0.361097 0.551705 1.04938 0.327022 0.207175 0.209302 0.253417 0.174245 0.172021 0.263061 0.464602 0.613995 0.306076 0.121786 0.173894 0.0636827 0.143247 0.327558 0.0481776 0.0334562 0.0331999
threshold=-0.68322629814330804 -0.58216583101416164 1.0000000180025095e-35 253.50000000000003 237.50000000000003 233.50000000000003 2.5000000000000004 -0.16280825711808977 234.50000000000003 2.5000000000000004 -0.91037613702198728 253.50000000000003 1.0000000180025095e-35 -0.5277851165098012 -0.56174490092936669 226.50000000000003 156.50000000000003 1.0000000180025095e-35 -0.35206144883412549 232.50000000000003 226.50000000000003 1.5000000000000002 2.5000000000000004 3.5000000000000004 0.87837969732492682 3.5000000000000004 0.65934581510006873 17.500000000000004 6.5000000000000009 172.50000000000003
decision_type=2 2 2 2 2 2 2 2 2 2 2 2 2 2 2 2 2 2 2 2 2 2 2 2 2 2 2 2 2 2
left_child=1 2 3 29 5 12 7 -7 -9 -6 11 -11 13 14 15 -3 22 18 19 20 -2 -22 28 27 -20 26 -26 -24 -15 -1
right_child=17 4 -4 -5 9 6 -8 8 -10 10 -12 -13 -14 16 -16 -17 -18 -19 24 -21 21 -23 23 -25 25 -27 -28 -29 -30 -31
leaf_value=0.059862648846958771 -0.043091959045612027 -0.049658531641045528 -0.049635739223313012 0.21101692571028452 -0.049658530576593342 0.18087321841239529 0.0037176771801275738 0.098173451115169175 -0.049658530529495232 -0.049658530709155851 -0.049658529882735163 0.16561405755365463 0.071446087925132337 -0.039097507879347286 -0.049642465829179611 0.22340532056059037 -0.049658530388989527 -0.049497137320123889 -0.049620105421408101 -0.049658530712971306 0.10280930451526969 0.011823520981824801 0.10635660149225135 0.52894101813628136 0.065821920763326325 -0.049657774734897103 -0.049658530235743605 -0.049658531511871731 0.053490044886879765 -0.04965853024689821
leaf_weight=0.028576992256734157 1.3346270256804005 0.051483015013332079 1.0750768887648972 3.0597574710845947 3.4354492560960352 1.2654612567275767 0.83011179836466897 0.52021728362888098 0.57999978121370077 0.44180925190448761 0.90644783386960603 0.46452733874320984 0.35514166729330998 0.17118712046430085 0.11208987118513558 0.10000496357679367 2.185850225694594 1150.1486182061276 14.883352929976349 3.0671330136246979 0.63536770688369848 0.88432734133675694 0.091407363677973308 0.0089929512342337148 0.41047877963924795 1.9115407085285196 0.61158971161432873 0.025263484069846243 0.050552606582641602 0.88019819956389256
leaf_count=477 2567 61 7 2 259 20 24 11 33 48 49 1 44 2293 157 2 1615 78 12220 258 28 39 285 4 69 1504 490 429 1 243
internal_value=-0.0481431 0.0351094 0.109108 0.152112 0.00292405 0.0306449 0.0795558 0.106167 0.0202411 -0.0306045 0.00550523 0.0606758 -0.0189459 -0.0304239 0.0539524 0.130605 -0.039203 -0.0493232 -0.0408971 -0.0226369 0.00639938 0.0498637 0.026583 0.105233 -0.0469658 -0.0334997 -0.00327977 0.0725736 -0.0179892 -0.0462146
internal_weight=1190.53 16.6396 5.04361 3.96853 11.596 6.34776 3.19579 2.36568 1.10022 5.24823 1.81278 0.906337 3.15197 2.79683 0.263578 0.151488 2.53325 1173.89 23.7384 5.92146 2.85432 1.5197 0.347404 0.125664 17.817 2.93361 1.02207 0.116671 0.22174 0.908775
internal_count=23318 6065 729 722 5336 4979 88 64 44 357 98 49 4891 4847 220 63 4627 17253 17175 2892 2634 67 3012 718 14283 2063 559 714 2294 720
is_linear=0
shrinkage=0.1


Tree=7
num_leaves=31
num_cat=0
split_feature=6 7 12 3 3 3 1 7 3 1 6 3 12 7 12 6 3 3 3 6 2 2 3 1 13 8 0 7 0 4
split_gain=11.1967 3.02432 2.48924 3.03822 0.963135 1.25764 0.47224 0.99466 0.505234 0.350036 0.486307 0.791747 0.289161 0.188057 0.179022 0.265531 0.448057 0.546764 0.270906 0.49232 0.170309 0.178244 0.166693 0.0959236 0.0704266 0.065608 0.141069 0.29232 0.0382561 0.0377001
threshold=-0.68322629814330804 -0.58216583101416164 1.0000000180025095e-35 253.50000000000003 237.50000000000003 233.50000000000003 2.5000000000000004 -0.16280825711808977 234.50000000000003 2.5000000000000004 -0.91037613702198728 253.50000000000003 1.0000000180025095e-35 -0.5277851165098012 1.0000000180025095e-35 -0.35206144883412549 232.50000000000003 226.50000000000003 227.50000000000003 -0.5277851165098012 3.5000000000000004 4.5000000000000009 156.50000000000003 2.5000000000000004 3.5000000000000004 0.87837969732492682 3.5000000000000004 0.65934581510006873 17.500000000000004 24.500000000000004
decision_type=2 2 2 2 2 2 2 2 2 2 2 2 2 2 2 2 2 2 2 2 2 2 2 2 2 2 2 2 2 2
left_child=1 2 3 29 5 12 7 -7 -9 -6 11 -11 13 20 15 16 17 -2 -19 -20 -3 -22 23 -15 28 -17 27 -27 -25 -1
right_child=14 4 -4 -5 9 6 -8 8 -10 10 -12 -13 -14 22 -16 25 -18 18 19 -21 21 -23 -24 24 -26 26 -28 -29 -30 -31
leaf_value=0.074403391725354082 -0.042802807215725859 -0.049658529406560542 -0.049634575946893029 0.16142612389083916 -0.049658530098153152 0.14272970368729984 0.0035196100260808053 0.084349927302598895 -0.049658530255832847 -0.049658530630542222 -0.049658530133562057 0.13275769181046809 0.063095500737791271 -0.017439098990185219 -0.04948894693673303 -0.049618150771035957 -0.049658530358898674 0.10270344443824238 0.08672545468681922 -0.049658530825646474 0.17528144492292144 -0.049622266683455638 -0.04965853047983794 0.090615295481195804 0.2912688866079442 0.058465536092696647 -0.049657736539983073 -0.049658530447699072 -0.049658531701060805 -0.049658530498240205
leaf_weight=0.0252276110615125 1.2783368580051075 0.10963806232715168 1.0230173813538384 3.7785961627960205 3.2690165434032679 1.5163557231426243 0.83320361748337735 0.57387983705848455 0.55190129298716784 0.42040549218654633 0.86253433348610975 0.54819685220718384 0.3814435175815446 0.21795357606718591 1094.6055092105917 14.162862608661969 2.918543606530875 0.53833308070898045 0.5075515923090278 0.55312592955306161 0.12140011657982086 0.049650945320557582 2.0799551670061192 0.10166494988618524 0.015262244320922491 0.43840631939445918 1.8189361392127095 0.58196081510021713 0.024039577080266383 0.84266869077691808
leaf_count=459 2567 126 7 2 259 20 24 11 33 48 49 1 44 2294 78 12220 258 9 28 30 31 63 1615 285 4 69 1504 490 429 261
internal_value=-0.0480687 0.0316573 0.0915808 0.122672 0.00256151 0.0278537 0.069162 0.0898625 0.0186538 -0.0300513 0.00495236 0.053583 -0.0184411 -0.0298774 -0.0493063 -0.0405357 -0.0220515 0.00595079 0.0449271 0.0156034 0.0476361 0.109999 -0.0387984 0.0241366 0.0884183 -0.0468368 -0.032963 -0.00320243 0.0637895 -0.0460524
internal_weight=1134.75 17.346 5.66951 4.64649 11.6765 6.57635 3.47534 2.64214 1.12578 5.10015 1.83114 0.968602 3.10101 2.71956 1117.4 22.7981 5.79589 2.87735 1.59901 1.06068 0.280689 0.171051 2.43888 0.35892 0.140967 17.0022 2.8393 1.02037 0.125705 0.867896
internal_count=23318 6065 729 722 5336 4979 88 64 44 357 98 49 4891 4847 17253 17175 2892 2634 67 58 220 94 4627 3012 718 14283 2063 559 714 720
is_linear=0
shrinkage=0.1


Tree=8
num_leaves=31
num_cat=0
split_feature=6 7 12 3 3 3 9 6 7 7 1 3 12 1 6 12 6 3 3 1 13 7 7 3 3 3 8 0 7 3
split_gain=10.7754 2.37529 1.8967 2.16007 0.865104 1.10342 0.710343 1.10606 3.88582 0.617215 0.750152 0.852597 0.386537 0.339757 0.433124 0.186217 0.267586 0.431598 0.488282 0.237677 0.150643 0.130161 1.1847 0.774773 0.314876 0.128436 0.0675494 0.13887 0.262825 0.0549673
threshold=-0.68322629814330804 -0.58216583101416164 3.5000000000000004 253.50000000000003 237.50000000000003 236.50000000000003 -0.56174490092936669 -0.9733555533461492 -0.16280825711808977 0.13052619222005193 2.5000000000000004 233.50000000000003 5.5000000000000009 2.5000000000000004 -0.91037613702198728 1.0000000180025095e-35 -0.35206144883412549 232.50000000000003 226.50000000000003 1.5000000000000002 2.5000000000000004 0.35206144883412571 0.29012925520284133 233.50000000000003 232.50000000000003 226.50000000000003 0.87837969732492682 3.5000000000000004 0.65934581510006873 156.50000000000003
decision_type=2 2 2 2 2 2 2 2 2 2 2 2 2 2 2 2 2 2 2 2 2 2 2 2 2 2 2 2 2 2
left_child=1 2 3 -1 5 6 7 8 -3 -10 11 -11 20 -6 -15 16 17 18 -2 -20 -8 22 24 -24 25 29 -18 28 -28 -9
right_child=15 4 -4 -5 13 -7 12 21 9 10 -12 -13 -14 14 -16 -17 26 -19 19 -21 -22 -23 23 -25 -26 -27 27 -29 -30 -31
leaf_value=-0.045857221193701017 -0.042502992748062823 0.51436186274573381 -0.049656592078831635 0.12995960542334839 -0.049658530410902339 0.10283534560861421 -0.04664081376265506 0.045505114898666904 -0.04963190008111644 -0.048920388393740924 -0.049658529340891003 0.58956384898884739 0.21846783945230164 0.047801203701879215 -0.049658529662249762 -0.049480342045851777 -0.049616096629890034 -0.049658530583267635 0.083587365487255899 0.0076095480419414822 0.10443552027093408 -0.049604393153475333 -0.047127392187160576 0.55537841950254963 -0.049658531705719246 0.072992353093885229 0.052325250486250696 -0.04965769609099327 -0.049658530479053505 -0.04965853071379555
leaf_weight=0.82929486857787793 1.2247749364982738 0.20389273929367846 0.97320629409773562 4.4405519962310791 3.1106467116624117 1.4495954611338673 2.2727912893398905 0.095193588308803756 0.45311085311703925 0.032073937843577482 0.081033598116931671 0.060109809041023254 0.058279809057239507 1.0260648042894898 0.82074824208393682 1041.7532429017729 13.477276959563847 2.7771527087315917 0.72702529374510028 0.94939909363165498 0.067975877894696057 0.43819602683203118 0.032122084202697354 0.063601426780223846 0.86431486858054996 0.44540354772470891 0.46480208731330142 1.7308178746733487 0.55376731507553245 0.16748882034880808
leaf_count=725 2567 64 2 2 259 22 3519 287 256 63 64 1 8 49 49 78 12220 258 28 39 22 448 63 1 14 7 69 1504 490 140
internal_value=-0.0479906 0.0287652 0.0786053 0.102292 0.00226737 0.025468 0.00444852 0.037428 0.135183 0.0117458 0.172301 0.367413 -0.0359199 -0.0294869 0.0044888 -0.0492885 -0.0401638 -0.0214801 0.0054936 0.0405593 -0.0422536 -0.0011026 0.0116382 0.353195 -0.0091548 0.0402855 -0.0467019 -0.032417 -0.00312044 -0.0151721
internal_weight=1081.64 17.9857 6.24305 5.26985 11.7426 6.78518 5.33559 2.93654 0.830221 0.626328 0.173217 0.0921837 2.39905 4.95746 1.84681 1063.66 21.905 5.67835 2.9012 1.67642 2.34077 2.10632 1.66812 0.0957235 1.5724 0.708086 16.2267 2.74939 1.01857 0.262682
internal_count=23318 6065 729 727 5336 4979 4957 1408 448 384 128 64 3549 357 98 17253 17175 2892 2634 67 3541 960 512 64 448 434 14283 2063 559 427
is_linear=0
shrinkage=0.1


Tree=9
num_leaves=31
num_cat=0
split_feature=6 7 12 3 3 3 9 6 7 7 1 1 3 3 12 6 3 3 3 6 7 7 3 1 3 6 7 13 8 0
split_gain=10.3826 1.91934 1.49844 1.61888 0.765288 0.882326 0.615165 0.771896 1.72353 0.455681 0.379742 0.330831 0.408452 0.312547 0.19365 0.26957 0.416346 0.43933 0.222986 0.393362 0.120649 0.69676 0.289604 0.125706 0.141132 0.118392 0.34439 0.0956735 0.0695034 0.136643
threshold=-0.68322629814330804 -0.58216583101416164 3.5000000000000004 253.50000000000003 237.50000000000003 236.50000000000003 -0.56174490092936669 -0.9733555533461492 -0.16280825711808977 0.13052619222005193 2.5000000000000004 2.5000000000000004 253.50000000000003 157.50000000000003 1.0000000180025095e-35 -0.35206144883412549 232.50000000000003 226.50000000000003 227.50000000000003 -0.5277851165098012 0.35206144883412571 0.29012925520284133 232.50000000000003 2.5000000000000004 226.50000000000003 -0.93540483100319605 0.16280825711809024 5.5000000000000009 0.87837969732492682 3.5000000000000004
decision_type=2 2 2 2 2 2 2 2 2 2 2 2 2 2 2 2 2 2 2 2 2 2 2 2 2 2 2 2 2 2
left_child=1 2 3 -1 5 6 7 8 -3 -10 -11 -6 -13 25 15 16 17 -2 -19 -20 21 22 23 -9 -25 26 -8 -28 -17 -30
right_child=14 4 -4 -5 11 -7 13 20 9 10 -12 12 -14 -15 -16 28 -18 18 19 -21 -22 -23 -24 24 -26 -27 27 -29 29 -31
leaf_value=-0.045678844729316909 -0.04219230497406088 0.28755911097297959 -0.049656493790198819 0.10806970308277977 -0.049658530144464565 0.087932958529093858 0.012504576598816096 0.0067514561885611115 -0.049630545919075023 0.22707400640614353 -0.049658528828279924 -0.049658530060309486 0.045028558847757 -0.049658530527043145 -0.049471306166076534 -0.049613938090733084 -0.049658530206214239 0.086028821762685989 0.067752095622143904 -0.049658530689180552 -0.049601640397940953 0.22291582079590927 -0.049658530015620081 0.020431119583757734 0.16959940170544197 -0.010581271546287416 0.26466222166645187 0.64895755886575313 -0.0030353385059916117 -0.049657653477097087
leaf_weight=0.79212449173951682 1.173809108358401 0.34102506210632555 0.92606039698239317 5.0568225383758545 2.9599492624402046 1.6065995758399365 0.11076420283550548 0.48433620842459502 0.43117105466559769 0.13893274540902212 0.07710786885189691 0.80117940716445413 1.0561102330684662 2.0149484774228767 991.46142419068451 12.824904976276157 2.6426116051152349 0.60448884172365058 0.58957104571163643 0.55299874814227212 0.41698988241759583 0.14147523613297597 0.82244252925738692 0.12924831664027181 0.12454618653282523 0.13433066774349478 0.049696658733331844 0.0074493852125669937 1.0167101896652817 1.6469685593510304
leaf_count=725 2567 64 2 2 259 22 832 310 256 64 64 96 2 1254 78 12220 258 9 28 30 448 64 14 122 2 1151 310 2 559 1504
internal_value=-0.0479089 0.0260802 0.0685344 0.0872475 0.00180432 0.0228408 0.00356202 0.0326429 0.105627 0.0097645 0.128304 -0.0288997 0.00418337 -0.0354345 -0.0492698 -0.0397791 -0.0208982 0.00512222 0.0369118 0.0109259 -0.00139402 0.0104165 -0.00884782 0.0366244 0.0936334 0.0593925 0.115372 0.314758 -0.046561 -0.0318622
internal_weight=1031.14 18.6233 6.77501 5.84895 11.8483 7.03106 5.42446 3.10728 0.988237 0.647212 0.216041 4.81724 1.85729 2.31719 1012.51 21.0521 5.56348 2.92087 1.74706 1.14257 2.11904 1.70205 1.56057 0.738131 0.253795 0.302241 0.16791 0.057146 15.4886 2.66368
internal_count=23318 6065 729 727 5336 4979 4957 1408 448 384 128 357 98 3549 17253 17175 2892 2634 67 58 960 512 448 434 124 2295 1144 312 14283 2063
is_linear=0
shrinkage=0.1


Tree=10
num_leaves=31
num_cat=0
split_feature=6 3 3 3 7 3 6 12 12 6 3 3 1 9 1 9 8 0 6 0 3 3 3 3 13 7 1 3 3 3
split_gain=10.054 1.57214 0.990627 0.814165 0.290108 0.443058 1.25371 0.213636 0.20129 0.271124 0.4012 0.396037 0.192736 0.167792 0.133705 0.0884578 0.0715051 0.134606 0.2385 0.0687116 0.0717329 0.136456 0.148809 0.0525584 0.0312157 0.0270878 0.0649981 0.100758 0.0257399 0.202454
threshold=-0.68322629814330804 253.50000000000003 237.50000000000003 233.50000000000003 0.16280825711809024 236.50000000000003 -0.9733555533461492 1.0000000180025095e-35 1.0000000180025095e-35 -0.35206144883412549 232.50000000000003 226.50000000000003 1.5000000000000002 -0.56174490092936669 2.5000000000000004 -1.0000000180025095e-35 0.87837969732492682 3.5000000000000004 0.77259657388510639 18.500000000000004 227.50000000000003 226.50000000000003 156.50000000000003 155.50000000000003 5.5000000000000009 -0.5277851165098012 1.5000000000000002 152.50000000000003 199.50000000000003 198.50000000000003
decision_type=2 2 2 2 2 2 2 2 2 2 2 2 2 2 2 2 2 2 2 2 2 2 2 2 2 2 2 2 2 2
left_child=1 2 3 7 5 6 -5 14 9 10 11 28 -13 -6 23 19 -11 18 -18 20 21 22 24 25 -16 26 -1 -28 29 -2
right_child=8 -3 -4 4 13 -7 -8 -9 -10 16 -12 12 -14 -15 15 -17 17 -19 -20 -21 -22 -23 -24 -25 -26 -27 27 -29 -30 -31
leaf_value=-0.049658530507149773 -0.041848587392034842 0.055954500872444315 -0.049658530528445669 0.11010784667333995 0.038301179190945778 0.10100264775371764 -0.049658529722437547 0.043571867719730706 -0.049461808802196694 -0.049611669957684068 -0.049658530527395238 0.06993401228366293 0.0043940933569781007 -0.049658530710058213 0.069759389669315774 -0.049643236062234697 -0.049658530016705338 -0.049657608853469593 0.047420351948215096 -0.049658530456587774 -0.049658530889257854 0.12808801067582615 -0.049658530433476511 -0.049658530329817971 0.20311568463072913 -0.0058000486899089029 -0.049658530156664521 0.6528755589148636 -0.049658530006014272 0.27998243950833873
leaf_weight=0.0098758186520487845 0.21434609512909053 8.4989862143993378 3.0672991592437029 0.960191543214023 0.43748684693127871 1.4672289020381868 1.0055124131031334 0.46158552043107182 943.6060097389128 12.204137626023082 2.514588403981179 0.81002661213278759 1.0058764610439537 0.43006582837551821 0.1194203655235242 0.24247999972678247 0.52534265503319166 1.5671813804012584 0.48828614824870442 0.11408195115193109 0.083561272127553821 0.15363302920013666 0.17110543627495645 1.7757900889773734 0.02057729521766305 0.16011362769654669 0.0037682813058381726 0.0044549951562657952 0.88945963612059131 0.021507924073375762
leaf_count=283 2232 8 400 18 10 15 27 50 78 12220 258 28 39 30 324 569 490 1504 69 252 12 4 160 1479 2 2279 140 3 324 11
internal_value=-0.0478233 0.0238542 -0.00167102 0.0176432 0.0463636 0.0594204 0.0283829 -0.0195542 -0.0492502 -0.0393831 -0.0203306 0.00474322 0.0336297 -0.00530247 -0.0297464 0.00203325 -0.0464136 -0.0312908 -0.00289361 0.0209507 0.035642 0.0509794 0.0129006 -0.044463 0.0893605 0.00730781 0.123266 0.330942 -0.0418705 -0.0125003
internal_weight=983.034 19.1872 10.6882 7.62093 4.30049 3.43293 1.9657 3.32045 963.847 20.2408 5.45581 2.94122 1.8159 0.867553 2.85886 0.904859 14.7849 2.58081 1.01363 0.662379 0.548297 0.464736 0.311103 1.954 0.139998 0.178213 0.0180991 0.00822328 1.12531 0.235854
internal_count=23318 6065 6057 5657 100 60 45 5557 17253 17175 2892 2634 67 40 5507 1323 14283 2063 559 754 502 490 486 4184 326 2705 426 143 2567 2243
is_linear=0
shrinkage=0.1


Tree=11
num_leaves=31
num_cat=0
split_feature=6 7 12 3 3 3 1 6 0 3 12 6 3 3 3 6 12 0 3 3 8 0 7 1 4 6 2 13 3 3
split_gain=9.77658 1.3909 1.173 1.08904 0.644775 0.652602 0.313781 0.375777 0.269214 0.360115 0.209138 0.272473 0.386765 0.359363 0.188848 0.32546 0.184569 0.146015 0.145909 0.0904854 0.0734696 0.132286 0.216806 0.0611584 0.0404795 0.0335538 0.0449921 0.026987 0.0257115 0.145181
threshold=-0.68322629814330804 -0.58216583101416164 3.5000000000000004 253.50000000000003 237.50000000000003 233.50000000000003 2.5000000000000004 -0.91037613702198728 17.500000000000004 234.50000000000003 1.0000000180025095e-35 -0.35206144883412549 232.50000000000003 226.50000000000003 227.50000000000003 -0.5277851165098012 1.0000000180025095e-35 15.500000000000002 156.50000000000003 226.50000000000003 0.87837969732492682 3.5000000000000004 0.65934581510006873 2.5000000000000004 23.500000000000004 -0.75183980747897738 1.0000000180025095e-35 6.5000000000000009 199.50000000000003 198.50000000000003
decision_type=2 2 2 2 2 2 2 2 2 2 2 2 2 2 2 2 2 2 2 2 2 2 2 2 2 2 2 2 2 2
left_child=1 2 3 24 5 16 -6 -8 -7 -10 11 12 13 28 -15 -16 17 19 23 -3 -13 22 -22 27 25 26 -1 -19 29 -2
right_child=10 4 -4 -5 6 8 7 -9 9 -11 -12 20 -14 14 15 -17 -18 18 -20 -21 21 -23 -24 -25 -26 -27 -28 -29 -30 -31
leaf_value=0.33452566092733782 -0.04151481736552895 -0.049638877515486735 -0.049656504549798038 0.084208807758033036 -0.049658529603949196 0.060002668721712685 0.040724120561237399 -0.049658529364276061 0.053453711138089277 -0.049658530912380767 -0.049451834156495199 -0.049609286477629529 -0.049658530197421065 0.07366119594734219 0.054382921054723456 -0.049658530758393826 0.039594737121166429 -0.038463731869469754 -0.049658530414725822 0.067684622450003937 0.042924279985722853 -0.049657562202256152 -0.049658529998279209 0.061810139955738891 -0.049658530136727858 -0.047901594956469555 -0.049658530160390818 0.041451259041248377 -0.049658530617802905 0.19948313296730544
leaf_weight=0.0081564054322595947 0.20556111500369956 0.091616077773301607 0.93191111581882058 5.9581649303436279 2.7732833749614656 3.064321924932301 1.1064070621505377 0.78735558129847039 0.74583530705422141 0.62048294767737389 898.06900260831742 11.613443797315204 2.3927674135193229 0.66511249355971802 0.66533005796372879 0.54856636095792044 0.48187922676220285 0.16149562583100197 1.7690105377405414 0.23271694127470255 0.511998644099392 1.4912595482194033 0.49989206067303371 0.17461632623043499 0.7045832061994588 0.01072557097237159 0.0048673867803046287 0.057232372462749481 0.84636914095608518 0.02845727582462132
leaf_count=21 2232 213 2 2 259 36 49 49 13 39 78 12220 258 9 28 30 44 2293 1615 7 69 1504 490 718 282 295 127 1 324 11
internal_value=-0.0477336 0.0219965 0.0554498 0.0700986 0.000874753 0.0192336 -0.0282317 0.0031464 0.0435429 0.00662759 -0.0492295 -0.0389756 -0.0197627 0.00440902 0.0308325 0.00736603 -0.0170484 -0.0280249 -0.0374096 0.0345436 -0.04626 -0.0307209 -0.00281328 0.0176784 -0.0453303 0.0830779 0.190944 -0.0175532 -0.0415467 -0.0122088
internal_weight=937.222 19.6847 7.61841 6.6865 12.0663 7.39921 4.66705 1.89376 4.43064 1.36632 917.538 19.4688 5.35216 2.9594 1.87901 1.2139 2.96857 2.48669 2.16235 0.324333 14.1166 2.50315 1.01189 0.393344 0.728333 0.0237494 0.0130238 0.218728 1.08039 0.234018
internal_count=23318 6065 729 727 5336 4979 357 98 88 52 17253 17175 2892 2634 67 58 4891 4847 4627 220 14283 2063 559 3012 725 443 148 2294 2567 2243
is_linear=0
shrinkage=0.1


Tree=12
num_leaves=31
num_cat=0
split_feature=6 7 12 3 3 3 1 6 0 3 12 6 3 3 12 1 0 3 2 8 0 6 1 3 3 3 6 13 0 3
split_gain=9.52302 1.15536 0.98211 0.883841 0.586255 0.562495 0.305633 0.341887 0.217717 0.322264 0.217181 0.273423 0.372548 0.326443 0.167789 0.161269 0.135929 0.141371 0.0843412 0.0754353 0.129938 0.19798 0.0518592 0.0415691 0.0257101 0.113001 0.0252504 0.0247524 0.0235593 0.0226753
threshold=-0.68322629814330804 -0.58216583101416164 3.5000000000000004 253.50000000000003 237.50000000000003 233.50000000000003 2.5000000000000004 -0.91037613702198728 17.500000000000004 234.50000000000003 1.0000000180025095e-35 -0.35206144883412549 232.50000000000003 226.50000000000003 1.0000000180025095e-35 1.5000000000000002 15.500000000000002 156.50000000000003 3.5000000000000004 0.87837969732492682 3.5000000000000004 0.77259657388510639 2.5000000000000004 153.50000000000003 199.50000000000003 198.50000000000003 -0.75183980747897738 6.5000000000000009 18.500000000000004 152.50000000000003
decision_type=2 2 2 2 2 2 2 2 2 2 2 2 2 2 2 2 2 2 2 2 2 2 2 2 2 2 2 2 2 2
left_child=1 2 3 23 5 14 -6 -8 -7 -10 11 12 13 24 16 -15 18 22 -3 -13 21 -21 27 26 25 -2 29 -18 -24 -1
right_child=10 4 -4 -5 6 8 7 -9 9 -11 -12 19 -14 15 -16 -17 17 -19 -20 20 -22 -23 28 -25 -26 -27 -28 -29 -30 -31
leaf_value=-0.048613831007709017 -0.041169616625589413 -0.049658530092365906 -0.049656405928344374 0.073397591627161821 -0.049658530050216476 0.053616221866648217 0.037117304127116231 -0.049658530200805656 0.048086697372223181 -0.04965853010144354 -0.049441358348691275 -0.049606781949510029 -0.049658530396925679 0.059753142788474579 0.03612982530091767 0.0018743315558388343 -0.038024750792991016 -0.049658530376125394 0.062456630819845128 -0.049658530552473976 -0.049657512862077084 0.039034318659863468 0.067244202803226918 -0.049658530360836478 -0.049658530090962438 0.15442685674834086 -0.047498605618807664 0.03775184603149611 -0.04955949753341099 0.24082993393912813
leaf_weight=0.0036146347778325269 0.19720199662640003 0.092608263406382174 0.88676579513912646 6.4816253185272217 2.6389297135174274 3.2538176719099283 1.1523945420049129 0.74921156838536251 0.78678775578737237 0.59042321797460318 854.73805530154425 11.051366524420031 2.2768481038510799 0.88540036976337422 0.50134186669566805 1.0550599694252012 0.15540184594156903 1.6833095774636602 0.24358471965616246 0.47567443426500167 1.4190158047287935 0.53445430441456665 0.16648320140751593 0.67358814592444105 0.80536618898622692 0.034739834838546813 0.0087244335291619679 0.059654582291841507 0.019266727947602647 0.010774217545986176
leaf_count=141 2232 126 2 2 259 36 49 49 13 39 78 12220 258 28 44 39 2293 1615 94 490 1504 69 429 300 324 11 283 1 289 1
internal_value=-0.0476397 0.0203129 0.0496284 0.0618934 0.000762088 0.0178337 -0.0276347 0.00292859 0.03951 0.0061824 -0.0492079 -0.0385573 -0.0192077 0.00407544 -0.0165247 0.0282835 -0.0274316 -0.0369497 0.0315732 -0.0460996 -0.030144 -0.00273157 0.0164247 -0.0451338 -0.0412098 -0.0118735 0.0867308 -0.0170051 0.0551289 0.168119
internal_weight=893.631 20.1583 8.06509 7.17833 12.0932 7.55268 4.54054 1.90161 4.63103 1.37721 873.473 18.7351 5.25462 2.97777 2.92165 1.94046 2.42031 2.08412 0.336193 13.4805 2.42914 1.01013 0.400806 0.696701 1.03731 0.231942 0.0231133 0.215056 0.18575 0.0143889
internal_count=23318 6065 729 727 5336 4979 357 98 88 52 17253 17175 2892 2634 4891 67 4847 4627 220 14283 2063 559 3012 725 2567 2243 425 2294 718 142
is_linear=0
shrinkage=0.1


Tree=13
num_leaves=31
num_cat=0
split_feature=6 3 3 8 3 12 6 3 3 1 3 6 3 8 7 8 0 7 12 6 7 3 1 3 3 0 7 13 7 3
split_gain=9.29327 0.971822 0.823444 0.538312 0.54836 0.225457 0.274228 0.359176 0.297801 0.191899 0.163388 0.276213 0.150818 0.178288 0.138149 0.0773983 0.127563 0.181495 0.0577958 0.045655 0.100495 0.0407257 0.0371866 0.0257143 0.0920456 0.0248771 0.018409 0.0225748 0.0174193 0.0114189
threshold=-0.68322629814330804 253.50000000000003 237.50000000000003 -0.60785761079279388 233.50000000000003 1.0000000180025095e-35 -0.35206144883412549 232.50000000000003 226.50000000000003 1.5000000000000002 227.50000000000003 -0.5277851165098012 155.50000000000003 -1.0000000180025095e-35 -0.47114434510950048 0.87837969732492682 3.5000000000000004 0.65934581510006873 6.5000000000000009 -0.95642797789208678 0.16280825711809024 159.50000000000003 1.5000000000000002 199.50000000000003 198.50000000000003 17.500000000000004 -0.58216583101416164 6.5000000000000009 -0.63405362205439475 154.50000000000003
decision_type=2 2 2 2 2 2 2 2 2 2 2 2 2 2 2 2 2 2 2 2 2 2 2 2 2 2 2 2 2 2
left_child=1 2 3 -1 12 6 7 8 23 -6 -10 -12 18 14 22 -8 17 -17 19 20 25 -15 -14 24 29 -5 28 -28 -21 -2
right_child=5 -3 -4 4 9 -7 15 -9 10 -11 11 -13 13 21 -16 16 -18 -19 -20 26 -22 -23 -24 -25 -26 -27 27 -29 -30 -31
leaf_value=-0.049652225234605919 0.027399395266744793 0.041503739504370078 -0.049658530312554044 0.051774633455926533 0.064420610434091308 -0.049430349254501266 -0.049604150180954619 -0.049658530469854148 0.064140212651824749 0.021509419324445372 0.044484680248064769 -0.049658531070383281 0.021423203851207634 0.0017710308994626938 -0.049658530212048774 0.035638948845295566 -0.049657461084260293 -0.049658530065923481 0.16797027203585699 -0.046904551758398604 0.18022820523113831 -0.049658530355215919 0.072749448764640429 -0.049658530204533126 0.12522349566252508 -0.048774514946817608 -0.047877408610425463 0.030251822972695516 0.13602475121588473 -0.049658530348289195
leaf_weight=1.1379370956520407 0.021724316693183865 9.8462191522121429 2.7094346862286338 0.067892088293304842 2.5071421973407269 813.50633236457747 10.516519501481417 2.166544588515535 0.72075918037444342 1.7835182445123789 0.73528302367776621 0.54091554880142201 0.38436594476661412 0.17614323248562858 0.23763774306280572 0.55572888811442245 1.3502719560571916 0.4526300533840768 0.035886429017409682 0.0075274123064303913 0.056606694313714456 1.2232851842927628 0.22308790079841856 0.76634965784614906 0.040541003225371242 0.038593656444625424 0.08536105131871452 0.065253489417955279 0.016875844359858339 0.16752380209072726
leaf_count=1632 1704 8 400 412 26 78 12220 258 9 24 28 30 33 25 220 69 1504 490 2 206 206 1100 22 324 11 309 1335 2 103 528
internal_value=-0.0475414 0.0188034 -0.00197579 0.0140788 0.0245753 -0.0491852 -0.0381262 -0.0186472 0.00380026 0.0465835 0.0260784 0.00458217 -0.0114871 -0.0212836 0.0149843 -0.0459323 -0.0295606 -0.00264921 0.0473061 0.034499 0.0725651 -0.0431852 0.0402728 -0.0408606 -0.0115195 0.0153326 -0.000973423 -0.0140281 0.0795985 -0.0408128
internal_weight=852.144 20.6028 10.7565 8.04711 6.90918 831.541 18.0348 5.15964 2.9931 4.29066 1.99696 1.2762 2.61852 2.24452 0.845092 12.8752 2.35863 1.00836 0.373997 0.33811 0.163092 1.39943 0.607454 0.996139 0.229789 0.106486 0.175018 0.150615 0.0244033 0.189248
internal_count=23318 6065 6057 5657 4025 17253 17175 2892 2634 50 67 58 3975 1400 275 14283 2063 559 2575 2573 927 1125 55 2567 2243 721 1646 1337 309 2232
is_linear=0
shrinkage=0.1


Tree=14
num_leaves=31
num_cat=0
split_feature=6 7 12 3 3 8 7 12 3 1 6 12 6 3 3 1 1 8 0 6 2 3 3 3 13 3 3 7 3 6
split_gain=9.08686 0.865737 0.810118 0.650324 0.504071 0.482374 0.474358 0.477596 0.815234 0.291939 0.307157 0.23392 0.274608 0.345967 0.271901 0.162924 0.138176 0.0793541 0.125161 0.166948 0.0553581 0.0411103 0.0531997 0.0871117 0.0372847 0.0347493 0.0257071 0.0869114 0.132384 0.0142031
threshold=-0.68322629814330804 -0.58216583101416164 3.5000000000000004 253.50000000000003 237.50000000000003 -0.60785761079279388 0.35206144883412571 1.0000000180025095e-35 233.50000000000003 2.5000000000000004 -0.91037613702198728 1.0000000180025095e-35 -0.35206144883412549 232.50000000000003 226.50000000000003 2.5000000000000004 1.5000000000000002 0.87837969732492682 3.5000000000000004 0.77259657388510639 1.5000000000000002 231.50000000000003 226.50000000000003 156.50000000000003 6.5000000000000009 153.50000000000003 199.50000000000003 -0.91037613702198739 198.50000000000003 -0.75183980747897738
decision_type=2 2 2 2 2 2 2 2 2 2 2 2 2 2 2 2 2 2 2 2 2 2 2 2 2 2 2 2 2 2
left_child=1 2 3 25 5 -3 7 8 15 -6 -11 12 13 14 26 -7 -16 -14 19 -19 -17 22 23 -22 -8 29 27 28 -2 -1
right_child=11 4 -4 -5 9 6 24 -9 -10 10 -12 -13 17 -15 16 20 -18 18 -20 -21 21 -23 -24 -25 -26 -27 -28 -29 -30 -31
leaf_value=0.11146766556496293 -0.049275031850920338 -0.049651308915123954 -0.049656385250255487 0.06004035330637604 -0.04965852970551192 -0.047179249156690001 -0.04960931932603245 -0.017549455262329167 0.077618729736125214 0.033030377128902312 -0.049658529433562658 -0.049418789082477176 -0.04960138467331212 -0.049658530407277079 0.051888228516945051 -0.049658530590419789 -0.00013957936955625338 -0.049658530417418759 -0.049657406456306216 0.032652570114427487 0.060140993716919867 -0.049658531422149724 0.081156845625140334 -0.049658530113092653 0.027870588286853709 -0.049658530314205557 -0.049658529407377347 -0.040675140028212729 0.30511792973157204 -0.04728378570642161
leaf_weight=0.019447874657146036 0.022305806970763675 0.99358720375669651 0.87956553927074299 7.270845890045166 2.4658880126662552 0.71856302490198742 0.811281640003365 1.3389453317121249 3.2444284372031689 1.2093520597554741 0.71471586450934399 774.27209814288449 10.007583499826941 2.0615848139859736 0.95397567655891213 0.09304145847969636 1.0979687524959443 0.43070207083109513 1.2848584571257005 0.57589164966222484 0.17725342102918518 0.053615808254107833 0.20875023771077394 0.12198116083891364 0.067257691640406847 0.61712538192659849 0.72922331996960565 0.18539509586765757 0.019984113052487373 0.0079352300619267568
leaf_count=142 185 1437 2 2 259 1729 1125 33 24 49 49 78 12220 258 28 251 39 490 1504 69 246 8 4 120 2 300 324 2057 1 283
internal_value=-0.0474385 0.017465 0.0413893 0.0515064 0.000244432 0.0154541 0.0249181 0.0350354 0.050283 -0.0268793 0.00231469 -0.0491613 -0.0376845 -0.0181016 0.00352032 -0.0143021 0.0240488 -0.0457578 -0.0289713 -0.00256676 0.0217852 0.0336214 0.0424113 0.0153819 -0.0436777 -0.0447674 -0.0404999 -0.0111671 0.118193 0.0654638
internal_weight=812.655 21.0136 8.79492 7.91535 12.2187 7.82871 6.83512 5.95658 4.61763 4.38996 1.92407 791.642 17.3695 5.07044 3.00885 1.37321 2.05194 12.299 2.29145 1.00659 0.654642 0.561601 0.507985 0.299235 0.878539 0.644508 0.956908 0.227685 0.0422899 0.0273831
internal_count=23318 6065 729 727 5336 4979 3542 2415 2382 357 98 17253 17175 2892 2634 2358 67 14283 2063 559 629 378 370 366 1127 725 2567 2243 186 425
is_linear=0
shrinkage=0.1


Tree=15
num_leaves=31
num_cat=0
split_feature=6 2 12 0 8 13 9 0 6 6 8 3 6 1 12 6 3 3 6 6 1 7 3 3 6 13 1 8 0 7
split_gain=8.89095 0.780283 0.902185 0.919519 0.596532 0.539378 0.363371 0.620739 0.862299 0.535231 0.301929 0.268588 0.770755 0.44615 0.242596 0.274744 0.333328 0.249304 0.235961 0.319156 0.244099 0.187859 0.18494 0.143722 0.238988 0.104243 0.0968383 0.0812985 0.122732 0.154024
threshold=-0.68322629814330804 4.5000000000000009 1.0000000180025095e-35 17.500000000000004 0.6078576107927941 3.5000000000000004 0.81174490092936691 15.500000000000002 -0.8814490726585632 -0.99465189230620676 -1.0000000180025095e-35 253.50000000000003 -0.9733555533461492 1.5000000000000002 1.0000000180025095e-35 -0.35206144883412549 232.50000000000003 226.50000000000003 -0.93540483100319605 -0.99465189230620676 1.0000000180025095e-35 -0.2269546835593246 232.50000000000003 227.50000000000003 -0.5277851165098012 3.5000000000000004 2.5000000000000004 0.87837969732492682 3.5000000000000004 0.65934581510006873
decision_type=2 2 2 2 2 2 2 2 2 2 2 2 2 2 2 2 2 2 2 2 2 2 2 2 2 2 2 2 2 2
left_child=1 2 3 4 5 6 11 -8 9 -9 18 12 13 -1 15 16 17 -2 19 -5 -21 -11 26 -19 -25 -12 -14 -17 29 -29
right_child=14 -3 -4 10 -6 -7 7 8 -10 21 25 -13 22 -15 -16 27 -18 23 -20 20 -22 -23 -24 24 -26 -27 -28 28 -30 -31
leaf_value=0.13262774368152697 -0.040135098528463906 -0.049654206983349519 -0.033123967009114498 -0.049658530754184138 -0.041431123287376088 -0.049658529746148226 -0.038563800936437229 0.26329807139342004 0.28684433445564878 0.07467443270594358 -0.049658530492559028 0.051821692353255323 -0.049658530007015457 -0.049587859453298758 -0.049406642181237352 -0.049598478699067403 -0.049658530342403709 0.056600646318308682 -0.049584860224781042 -0.049658531741505911 0.12585143079675135 -0.049658529923330877 -0.049658529693044851 0.036885660982824267 -0.049658531021985586 0.055854634935335989 0.050878360307986398 0.03000830707905848 -0.049657349188091365 -0.049658530898524789
leaf_weight=0.63087395324106044 0.92024848111571644 1.659463598123607 2.6024938038643759 0.21678865274252956 0.83252947770299179 0.56654154649004418 0.28209662839576388 0.14157943053439215 0.26242517114917507 0.71131090139925834 1.8128528331538687 8.8451094031333923 0.13032472575945009 0.1707387019700235 736.9385944983843 9.5233032620503035 1.961709883296862 0.77190030273050103 0.32201086482652319 0.096708950774797131 0.43877697062993093 0.14656216648587883 1.0853773520793764 0.79984465427696716 0.53085306985303726 0.098734098178056118 0.36172501986298755 0.59500634506364425 1.2226139600325465 0.40983640304648361
leaf_count=68 2567 1732 53 68 838 4 134 34 34 133 1784 4 429 132 78 12220 258 9 234 34 100 67 54 28 30 5 124 69 1504 490
internal_value=-0.0473309 0.0162067 0.021739 0.0300629 0.0406922 0.0458194 0.0500559 0.0955409 0.12552 0.0831618 -0.0203702 0.0437991 0.0139715 0.0938169 -0.0491363 -0.0372307 -0.0175579 0.00327414 0.0220482 0.0527106 0.0941543 0.0534329 -0.0266041 0.0222731 0.00236073 -0.0442087 0.0242501 -0.0455758 -0.028377 -0.00248471
internal_weight=775.089 21.415 19.7556 17.1531 14.1672 13.3347 12.7681 1.54397 1.26188 0.999452 2.98587 11.2241 2.37904 0.801613 753.674 16.7353 4.98456 3.02285 1.07429 0.752275 0.535486 0.857873 1.57743 2.1026 1.3307 1.91159 0.49205 11.7508 2.22746 1.00484
internal_count=23318 6065 4333 4280 2055 1217 1213 402 268 234 2225 811 807 200 17253 17175 2892 2634 436 202 134 200 607 67 58 1789 553 14283 2063 559
is_linear=0
shrinkage=0.1


Tree=16
num_leaves=31
num_cat=0
split_feature=6 2 12 8 7 13 3 12 6 3 3 1 3 3 3 7 6 1 8 0 6 6 3 6 7 6 3 7 3 13
split_gain=8.70203 0.711672 0.796087 0.799609 0.568162 0.504491 0.330684 0.251471 0.274567 0.321092 0.228378 0.120601 0.11647 0.0897698 0.230783 0.822566 0.227186 0.357164 0.0832271 0.120279 0.142475 0.066782 0.060615 0.0471988 0.0349512 0.0304371 0.0266336 0.0747888 0.0844926 0.018371
threshold=-0.68322629814330804 4.5000000000000009 1.0000000180025095e-35 0.6078576107927941 0.35206144883412571 2.5000000000000004 226.50000000000003 1.0000000180025095e-35 -0.35206144883412549 232.50000000000003 226.50000000000003 1.5000000000000002 160.50000000000003 239.50000000000003 236.50000000000003 -0.2269546835593246 -0.81241147629688981 2.5000000000000004 0.87837969732492682 3.5000000000000004 0.77259657388510639 -0.84874750804349186 156.50000000000003 -0.9733555533461492 -0.25881904510252068 -0.98611507088852024 199.50000000000003 -0.91037613702198739 198.50000000000003 6.5000000000000009
decision_type=2 2 2 2 2 2 2 2 2 2 2 2 2 2 2 2 2 2 2 2 2 2 2 2 2 2 2 2 2 2
left_child=1 2 3 4 5 6 22 8 9 10 26 -12 23 14 15 -8 17 -15 -10 20 -20 -4 24 25 -1 -5 27 28 -2 -25
right_child=7 -3 21 12 -6 -7 13 -9 18 -11 11 -13 -14 16 -16 -17 -18 -19 19 -21 -22 -23 -24 29 -26 -27 -28 -29 -30 -31
leaf_value=0.049009184402221399 -0.049239163593279477 -0.049653986663818719 -0.017020423403213511 0.040512503472629212 -0.049625161768661816 -0.049658530814022446 -0.025126956303325294 -0.049393883026042772 -0.049595425001538199 -0.049658530318918231 0.04564655391732652 -0.0017734152287892176 -0.049658530353298695 -0.049658530704163727 0.087277300404141375 0.090648633503656387 0.047218412344542958 0.043246211241897578 -0.049658530536729639 -0.0496572891928369 0.027653153770788742 -0.049628622361818746 -0.049658530262031327 -0.049481685596931883 -0.04719618975044703 0.16166715457271774 -0.049658529503835092 -0.039919051929108523 0.22253274891830072 0.025446319054943545
leaf_weight=0.12353336562863071 0.020398000885542555 1.5790765487807679 1.3173312748641595 0.05756856770450014 0.76810619526465096 0.62257640107418488 1.1131670922040937 701.41375089540873 9.0624843405284405 1.86667347792536 1.0164529765024783 1.1354313362389801 1.4137671332864554 0.67223589541390416 1.614292142447084 1.3676246295217418 8.2331633558496833 1.0763713209889829 0.38998159019569489 1.1633849367902156 0.61313208344745362 1.2003696861085575 0.43609128386015072 0.06189318394969856 0.054388707486646259 0.03240971707797502 0.66659748711390421 0.17100263423617013 0.026047464460134506 0.069428667426109314
leaf_count=483 185 1732 39 208 711 5 34 78 12220 258 28 39 700 67 14 33 20 25 490 1504 69 14 540 750 605 84 324 2057 1 1
internal_value=-0.0472184 0.0150038 0.0200497 0.027527 0.0343011 0.0385108 0.0422473 -0.04911 -0.0367656 -0.0170213 0.00304602 0.0206256 -0.0390991 0.0453807 0.0578484 0.0386985 0.0402658 0.00752984 -0.045386 -0.0277782 -0.00240339 -0.0325671 -0.0295895 0.0283595 0.0196003 0.0841518 -0.0397451 -0.00935501 0.103175 -0.00986793
internal_weight=739.359 21.8134 20.2343 17.7166 16.0816 15.3134 14.6909 717.545 16.1316 4.9026 3.03593 2.15188 1.63507 14.0769 4.09508 2.48079 9.98177 1.74861 11.229 2.1665 1.00311 2.5177 0.614013 0.2213 0.177922 0.0899783 0.884046 0.217448 0.0464455 0.131322
internal_count=23318 6065 4333 4280 2537 1826 1821 17253 17175 2892 2634 67 1743 193 81 67 112 92 14283 2063 559 53 1628 1043 1088 292 2567 2243 186 751
is_linear=0
shrinkage=0.1


Tree=17
num_leaves=31
num_cat=0
split_feature=6 2 12 11 8 13 8 12 6 3 9 3 2 7 6 6 1 6 3 6 1 3 6 7 13 8 0 6 1 6
split_gain=8.53412 0.652177 0.707025 0.711556 0.449557 0.407836 0.267405 0.260545 0.274095 0.309284 0.217392 0.234517 0.208389 0.423242 0.415875 0.287641 0.196633 0.216178 0.183443 0.551204 0.303036 0.179203 0.169685 0.143585 0.0921893 0.0851351 0.117804 0.132099 0.0848004 0.0667664
threshold=-0.68322629814330804 4.5000000000000009 1.0000000180025095e-35 1.0000000180025095e-35 0.6078576107927941 3.5000000000000004 -1.0000000180025095e-35 1.0000000180025095e-35 -0.35206144883412549 232.50000000000003 -1.0000000180025095e-35 226.50000000000003 2.5000000000000004 -0.5277851165098012 -0.8814490726585632 -0.99465189230620676 1.0000000180025095e-35 -0.93540483100319605 253.50000000000003 -0.9733555533461492 1.5000000000000002 232.50000000000003 -0.99465189230620676 -0.2269546835593246 3.5000000000000004 0.87837969732492682 3.5000000000000004 0.77259657388510639 2.5000000000000004 -0.84874750804349186
decision_type=2 2 2 2 2 2 2 2 2 2 2 2 2 2 2 2 2 2 2 2 2 2 2 2 2 2 2 2 2 2
left_child=1 2 3 6 5 12 16 8 9 10 11 -2 13 -5 15 -15 -1 22 19 20 -14 28 -18 -17 -8 -10 27 -27 -21 -4
right_child=7 -3 29 4 -6 -7 24 -9 25 -11 -12 -13 18 14 -16 23 17 -19 -20 21 -22 -23 -24 -25 -26 26 -28 -29 -30 -31
leaf_value=-0.049658529897681075 -0.036752793332638242 -0.049653755406056918 -0.016460155709224392 -0.038786924073087294 -0.040709894403201982 -0.049658530035487182 -0.049658530535120843 -0.049380484283514187 -0.049592216424433511 -0.049658530380000468 -0.048289294733464494 0.035080734300030579 0.098129848052002422 0.17350324900687597 0.18461211504412789 0.057643551569044688 -0.049658530584473948 -0.049534433355185307 0.04255563434441284 -0.0496585303022717 -0.049587151554849683 -0.049658530908040344 0.093816270557516818 -0.049658530011622307 0.044642030100823453 -0.049658530264234932 -0.049657226092122551 0.025544531479675 0.047035944730952267 -0.049627105587572544
leaf_weight=0.31064330901074233 0.60975423566181808 1.5025838964797475 1.2950994432404743 0.28788619553966999 0.76543049432648125 0.51297820959007445 1.683221783776 667.60992469742075 8.6239900993222403 1.776241162791848 0.65335404249057605 1.7848089314065871 0.77813738897568985 0.19854751918717262 0.37694360087998013 0.82420947890018659 0.097387575033856422 0.19116087706955653 9.7339021861553192 0.11951981480841434 0.16904909922807576 1.0133904516696928 0.53674744159661714 0.14693995227830237 0.11047386057589381 0.37108865955582293 1.1070253068149112 0.63032372347350929 0.376099140692844 1.1422510458656905
leaf_count=136 1463 1732 39 134 838 4 1784 78 12220 258 1140 31 68 34 34 133 34 166 4 429 132 54 100 67 5 490 1504 69 124 14
internal_value=-0.0471007 0.0139563 0.0185803 0.0253424 0.0339861 0.0379189 -0.019808 -0.0490824 -0.0362891 -0.0164906 0.00283874 0.016789 0.0411222 0.0725442 0.093267 0.0638304 0.0181562 0.0436819 0.0363935 0.0119727 0.0717661 -0.0255588 0.0717821 0.0414082 -0.0438506 -0.0451884 -0.0271757 -0.00232311 0.0237178 -0.0320037
internal_weight=705.339 22.1726 20.67 18.2327 15.303 14.5376 2.92963 683.167 15.5566 4.82416 3.04792 2.39456 14.0246 1.83453 1.54664 1.1697 1.13594 0.825296 12.1901 2.4562 0.947186 1.50901 0.634135 0.971149 1.7937 10.7324 2.10844 1.00141 0.495619 2.43735
internal_count=23318 6065 4333 4280 2055 1217 2225 17253 17175 2892 2634 1494 1213 402 268 234 436 300 811 807 200 607 134 200 1789 14283 2063 559 553 53
is_linear=0
shrinkage=0.1


Tree=18
num_leaves=31
num_cat=0
split_feature=6 2 12 8 7 13 12 6 3 3 9 3 3 8 0 7 6 3 6 1 3 7 3 6 3 6 3 7 6 13
split_gain=8.3752 0.598909 0.629413 0.625401 0.445521 0.389937 0.269812 0.273333 0.297889 0.25706 0.202292 0.208822 0.110872 0.087018 0.115308 0.122734 0.0666753 0.0622577 0.170357 0.306863 0.136189 0.562521 0.0569519 0.0400627 0.0320723 0.0700778 0.0481683 0.0293654 0.0165323 0.0157638
threshold=-0.68322629814330804 4.5000000000000009 1.0000000180025095e-35 0.6078576107927941 0.35206144883412571 2.5000000000000004 1.0000000180025095e-35 -0.35206144883412549 232.50000000000003 226.50000000000003 -1.0000000180025095e-35 226.50000000000003 160.50000000000003 0.87837969732492682 3.5000000000000004 0.65934581510006873 -0.84874750804349186 239.50000000000003 -0.81241147629688981 2.5000000000000004 236.50000000000003 -0.2269546835593246 156.50000000000003 -0.9733555533461492 199.50000000000003 -0.38268343236508934 198.50000000000003 -0.25881904510252068 -0.98611507088852024 6.5000000000000009
decision_type=2 2 2 2 2 2 2 2 2 2 2 2 2 2 2 2 2 2 2 2 2 2 2 2 2 2 2 2 2 2
left_child=1 2 3 4 5 9 7 8 10 22 11 24 23 -9 15 -15 -4 20 19 -19 21 -11 27 28 25 -2 -27 -1 -5 -25
right_child=6 -3 16 12 -6 -7 -8 13 -10 17 -12 -13 -14 14 -16 -17 -18 18 -20 -21 -22 -23 -24 29 -26 26 -28 -29 -30 -31
leaf_value=0.041846003693389339 -0.04197941865712141 -0.04965351194203757 -0.015909182709413293 0.040657276544549925 -0.049621680205144333 -0.049658531355846872 -0.04936640927793625 -0.049588844745309446 -0.049658530153470853 -0.02384528764410089 -0.048221553268345665 0.032159556926117765 -0.049658530403128967 0.023647834606765682 -0.049657159582888695 -0.049658530365167743 -0.049625501780116571 -0.049658529726326832 0.038992847852283498 0.036100205493191116 0.067907248132789352 0.0701149458329791 -0.049658530384717875 -0.04946693747111168 -0.049658530522809448 -0.049028900985555401 0.17638442176915434 -0.047059178546415115 0.12485187893942672 0.020362580729460289
leaf_weight=0.13320383290809723 0.10038672967477447 1.4297969975935263 1.2739564154167058 0.057476285548297312 0.69553193108403277 0.5637152739218444 635.4437484919614 8.2067390377883509 1.6901899073272941 1.0578964785672722 0.62255368387820853 1.8485325956717131 1.2858388980675952 0.64663245605269937 1.0533960646169687 0.35311100769662573 1.0869480834758167 0.64972874219529209 8.997081380803138 1.1660619764588773 1.8802617182955144 1.6020870453212404 0.4166499254424707 0.057128862255850343 0.4424127540551126 0.013586157042382863 0.031365245580673218 0.051521921882329513 0.039246976182567894 0.074469387531280518
leaf_count=483 1177 1732 39 208 711 5 78 12220 258 34 1140 31 700 69 1504 490 14 67 20 25 14 33 540 750 180 105 1 605 84 1
internal_value=-0.0469777 0.0129788 0.0172252 0.0233591 0.0287789 0.0320801 -0.0490534 -0.0358012 -0.0159659 0.0349682 0.00265132 0.0156511 -0.0382559 -0.0449825 -0.0265701 -0.00224409 -0.031432 0.0374803 0.033354 0.0054139 0.0473075 0.0327462 -0.0291677 0.0259603 -0.0362696 0.00448643 0.108255 0.0170494 0.0748206 -0.00995151
internal_weight=672.971 22.5186 21.0888 18.7279 17.2137 16.5182 650.453 15.0089 4.74903 15.9545 3.05884 2.43628 1.51416 10.2599 2.05314 0.999743 2.3609 15.3531 10.8129 1.81579 4.54025 2.65998 0.601376 0.228322 0.587751 0.145338 0.0449514 0.184726 0.0967233 0.131598
internal_count=23318 6065 4333 4280 2537 1826 17253 17175 2892 1821 2634 1494 1743 14283 2063 559 53 193 112 92 81 67 1628 1043 1463 1283 106 1088 292 751
is_linear=0
shrinkage=0.1


Tree=19
num_leaves=31
num_cat=0
split_feature=6 2 12 0 8 13 12 6 3 8 9 3 1 6 3 8 0 3 3 13 3 3 7 6 3 3 6 3 7 3
split_gain=8.23057 0.551875 0.562733 0.562254 0.347866 0.3184 0.279246 0.272179 0.28673 0.239258 0.188392 0.186924 0.169923 0.161779 0.144726 0.0888712 0.112794 0.115974 0.262622 0.0832348 0.0690865 0.269917 0.452952 0.0665094 0.0607572 0.0443533 0.0320044 0.031328 0.0584511 0.0342753
threshold=-0.68322629814330804 4.5000000000000009 1.0000000180025095e-35 17.500000000000004 0.6078576107927941 3.5000000000000004 1.0000000180025095e-35 -0.35206144883412549 232.50000000000003 -1.0000000180025095e-35 1.0000000180025095e-35 226.50000000000003 1.0000000180025095e-35 -0.93540483100319605 226.50000000000003 0.87837969732492682 3.5000000000000004 245.50000000000003 238.50000000000003 3.5000000000000004 239.50000000000003 236.50000000000003 -0.2269546835593246 -0.84874750804349186 156.50000000000003 160.50000000000003 -0.9733555533461492 199.50000000000003 -0.91037613702198739 198.50000000000003
decision_type=2 2 2 2 2 2 2 2 2 2 2 2 2 2 2 2 2 2 2 2 2 2 2 2 2 2 2 2 2 2
left_child=1 2 3 4 5 14 7 8 10 12 11 27 -5 -14 24 -9 17 18 -17 -11 21 22 -16 -4 -1 26 -6 28 29 -2
right_child=6 -3 23 9 25 -7 -8 15 -10 19 -12 -13 13 -15 20 16 -18 -19 -20 -21 -22 -23 -24 -25 -26 -27 -28 -29 -30 -31
leaf_value=0.027727865403515819 -0.048997261607384164 -0.049653256765659362 -0.015367963277154624 -0.049658530433882936 0.071734478944088242 -0.049658529429333721 -0.049351627360465528 -0.049585302095898703 -0.049658530149024188 -0.049658530049159211 -0.048150561608792698 0.029570181402201707 0.058236546063221234 -0.049521497173077828 -0.023222365108665127 -0.049658530871738431 -0.049657089753326951 -0.049658531006518014 0.077702292056994665 0.036431752997098929 0.032097329913915153 0.076401646934926765 0.072725766129595401 -0.049623824086424129 -0.049658530369795797 -0.049658530261735057 -0.0493513927889212 -0.049658531022865722 -0.041650192104230016 0.13983230191827395
leaf_weight=0.15787914364597178 0.012936108576696137 1.3605362974715536 1.2538491788512831 0.3018816344980888 0.056334490325085085 0.46447897498728785 604.83588587129134 7.8097019951914231 1.6083074708003549 1.5611295151697087 0.59324550171358925 1.9089468321762977 0.7137464753706837 0.17311554479945812 1.0329690224025396 0.28656077349681686 1.0023649225676505 0.33936085132881999 0.37218882399611175 0.12100955841401617 10.979074525181204 1.7535627484321594 0.9395223939791314 1.034324250507608 0.28387054936320055 0.61262485552288126 0.035636982518234883 0.42097975203068927 0.096259782215767253 0.037415493279695511
leaf_count=723 105 1732 39 136 125 4 78 12220 258 1784 1140 31 134 166 34 512 1504 32 15 5 76 9 11 14 360 336 377 180 1177 1
internal_value=-0.0468491 0.0121094 0.0160224 0.0216126 0.0287933 0.0318953 -0.049023 -0.0353033 -0.015455 -0.0191971 0.00246479 0.0145895 0.0151439 0.0372022 0.0343962 -0.0447681 -0.0259623 -0.00216652 0.0222994 -0.0434654 0.0360904 0.0478561 0.0224789 -0.0308527 -0.022001 -0.0399373 0.0248163 -0.0357941 0.00401621 0.0913191
internal_weight=642.16 22.8355 21.475 19.1868 16.316 15.6114 619.324 14.4883 4.67809 2.87088 3.06978 2.47654 1.18874 0.886862 15.1469 9.81018 2.00048 0.99811 0.65875 1.68214 14.7051 3.72605 1.97249 2.28817 0.44175 0.704596 0.0919715 0.567591 0.146611 0.0503516
internal_count=23318 6065 4333 4280 2055 1217 17253 17175 2892 2225 2634 1494 436 300 1213 14283 2063 559 527 1789 130 54 45 53 1083 838 502 1463 1283 106
is_linear=0
shrinkage=0.1


Tree=20
num_leaves=31
num_cat=0
split_feature=6 2 12 8 7 13 12 6 3 3 9 1 7 1 9 3 3 7 3 2 8 0 7 6 3 3 3 7 6 7
split_gain=8.09495 0.509686 0.504416 0.498651 0.358019 0.314727 0.288827 0.270749 0.275948 0.195791 0.175692 0.174287 0.249313 0.452356 0.742064 0.839627 0.239342 0.105827 0.102672 0.0909728 0.0906139 0.110041 0.109289 0.0662691 0.0528578 0.0415836 0.0800131 0.402963 0.0294583 0.0246456
threshold=-0.68322629814330804 4.5000000000000009 1.0000000180025095e-35 0.6078576107927941 0.35206144883412571 2.5000000000000004 1.0000000180025095e-35 -0.35206144883412549 232.50000000000003 226.50000000000003 -1.0000000180025095e-35 1.5000000000000002 -0.84874750804349175 1.0000000180025095e-35 -0.56174490092936669 226.50000000000003 231.50000000000003 -0.91037613702198739 160.50000000000003 3.5000000000000004 0.87837969732492682 3.5000000000000004 0.65934581510006873 -0.84874750804349186 156.50000000000003 239.50000000000003 236.50000000000003 -0.2269546835593246 -0.9733555533461492 -0.25881904510252068
decision_type=2 2 2 2 2 2 2 2 2 2 2 2 2 2 2 2 2 2 2 2 2 2 2 2 2 2 2 2 2 2
left_child=1 2 3 4 5 9 7 8 10 24 11 12 -2 14 15 -14 -15 19 28 -13 -9 22 -22 -4 29 26 27 -11 -5 -1
right_child=6 -3 23 18 -6 -7 -8 20 -10 25 -12 17 13 16 -16 -17 -18 -19 -20 -21 21 -23 -24 -25 -26 -27 -28 -29 -30 -31
leaf_value=0.035696094455900079 -0.046841083242063673 -0.049652988619853108 -0.014836917591500754 0.060427513998779603 -0.049617835354946724 -0.049658530224082474 -0.049336098571700036 -0.049581579502538539 -0.049658530082701553 -0.022601271026031766 -0.048076175881941206 -0.0496585294569915 -0.049658531103198601 -0.049202882883805303 -0.049658528905598104 0.86987667815127256 0.081293452906275765 -0.04956758136452033 -0.049658530233552725 0.023766260233373117 0.020901042132524375 -0.049657016358113683 -0.049658530357673016 -0.04962205806082419 -0.049658530402222865 0.028148150954553166 0.053682961917035248 0.056244336516938775 -0.0098437888864790404 -0.046890122237581593
leaf_weight=0.14280134180556658 0.22851336674048639 1.294630987294872 1.234727383603172 0.10936920361374536 0.6298191474393694 0.51821683638263394 575.71086337139639 7.4318996826487176 1.5303918889258055 1.0092574134469035 0.56535720091746755 0.21134225757506186 0.01482577725583667 0.19145036912342306 0.034670485232794812 0.030070876702666283 0.52860527951270342 0.43785997174109037 1.1642700054580926 0.83716559471499608 0.67180499830322993 0.95380602375386303 0.32605540490036589 0.98424983123066923 0.38031872530700639 11.536331426817924 2.1390675734728575 1.8119201792869724 0.13124221838805195 0.048375642074814484
leaf_count=483 124 1732 39 292 711 5 78 12220 258 34 1140 63 61 372 64 1 3 745 700 61 69 1504 490 14 540 112 14 33 751 605
internal_value=-0.0467147 0.011311 0.0149248 0.0200356 0.0244628 0.0271158 -0.0489911 -0.034796 -0.0149517 0.0294468 0.00229424 0.0136194 0.0452746 0.0715991 0.297862 0.566228 0.0465967 -0.00827676 -0.037369 0.00896641 -0.0445458 -0.0253697 -0.00215462 -0.0302662 -0.0280964 0.0314403 0.0390971 0.0280378 0.0220978 0.0147984
internal_weight=612.839 23.1346 21.84 19.621 18.2161 17.5863 589.705 13.9938 4.61025 17.0681 3.07986 2.5145 1.02814 0.799623 0.0795671 0.0448967 0.720056 1.48637 1.40488 1.04851 9.38357 1.95167 0.99786 2.21898 0.571496 16.4966 4.96025 2.82118 0.240611 0.191177
internal_count=23318 6065 4333 4280 2537 1826 17253 17175 2892 1821 2634 1494 625 501 126 62 375 869 1743 124 14283 2063 559 53 1628 193 81 67 1043 1088
is_linear=0
shrinkage=0.1


Tree=21
num_leaves=31
num_cat=0
split_feature=6 2 12 11 12 8 6 3 13 8 9 3 1 6 3 8 0 3 3 13 6 3 3 3 7 3 3 6 2 1
split_gain=7.96842 0.471824 0.453365 0.454982 0.298197 0.276782 0.267263 0.263043 0.255136 0.215197 0.161981 0.149375 0.148973 0.124747 0.109014 0.0923927 0.107513 0.106165 0.220271 0.0785611 0.0659556 0.0543567 0.0483432 0.174132 0.327544 0.0407419 0.0313436 0.0473918 0.027957 0.0763208
threshold=-0.68322629814330804 4.5000000000000009 1.0000000180025095e-35 1.0000000180025095e-35 1.0000000180025095e-35 0.6078576107927941 -0.35206144883412549 232.50000000000003 3.5000000000000004 -1.0000000180025095e-35 -1.0000000180025095e-35 226.50000000000003 1.0000000180025095e-35 -0.93540483100319605 226.50000000000003 0.87837969732492682 3.5000000000000004 245.50000000000003 238.50000000000003 3.5000000000000004 -0.84874750804349186 156.50000000000003 239.50000000000003 236.50000000000003 -0.2269546835593246 160.50000000000003 199.50000000000003 -0.38268343236508934 1.5000000000000002 1.5000000000000002
decision_type=2 2 2 2 2 2 2 2 2 2 2 2 2 2 2 2 2 2 2 2 2 2 2 2 2 2 2 2 2 2
left_child=1 2 3 9 6 8 7 10 14 12 11 26 -1 -14 21 -8 17 18 -17 -11 -4 -5 23 24 -16 28 27 -2 29 -7
right_child=4 -3 20 5 -6 25 15 -9 -10 19 -12 -13 13 -15 22 16 -18 -19 -20 -21 -22 -23 -24 -25 -26 -27 -28 -29 -30 -31
leaf_value=-0.049658528630683513 -0.040888342117129779 -0.04965270627248157 -0.014316420693940582 0.023671023616456257 -0.049319792206209995 0.69572706345427604 -0.04957766795939586 -0.049658530722309469 -0.049658530095408285 -0.049658530189856082 -0.04799824391353949 0.024641082139264886 0.048175057055482279 -0.049507216081226407 -0.021982780005017757 -0.049658529760870429 -0.049656939088420067 -0.049658530183866019 0.066787144891740299 0.032340822750108286 -0.049620201909948508 -0.049658530252526083 0.027317339764222143 0.061024970380268363 0.057917298323689498 -0.049658530330727015 -0.049658529729742391 0.076704941687206485 0.006857746936498892 -0.049658530864320587
leaf_weight=0.29314416651098552 0.087897873385145875 1.2319185016936263 1.2165430807951909 0.16661355274465783 547.99679572077116 0.0022103945979655695 7.0724002864882518 1.4562509562820194 0.42056507620145467 1.4541617630822132 0.53882000528767493 2.0355880064889789 0.78715023345573343 0.15677629640884305 0.98670278000645328 0.27032019415586439 0.90759959672266888 0.3188571254722774 0.40707630710676312 0.12704669595609619 0.93660134372390658 0.25703217319460236 11.660844706464559 1.9971760017797349 1.0688533401116722 0.5547045951752807 0.3879818280111067 0.05617483408439472 0.092043617447536974 0.0036288241458422021
leaf_count=136 1177 1732 39 723 78 126 12220 258 4 1784 1140 31 134 166 34 512 1504 32 15 5 14 360 76 9 11 336 180 106 251 125
internal_value=-0.0465743 0.0105842 0.0139296 0.018617 -0.0489576 0.0247161 -0.0342967 -0.0145901 0.0272338 -0.0186285 0.00184936 0.0123099 0.0126123 0.0319511 0.0292377 -0.0443138 -0.0247597 -0.002078 0.0203186 -0.0430701 -0.0296733 -0.0208191 0.0305873 0.0399958 0.0195639 -0.0391625 -0.0348681 0.004962 0.0203186 0.232502
internal_weight=584.949 23.4137 22.1818 20.0287 561.536 17.2104 13.539 4.56271 16.5578 2.81828 3.10646 2.56764 1.23707 0.943927 16.1372 8.97625 1.90385 0.996254 0.677397 1.58121 2.15314 0.423646 15.7136 4.05273 2.05556 0.652587 0.532055 0.144073 0.0978828 0.00583922
internal_count=23318 6065 4333 4280 17253 2055 17175 2892 1217 2225 2634 1494 436 300 1213 14283 2063 559 527 1789 53 1083 130 54 45 838 1463 1283 502 251
is_linear=0
shrinkage=0.1


Tree=22
num_leaves=31
num_cat=0
split_feature=6 2 12 8 12 7 6 13 3 6 3 7 3 3 8 0 3 3 6 3 7 3 1 3 3 3 3 6 0 1
split_gain=7.84777 0.437484 0.408132 0.40326 0.308099 0.293053 0.265288 0.259252 0.253169 0.15344 0.155226 0.173649 0.152238 0.0954849 0.0940572 0.104792 0.0988728 0.191806 0.0655701 0.0491935 0.0356739 0.0425778 0.263574 0.0296925 0.0452298 0.0292137 0.0797203 0.0248937 0.0209774 0.016493
threshold=-0.68322629814330804 4.5000000000000009 1.0000000180025095e-35 0.6078576107927941 1.0000000180025095e-35 0.35206144883412571 -0.35206144883412549 2.5000000000000004 232.50000000000003 -0.58216583101416131 226.50000000000003 -0.84874750804349175 226.50000000000003 160.50000000000003 0.87837969732492682 3.5000000000000004 245.50000000000003 238.50000000000003 -0.84874750804349186 156.50000000000003 -0.16280825711808977 236.50000000000003 2.5000000000000004 199.50000000000003 198.50000000000003 239.50000000000003 236.50000000000003 -0.9733555533461492 16.500000000000004 1.5000000000000002
decision_type=2 2 2 2 2 2 2 2 2 2 2 2 2 2 2 2 2 2 2 2 2 2 2 2 2 2 2 2 2 2
left_child=1 2 3 5 6 7 8 12 9 -2 23 -12 19 27 -8 16 17 -16 -4 28 25 -22 -23 24 -11 26 -14 -5 -1 -27
right_child=4 -3 18 13 -6 -7 14 -9 -10 10 11 -13 20 -15 15 -17 -18 -19 -20 -21 21 22 -24 -25 -26 29 -28 -29 -30 -31
leaf_value=0.030776319373429936 -0.047744096342216574 -0.049652409710379791 -0.013806809804322945 0.052346246198801155 -0.049302669213492717 -0.049613589243911363 -0.049573557955579578 -0.049658532727740193 -0.049658530344566972 -0.042108360148969105 -0.0017255802595760692 0.056940739655286524 0.022264082975114469 -0.049658530436885312 -0.049658530633202129 -0.049656858429932699 -0.049658530811898458 0.059264084218055735 -0.049618254679256638 -0.049658530338136664 0.028235348335537043 -0.049658530609185521 0.057844293032500951 -0.049658531673532451 0.070783471468770509 0.021891973466396875 0.051583031153028737 -0.010643504995250876 -0.046709230492507837 0.029356669815671838
leaf_weight=0.15153574127911085 0.52197038137453677 1.1722441748454588 1.1992505992262752 0.11803391409272723 521.62535526277179 0.57031913870332474 6.730317077306422 0.47631734391325053 1.3857018686830995 0.089369225082883363 1.1342982095666232 0.90875988476909686 1.9783836982678631 1.0541947691890525 0.25722433740855855 0.86363166474059483 0.30340986279770732 0.43519220408052206 0.89126115167169828 0.34714664082639501 0.98730158084072062 0.5106144268065691 0.41215865081176162 0.40089072004775517 0.058865617262199521 5.5709243323653936 1.745787083171308 0.13393237163287974 0.045408593962584121 6.3152562589384615
leaf_count=483 878 1732 39 292 78 711 12220 5 258 1488 16 29 38 700 512 1504 32 15 14 540 29 41 14 216 7 38 7 751 605 26
internal_value=-0.0464276 0.00990655 0.0130085 0.0173173 -0.0489224 0.0209914 -0.0337694 0.0231632 -0.0141002 0.00172214 0.0116828 0.0243694 0.0250834 -0.0364401 -0.0440733 -0.0241652 -0.00205759 0.0188007 -0.0290745 -0.0270103 0.0267011 0.0138013 -0.00164215 -0.0355185 0.00272218 0.0282795 0.036008 0.0188641 0.0129108 0.025858
internal_weight=558.395 23.6801 22.5078 20.4173 534.715 19.1112 13.0896 18.5408 4.49986 3.11415 2.59218 2.04306 18.0645 1.30616 8.58978 1.85946 0.995826 0.692417 2.09051 0.544091 17.5204 1.91007 0.922773 0.549126 0.148235 15.6104 3.72417 0.251966 0.196944 11.8862
internal_count=23318 6065 4333 4280 17253 2537 17175 1826 2892 2634 1756 45 1821 1743 14283 2063 559 527 53 1628 193 84 55 1711 1495 109 45 1043 1088 64
is_linear=0
shrinkage=0.1


Tree=23
num_leaves=31
num_cat=0
split_feature=6 2 12 8 12 7 6 3 13 9 3 6 7 1 9 3 8 8 0 6 3 6 3 6 6 1 3 3 6 1
split_gain=7.73412 0.406429 0.368185 0.36403 0.318121 0.266646 0.2629 0.243464 0.234969 0.148119 0.13434 0.127543 0.202007 0.19559 0.227806 0.191049 0.139386 0.0956801 0.102103 0.0939521 0.0923809 0.0651143 0.0474191 0.0307911 0.111689 0.144304 0.075549 0.0837674 0.259027 0.0246505
threshold=-0.68322629814330804 4.5000000000000009 1.0000000180025095e-35 0.6078576107927941 1.0000000180025095e-35 0.35206144883412571 -0.35206144883412549 232.50000000000003 2.5000000000000004 1.0000000180025095e-35 226.50000000000003 -0.58216583101416131 -0.84874750804349175 1.0000000180025095e-35 -0.56174490092936669 231.50000000000003 1.0000000180025095e-35 0.87837969732492682 3.5000000000000004 0.77259657388510639 160.50000000000003 -0.84874750804349186 156.50000000000003 -0.8814490726585632 -0.93540483100319605 1.0000000180025095e-35 236.50000000000003 253.50000000000003 -0.99465189230620676 1.0000000180025095e-35
decision_type=2 2 2 2 2 2 2 2 2 2 2 2 2 2 2 2 2 2 2 2 2 2 2 2 2 2 2 2 2 2
left_child=1 2 3 5 6 8 7 9 10 11 22 -2 16 14 -14 -15 -13 -8 19 -19 -5 -4 -1 24 25 -12 -27 28 -28 -25
right_child=4 -3 21 20 -6 -7 17 -9 -10 -11 23 12 13 15 -16 -17 -18 18 -20 -21 -22 -23 -24 29 -26 26 27 -29 -30 -31
leaf_value=0.012075759398329389 -0.049318155402283514 -0.049652098170311333 -0.013308377491692417 0.017550369044439795 -0.049284684684433117 -0.049611304287292823 -0.049569239363143128 -0.04965853001886672 -0.049658527918135797 -0.047893273413631754 -0.0076927933773407653 0.018257424588296624 0.25433799893699094 -0.049542113490336798 -0.049658529481226371 0.064925616662360353 -0.048322349099404027 -0.049658530305027877 -0.049656773125492978 0.017790768511329869 -0.049658530277884243 -0.049616204275526654 -0.049658530339458405 0.032209282935212878 -0.0097915942165339876 0.04787984720567285 0.056634300577738231 0.038728947856432355 -0.04965853124971234 0.02307137183452343
leaf_weight=0.19960833193824612 0.30755056408732206 1.1154608027507773 1.1828065767408023 0.25689153993066938 496.5315123544429 0.54271401170444633 6.4048063401988973 1.3185705600772051 0.45324183715274458 0.5067793012957863 1.0542363643180586 0.9050702160829196 0.090959030417046449 0.19219462534558573 0.033814765450887019 0.60411416413262486 0.48183855123609476 0.29245314591665639 0.82179379565342359 0.70278380101346727 1.003123563241388 0.84811758122378833 0.33032887757872231 5.9475053627975267 1.1086276143323646 1.9673029698897151 0.41685049631632898 1.1313819885253906 0.50946878478862323 5.86153659876436
leaf_count=1088 498 1732 39 1043 78 711 12220 258 5 1140 32 181 62 496 64 4 189 490 1504 69 700 14 540 22 21 29 14 1 40 34
internal_value=-0.0462745 0.00928641 0.0121682 0.0161394 -0.0488855 0.0195017 -0.0332337 -0.0136281 0.0214779 0.00158774 0.0232182 0.011175 0.019236 0.0555389 0.171952 0.037298 -0.00487366 -0.0438234 -0.02357 -0.0020294 -0.035956 -0.0284706 -0.0264054 0.0246794 0.0189653 0.025242 0.0338683 0.0204723 -0.00182597 0.0276736
internal_weight=533.123 23.9292 22.8137 20.7828 509.194 19.5228 12.6627 4.44089 18.9801 3.12232 18.5268 2.61554 2.30799 0.921083 0.124774 0.796309 1.38691 8.22184 1.81703 0.995237 1.26002 2.03092 0.529937 17.9969 6.18787 5.07924 4.025 2.0577 0.926319 11.809
internal_count=23318 6065 4333 4280 17253 2537 17175 2892 1826 2634 1821 1494 996 626 126 500 370 14283 2063 559 1743 53 1628 193 137 116 84 55 54 56
is_linear=0
shrinkage=0.1


Tree=24
num_leaves=31
num_cat=0
split_feature=6 2 12 8 12 6 7 3 13 9 3 6 7 8 1 3 9 8 7 6 3 6 3 7 3 1 3 3 6 1
split_gain=7.62534 0.378126 0.332595 0.329257 0.328195 0.259798 0.243368 0.233589 0.213697 0.138294 0.11887 0.117179 0.168043 0.130618 0.129949 0.163914 0.14031 0.0973125 0.0997256 0.135302 0.0895051 0.0645901 0.0457526 0.0284096 0.0310536 0.223315 0.0260561 0.0726978 0.0207492 0.0188784
threshold=-0.68322629814330804 4.5000000000000009 1.0000000180025095e-35 0.6078576107927941 1.0000000180025095e-35 -0.35206144883412549 0.35206144883412571 232.50000000000003 2.5000000000000004 -1.0000000180025095e-35 226.50000000000003 -0.58216583101416131 -0.84874750804349175 1.0000000180025095e-35 1.0000000180025095e-35 231.50000000000003 -0.56174490092936669 0.87837969732492682 0.58216583101416164 0.77259657388510639 160.50000000000003 -0.84874750804349186 156.50000000000003 -0.16280825711808977 236.50000000000003 2.5000000000000004 239.50000000000003 236.50000000000003 -0.9733555533461492 1.5000000000000002
decision_type=2 2 2 2 2 2 2 2 2 2 2 2 2 2 2 2 2 2 2 2 2 2 2 2 2 2 2 2 2 2
left_child=1 2 3 6 5 7 8 9 10 11 22 -2 13 -13 16 -16 -14 -7 -19 -20 28 -4 29 26 -25 -26 27 -12 -5 -1
right_child=4 -3 21 20 -6 17 -8 -9 -10 -11 23 12 14 -15 15 -17 -18 18 19 -21 -22 -23 -24 24 25 -27 -28 -29 -30 -31
leaf_value=-0.047379661050138105 -0.049300948414022383 -0.04965177063701004 -0.012821382748032554 0.045459923827177576 -0.049265796338319762 -0.049564701811070304 -0.049608901296587668 -0.049658530757144242 -0.049658530923288154 -0.047806672678010267 0.01850837809316137 0.017028705179888044 0.18606939861347138 -0.048256196813034009 -0.049536201608391825 0.057722533018037127 -0.049658530570921885 -0.049656685136743428 -0.049658530481272528 0.026620161506371937 -0.049658530358608378 -0.049614051883356936 -0.049658530203147214 0.023272702781829576 -0.049658529874834198 0.048578095611033288 0.021982916064040809 0.045722038218372861 -0.010912047925401453 0.027249418627425311
leaf_weight=0.043083651402542666 0.29275068860454956 1.0614283489206737 1.1671696202904511 0.12657925477084575 472.6533827438991 6.0950651938007319 0.51644623961109815 1.2546914736740289 0.43128420892753538 0.48308002738279965 2.0873842411674604 0.92174622612931567 0.11730145874338405 0.45910858504248608 0.18290491080943383 0.64463792368769646 0.032176585426931026 0.78264227201425363 0.37158897090683851 0.62143533479570578 0.95452653599204496 0.80706405547687055 0.31432586276059737 1.0544830430299033 0.47521073557436455 0.45103561226278543 12.529111573006958 1.853063138201833 0.13486062449690084 0.15894971291782412
leaf_count=606 498 1732 39 292 78 12220 711 258 5 1140 38 181 62 189 496 4 64 1363 665 35 700 14 540 29 41 14 64 7 751 482
internal_value=-0.0461146 0.0087088 0.0113899 0.0150573 -0.0488468 -0.032693 0.0181418 -0.0131971 0.0199456 0.00140156 0.0215283 0.0103698 0.0177785 -0.00467731 0.0495159 0.034016 0.135327 -0.0435631 -0.0229622 -0.00192327 -0.0354596 -0.0278622 -0.025794 0.0228527 0.0115376 -0.00182221 0.0242135 0.0313061 0.0163811 0.0113348
internal_weight=509.079 24.166 23.1046 21.1303 484.913 12.2591 19.9144 4.3884 19.3979 3.13371 18.9666 2.65063 2.35788 1.38085 0.977021 0.827543 0.149478 7.87073 1.77567 0.993024 1.21597 1.97423 0.516359 18.4503 1.98073 0.926246 16.4696 3.94045 0.26144 0.202033
internal_count=23318 6065 4333 4280 17253 17175 2537 2892 1826 2634 1821 1494 996 370 626 500 126 14283 2063 700 1743 53 1628 193 84 55 109 45 1043 1088
is_linear=0
shrinkage=0.1


Tree=25
num_leaves=31
num_cat=0
split_feature=6 2 12 12 8 6 3 7 13 9 6 7 8 3 3 8 7 6 3 6 3 6 6 1 3 3 6 1 0 6
split_gain=7.52172 0.352344 0.338412 0.300907 0.298503 0.25655 0.224226 0.222812 0.195016 0.129364 0.108015 0.141316 0.122523 0.108356 0.10556 0.0988704 0.0971547 0.125522 0.0867349 0.0639996 0.0441219 0.0247953 0.0989067 0.125057 0.0584203 0.0666894 0.221464 0.0193807 0.0178688 0.0177788
threshold=-0.68322629814330804 4.5000000000000009 1.0000000180025095e-35 1.0000000180025095e-35 0.6078576107927941 -0.35206144883412549 232.50000000000003 0.35206144883412571 2.5000000000000004 1.0000000180025095e-35 -0.58216583101416131 -0.84874750804349175 1.0000000180025095e-35 226.50000000000003 226.50000000000003 0.87837969732492682 0.58216583101416164 0.77259657388510639 160.50000000000003 -0.84874750804349186 156.50000000000003 -0.8814490726585632 -0.93540483100319605 1.0000000180025095e-35 236.50000000000003 253.50000000000003 -0.99465189230620676 1.0000000180025095e-35 16.500000000000004 -0.9733555533461492
decision_type=2 2 2 2 2 2 2 2 2 2 2 2 2 2 2 2 2 2 2 2 2 2 2 2 2 2 2 2 2 2
left_child=1 3 5 4 7 6 9 8 14 10 -2 12 -12 -13 20 -7 -17 -18 29 -5 28 22 23 -16 -25 26 -26 -23 -1 -6
right_child=2 -3 -4 19 18 15 -8 -9 -10 -11 11 13 -14 -15 21 16 17 -19 -20 -21 -22 27 -24 24 25 -27 -28 -29 -30 -31
leaf_value=0.025907803173314526 -0.049282878102025113 -0.04965142644661899 -0.04924596548985944 -0.012346039264030016 0.041232659781590936 -0.049559934063945876 -0.049658530233518405 -0.04960637682808966 -0.049658528519033546 -0.047715990983351719 0.015902722240732286 -0.049454451207087663 -0.048186863822233306 0.055720876837567636 -0.0085504650303339091 -0.049656591502895669 -0.049658530361752287 0.024616400502878159 -0.049658530232138322 -0.049611787618770303 -0.049658530266325593 0.027717277437260601 -0.010649241324948166 0.041432649532731812 0.047864220969939628 0.03352242539988514 -0.049658529419841196 0.019818925803517285 -0.046553544227931495 -0.010486928872761972
leaf_weight=0.16129874386587317 0.27866780143682879 1.0100135317025571 449.93201381872359 1.152300406715369 0.1324663375222741 5.8003296813178551 1.1939070697408167 0.49145103412072799 0.41039034727145818 0.46052892071909202 0.93757679339614053 0.10963670144244886 0.43747981606114195 0.91927955625578761 1.0762318032793707 0.74472798836679721 0.35358708218485901 0.63820019047648202 0.9082838271278888 0.76799943624166545 0.29909812474579667 6.292784027522428 1.1330016022548095 2.1065435535274446 0.45433725859038587 1.2021982669830322 0.47767978580668524 6.1359324983786792 0.043131775452430077 0.13339702140355914
leaf_count=483 498 1732 78 39 292 12220 258 711 5 1140 181 612 189 14 32 1363 665 35 700 14 540 22 21 29 14 1 40 34 605 751
internal_value=-0.0459478 0.00817623 -0.0488062 0.0106745 0.0140684 -0.0321426 -0.0127656 0.0169061 0.0185576 0.00124783 0.00965345 0.0164853 -0.00448764 0.0445139 0.020002 -0.0432931 -0.0223603 -0.00186373 -0.0349539 -0.02725 -0.0251859 0.0212072 0.0161765 0.0218928 0.0296187 0.017958 -0.00211839 0.0238179 0.0106195 0.0152823
internal_weight=486.194 24.3885 461.806 23.3785 21.4582 11.8739 4.33708 20.2841 19.7926 3.14317 2.68264 2.40397 1.37506 1.02892 19.3822 7.53684 1.73652 0.991787 1.17415 1.9203 0.503529 18.8787 6.44999 5.31699 4.24076 2.13422 0.932017 12.4287 0.204431 0.265863
internal_count=23318 6065 17253 4333 4280 17175 2892 2537 1826 2634 1494 996 370 626 1821 14283 2063 700 1743 53 1628 193 137 116 84 55 54 56 1088 1043
is_linear=0
shrinkage=0.1


Tree=26
num_leaves=31
num_cat=0
split_feature=6 12 2 12 8 6 3 7 13 9 8 6 7 8 7 6 3 3 3 6 3 3 3 7 1 7 6 6 1 7
split_gain=7.42177 0.348793 0.328719 0.272508 0.271056 0.253228 0.215417 0.204509 0.17847 0.121278 0.100367 0.0999239 0.120268 0.115033 0.094594 0.116681 0.0939656 0.0932036 0.0841063 0.0633452 0.0425556 0.024692 0.0522015 0.239144 0.0164047 0.0161274 0.0130577 0.0872498 0.206408 0.0122595
threshold=-0.68322629814330804 1.0000000180025095e-35 4.5000000000000009 1.0000000180025095e-35 0.6078576107927941 -0.35206144883412549 232.50000000000003 0.35206144883412571 2.5000000000000004 1.0000000180025095e-35 0.87837969732492682 -0.58216583101416131 -0.84874750804349175 1.0000000180025095e-35 0.58216583101416164 0.77259657388510639 226.50000000000003 226.50000000000003 160.50000000000003 -0.84874750804349186 156.50000000000003 239.50000000000003 236.50000000000003 -0.2269546835593246 1.5000000000000002 -0.2269546835593246 -0.72947329433276231 -0.81241147629688981 2.5000000000000004 -0.16280825711808977
decision_type=2 2 2 2 2 2 2 2 2 2 2 2 2 2 2 2 2 2 2 2 2 2 2 2 2 2 2 2 2 2
left_child=2 5 3 4 7 6 9 8 16 11 -7 -2 13 -13 -12 -16 20 -14 25 -5 24 22 23 -18 -1 -6 27 28 -23 -27
right_child=1 -3 -4 19 18 10 -8 -9 -10 -11 14 12 17 -15 15 -17 21 -19 -20 -21 -22 26 -24 -25 -26 29 -28 -29 -30 -31
leaf_value=-0.047226468352514261 -0.04926390079571577 -0.049225137190385564 -0.049651064833439527 -0.011882521654636781 -0.049343304153358886 -0.04955492451770846 -0.049658530428176417 -0.049603725044700918 -0.049658529878805847 -0.047621053482098753 -0.049656492827697969 0.014868366521111485 -0.049444104651408832 -0.048114212142951147 -0.049658530305169105 0.02281033578310419 -0.023170144597332937 0.050009638636757697 -0.049658530340734752 -0.049609410703801989 -0.049658530288072343 -0.049658529905567475 0.035736768075138668 0.034913209740647717 0.023835926656246786 0.14035943288399383 0.020997478441121931 0.021188819238316083 0.018047901097221427 0.019198952842858413
leaf_weight=0.040369879468797332 0.26526717426543234 428.311415019609 0.9610895443680495 1.1381615285926612 0.034722642162989814 5.5198728373371218 1.1360673966119064 0.46766672751338845 0.39050868659978633 0.43907035758715895 0.70865048961320176 0.95260598939340535 0.10434656769205275 0.41689889054045892 0.33645730632300896 0.65410535982539386 1.0309325624257328 0.97195661533623934 0.86428137655093451 0.73082732096861391 0.28460810576871154 0.64772707573138277 2.5886019002646208 2.2689321211073556 0.16633222637076273 0.0086707398612873021 5.6414514435455194 5.6318444069474936 1.4769645407795906 0.22665446155379132
leaf_count=606 498 78 1732 39 377 12220 258 711 5 1140 1363 181 612 189 665 35 34 14 700 14 540 67 14 33 482 42 7 13 25 624
internal_value=-0.0457738 -0.0487636 0.00767828 0.0100091 0.013155 -0.0315814 -0.0123278 0.0157711 0.017287 0.0011351 -0.0430129 0.00903137 0.0153539 -0.00430452 -0.0217611 -0.00180464 0.0186088 0.0403677 -0.0344377 -0.0266348 -0.0245773 0.019709 0.0251062 0.016767 0.00995711 0.0142761 0.0173369 0.0146745 -0.00259288 0.0236632
internal_weight=464.417 439.817 24.6003 23.6393 21.7703 11.5053 4.28621 20.6359 20.1683 3.15015 7.21909 2.71108 2.44581 1.3695 1.69921 0.990563 19.7778 1.0763 1.13433 1.86899 0.49131 19.2865 5.88847 3.29986 0.206702 0.270048 13.398 7.75654 2.12469 0.235325
internal_count=23318 17253 6065 4333 4280 17175 2892 2537 1826 2634 14283 1494 996 370 2063 700 1821 626 1743 53 1628 193 81 67 1088 1043 112 105 92 666
is_linear=0
shrinkage=0.1


Tree=27
num_leaves=31
num_cat=0
split_feature=6 12 2 6 12 8 3 7 13 9 8 6 7 8 7 6 1 3 9 3 3 6 3 7 3 3 1 0 7 1
split_gain=7.32538 0.359274 0.307051 0.249653 0.247037 0.246541 0.206922 0.188167 0.163766 0.113794 0.101798 0.0926182 0.102928 0.108086 0.0920461 0.108657 0.0880693 0.119034 0.0868488 0.0838365 0.0815769 0.0626296 0.0410495 0.0250916 0.0219171 0.0546766 0.0210812 0.0155755 0.0147579 0.0133356
threshold=-0.68322629814330804 1.0000000180025095e-35 4.5000000000000009 -0.35206144883412549 1.0000000180025095e-35 0.6078576107927941 232.50000000000003 0.35206144883412571 2.5000000000000004 1.0000000180025095e-35 0.87837969732492682 -0.58216583101416131 -0.84874750804349175 1.0000000180025095e-35 0.58216583101416164 0.77259657388510639 1.0000000180025095e-35 231.50000000000003 -0.56174490092936669 226.50000000000003 160.50000000000003 -0.84874750804349186 156.50000000000003 -0.16280825711808977 239.50000000000003 236.50000000000003 1.5000000000000002 16.500000000000004 -0.2269546835593246 1.5000000000000002
decision_type=2 2 2 2 2 2 2 2 2 2 2 2 2 2 2 2 2 2 2 2 2 2 2 2 2 2 2 2 2 2
left_child=2 3 4 6 5 7 9 8 19 11 -5 -2 13 -13 -12 -16 18 -18 -14 22 28 -6 27 24 25 -21 -25 -1 -7 -26
right_child=1 -3 -4 10 21 20 -8 -9 -10 -11 14 12 16 -15 15 -17 17 -19 -20 23 -22 -23 -24 26 29 -27 -28 -29 -30 -31
leaf_value=0.022733926502288698 -0.049243973191316702 -0.049203268717180199 -0.049650684987009447 -0.049549660988705106 -0.011430971901943074 -0.049327360345255526 -0.049658530475601405 -0.049600937557316642 -0.049658532824237239 -0.047521679781767717 -0.049656388826120029 0.013916053596454673 0.13122841585994732 -0.048038094528768775 -0.049658530456868535 0.021176006859096402 -0.049532134492435376 0.041530152133641252 -0.04965853113375801 0.014954303778101889 -0.049658530439484497 -0.049606911671373273 -0.049658530236792411 -0.0041816495251144432 0.01421913611255239 0.037727325140714738 0.016240313849585276 -0.046350281172708861 0.021929177512595252 0.020554356976368687
leaf_weight=0.16837051028191652 0.25251574822917566 407.73824498741237 0.91453570981062782 5.2530029275873567 1.1247173268013169 0.033050895635007294 1.0810298135038463 0.44503467727143586 0.37159021539264259 0.41865140969570536 0.67432079236479914 0.96687549198048184 0.15286470903556904 0.39731502539471819 0.32015739428840462 0.66919719264569721 0.17702118804668387 0.75910636270418763 0.032120234457438945 2.2022022763267204 0.82241065680136671 0.69545605746406991 0.27082006584532792 0.84617093112319652 6.2400908670388162 2.022595246322453 1.2554355876054613 0.040481699788202263 0.24102535198814823 7.1069750180467963
leaf_count=483 498 78 1732 12220 39 377 258 711 5 1140 1363 181 62 189 665 35 496 4 64 38 700 14 540 42 38 7 42 605 666 26
internal_value=-0.0455924 -0.0487189 0.00721448 -0.0310123 0.00939166 0.0123124 -0.0118987 0.0147295 0.0161244 0.00103332 -0.0427223 0.00845807 0.0143208 -0.00412784 -0.0211652 -0.00174621 0.0367695 0.0243103 0.0998197 0.0173373 -0.0339124 -0.0260173 -0.0239687 0.0183444 0.0195795 0.0258567 0.00801781 0.00934338 0.0133363 0.0175925
internal_weight=443.693 418.892 24.801 11.1542 23.8864 22.0663 4.2375 20.9698 20.5247 3.15647 6.91668 2.73782 2.4853 1.36419 1.66368 0.989355 1.12111 0.936128 0.184985 20.1531 1.09649 1.82017 0.479672 19.6735 17.5719 4.2248 2.10161 0.208852 0.274076 13.3471
internal_count=23318 17253 6065 17175 4333 4280 2892 2537 1826 2634 14283 1494 996 370 2063 700 626 500 126 1821 1743 53 1628 193 109 45 84 1088 1043 64
is_linear=0
shrinkage=0.1


Tree=28
num_leaves=31
num_cat=0
split_feature=6 12 2 3 12 8 3 9 7 13 1 2 3 3 0 0 1 6 3 9 7 3 1 3 3 5 1 9 7 0
split_gain=7.23291 0.3698 0.287195 0.250063 0.224227 0.224601 0.221782 0.222053 0.173556 0.150678 0.120472 0.100848 0.0791824 0.0749825 0.0616208 0.0576656 0.11621 0.0568905 0.0395981 0.0382396 0.0216143 0.0208897 0.179918 0.0185125 0.0454934 0.0178553 0.0143745 0.0139891 0.0135479 0.0124245
threshold=-0.68322629814330804 1.0000000180025095e-35 4.5000000000000009 239.50000000000003 1.0000000180025095e-35 0.6078576107927941 226.50000000000003 1.0000000180025095e-35 0.35206144883412571 2.5000000000000004 2.5000000000000004 4.5000000000000009 160.50000000000003 226.50000000000003 15.500000000000002 21.500000000000004 1.0000000180025095e-35 -0.95642797789208678 156.50000000000003 -0.22252093395631442 -0.16280825711808977 236.50000000000003 2.5000000000000004 239.50000000000003 236.50000000000003 3.5000000000000004 1.5000000000000002 -0.22252093395631442 -0.2269546835593246 13.500000000000002
decision_type=2 2 2 2 2 2 2 2 2 2 2 2 2 2 2 2 2 2 2 2 2 2 2 2 2 2 2 2 2 2
left_child=2 3 4 6 5 8 25 10 9 13 11 15 28 18 -6 16 -8 -16 26 -18 23 -22 -23 24 -15 27 -1 -2 -7 -21
right_child=1 -3 -4 -5 14 12 7 -9 -10 -11 -12 -13 -14 20 17 -17 19 -19 -20 29 21 22 -24 -25 -26 -27 -28 -29 -30 -31
