tree
version=v4
num_class=1
num_tree_per_iteration=1
label_index=0
max_feature_idx=15
objective=poisson
feature_names=hour quarter dayofweek dayofyear weekofyear month tod_sin tod_cos dayofweek_sin dayofweek_cos is_weekend is_business_hours lag_15m lag_1h lag_1d lag_1w
feature_infos=[0:23] [0:3] [0:6] [69:292] [11:42] [3:10] [-1:1] [-1:1] [-0.97492791218182362:0.97492791218182362] [-0.90096886790241903:1] [0:1] [0:1] [0:49] [0:49] [0:49] [0:49]
tree_sizes=3381 3405 3404 3410 3405 3410 3433 3427 3427 3417 3428 3423 3432 3441 3418 3443 3443 3457 3471 3468 3464 3450 3463 3430 3447 3460 3458 3424 3443 3428 3438 3469 3448 3443 3443 3460 3458 3440 3432 3453 3427 3444 3447 3455 3445 3431 3439 3443 3449 3432 3431 3450 3454 3470 3462 3444 3435 3442 3444 3452 3469 3469 3446 3463 3448 3465 3452 3462 3465 3467 3460 3455 3480 3463 3464 3459 3466 3469 3470 3456 3469 3485 3443 3487 3468 3478 3513 3454 3448 3466 3476 3471 3463 3452 3438 3483 3456 3481 3457 3451

Tree=0
num_leaves=31
num_cat=0
split_feature=12 12 12 3 15 14 6 7 12 3 12 6 6 6 6 7 6 3 9 1 13 15 3 14 12 2 6 7 1 12
split_gain=601.782 145.601 58.4897 56.6584 57.1874 49.742 60.0791 30.5086 26.7482 22.4924 20.8893 14.9636 13.3267 9.59681 12.83 8.11764 11.1999 17.6367 8.6912 9.51119 8.67476 7.99777 6.70276 6.30216 6.2694 20.6449 7.64766 7.91213 5.59194 5.31395
threshold=11.500000000000002 3.5000000000000004 16.500000000000004 283.50000000000006 17.500000000000004 8.5000000000000018 -0.99465189230620676 -0.032701564615071545 6.5000000000000009 261.50000000000006 1.0000000180025095e-35 -0.99465189230620676 -0.99892946161930163 -0.99892946161930163 -0.4124860612920454 0.22695468355932455 0.68322629814330826 282.50000000000006 -0.22252093395631442 1.0000000180025095e-35 2.5000000000000004 13.500000000000002 212.50000000000003 9.5000000000000018 5.5000000000000009 1.0000000180025095e-35 0.63405362205439475 -0.29012925520284116 1.5000000000000002 7.5000000000000009
decision_type=2 2 2 2 2 2 2 2 2 2 2 2 2 2 2 2 2 2 2 2 2 2 2 2 2 2 2 2 2 2
left_child=1 3 13 4 5 10 -7 -6 9 24 15 -5 -10 -2 -15 -1 -17 18 19 20 -18 22 -12 -8 26 -26 -3 -28 -11 -14
right_child=2 8 -4 11 7 6 23 -9 12 28 21 -13 29 14 -16 16 17 -19 -20 -21 -22 -23 -24 -25 25 -27 27 -29 -30 -31
leaf_value=-0.52686315849753373 0.20219311138784601 -0.39641552889816511 0.51109444823421102 -0.45489475111917521 0.32037641535116534 0.07488131354997607 -0.31167755860613044 -0.3507706211005146 0.10096230532929451 -0.50892993487649063 -0.44061732067985859 -0.54351454456073722 -0.35486407784154739 -0.17360004708395543 0.14188278092568596 -0.51664794399437608 -0.40640134132382838 -0.20262572537778611 -0.50798031799848353 -0.48476649325677346 -0.16984245268942577 -0.30177813922394997 -0.49754305489824374 -0.48127889493800707 0.4337663854503605 -0.29978556484065039 -0.047962430589051475 -0.3271352732972721 -0.41740402762765638 -0.23708483122037899
leaf_weight=591.31237827521545 2.4958249575138325 13.248964545926361 4.0173518012270506 19.527860522270203 1.2194914739375238 3.0156873369160158 3.1063752720001485 1.5234253210692248 0.95710215867075277 14.986358910799028 21.63867958690571 784.43266117572784 6.2891592877240354 2.9565197308402276 2.2855988278060959 349.12301929498972 9.0597272162522149 2.2999510169029227 51.56436028923963 17.543970383947453 1.8701646249683097 2.1508681483464889 468.86181249469519 7.4346177287916362 0.43510469185275669 3.245185550478709 1.3778842999636252 3.8567231690394683 12.036959558725355 9.7996733055988425
leaf_count=7126 7 618 59 20 11 22 52 29 8 25 3971 793 131 62 53 4358 150 3 751 302 16 30 1981 190 29 182 45 118 21 241
internal_value=-0.512225 -0.515718 0.201519 -0.519864 -0.50858 -0.509399 -0.318698 -0.0523809 -0.36951 -0.40692 -0.511105 -0.541362 -0.261559 0.0407956 -0.0360474 -0.519253 -0.508824 -0.475648 -0.483493 -0.439148 -0.365925 -0.494188 -0.495032 -0.431298 -0.332252 -0.213061 -0.355984 -0.25365 -0.468162 -0.283125
internal_weight=2413.67 2401.92 11.7553 2335.69 1531.72 1528.98 13.5567 2.74292 66.2331 49.1872 1515.42 803.961 17.0459 7.73794 5.24212 1022.77 431.461 82.3382 80.0382 28.4739 10.9299 492.651 490.5 10.541 22.1639 3.68029 18.4836 5.23461 27.0233 16.0888
internal_count=21404 21223 181 19805 18992 18952 264 40 1418 1038 18688 813 380 122 115 12706 5580 1222 1219 468 166 5982 5952 242 992 211 781 163 46 372
is_linear=0
shrinkage=1


Tree=1
num_leaves=31
num_cat=0
split_feature=12 12 14 13 6 3 15 12 15 12 3 3 15 12 6 7 15 15 3 7 6 9 1 8 3 3 14 0 14 6
split_gain=305.032 61.9913 47.5977 47.8756 84.1027 40.5091 31.7555 29.8529 12.2418 10.8833 9.75781 8.35447 8.04442 7.04203 7.13265 17.2102 6.71181 6.51581 41.8415 6.28087 6.28463 8.71483 6.18092 6.03943 6.67704 5.78862 5.78654 5.67005 4.51047 4.34927
threshold=5.5000000000000009 1.5000000000000002 6.5000000000000009 1.5000000000000002 -0.99465189230620676 283.50000000000006 21.500000000000004 10.500000000000002 13.500000000000002 3.5000000000000004 275.50000000000006 282.50000000000006 1.0000000180025095e-35 1.0000000180025095e-35 -0.98611507088852024 -0.097964660725097477 2.5000000000000004 1.5000000000000002 289.50000000000006 0.16280825711809024 0.68322629814330826 -0.22252093395631442 1.0000000180025095e-35 1.0000000180025095e-35 243.50000000000003 260.50000000000006 1.0000000180025095e-35 17.500000000000004 2.5000000000000004 -0.8814490726585632
decision_type=2 2 2 2 2 2 2 2 2 2 2 2 2 2 2 2 2 2 2 2 2 2 2 2 2 2 2 2 2 2
left_child=1 2 5 12 -5 6 13 16 9 17 23 -6 -4 19 15 -15 27 -3 -19 29 -21 22 -22 24 -11 -14 -18 -2 -16 -1
right_child=7 8 3 4 11 -7 -8 -9 -10 10 -12 -13 25 14 28 -17 26 18 -20 20 21 -23 -24 -25 -26 -27 -28 -29 -30 -31
leaf_value=0.006366295438586073 0.18392637516526356 0.020239397894984426 -0.0036848303941053881 1.0617699312736109 0.036969569053687791 -0.031804397218421265 0.34850341983147171 0.31003600639269352 0.2364546267893137 0.14680462986204901 0.019757307215594277 0.37602919663103473 0.016297132281935571 0.28943858861315369 0.002985929885129537 0.02393664428242985 0.33600179382970086 0.039463607097664131 0.48791427158755724 -0.0045481968081712522 0.11522632976973335 0.00064368148145178209 0.029378519922007469 0.15684275793267644 0.0039459026240589853 0.16971880587681959 0.14837671996809207 0.085800632810707961 0.051747304978297215 -0.018119040344826486
leaf_weight=85.504791392166226 12.72642584635833 183.05787258414057 10.637930805391084 1.3936884731811003 2.381355939040076 744.34058302640915 2.5702291775960466 25.62852284557448 3.1204139866822507 5.7813530559506052 16.451673150062561 1.0458964109420779 3.702338336457613 3.0352672541121128 276.81113955713226 12.479612986950086 3.6807040194944411 34.923108757364389 2.2123501300811759 355.26525138447141 14.127979173888887 56.555821463765824 20.638164864389182 16.214136153852451 7.5367118418216705 7.3244155943393707 2.9702168119329144 10.960153663319941 20.365801193995139 478.60573533541356
leaf_count=1013 300 1992 159 6 70 775 14 214 29 392 21 1 116 38 2731 148 53 724 2 4443 168 828 354 375 28 13 85 126 376 5810
internal_value=-0.000171734 -0.00562967 -0.0114305 0.121777 0.406788 -0.0131346 -0.00265416 0.230574 0.0395363 0.0372278 0.0814759 0.140441 0.0583544 -0.00333617 0.0097785 0.0758784 0.163446 0.0279873 0.0661801 -0.00739361 0.00146628 0.0248641 0.0642646 0.115858 0.0659607 0.118206 0.252211 0.138522 0.00632759 -0.0144077
internal_weight=2422.05 2366.08 2096.79 26.4856 4.82094 2070.3 1325.96 55.966 269.298 266.177 45.9839 3.42725 21.6647 1323.39 312.692 15.5149 30.3375 220.193 37.1355 1010.7 446.587 91.322 34.7661 29.5322 13.3181 11.0268 6.65092 23.6866 297.177 564.111
internal_count=21404 20626 17063 365 77 16698 15923 778 3563 3534 816 71 288 15909 3293 186 564 2718 726 12616 5793 1350 522 795 420 129 138 426 3107 6823
is_linear=0
shrinkage=0.1


Tree=2
num_leaves=31
num_cat=0
split_feature=12 12 3 14 3 15 12 13 6 3 12 3 12 3 15 12 7 6 9 6 3 3 15 6 3 1 15 15 13 12
split_gain=216.163 54.4901 43.6164 32.9383 20.3527 19.9777 13.6057 8.41386 8.19662 26.1477 8.02207 7.38683 7.00661 6.83326 8.43892 6.35062 5.79156 6.08182 6.99042 5.74885 13.5379 5.11739 5.08153 4.17297 4.86698 4.09992 3.92297 5.48839 3.8523 4.41943
threshold=5.5000000000000009 1.5000000000000002 283.50000000000006 6.5000000000000009 275.50000000000006 21.500000000000004 12.500000000000002 4.5000000000000009 -0.98611507088852024 289.50000000000006 3.5000000000000004 261.50000000000006 2.5000000000000004 268.50000000000006 7.5000000000000009 1.0000000180025095e-35 0.22695468355932455 0.68322629814330826 -0.22252093395631442 -0.98611507088852024 272.50000000000006 259.50000000000006 3.5000000000000004 0.41248606129204562 269.50000000000006 1.0000000180025095e-35 3.5000000000000004 6.5000000000000009 9.5000000000000018 7.5000000000000009
decision_type=2 2 2 2 2 2 2 2 2 2 2 2 2 2 2 2 2 2 2 2 2 2 2 2 2 2 2 2 2 2
left_child=1 2 3 5 26 15 28 8 9 10 -3 12 -10 14 -9 16 23 -18 25 20 -17 -14 -4 24 -1 -19 -5 -28 29 -2
right_child=6 7 22 4 -6 -7 -8 13 11 -11 -12 -13 21 -15 -16 19 17 18 -20 -21 -22 -23 -24 -25 -26 -27 27 -29 -30 -31
leaf_value=0.005707583444710616 0.097294887661209917 0.019036401237737206 -0.032253700203793541 0.031067386270952888 0.23063133741675204 0.23134169629416201 0.22649862442257979 0.13321249371348329 0.023478799453439777 0.35778517383087333 0.21124581642286275 0.01392974626590858 0.063441449800519689 0.0031665280397594354 0.49527930744882404 0.011346672405873072 -0.0042975541595277012 0.097280993036899882 0.001746233472217913 0.005970170176262145 0.21308205241812714 0.15462469215265714 0.016581072314642051 -0.023670307261012727 -0.018498705194693491 0.028919490458982372 0.011576554197985995 0.45855649744073634 0.28146957217663465 0.16276630119874802
leaf_weight=166.15319553626614 20.319167693509371 15.741955933695868 704.82093989849091 14.947816198407969 9.2641295194625837 3.6418742693494996 27.765697218572313 8.6499959663306036 46.698853272844644 3.1437991857528678 2.5188235115383568 157.74986866116524 34.041326323109388 3.9420217573642722 0.69549797307991035 12.272663592888422 342.92456746381322 15.853392274380893 51.381494153478343 299.0863347447339 4.5634114146232596 7.5133164823055258 21.971935331821442 241.3633670949439 166.09540945291519 19.643610642237036 0.57075403648195677 0.52960987068945542 1.7628092689483299 20.930322496540612
leaf_count=3656 327 155 757 309 6 14 144 302 1393 2 44 274 1344 6 20 179 4329 168 746 3107 7 23 23 3123 293 301 29 16 55 252
internal_value=-0.000263676 -0.00543709 -0.0110307 -0.000386309 0.112611 -0.00254827 0.171929 0.0359145 0.0320551 0.0914088 0.045549 0.0268908 0.0500582 0.113583 0.160158 -0.0031939 -0.00708686 0.00168985 0.0253232 0.00917071 0.066027 0.0799279 -0.0307774 -0.0136632 -0.00639346 0.0594506 0.0444819 0.22671 0.136702 0.130516
internal_weight=2426.56 2355.78 2075.08 1348.29 25.3123 1322.98 70.778 280.695 267.408 21.4046 18.2608 246.003 88.2535 13.2875 9.34549 1319.34 1003.42 429.803 86.8785 315.922 16.8361 41.5546 726.793 573.612 332.249 35.497 16.0482 1.10036 43.0123 41.2495
internal_count=21404 20626 17063 16283 360 15923 778 3563 3235 201 199 3034 2760 328 322 15909 12616 5544 1215 3293 186 1367 780 7072 3949 469 354 45 634 579
is_linear=0
shrinkage=0.1


Tree=3
num_leaves=31
num_cat=0
split_feature=12 3 12 14 15 3 12 12 13 3 6 3 7 6 9 3 15 0 13 3 9 13 1 3 0 3 8 3 3 1
split_gain=170.713 45.9782 22.5722 21.5295 17.3138 24.7311 14.4548 12.2272 11.9404 11.6254 5.70852 6.45266 5.42385 4.99739 6.21188 4.96322 4.81398 4.10056 4.16447 4.17126 4.06832 3.8532 3.74499 3.68528 6.39648 74.1026 7.83691 20.7638 3.6709 4.68064
threshold=3.5000000000000004 283.50000000000006 7.5000000000000009 6.5000000000000009 13.500000000000002 274.50000000000006 1.0000000180025095e-35 1.5000000000000002 1.5000000000000002 280.50000000000006 -0.99892946161930163 261.50000000000006 0.16280825711809024 0.68322629814330826 -0.22252093395631442 212.50000000000003 3.5000000000000004 9.5000000000000018 2.5000000000000004 269.50000000000006 -0.56174490092936669 1.5000000000000002 1.0000000180025095e-35 261.50000000000006 21.500000000000004 259.50000000000006 0.87837969732492682 252.50000000000003 275.50000000000006 1.0000000180025095e-35
decision_type=2 2 2 2 2 2 2 2 2 2 2 2 2 2 2 2 2 2 2 2 2 2 2 2 2 2 2 2 2 2
left_child=1 3 10 4 6 21 12 16 -5 -10 -2 -12 17 23 22 -8 -3 -1 19 -19 28 -6 -15 24 -14 26 -26 -28 -17 -30
right_child=2 7 -4 8 5 -7 15 -9 9 -11 11 -13 13 14 -16 20 -18 18 -20 -21 -22 -23 -24 -25 25 -27 27 -29 29 -31
leaf_value=-0.024453383356242996 0.17875738361154506 -0.031683178849283393 0.15403508027531265 0.042821876288271048 -0.021165960175588951 0.3381779561167787 0.058465943698288739 0.030778195475357914 0.026859366695106326 0.25120232087488481 0.093441928507639826 0.034104637092706169 -0.0014507368736116615 0.087924638689531182 0.00062494037158305961 0.034684385656455589 0.015491804828185558 0.0024029470843585253 0.045907320475754257 -0.020255139925832662 0.0046329129589819419 0.13491906835162745 0.025210743340836363 -0.011145579391717803 0.00991941618681586 1.2210948250465941 0.042636608457288061 0.73459491017998291 0.052482388006640651 -0.008177333873254854
leaf_weight=208.42690327308992 4.7409065186511716 682.45055818557739 59.683602705546946 23.167787970473 5.5873281161693722 3.6588290333747864 23.860129851764214 34.507282614707947 3.5498761378148611 6.6124709844589233 38.981882738131389 34.587254017591476 89.826026798493331 16.914354182106763 56.554229331341048 113.03475179150701 22.339290678501129 161.88940764745166 14.443692535238368 163.11300653219223 303.48051389679313 2.206090251209389 21.78653822954584 237.96895894408226 20.704878862885387 0.53444769978523154 1.9380962290506425 0.55865989625453938 16.519938468933105 55.308933317661285
leaf_count=2720 20 757 426 362 57 2 3890 33 107 2 1104 49 2962 164 826 531 23 3461 332 294 1333 27 352 486 855 2 125 3 23 76
internal_value=-0.000312049 -0.00681855 0.107708 0.00296017 0.00121492 0.123707 0.00028398 -0.0273423 0.082463 0.172836 0.0723994 0.0655455 -0.00674437 0.00143287 0.0217499 0.0139325 -0.0301879 -0.0134128 -0.00663373 -0.00896875 0.0117566 0.0230172 0.0526201 -0.00407248 0.0107492 0.0569182 0.0301015 0.197465 0.0234512 0.00577381
internal_weight=2428.94 2290.94 137.994 1551.65 1518.32 11.4522 1506.86 739.297 33.3301 10.1623 78.31 73.5691 994.659 446.786 95.2551 512.204 704.79 547.873 339.446 325.002 488.344 7.79342 38.7009 351.531 113.562 23.7361 23.2016 2.49676 184.864 71.8289
internal_count=21404 19805 1599 18992 18521 86 18435 813 471 109 1173 1153 12582 5775 1342 5853 780 6807 4087 3755 1963 84 516 4433 3947 985 983 128 630 99
is_linear=0
shrinkage=0.1


Tree=4
num_leaves=31
num_cat=0
split_feature=12 3 6 0 15 12 3 12 12 3 7 6 3 9 0 8 3 13 3 1 3 15 15 0 2 3 6 6 3 2
split_gain=138.503 42.7578 17.941 21.6556 20.4653 14.6022 13.9996 13.1407 11.3523 7.35988 7.35842 7.54699 6.18945 6.04865 5.93925 14.4735 17.4059 5.75168 5.37297 5.09459 4.89755 4.56011 4.51209 4.22816 3.4541 3.35591 3.19069 5.52343 4.54584 3.10568
threshold=3.5000000000000004 283.50000000000006 -0.98611507088852024 17.500000000000004 1.0000000180025095e-35 6.5000000000000009 267.50000000000006 1.5000000000000002 1.5000000000000002 275.50000000000006 0.22695468355932455 0.68322629814330826 262.50000000000006 -0.56174490092936669 21.500000000000004 0.6078576107927941 259.50000000000006 4.5000000000000009 251.50000000000003 1.0000000180025095e-35 226.50000000000003 3.5000000000000004 7.5000000000000009 10.500000000000002 3.5000000000000004 260.50000000000006 -0.93540483100319605 -0.95642797789208678 274.50000000000006 3.5000000000000004
decision_type=2 2 2 2 2 2 2 2 2 2 2 2 2 2 2 2 2 2 2 2 2 2 2 2 2 2 2 2 2 2
left_child=1 2 3 4 -1 9 -6 10 21 26 20 12 14 19 -12 29 18 -9 -17 25 -4 -3 -19 -22 -21 -13 27 28 -2 -16
right_child=5 8 7 -5 6 -7 -8 17 -10 -11 11 13 -14 -15 15 16 -18 22 -20 24 23 -23 -24 -25 -26 -27 -28 -29 -30 -31
leaf_value=-0.0033057567464449544 0.04077578757314651 -0.03110454443262748 0.023700096955095853 -0.0029363960805070394 0.013308674684311806 0.11988217398073844 0.17686203003244086 0.02080412827052985 0.028340210912387094 0.011718570111539315 0.0037255592495366941 0.014343717155553784 -0.0097160905528943537 0.010754787039760664 0.053911315671225146 0.042197714398811877 0.51874507225619126 0.07734937114205459 0.20430010573373947 -0.016900743534985701 -0.021295687960721954 0.014490284639837725 0.29733700357662657 -0.005205197165821655 0.064648807551183782 0.11182358257618839 0.069563716823390104 0.27697288508743068 0.28501793545283793 -0.012991523028168799
leaf_weight=14.400416308712009 4.1815275297594781 661.16729593276978 39.535142681315847 45.136600417117734 6.6932587182964225 83.126541342677228 23.997318834066391 182.43534578231265 35.585867762565613 23.079798758029938 119.30401062143574 4.4586969279589566 296.63043668866158 81.769298316479762 11.450301143260733 5.2602994516710133 1.1543481647968299 7.4540408111242851 3.3449408113956451 10.858488596728421 300.03489804267883 22.688061118125916 1.0656467790540771 358.3737111389637 9.956120786293468 16.986177384853363 40.43002120167148 2.1291495553596169 0.93184947967529286 17.609102515161794
leaf_count=198 138 757 5972 559 137 561 19 2338 33 26 3687 131 594 1121 352 316 2 180 13 138 1186 23 11 1333 127 20 839 34 1 558
internal_value=-0.000358571 -0.00656285 0.00274865 0.0460297 0.0950453 0.0914624 0.141193 8.78879e-05 -0.0267264 0.0580721 -0.00357151 0.00476523 -0.00119829 0.0266306 0.0147807 0.0487568 0.154121 0.0245546 0.105208 0.0573491 -0.0104849 -0.0295919 0.104866 -0.0125376 0.0221063 0.0915561 0.0805134 0.141638 0.0852859 0.0133703
internal_weight=2431.23 2277.35 1557.91 90.2276 45.091 153.879 30.6906 1467.68 719.441 70.7523 1276.73 578.782 454.753 124.029 158.123 38.819 9.75959 190.955 8.60524 42.2595 697.944 683.855 8.51969 658.409 20.8146 21.4449 47.6725 7.24253 5.11338 29.0594
internal_count=21404 19805 18992 913 354 1599 156 18079 813 1038 15550 7059 5522 1537 4928 1241 331 2529 329 416 8491 780 191 2519 265 151 1012 173 139 910
is_linear=0
shrinkage=0.1


Tree=5
num_leaves=31
num_cat=0
split_feature=12 3 6 0 15 12 12 12 8 9 7 6 3 7 6 2 3 14 0 13 15 14 7 13 3 3 3 13 9 1
split_gain=114.261 39.7861 15.2391 16.7663 14.4275 11.6097 10.553 10.1085 9.9588 10.1469 6.67838 6.59726 5.52266 5.3953 14.8718 14.8704 6.98118 5.36815 4.47855 4.39104 4.31881 4.29236 4.16067 7.53864 11.1165 4.32228 3.63473 3.47421 3.21245 3.30295
threshold=3.5000000000000004 283.50000000000006 -0.98611507088852024 17.500000000000004 1.0000000180025095e-35 1.5000000000000002 1.5000000000000002 7.5000000000000009 1.0000000180025095e-35 1.0000000180025095e-35 0.22695468355932455 0.68322629814330826 262.50000000000006 0.88144907265856365 -0.4124860612920454 3.5000000000000004 246.50000000000003 3.5000000000000004 9.5000000000000018 4.5000000000000009 3.5000000000000004 2.5000000000000004 0.97335555334614943 2.5000000000000004 252.50000000000003 258.50000000000006 227.50000000000003 7.5000000000000009 -0.22252093395631442 1.0000000180025095e-35
decision_type=2 2 2 2 2 2 2 2 2 2 2 2 2 2 2 2 2 2 2 2 2 2 2 2 2 2 2 2 2 2
left_child=1 2 3 4 -1 10 20 27 21 -10 18 12 13 -12 15 16 -15 28 -4 -7 -3 -6 23 25 -25 -16 -20 -2 29 -13
right_child=7 6 5 -5 8 19 -8 -9 9 -11 11 17 -14 14 22 -17 -18 -19 26 -21 -22 -23 -24 24 -26 -27 -28 -29 -30 -31
leaf_value=-0.0031522712713139955 0.051494776593929786 -0.03051836190588585 -0.020531715115464391 -0.0027989999109670426 -0.015369157016247931 0.019353357355841011 0.026160738413014969 0.10522907077583593 0.11182873749839617 0.25670534522819088 -0.0030366641517977242 0.065371565609004853 -0.0093261148858898753 0.08065985610585856 0.014242370575802238 -0.028799621467641423 0.34565380962611925 0.088275213856054066 0.032351238144784203 0.089093325424321843 0.013567453849619325 0.10950839409510418 -0.0045638242474752974 0.042442562690605173 0.46175493065328665 0.12702811400924319 -0.006188066221024309 0.13848471063393988 0.0034235982278479613 0.013666177869342423
leaf_weight=14.35289061959338 85.469689360761549 640.91853630542755 257.10586861131924 45.004255870877387 6.4443858412050741 186.2705093354889 36.608805239200592 78.490262674051337 17.493382253160238 6.6805196885179603 87.479604448839382 22.591923674965074 293.76230463385582 1.3905949437375955 23.688634126814584 2.5263710937506403 3.4872845262289047 11.984203332074683 26.034905053800685 9.4881379053076653 23.019211113452911 4.8046389754163101 35.553472695186429 1.6119165662457811 1.0403039902448652 3.966847449541091 407.56870076805353 4.8517291790194568 65.629293911868444 27.264601136321289
leaf_count=198 1090 757 3459 559 73 2338 33 426 48 24 2567 194 594 80 981 73 8 106 3519 191 23 11 1120 82 3 14 1513 83 873 364
internal_value=-0.000386034 -0.00630437 0.0025704 0.0414336 0.081426 6.19899e-05 -0.0261078 0.0789791 0.115696 0.151866 -0.00342524 0.00446644 -0.00117205 0.0137295 0.0337486 0.16812 0.270109 0.024571 -0.0100746 0.0227336 -0.0289899 0.037968 0.0186423 0.045865 0.206913 0.0304201 -0.00387405 0.0561676 0.0179603 0.0370959
internal_weight=2432.58 2263.77 1563.23 94.7801 49.7758 1468.45 700.547 168.812 35.4229 24.1739 1272.69 581.977 454.507 160.745 73.2654 7.40425 4.87788 127.47 690.709 195.759 663.938 11.249 65.8612 30.3077 2.65222 27.6555 433.604 90.3214 115.486 49.8565
internal_count=21404 19805 18992 913 354 18079 813 1599 156 72 15550 7059 5522 4928 2361 161 88 1537 8491 2529 780 84 2200 1080 85 995 5032 1173 1431 558
is_linear=0
shrinkage=0.1


Tree=6
num_leaves=31
num_cat=0
split_feature=12 3 6 0 12 15 12 12 14 8 14 7 3 3 3 13 6 9 1 15 6 15 13 14 13 3 3 7 8 6
split_gain=95.6355 36.9903 13.0082 13.2151 10.7243 10.5584 9.81944 7.35504 7.16895 11.5547 9.29337 6.04588 5.63547 9.0554 5.22998 4.99927 4.97859 4.66897 4.15197 4.0891 4.06315 4.05355 3.90161 3.66103 3.64967 3.00109 2.90941 3.90209 11.4997 11.4863
threshold=3.5000000000000004 283.50000000000006 -0.98611507088852024 17.500000000000004 1.0000000180025095e-35 1.0000000180025095e-35 1.5000000000000002 6.5000000000000009 13.500000000000002 1.0000000180025095e-35 1.0000000180025095e-35 0.16280825711809024 261.50000000000006 260.50000000000006 275.50000000000006 25.500000000000004 0.68322629814330826 -0.56174490092936669 1.0000000180025095e-35 3.5000000000000004 0.95642797789208711 1.0000000180025095e-35 1.5000000000000002 5.5000000000000009 1.5000000000000002 212.50000000000003 262.50000000000006 0.88144907265856365 0.6078576107927941 -0.22695468355932449
decision_type=2 2 2 2 2 2 2 2 2 2 2 2 2 2 2 2 2 2 2 2 2 2 2 2 2 2 2 2 2 2
left_child=1 2 3 5 11 -1 19 14 9 23 -11 22 13 15 -2 25 26 21 20 -3 -14 24 -4 -7 -18 -6 27 -13 -29 -30
right_child=7 6 4 -5 12 8 -8 -9 -10 10 -12 16 18 -15 -16 -17 17 -19 -20 -21 -22 -23 -24 -25 -26 -27 -28 28 29 -31
leaf_value=-0.0030054396760916084 0.063461875280081653 -0.029925230758540484 -0.017011576371916234 -0.0026676566705778337 0.048875280682609434 -0.003944977689773665 0.024202969937132106 0.086753970086154139 0.0079328243273219107 0.07711403387363075 0.21195942500022436 -0.0071669823643825212 0.014252811385891498 0.099960882879566837 0.0079588034380593687 0.22878386304813558 0.051576972550704626 0.0053638967440746586 -0.0024541724184022474 0.012715430111513746 0.076906017299964727 0.022336861324308052 0.011176182747781193 0.12186634271207451 0.152849194314015 0.011801784743728857 -0.010378820663228113 -0.00044590755169249827 0.19894365519852109 0.028293540847682288
leaf_weight=14.307717750278242 54.858597280046524 621.65420490503311 440.0903219594602 44.878465082661933 26.027129283513204 7.6941714214772201 37.57915586233139 103.31408285439466 7.3519860655069342 8.3321079179295339 13.220330509619089 71.388598309151348 71.129455059766769 15.195041596889494 24.585849940776825 1.130645086057483 9.6901992435850826 68.948043790249358 246.96131300926208 23.333651423454285 12.113659262657164 22.952697143249679 55.271888755689361 3.3070700183598092 5.6237785934063131 135.56095355562866 230.12739700078964 40.745136486611955 6.737779450113524 9.5133245718679955
leaf_count=198 1012 757 5566 559 3840 75 33 561 6 28 39 2104 137 44 26 4 220 1016 475 23 22 120 853 8 29 1221 479 1417 133 399
internal_value=-0.00040711 -0.00605579 0.00240143 0.0374699 3.62065e-05 0.0706963 -0.0254875 0.0691624 0.0971212 0.117264 0.159829 -0.00617597 0.0117863 0.0261336 0.0462852 0.0192394 0.00200385 0.0209104 0.00405604 -0.0283826 0.0233702 0.0489217 -0.0138664 0.033875 0.0887673 0.0177732 -0.00365024 0.00841061 0.0279218 0.0990458
internal_weight=2433.62 2250.87 1568.3 99.0918 1469.21 54.2134 682.567 182.759 39.9057 32.5537 21.5524 961.089 508.118 177.914 79.4444 162.719 465.727 107.215 330.204 644.988 83.2431 38.2667 495.362 11.0012 15.314 161.588 358.512 128.385 56.9962 16.2511
internal_count=21404 19805 18992 913 18079 354 813 1599 156 150 67 12336 5743 5109 1038 5065 5917 1385 634 780 159 369 6419 83 249 5061 4532 4053 1949 532
is_linear=0
shrinkage=0.1


Tree=7
num_leaves=31
num_cat=0
split_feature=12 3 6 6 0 12 15 3 12 7 3 3 6 9 1 13 13 15 7 14 6 3 0 6 3 7 8 7 13 3
split_gain=80.8616 34.3773 12.3263 11.1476 10.5686 9.6256 7.94993 5.96703 5.78629 5.5458 4.85941 7.01369 4.4012 3.97619 3.64862 3.59551 3.39694 3.32011 3.85034 3.95796 3.25185 3.02185 4.83224 2.69491 2.62586 3.38994 9.01462 7.67457 4.0938 3.70692
threshold=3.5000000000000004 283.50000000000006 -0.99465189230620676 -0.98611507088852024 17.500000000000004 1.0000000180025095e-35 1.0000000180025095e-35 267.50000000000006 12.500000000000002 0.16280825711809024 261.50000000000006 260.50000000000006 0.68322629814330826 -0.22252093395631442 1.0000000180025095e-35 1.5000000000000002 25.500000000000004 1.0000000180025095e-35 0.68322629814330826 1.0000000180025095e-35 0.95642797789208711 285.50000000000006 4.5000000000000009 0.98611507088852057 262.50000000000006 0.88144907265856365 0.6078576107927941 0.97335555334614943 3.5000000000000004 259.50000000000006
decision_type=2 2 2 2 2 2 2 2 2 2 2 2 2 2 2 2 2 2 2 2 2 2 2 2 2 2 2 2 2 2
left_child=1 3 -3 4 6 9 -1 -8 -2 15 11 16 24 17 20 -5 -7 18 19 -14 -12 22 -4 -17 25 -11 -27 28 29 -28
right_child=8 2 21 5 -6 10 7 -9 -10 12 14 -13 13 -15 -16 23 -18 -19 -20 -21 -22 -23 -24 -25 -26 26 27 -29 -30 -31
leaf_value=-0.0028650164088879436 0.050381180694529494 0.050976407929606442 0.025561923640068693 -0.016451449469872478 -0.0025421332741467381 0.016579147377648342 0.0039875298322538007 0.10010880929503481 0.088523403711657622 -0.0068613524118213897 0.0133483558939122 0.085728008814893314 0.0071146892003226513 0.0015587169208493002 -0.0023381825497418448 0.022374004903609156 0.17184252447061554 0.018813309852348664 0.19432036460376756 0.09996215136805503 0.067537313784752973 -0.030680611019877586 -0.02325968379629624 -0.030106024888116142 -0.0099690209469980948 -0.00042395815108737731 0.076619999117677653 -0.0050090156000238504 0.30965198986754433 0.21003329629189885
leaf_weight=14.264781318808671 140.42258109748218 20.76076740026474 25.397885143756866 432.66701197278599 44.758904597556466 164.50110463887904 7.8562301441997979 36.295538932085037 55.489858291795827 70.878786497007241 72.150509119033813 16.79246124625206 8.7859944975534798 58.336424082479425 246.3559704720974 43.24692115425205 1.4213003674522031 30.560556196054677 2.2461806796854935 9.6165145499980991 13.082032263278959 518.82351452112198 100.47651040554047 12.646161174081497 227.75129765272141 40.726971993033658 7.7390767674951366 6.2487898260860666 1.1698661505142798 2.8494551181793213
leaf_count=198 1455 20 36 5566 559 5061 137 19 144 2104 137 44 273 840 475 758 4 167 36 69 22 611 146 95 479 1417 260 256 14 2
internal_value=-0.000421175 -0.0058131 -0.0248661 0.00224754 0.0340214 1.70685e-05 0.0620366 0.0830053 0.0611845 -0.00592024 0.0110474 0.0241421 0.00187296 0.0194088 0.00383183 -0.0133681 0.0179091 0.0397432 0.07072 0.0556336 0.0216656 -0.0273084 -0.0134089 0.0105001 -0.00350245 0.00786039 0.0256262 0.084544 0.132135 0.112523
internal_weight=2434.32 2238.41 665.459 1572.95 103.175 1469.77 58.4166 44.1518 195.912 955.47 514.303 182.715 466.91 109.546 331.589 488.56 165.922 51.2092 20.6487 18.4025 85.2325 644.698 125.874 55.8931 357.364 129.613 58.7342 18.0072 11.7584 10.5885
internal_count=21404 19805 813 18992 913 18079 354 156 1599 12336 5743 5109 5917 1385 634 6419 5065 545 378 342 159 793 182 853 4532 4053 1949 532 276 262
is_linear=0
shrinkage=0.1


Tree=8
num_leaves=31
num_cat=0
split_feature=12 3 12 14 6 7 14 8 3 9 15 15 3 3 15 3 3 3 7 3 7 3 1 6 13 7 1 0 0 6
split_gain=72.0876 30.0573 17.206 12.2873 5.72003 8.53061 11.0275 20.5908 5.73226 5.66077 4.75631 4.17294 4.05143 4.03439 3.93486 10.8909 4.47167 3.33865 3.25123 3.07877 3.48948 3.02587 2.22381 5.38404 3.37567 2.43325 2.14142 2.79611 2.64104 2.90389
threshold=1.5000000000000002 284.50000000000006 5.5000000000000009 6.5000000000000009 -0.98611507088852024 -0.097964660725097477 1.0000000180025095e-35 1.0000000180025095e-35 264.50000000000006 -0.56174490092936669 21.500000000000004 3.5000000000000004 257.50000000000006 226.50000000000003 1.5000000000000002 289.50000000000006 261.50000000000006 260.50000000000006 0.16280825711809024 272.50000000000006 0.22695468355932455 260.50000000000006 1.0000000180025095e-35 0.22695468355932452 1.5000000000000002 -0.95642797789208689 1.5000000000000002 3.5000000000000004 13.500000000000002 0.63405362205439475
decision_type=2 2 2 2 2 2 2 2 2 2 2 2 2 2 2 2 2 2 2 2 2 2 2 2 2 2 2 2 2 2
left_child=1 3 14 4 5 6 10 -8 12 22 -1 -3 13 -6 16 -16 17 -2 -15 -11 -21 -5 23 -10 -25 -24 27 -18 29 -28
right_child=2 11 -4 21 8 -7 7 -9 9 19 -12 -13 -14 18 15 -17 26 -19 -20 20 -22 -23 25 24 -26 -27 28 -29 -30 -31
leaf_value=-0.02097741151385496 0.025089555728798469 -0.030375677620584043 0.064509073270375902 0.0074956448778276692 0.019580340880864411 0.0022296640776330433 -0.025751041416329341 0.34757235369154649 -0.011792771170489005 -0.025389607338572057 0.091002403055078618 0.014372921839247705 0.019580643066365575 -0.016728522483017445 0.032612339757039061 0.18529177156032617 -0.036018839893912878 0.072189781093380173 0.00491020844513402 -0.018551287923456703 0.00096277613319672268 0.067264170051267239 0.035783115783484483 0.064298491711375291 0.0023434145833553638 -0.0063394148227135967 0.057860961886038002 0.0060455341721215652 -0.0036191763859552829 0.005998816536202085
leaf_weight=7.9664206086999929 82.042970059254003 530.97804069519043 137.37262140849634 11.550294495653359 74.090036150959349 49.938711906923345 2.5361694592902486 3.5390339325495006 33.208313405513763 189.61683762073517 7.2404961585998535 21.690608561038971 128.36637273430824 149.37119989842176 60.655070695909671 5.0619183778762809 20.087213754653931 18.43038871884346 129.7512712739408 202.42881241440773 167.42662361264229 31.766288816928864 14.926345884799955 25.583343863487244 13.401119560003279 168.8198815882206 24.862794816493988 74.083492279052734 28.804902970790863 19.082996904850006
leaf_count=73 2275 670 778 338 10869 568 33 23 59 510 1 21 457 1347 993 2 28 38 1033 363 280 23 27 39 17 312 40 119 39 29
internal_value=-0.000428468 -0.00884997 0.0347299 -0.00110945 -0.00276955 0.0248227 0.0778376 0.191724 -0.0042847 -0.00939375 0.0323397 -0.0286194 0.00436595 -0.00116345 0.0224493 0.0443726 0.0170612 0.0337294 -0.00666967 -0.0150292 -0.00971764 0.051327 0.00292511 0.0177962 0.0430011 -0.00291765 0.00702826 -0.00292707 0.0199147 0.0353404
internal_weight=2434.68 1964.2 470.484 1411.53 1368.21 71.2208 21.2821 6.0752 1296.99 815.411 15.2069 552.669 481.579 353.213 333.112 65.717 267.395 100.473 279.122 559.472 369.855 43.3166 255.939 72.1928 38.9845 183.746 166.921 94.1707 72.7507 43.9458
internal_count=21404 17063 4341 16372 16011 698 130 56 15313 1607 74 691 13706 13249 3563 995 2568 2313 2380 1153 643 361 454 115 56 339 255 147 108 69
is_linear=0
shrinkage=0.1


Tree=9
num_leaves=31
num_cat=0
split_feature=12 3 12 14 6 7 3 3 9 15 3 3 6 3 3 3 3 3 3 7 3 7 14 3 1 8 0 0 14 2
split_gain=63.3375 28.2186 13.7 10.5536 4.99592 6.72444 8.12057 5.22782 5.22082 3.94567 3.57505 3.59972 3.33408 18.9083 4.89107 7.79868 3.85594 3.80079 3.11501 2.99305 2.92736 3.24163 2.65669 3.10177 2.40203 2.70114 2.12698 3.77852 1.98275 2.8832
threshold=1.5000000000000002 284.50000000000006 5.5000000000000009 6.5000000000000009 -0.98611507088852024 -0.097964660725097477 267.50000000000006 264.50000000000006 -0.56174490092936669 3.5000000000000004 257.50000000000006 226.50000000000003 -0.99465189230620676 289.50000000000006 285.50000000000006 284.50000000000006 261.50000000000006 259.50000000000006 243.50000000000003 0.16280825711809024 272.50000000000006 0.22695468355932455 13.500000000000002 275.50000000000006 1.5000000000000002 1.0000000180025095e-35 20.500000000000004 19.500000000000004 2.5000000000000004 3.5000000000000004
decision_type=2 2 2 2 2 2 2 2 2 2 2 2 2 2 2 2 2 2 2 2 2 2 2 2 2 2 2 2 2 2
left_child=1 3 12 4 5 6 -1 10 -9 -3 11 -6 13 -2 15 16 17 18 -14 -13 -10 -22 23 -5 -18 -26 27 -23 -7 -30
right_child=2 9 -4 22 7 28 -8 8 20 -11 -12 19 14 -15 -16 -17 24 -19 -20 -21 21 26 -24 -25 25 -27 -28 -29 29 -31
leaf_value=-0.016500280224249163 0.010645407131813452 -0.029780960987389506 0.057376749896653062 0.024325044395090176 0.018237806681203349 -0.0052016853982344048 0.10901155595791306 0.0027575641617206426 -0.024765539877199046 0.013459183071854137 0.018238081921160453 -0.016173018769233532 0.039750150056846505 0.25941045022753201 -0.01945356172993417 0.13447043411516321 -0.0019203597016854588 0.064180671151975274 0.004954559025809646 0.004642921265409025 -0.017968822558641934 0.0016178955398907697 0.0062924477313185262 0.086253361123358352 0.0069157734152744191 0.047865612192114326 -0.016010509051477762 0.056294837444117285 -0.025319661864403872 0.11558940400492049
leaf_weight=7.7269305902300429 14.834454413299683 515.09172421693802 146.52648099777434 13.723942147422347 75.555040170494976 44.093134650913271 15.486071407794951 256.7570828795433 184.86314386129379 22.004617094993591 130.90463827550411 146.89322470128536 54.991416225984722 3.848005771636962 30.818394780158997 6.0837616920471183 85.431053251028061 29.474727421998978 48.348682001233101 130.38994386792183 198.70811605453491 101.69908174872398 12.195939908026046 19.693837344646454 40.089099079370499 26.927831441164017 51.456121861934662 14.432691991329191 2.5080141824510056 3.4490337713468762
leaf_count=121 138 670 778 281 10869 508 9 454 510 21 457 1347 2873 1 25 6 146 59 206 1033 363 170 75 5 70 39 86 24 34 26
internal_value=-0.000435052 -0.00850291 0.0318055 -0.00107532 -0.00265657 0.0227464 0.0672323 -0.00409743 -0.00902021 -0.0280094 0.00412428 -0.00111201 0.0208127 0.0618833 0.018431 0.0224384 0.0200492 0.0325052 0.0234707 -0.00638451 -0.0145069 -0.00932952 0.0462413 0.0608208 0.00919727 0.0233697 0.000914063 0.00841307 0.0021141 0.0562644
internal_weight=2435.01 1947.63 487.374 1410.54 1364.92 73.2632 23.213 1291.66 807.916 537.096 483.743 352.838 340.847 18.6825 322.165 291.347 285.263 132.815 103.34 277.283 551.159 366.296 45.6137 33.4178 152.448 67.0169 167.588 116.132 50.0502 5.95705
internal_count=21404 17063 4341 16372 16011 698 130 15313 1607 691 13706 13249 3563 139 3424 3399 3393 3138 3079 2380 1153 643 361 286 255 109 280 194 568 60
is_linear=0
shrinkage=0.1


Tree=10
num_leaves=31
num_cat=0
split_feature=12 3 12 14 6 7 14 3 3 9 15 1 3 15 3 13 15 3 3 7 3 7 12 12 14 3 15 8 15 1
split_gain=55.7575 26.4771 11.1828 9.10051 4.40997 5.49118 6.64577 9.31035 4.76505 4.81959 4.26758 4.60345 8.66137 3.72961 3.52615 3.50676 3.18734 3.15969 3.22211 2.82056 2.7779 3.00584 2.39203 2.13938 2.12912 2.3396 2.0948 2.0616 2.39452 1.95937
threshold=1.5000000000000002 284.50000000000006 6.5000000000000009 6.5000000000000009 -0.98611507088852024 -0.097964660725097477 1.0000000180025095e-35 267.50000000000006 264.50000000000006 -0.56174490092936669 1.5000000000000002 2.5000000000000004 279.50000000000006 3.5000000000000004 261.50000000000006 1.0000000180025095e-35 21.500000000000004 257.50000000000006 227.50000000000003 0.16280825711809024 272.50000000000006 0.22695468355932455 4.5000000000000009 2.5000000000000004 13.500000000000002 275.50000000000006 13.500000000000002 0.87837969732492682 1.0000000180025095e-35 1.0000000180025095e-35
decision_type=2 2 2 2 2 2 2 2 2 2 2 2 2 2 2 2 2 2 2 2 2 2 2 2 2 2 2 2 2 2
left_child=1 3 10 4 5 6 16 -8 17 29 14 15 22 -3 23 -12 -1 18 -6 -20 -11 -22 -13 -2 25 -5 -17 -23 -29 -10
right_child=2 13 -4 24 8 -7 7 -9 9 20 11 12 -14 -15 -16 26 -18 -19 19 -21 21 27 -24 -25 -26 -27 -28 28 -30 -31
leaf_value=-0.021380625656378945 0.012897093098540386 -0.029180085125840905 0.053647606556567862 0.022547102816492321 0.016452658139612979 0.0019787813375852148 -0.0053130984658125227 0.21845382013472428 0.016383572199164229 -0.024141354428528425 0.0036086311905807141 0.025600546393463836 0.18414976159749463 0.012615360548721047 0.0055844333401849824 0.038859786290361173 0.06550329139346224 0.017011001772080193 -0.01598022874446622 0.004427597610752434 -0.017394248954601059 0.0075858640610237289 0.1309546960977945 0.040595615910062777 0.0059414842014368398 0.075021844093952683 0.11026730543369422 -0.03110498335740049 0.021307944364791522 -0.0029133033449858388
leaf_weight=8.0800136268444511 50.307665693122544 499.97796487808228 136.42299259826541 14.06187101674004 80.917890206284937 50.181341591536693 2.967812414164654 4.9786518812179565 73.736961513757706 180.34113386273384 31.829515699842887 13.790169769323262 5.817367196083068 22.302783250808716 175.1382227241993 19.861662539922694 8.8436851501464844 133.3139917999506 142.50409317389131 129.05702482536435 195.16945347189903 122.61615011096001 2.5542495468544066 62.564254098590027 12.272924054675967 21.467907726764679 5.1795935968111726 33.354728102684021 11.800201267004011 183.7291222512722
leaf_count=73 1149 670 561 281 10944 568 52 4 115 510 304 212 2 21 260 497 1 457 1305 1000 363 204 40 1297 75 5 19 56 20 339
internal_value=-0.000437784 -0.00816294 0.0292018 -0.00103598 -0.00254162 0.0210212 0.0594436 0.134882 -0.00391617 -0.00865641 0.0201157 0.0406999 0.0793615 -0.0273953 0.0144672 0.0256339 0.0240216 0.00389731 -0.00106253 -0.00628159 -0.0139972 -0.00895667 0.0420649 0.0282502 0.0418498 0.0542535 0.0536299 0.000858844 -0.0174081 0.00261322
internal_weight=2435.14 1931.68 503.466 1409.39 1361.59 75.0515 24.8702 7.94646 1286.54 800.748 367.043 79.0326 22.1618 522.281 288.01 56.8708 16.9237 485.793 352.479 271.561 543.282 362.941 16.3444 112.872 47.8027 35.5298 25.0413 167.771 45.1549 257.466
internal_count=21404 17063 4341 16372 16011 698 130 56 15313 1607 3780 1074 254 691 2706 820 74 13706 13249 2305 1153 643 252 2446 361 286 516 280 76 454
is_linear=0
shrinkage=0.1


Tree=11
num_leaves=31
num_cat=0
split_feature=12 3 12 14 6 2 12 6 3 15 1 3 15 6 3 3 13 14 6 15 13 1 3 3 0 3 6 3 3 7
split_gain=49.2414 24.817 9.08379 7.88649 3.98482 3.63144 3.76255 4.03458 6.79278 3.53137 3.53047 5.63705 3.52401 3.21391 3.42702 3.02645 2.90016 2.71246 4.80533 2.5815 2.73396 2.90365 4.56448 5.91143 2.32579 2.28589 2.14052 2.36121 1.91831 1.88124
threshold=1.5000000000000002 284.50000000000006 6.5000000000000009 6.5000000000000009 0.97335555334614954 4.5000000000000009 1.0000000180025095e-35 0.95642797789208711 275.50000000000006 1.5000000000000002 2.5000000000000004 279.50000000000006 3.5000000000000004 -0.98611507088852024 272.50000000000006 261.50000000000006 1.0000000180025095e-35 2.5000000000000004 -0.99465189230620676 21.500000000000004 1.5000000000000002 1.0000000180025095e-35 261.50000000000006 252.50000000000003 3.5000000000000004 269.50000000000006 -0.25881904510252046 276.50000000000006 260.50000000000006 -0.2269546835593246
decision_type=2 2 2 2 2 2 2 2 2 2 2 2 2 2 2 2 2 2 2 2 2 2 2 2 2 2 2 2 2 2
left_child=1 3 9 4 5 6 19 13 -9 15 16 -12 -3 14 -8 28 -11 24 -19 20 -1 22 23 -22 -7 -26 27 -27 -2 -5
right_child=2 12 -4 29 -6 17 7 8 -10 10 11 -13 -14 -15 -16 -17 -18 18 -20 -21 21 -23 -24 -25 25 26 -28 -29 -30 -31
leaf_value=-0.0051037747656029241 0.019508672385187255 -0.028573718394353215 0.048251517472850967 -0.027987691277095651 -0.022671461777361197 0.0069291996577421624 0.013204189252696947 -0.038554364296729572 0.14561118535253159 0.0034167558415886673 0.038220717222401078 0.1448258176536604 0.011834688162230917 0.0070373931923677817 0.099467521883955842 0.0052767923104020155 0.048194950542483898 0.18213431059765625 0.010401832209847852 0.047639326171864317 0.018546246510113433 2.1945766884995212e-05 0.0097043099951860425 0.15829903431024092 -0.0052647378056774443 -0.035360202789169112 -0.036305883061712785 -0.00059242308559493459 0.05124034018109605 0.043769944391406572
leaf_weight=552.41210792133825 92.096234472854121 485.59936982393265 143.94163441171258 3.9694411125710749 90.780517181334289 55.060946986901399 10.7802790607675 3.1210733520565537 5.5895234346389771 31.944583971147949 17.059393743773402 6.9936149716377249 22.58592289686203 224.84354985512255 8.0401337146759015 176.11900579929352 26.432087547560513 1.7597440198005667 21.991806982758135 10.473157384898512 6.2888844126318855 60.422003578663862 22.522057831287384 5.834973618388176 121.50632893798684 30.183699458837509 71.47404882311821 55.360277235507965 24.020802080631256 45.89956867093133
leaf_count=6812 2405 670 561 126 1241 706 131 44 6 304 252 2 21 2060 6 260 516 16 383 7 281 891 39 17 3051 78 150 92 41 235
internal_value=-0.000437084 -0.00783435 0.0268993 -0.000998668 -0.00243246 -0.000983097 0.00237024 0.0127507 0.0796233 0.0186961 0.036976 0.069217 -0.0267778 0.0103601 0.0500561 0.0135399 0.0236917 -0.00952584 0.0231254 -0.00161145 -0.0024081 0.0132557 0.0363352 0.0858065 -0.0118506 -0.0155632 -0.0235325 -0.01286 0.0260729 0.0380582
internal_weight=2435.11 1916.5 518.607 1408.31 1358.45 1267.66 910.328 252.375 8.7106 374.666 82.4297 24.053 508.185 243.664 18.8204 292.236 58.3767 357.337 23.7516 657.953 647.48 95.0679 34.6459 12.1239 333.585 278.524 157.018 85.544 116.117 49.869
internal_count=21404 17063 4341 16372 16011 14770 10294 2247 50 3780 1074 254 691 2197 137 2706 820 4476 399 8047 8040 1228 337 298 4077 3371 320 170 2446 361
is_linear=0
shrinkage=0.1


Tree=12
num_leaves=31
num_cat=0
split_feature=12 3 12 14 9 6 15 7 2 6 3 7 15 14 6 0 3 6 13 6 3 12 3 3 3 3 6 0 7 2
split_gain=43.5983 23.2368 7.55201 6.86755 3.78708 3.77432 3.3282 2.88947 2.87112 4.51812 4.35626 3.63833 2.65815 2.65049 2.61931 3.80439 2.19792 5.37406 2.32411 2.96242 5.38677 2.10646 2.09678 3.55875 1.94725 3.36473 4.18039 2.45517 1.8465 5.33895
threshold=1.5000000000000002 284.50000000000006 3.5000000000000004 6.5000000000000009 -0.56174490092936669 0.77259657388510639 3.5000000000000004 0.16280825711809024 1.5000000000000002 -0.98611507088852024 263.50000000000006 -0.097964660725097477 1.5000000000000002 2.5000000000000004 -0.9733555533461492 17.500000000000004 281.50000000000006 0.84874750804349208 1.0000000180025095e-35 -0.98611507088852024 267.50000000000006 12.500000000000002 285.50000000000006 284.50000000000006 254.50000000000003 261.50000000000006 0.35206144883412582 3.5000000000000004 0.88144907265856365 4.5000000000000009
decision_type=2 2 2 2 2 2 2 2 2 2 2 2 2 2 2 2 2 2 2 2 2 2 2 2 2 2 2 2 2 2
left_child=1 3 12 4 16 8 -3 -7 9 11 28 -6 22 -12 15 -14 18 -18 19 20 -1 -4 23 -2 -20 26 -26 -27 -10 -30
right_child=2 6 21 -5 5 7 -8 -9 10 -11 13 -13 14 -15 -16 -17 17 -19 24 -21 -22 -23 -24 -25 25 27 -28 -29 29 -31
leaf_value=0.0044503788065213511 0.01024352728917622 -0.027962556863141821 0.031470990729446736 0.034767000122363348 0.07446953570845026 -0.027574415257348162 0.011111225238756876 -0.0028147750855653112 -0.00034918893826501159 0.0010213210034686259 -0.017467273738109326 0.0042929963980722812 0.099357022808841469 0.024161025081936224 0.019960409651284643 -0.0062372966008389253 -0.013788884040978036 0.044839998935731901 -5.8603656293781345e-05 5.6654624380616922e-05 0.21748811205231033 0.051456908562526438 -0.021368849266032469 0.1365356158105106 0.035611946944252446 -0.028238429274824152 0.14597967722827532 0.026232842108668764 0.074984811510250146 -0.0039503893964780877
leaf_weight=3.5380308608073383 196.55265661592057 471.92035114765167 173.15317802271602 51.813092833213886 16.0591961322225 122.53010950848329 22.854808449745178 76.598692051020407 135.92408178745609 257.64201751469955 267.91523614525795 13.682173643130225 11.039170748292234 16.2210453748703 47.876662897135247 4.9382671034036312 108.09810930490494 18.277886748313904 33.053952136342559 155.26292050813754 1.7860789895057676 75.831109347345773 21.253118336200714 2.2568567991256705 11.058115139603617 9.4520222842693311 4.9762650579214087 66.426205977797508 13.492470970868451 23.48045299437581
leaf_count=83 1971 670 1455 361 37 1717 21 967 3880 3271 578 159 37 30 668 45 143 22 1248 2652 2 144 19 2 38 21 17 147 307 692
internal_value=-0.000434205 -0.00751691 0.0248458 -0.000963193 -0.00232898 -0.00582148 -0.0261576 -0.0180501 -0.00255036 0.00528142 -0.00747499 0.0421856 0.0136978 -0.0150908 0.0316605 0.0667202 0.00567077 -0.00530933 0.0105302 0.00257177 0.0759181 0.0375579 0.00848567 0.0116772 0.020757 0.0282428 0.0698645 0.0194474 0.00504063 0.0248553
internal_weight=2434.96 1902.06 532.901 1407.29 1355.48 943.545 494.775 199.129 744.417 287.383 457.033 29.7414 283.917 284.136 63.8541 15.9774 411.93 126.376 285.554 160.587 5.32411 248.984 220.063 198.81 124.967 91.9126 16.0344 75.8782 172.897 36.9729
internal_count=21404 17063 4341 16372 16011 11638 691 2684 8954 3467 5487 196 2742 608 750 82 4373 165 4208 2737 85 1599 1992 1973 1471 223 55 168 4879 999
is_linear=0
shrinkage=0.1


Tree=13
num_leaves=31
num_cat=0
split_feature=12 3 12 14 6 9 15 7 7 3 13 6 3 3 3 3 3 7 8 7 11 3 6 13 6 0 7 1 3 3
split_gain=38.6801 21.7353 6.30829 6.00453 3.61966 3.45226 3.1416 3.01983 4.3029 3.9256 3.38791 2.55434 4.42704 2.65238 2.38977 4.44633 2.52165 2.38967 4.27538 3.88432 2.36422 3.3177 2.20983 1.80914 1.77421 1.74661 1.67456 1.66818 2.44836 1.6452
threshold=1.5000000000000002 284.50000000000006 3.5000000000000004 6.5000000000000009 0.98611507088852057 -0.56174490092936669 3.5000000000000004 -0.16280825711808977 0.032701564615071219 271.50000000000006 2.5000000000000004 0.84874750804349208 281.50000000000006 268.50000000000006 264.50000000000006 276.50000000000006 277.50000000000006 0.88144907265856365 0.6078576107927941 0.97335555334614943 1.0000000180025095e-35 289.50000000000006 -0.065403129230143256 13.500000000000002 0.95642797789208711 20.500000000000004 0.98611507088852057 1.5000000000000002 280.50000000000006 277.50000000000006
decision_type=2 2 2 2 2 2 2 2 2 2 2 2 2 2 2 2 2 2 2 2 2 2 2 2 2 2 2 2 2 2
left_child=1 3 20 4 5 11 -3 10 9 -9 22 12 26 -13 17 -16 -17 -10 -19 -20 23 -22 -7 -2 -4 27 -1 28 -18 -12
right_child=2 6 24 -5 -6 7 -8 8 14 -11 29 13 -14 -15 15 16 25 18 19 -21 21 -23 -24 -25 -26 -27 -28 -29 -30 -31
leaf_value=0.013651367749529112 0.0045938709690557175 -0.027347320292583022 0.035830736019718534 0.03188221576216161 -0.025191679665861267 -0.0046145242552889055 0.010439735807740338 -0.0015765544998171998 -0.0015078377472926591 0.05974541132605582 0.016702271428316543 0.0018246544396921191 -0.013290855655807541 0.047595962002915049 -0.021643061877322206 0.039141539503841208 0.041891374854100646 0.0018024006065564186 0.086986076763123171 0.0040054028457468345 0.019196581119041656 0.082611683478390777 -0.019701980943981894 0.093648547338200827 -0.011680188803645483 -0.019940088712917015 -0.0185743229312158 -0.0066077926700659172 -0.0073071433907057311 0.094595708042568061
leaf_weight=218.11698342366981 176.56567143979555 458.90704131126404 250.40981185960845 53.646158303094126 65.339375282108449 182.95105262724974 23.110169410705566 19.424697932021445 119.50565191633541 22.567984998226166 9.8123872518917761 22.551497061205737 106.61778634786606 28.865612983703613 127.19963130354881 17.992506265640259 23.948385953903198 37.975137869130776 14.965686339186506 9.053702128279836 100.0408552823792 8.9914366006851179 206.82965595912901 2.3110315950470968 8.1146052225376462 34.690630435943604 17.412159929379413 45.58008337020874 17.511439204216003 3.7469945549964896
leaf_count=3149 1562 670 1482 361 888 2074 21 293 3246 13 355 543 143 40 332 31 37 1045 326 301 1167 2 2797 11 117 55 241 70 26 6
internal_value=-0.000429989 -0.00721026 0.0230007 -0.000929157 -0.00223045 -0.00106502 -0.0255356 -0.00450145 0.000770061 0.0313795 -0.010911 0.00673885 0.0036158 0.0275207 -0.00209637 -0.00811614 0.00419837 0.00675658 0.0226878 0.0557079 0.0128193 0.0244262 -0.0126204 0.00574443 0.0343395 -0.000966444 0.011269 0.00659569 0.0211113 0.0382273
internal_weight=2434.76 1888.32 546.433 1406.31 1352.66 1287.32 482.017 893.756 490.416 41.9927 403.34 393.564 342.147 51.4171 448.423 266.923 139.723 181.5 61.9945 24.0194 287.909 109.032 389.781 178.877 258.524 121.731 235.529 87.0399 41.4598 13.5594
internal_count=21404 17063 4341 16372 16011 15123 691 11007 5775 306 5232 4116 3533 583 5469 551 219 4918 1672 627 2742 1169 4871 1573 1599 188 3390 133 63 361
is_linear=0
shrinkage=0.1


Tree=14
num_leaves=31
num_cat=0
split_feature=12 3 12 6 7 3 9 3 3 15 3 7 3 3 7 3 1 1 15 3 7 0 6 3 1 6 15 7 9 0
split_gain=34.3832 20.3114 5.45633 5.29537 4.22465 3.90887 3.84952 3.20064 3.09971 2.96373 2.79615 2.91039 2.75254 2.57983 2.48545 2.36379 4.01674 2.94266 2.74096 2.24131 2.1687 1.97545 2.48105 1.88631 1.85133 4.1826 2.54321 2.11079 1.79569 3.18953
threshold=1.5000000000000002 284.50000000000006 6.5000000000000009 -0.98611507088852024 0.032701564615071219 264.50000000000006 -0.56174490092936669 255.50000000000003 257.50000000000006 3.5000000000000004 272.50000000000006 0.22695468355932455 226.50000000000003 278.50000000000006 0.16280825711809024 261.50000000000006 1.5000000000000002 1.0000000180025095e-35 1.5000000000000002 271.50000000000006 0.81241147629689026 13.500000000000002 0.63405362205439475 259.50000000000006 1.0000000180025095e-35 0.22695468355932452 1.5000000000000002 -0.98611507088852035 -0.56174490092936669 4.5000000000000009
decision_type=2 2 2 2 2 2 2 2 2 2 2 2 2 2 2 2 2 2 2 2 2 2 2 2 2 2 2 2 2 2
left_child=1 3 15 4 7 8 24 -1 12 -3 -8 -12 -5 19 -14 23 17 -17 21 -9 -13 22 -18 -2 25 -7 -27 -26 29 -10
right_child=2 9 -4 5 -6 6 10 13 28 -11 11 20 14 -15 -16 16 18 -19 -20 -21 -22 -23 -24 -25 27 26 -28 -29 -30 -31
leaf_value=-0.01536821319505411 0.017936648543825064 -0.026728748921209335 0.036729629256433582 0.015485713337055515 -0.014087765442560851 -0.012001413614182582 -0.022544691830507634 0.036457207723694235 0.084429199267906901 0.0098155892397164476 -0.015622050812902964 0.013085652705178686 -0.014804797821688739 0.023253142056233904 0.0040078217282346279 0.013450147797091631 0.0464373161369733 -0.017545919313491757 0.053281110625986589 0.091449212865125223 -0.0096837499009506754 -0.0054628017592317606 0.0015577240263393065 0.042521418447313789 0.040437261326526745 0.052983876120498333 0.006389865746915563 -0.0055039327375780009 0.0097817789203026514 0.018392067611974729
leaf_weight=12.414096518066797 126.23865899777229 446.52721393108368 163.13962933998846 80.947757181016641 27.06179512414019 33.392307043075562 170.97067108750343 15.930228888988497 9.7521152198314649 23.352697134017944 185.00744518637657 90.416760593652725 141.12677200138569 40.40094655752182 139.78891795873642 55.094820767641068 27.818424940109253 68.971363991498947 23.046947211027145 13.859514236450194 77.84536999464035 31.352371603250504 22.106777280569077 41.458439588546753 10.615127891302107 28.729910403490067 19.779407978057861 172.84907117486 105.20424075424671 29.25357423722744
leaf_count=374 3406 670 561 11126 305 59 513 37 24 21 363 146 1356 12 1066 79 40 101 18 10 136 40 30 66 18 32 25 321 364 85
internal_value=-0.000423873 -0.0069138 0.0213384 -0.000895898 0.0202034 -0.00268175 -0.00707897 0.0314374 0.00417906 -0.0249125 -0.0120467 -0.00696598 -0.000761532 0.0397156 -0.00544329 0.0149992 0.00837955 -0.00378131 0.0228417 0.0620419 0.00255154 0.0142103 0.0265647 0.0240145 0.00273491 0.015236 0.0339854 -0.0028458 0.0165764 0.0349025
internal_weight=2434.45 1875.23 559.227 1405.35 109.667 1295.68 789.606 82.6048 506.073 469.88 524.24 353.27 361.863 70.1907 280.916 396.088 228.391 124.066 104.325 29.7897 168.262 81.2776 49.9252 167.697 265.366 81.9016 48.5093 183.464 144.21 39.0057
internal_count=21404 17063 4341 16372 738 15634 1613 433 14021 691 1158 645 13548 59 2422 3780 308 180 128 47 282 110 70 3472 455 116 57 339 473 109
is_linear=0
shrinkage=0.1


Tree=15
num_leaves=31
num_cat=0
split_feature=12 3 14 12 2 6 14 7 15 6 1 9 1 13 7 0 0 3 6 6 0 15 14 8 3 7 3 7 3 3
split_gain=30.5947 18.9648 4.84819 4.66178 3.59031 3.18813 4.35643 5.67669 2.90149 2.85624 3.07844 10.6485 2.7964 2.74281 2.93853 2.64607 3.45908 4.10948 2.6407 2.63494 2.29686 3.85631 3.5431 6.90289 4.11009 2.26972 2.19349 2.08931 1.99592 2.28576
threshold=1.5000000000000002 284.50000000000006 1.5000000000000002 3.5000000000000004 4.5000000000000009 -0.98611507088852024 1.0000000180025095e-35 -0.097964660725097477 1.0000000180025095e-35 -0.95642797789208678 1.0000000180025095e-35 -0.56174490092936669 1.0000000180025095e-35 1.0000000180025095e-35 0.22695468355932455 4.5000000000000009 1.0000000180025095e-35 279.50000000000006 0.68322629814330826 -0.98611507088852024 3.5000000000000004 1.5000000000000002 1.0000000180025095e-35 -1.0000000180025095e-35 260.50000000000006 -0.88144907265856332 263.50000000000006 0.99892946161930185 290.50000000000006 289.50000000000006
decision_type=2 2 2 2 2 2 2 2 2 2 2 2 2 2 2 2 2 2 2 2 2 2 2 2 2 2 2 2 2 2
left_child=1 2 4 28 5 6 -1 -8 -3 -10 11 -11 15 14 -4 16 -7 20 26 -15 21 22 23 -18 -25 -17 -16 -6 29 -2
right_child=3 8 13 -5 27 12 7 -9 9 10 -12 -13 -14 19 18 25 17 -19 -20 -21 -22 -23 -24 24 -26 -27 -28 -29 -30 -31
leaf_value=0.0044731349697075687 0.010112280064099494 -0.030046786288424821 -0.011526258697259944 0.029188577409116435 -0.01373691428880679 -0.029325874883576155 0.12792039302757252 0.010038187878094518 0.025211979504880702 0.068875576344357578 -0.027319814555266664 -0.036705326601499555 -0.0054607089829256956 0.051813522324310336 0.023372213601875916 0.029417524824329352 0.33294346950957748 0.10016548302884053 0.043903580182747814 0.015078751679322384 -0.017333959045944577 -0.02212123972472833 -0.00055639688209338815 0.0085816922315709223 0.13394605745471891 -0.0035161924087032895 -0.022183819504285669 0.057297633845755182 -0.049658532700307442 0.04949872093931254
leaf_weight=37.253056025609112 275.12107329854553 300.80902618169785 74.018905122879005 275.41314933526155 308.31120203861428 8.8061246209526853 7.8227539994259159 8.5497811203349539 17.164409160614014 15.92361146211624 100.56099873781204 23.875195145606995 571.8449637275462 24.869319531913789 23.018322047970287 24.808014309859573 1.1219075718181546 8.8528818488121015 24.059283066657372 90.882805028966686 9.7426694138084695 7.0257004305312867 5.4508326508512246 5.1750961913112459 5.2868504822254181 133.7369726681336 19.54250293970108 4.1969648086451334 5.3075906038284293 15.568330049514769
leaf_count=272 2732 464 990 1599 3938 113 19 75 22 20 150 35 6713 99 501 282 34 8 153 1229 111 41 38 196 12 1459 40 49 4 6
internal_value=-0.000417136 -0.00662659 -0.000862248 0.0198248 -0.00363896 -0.000218688 0.0233685 0.066362 -0.0242891 -0.0132942 -0.0180031 0.00553788 -0.00183649 0.0115704 0.00218708 0.0080322 0.0277345 0.0395143 0.0174234 0.0229712 0.02363 0.0402174 0.065928 0.0972125 0.0719334 0.00163705 0.00245441 -0.0127829 0.0111121 0.0122217
internal_weight=2434.12 1862.71 1404.38 571.41 1147.99 835.478 53.6256 16.3725 458.333 157.524 140.36 39.7988 781.852 256.391 140.639 210.007 51.4621 42.6559 66.6201 115.752 33.8031 24.0604 17.0347 11.5839 10.4619 158.545 42.5608 312.508 295.997 290.689
internal_count=21404 17063 16372 4341 13360 9373 366 94 691 227 205 55 9007 3012 1684 2294 553 440 694 1328 432 321 280 242 208 1741 541 3987 2742 2738
is_linear=0
shrinkage=0.1


Tree=16
num_leaves=31
num_cat=0
split_feature=12 3 14 12 2 15 6 14 7 1 13 7 2 7 6 1 0 0 3 1 0 6 3 7 3 0 6 12 6 7
split_gain=27.2851 17.6952 4.34485 4.04907 3.29183 3.20485 2.80442 3.54432 4.13497 2.50611 2.38641 2.62794 2.44031 2.56966 3.63086 2.41073 2.26274 2.98621 3.14656 2.1707 4.653 2.16573 2.13669 2.03759 1.99224 2.7066 5.49272 3.36588 2.55764 4.02367
threshold=1.5000000000000002 284.50000000000006 1.5000000000000002 6.5000000000000009 4.5000000000000009 4.5000000000000009 -0.98611507088852024 1.0000000180025095e-35 -0.097964660725097477 1.0000000180025095e-35 1.0000000180025095e-35 0.22695468355932455 1.0000000180025095e-35 0.72947329433276265 -0.99892946161930163 1.5000000000000002 4.5000000000000009 1.0000000180025095e-35 279.50000000000006 1.0000000180025095e-35 20.500000000000004 0.97335555334614954 290.50000000000006 0.99465189230620699 264.50000000000006 21.500000000000004 -0.35206144883412549 1.0000000180025095e-35 -0.84874750804349186 -0.38268343236508956
decision_type=2 2 2 2 2 2 2 2 2 2 2 2 2 2 2 2 2 2 2 2 2 2 2 2 2 2 2 2 2 2
left_child=1 2 4 21 6 19 7 -1 -9 16 11 -4 -12 14 -14 -13 17 -8 -19 20 -3 22 23 -2 25 28 27 -27 29 -11
right_child=3 5 10 -5 -6 -7 9 8 -10 24 12 15 13 -15 -16 -17 -18 18 -20 -21 -22 -23 -24 -25 -26 26 -28 -29 -30 -31
leaf_value=0.0042315377461401059 0.017015585691251608 -0.020683616314384059 -0.01108419325256769 0.031218706954812381 -0.012309798920276928 0.024760447209475969 -0.028720772740809537 0.10659732563312443 0.0094419389321309284 0.13981545485619692 -0.026731278483788087 0.032488459706492827 0.1944825458351131 -0.0050790499995464712 0.0307117783349319 -0.0056383316989281982 0.0015494482564491912 0.021685252871297214 0.085885411142186299 -0.02926400728696342 0.042132341602972842 -0.014301888064747987 -0.049658530765052021 -0.029446446546767577 -0.0095239111157071343 0.071672900930695935 -0.011165173059001566 0.25574452895660682 -0.0056211948847244009 0.014130862758724641
leaf_weight=37.420067088427459 366.79988653842884 96.372178137302399 73.170641964516108 174.2558573057031 308.54937763521775 13.258345782756804 8.5516271587421198 8.8902666604844871 8.6360376437769428 2.9254544732630192 9.7055916339450032 38.916346579208039 1.3755087927274861 21.82131782558281 85.553023493986984 28.899152214329661 158.81619869505812 34.724492856510551 9.7855666875839216 324.36567199230194 13.436207771301268 27.102211055811495 5.0504606962203971 9.6882071265717951 371.93326941132545 8.1395581861834216 10.636133724317913 1.1314978186856031 154.26635580288712 19.698526248472263
leaf_count=272 3465 148 990 561 3987 11 113 19 75 55 122 375 18 239 949 319 1741 432 8 511 21 217 4 94 796 151 359 22 4874 456
internal_value=-0.000412174 -0.00635385 -0.000833361 0.0184555 -0.00348284 -0.023671 -0.000223271 0.0216131 0.0587243 -0.00176032 0.0108505 0.00205943 0.0213137 0.0256016 0.0333032 0.016241 0.0075228 0.0254013 0.0357997 -0.02515 -0.0129974 0.0130129 0.0149532 0.01582 -0.0052187 0.00291785 0.0378761 0.0941382 -0.00101634 0.0303828
internal_weight=2433.88 1850.98 1403.55 582.897 1144.1 447.432 835.555 54.9464 17.5263 780.609 259.442 140.986 118.455 108.75 86.9285 67.8155 211.878 53.0617 44.5101 434.174 109.808 408.641 381.539 376.488 568.731 196.798 19.9072 9.27106 176.89 22.624
internal_count=21404 17063 16372 4341 13360 691 9373 366 94 9007 3012 1684 1328 1206 967 694 2294 553 440 680 169 3780 3563 3559 6713 5917 532 173 5385 511
is_linear=0
shrinkage=0.1


Tree=17
num_leaves=31
num_cat=0
split_feature=12 3 14 12 2 15 6 7 14 1 1 9 15 13 7 3 2 6 15 3 7 0 0 3 7 15 0 14 3 3
split_gain=24.3566 16.4916 3.89279 3.4938 3.01651 2.96707 2.47364 3.0124 3.44428 2.26124 2.09913 4.40944 6.02571 2.07673 2.35405 2.28657 2.15953 2.76412 2.3659 2.17382 2.12325 1.98265 2.38863 2.71557 2.11781 2.06474 2.55126 2.60787 4.09943 1.88896
threshold=1.5000000000000002 284.50000000000006 1.5000000000000002 3.5000000000000004 4.5000000000000009 4.5000000000000009 -0.98611507088852024 -0.097964660725097477 1.0000000180025095e-35 1.0000000180025095e-35 1.0000000180025095e-35 -0.56174490092936669 1.0000000180025095e-35 1.0000000180025095e-35 0.22695468355932455 282.50000000000006 1.0000000180025095e-35 -0.99892946161930163 1.0000000180025095e-35 260.50000000000006 0.65934581510006873 5.5000000000000009 1.0000000180025095e-35 279.50000000000006 -0.88144907265856332 1.5000000000000002 3.5000000000000004 1.0000000180025095e-35 260.50000000000006 229.50000000000003
decision_type=2 2 2 2 2 2 2 2 2 2 2 2 2 2 2 2 2 2 2 2 2 2 2 2 2 2 2 2 2 2
left_child=1 2 4 -2 6 10 7 8 -1 21 11 12 -3 14 -4 -16 -15 -18 20 -20 -19 22 -8 25 -23 26 27 28 -24 -11
right_child=3 5 13 -5 -6 -7 9 -9 -10 29 -12 -13 -14 16 15 -17 17 18 19 -21 -22 24 23 -25 -26 -27 -28 -29 -30 -31
leaf_value=0.017285660828939141 0.0096915210441599724 -0.021911451974445568 -0.010654249892428563 0.02503594807120146 -0.011847202287863214 0.022940424789987642 -0.028110705262464931 -0.0028865152585196424 0.090797916085290975 0.017587239752927017 -0.028658363081668598 -0.024756270140721594 0.069205483784855235 -0.026110138799445144 0.012091877705842967 0.12299889754562682 0.15133318522170924 0.01926239450658641 -0.0014568457328864642 0.046501703582459336 -0.024754420797540585 0.027006305336735099 0.017026352075623502 0.074730059286413658 -0.0045844010487416575 -0.016975501093494869 -0.0007355048682539607 -0.0015829854495501177 0.12967521826777956 -0.006472766149543484
leaf_weight=17.924359818902303 303.08183128212113 15.509086668491365 72.364082534404588 290.72470524351229 304.7744789988119 13.590726554393767 8.3095114328480104 28.372352211948964 9.890298843703933 34.767098319043725 315.01097798347473 79.262607097625732 13.642034173011778 9.4495856789653754 67.026139379890083 1.9119690656661976 1.6708061690733291 38.763320558082341 12.048750908252257 43.841870099306107 15.278097788203011 25.588262241313714 5.7688920106811583 10.663150906562803 124.34096816022429 11.966848491487324 13.974181188685177 5.5672278716228893 7.3418133854866028 531.10930696874857
leaf_count=49 2742 24 990 1599 3987 11 113 298 19 4745 511 127 18 122 692 2 18 482 513 41 152 282 228 8 1348 70 193 38 14 1968
internal_value=-0.0004053 -0.00608905 -0.000804379 0.0172041 -0.00333117 -0.0230516 -0.000224999 0.0200394 0.043425 -0.00168587 -0.0245278 -0.0125258 0.0207291 0.0101787 0.00194376 0.0151678 0.0197911 0.0236776 0.0217375 0.0361629 0.00681836 0.00708281 0.0218789 0.0293928 0.000807151 0.018558 0.0315809 0.0557589 0.0801082 -0.00499453
internal_weight=2433.54 1839.73 1402.71 593.807 1140.36 437.015 835.584 56.187 27.8147 779.397 423.425 108.414 29.1511 262.355 141.302 68.9381 121.052 111.603 109.932 55.8906 54.0414 213.521 63.5916 55.2821 149.929 44.619 32.6521 18.6779 13.1107 565.876
internal_count=21404 17063 16372 4341 13360 691 9373 366 68 9007 680 169 42 3012 1684 694 1328 1206 1188 554 634 2294 664 551 1630 543 473 280 242 6713
is_linear=0
shrinkage=0.1


Tree=18
num_leaves=31
num_cat=0
split_feature=12 3 12 15 7 9 9 3 14 7 8 13 3 0 6 3 13 13 7 11 7 6 6 3 6 3 3 8 1 15
split_gain=22.1611 11.5489 6.2781 4.30932 3.79284 3.80051 3.28202 3.48613 3.28075 2.46133 2.34687 2.13905 2.109 2.02572 2.28867 2.23679 1.79492 1.77637 2.57417 2.31168 1.9619 6.03447 1.81535 2.45634 1.74314 1.72098 2.38296 1.81208 1.84163 3.72488
threshold=1.0000000180025095e-35 283.50000000000006 3.5000000000000004 1.0000000180025095e-35 -0.25881904510252068 -0.56174490092936669 -0.56174490092936669 285.50000000000006 6.5000000000000009 0.16280825711809024 -0.8783796973249266 22.500000000000004 214.50000000000003 17.500000000000004 -0.98611507088852024 268.50000000000006 1.0000000180025095e-35 1.5000000000000002 -0.16280825711808977 1.0000000180025095e-35 -0.93540483100319616 0.25881904510252091 0.68322629814330826 269.50000000000006 0.98611507088852057 274.50000000000006 265.50000000000006 0.87837969732492682 1.0000000180025095e-35 1.0000000180025095e-35
decision_type=2 2 2 2 2 2 2 2 2 2 2 2 2 2 2 2 2 2 2 2 2 2 2 2 2 2 2 2 2 2
left_child=1 8 6 16 -5 -6 13 11 17 -7 -11 12 -8 14 -2 -15 -3 18 22 25 21 -19 23 -1 -16 26 -20 28 -27 -30
right_child=2 3 -4 4 5 9 7 -9 -10 10 -12 -13 -14 15 24 -17 -18 20 19 -21 -22 -23 -24 -25 -26 27 -28 -29 29 -31
leaf_value=0.0017220999567824438 0.053223579136744685 -0.033050778026796117 0.023189116318795066 -0.029600329439288649 0.034389155890944038 0.025853151297892552 0.03039405247301892 -0.028205510159986982 0.022280774990762656 0.0099855728995314474 -0.033505376757466017 0.084075372100035781 0.00070052577081249707 0.020380116900608751 0.018554657443703892 -0.016647455236520812 -0.010272886164586395 0.0041216500230856689 9.6518561717734636e-05 0.027012820279442629 0.0029165947826654565 0.16521922104915099 -0.024459702189418207 -0.017669722234039838 -0.024824956088918812 0.030173466077456898 -0.018528311764881605 -0.023489734041894427 0.016930432478936962 -0.026211200822459563
leaf_weight=131.75820169714461 18.405371633602044 232.75408172607422 298.09515126733459 56.04744827747345 27.700915217399597 15.622527241706846 25.584819658874039 38.532401859760284 50.710761225778697 18.588529467582703 37.315365791320801 3.2516283597797146 367.48578014038503 28.878862177145493 172.02711001766511 37.498515695333481 40.635235548019409 9.2356270435593597 181.86457147679721 28.211568852311757 126.78021349385381 3.107583225137204 88.54168627598483 129.54352301359177 9.7903751380508748 34.822711169719696 110.39623054862022 17.797447085380554 62.788635760545731 29.376932233572006
leaf_count=3136 46 389 1599 90 37 21 2949 52 247 26 61 4 1372 426 1261 54 69 154 5377 146 1533 42 1430 281 74 45 298 28 108 49
internal_value=-0.000397496 -0.00836642 0.0110319 -0.0221089 -0.00880483 0.00294127 0.00586549 0.000509631 -0.00250443 -0.00923794 -0.0190443 0.00330146 0.00263327 0.0146015 0.0196204 -0.000537838 -0.0296652 -0.0038216 -0.00560412 -0.000731056 0.00662193 0.0446803 -0.0120848 -0.00789163 0.0162188 -0.00252194 -0.00693867 0.00639358 0.0105817 0.00317943
internal_weight=2433.15 1433.6 999.55 428.664 155.275 99.2273 701.455 434.855 1004.94 71.5264 55.9039 396.322 393.071 266.6 200.223 66.3774 273.389 954.225 815.102 465.258 139.123 12.3432 349.843 261.302 181.817 437.047 292.261 144.786 126.988 92.1656
internal_count=21404 13567 7837 693 235 145 6238 4377 12874 108 87 4325 4321 1861 1381 480 458 12627 10898 6051 1729 196 4847 3417 1335 5905 5675 230 202 157
is_linear=0
shrinkage=0.1


Tree=19
num_leaves=31
num_cat=0
split_feature=12 3 12 15 7 9 14 9 3 7 8 3 0 3 6 13 6 7 6 15 14 2 15 3 3 7 6 12 15 13
split_gain=19.9747 10.7929 5.44338 4.13664 3.54942 3.33597 2.99773 2.89826 3.23 2.22911 2.21473 1.77464 1.76765 2.01368 1.88239 1.74706 1.68066 2.64494 2.46433 2.29841 2.80979 1.67284 1.59457 1.56365 3.04055 2.33841 1.55991 1.51258 1.71507 1.46641
threshold=1.0000000180025095e-35 283.50000000000006 3.5000000000000004 1.0000000180025095e-35 -0.25881904510252068 -0.56174490092936669 1.5000000000000002 -0.56174490092936669 285.50000000000006 0.16280825711809024 -0.8783796973249266 214.50000000000003 17.500000000000004 268.50000000000006 -0.98611507088852024 1.0000000180025095e-35 -0.84874750804349186 0.16280825711809024 -0.58216583101416131 2.5000000000000004 1.0000000180025095e-35 1.5000000000000002 8.5000000000000018 256.50000000000006 254.50000000000003 -0.3520614488341256 0.98611507088852057 1.5000000000000002 3.5000000000000004 1.0000000180025095e-35
decision_type=2 2 2 2 2 2 2 2 2 2 2 2 2 2 2 2 2 2 2 2 2 2 2 2 2 2 2 2 2 2
left_child=1 6 7 15 -5 -6 16 12 11 -7 -11 -9 14 27 -2 -3 19 -18 -19 23 21 -21 -20 24 25 -1 -16 28 -14 -8
right_child=2 3 -4 4 5 9 29 8 -10 10 -12 -13 13 -15 26 -17 17 18 22 20 -22 -23 -24 -25 -26 -27 -28 -29 -30 -31
leaf_value=0.067376567086946601 0.047890995225675088 -0.032492707421229471 0.021519279325511599 -0.028997725118287066 0.031547959966202722 0.02392595567926142 0.00056000219952948786 0.028157303168301763 -0.027591803264741428 0.0093929551514511517 -0.032954990308566905 0.00134128896470864 0.026301032353750333 -0.016093305145410491 0.017300654749152041 -0.0098661974359306546 -0.013184904494891707 -0.021134287198986815 0.0042036444472606993 0.039285463457257981 0.11579278299739258 -0.020296978515369282 -0.047175615235407281 -0.0088762127032056149 0.12438128703561134 -0.0029941906267040986 -0.024200747480294469 -0.0064554786638691165 0.12037753636498894 0.018199437780783513
leaf_weight=5.6374989951655143 19.411508813638648 225.18711343407631 305.08848714661872 54.412739187479019 28.670095443725586 16.031685054302216 99.057391693182581 26.436151022782724 37.460759997367859 18.775076508522034 36.085813730955124 371.21836766041815 14.183983690003521 36.879428207874298 175.24881019796157 40.219931244850159 346.98215103626717 49.707751197212929 269.83288904999245 13.793960444803821 3.4943428953993125 7.1570574086399565 6.1787335715489453 79.349244654178619 2.4192059338092795 29.081278522999128 9.5503215260687266 13.044981380644456 2.2444899520924073 89.901277296154149
leaf_count=169 46 389 1599 90 37 21 1300 2951 52 26 61 1374 196 54 1261 69 4865 617 3751 39 48 85 36 195 12 887 74 206 24 870
internal_value=-0.000389249 -0.00802886 0.0103584 -0.0214992 -0.00846007 0.00276411 -0.00239424 0.00553314 0.000479578 -0.00887654 -0.0184622 0.00312402 0.0136602 -0.000519705 0.0182676 -0.0290639 -0.00502937 -0.00710964 -0.000637794 0.00490021 0.0327774 0.0189316 0.00305348 -0.000949944 0.0159854 0.00843234 0.0151559 0.0189672 0.0391539 0.00895235
internal_weight=2432.74 1421.98 1010.77 419.382 153.975 99.5627 1002.59 705.679 435.115 70.8926 54.8609 397.655 270.564 66.3529 204.211 265.407 813.634 672.702 325.719 140.933 24.4454 20.951 276.012 116.487 37.138 34.7188 184.799 29.4735 16.4285 188.959
internal_count=21404 13567 7837 693 235 145 12874 6238 4377 108 87 4325 1861 480 1381 458 10704 9269 4404 1435 172 124 3787 1263 1068 1056 1335 426 220 2170
is_linear=0
shrinkage=0.1


Tree=20
num_leaves=31
num_cat=0
split_feature=12 3 12 15 7 7 9 1 14 9 3 13 13 3 0 3 6 15 6 7 6 7 1 15 1 13 6 3 3 9
split_gain=18.0088 10.0767 4.73299 3.96489 3.31931 3.04167 4.95243 5.49943 2.70457 2.56111 2.99171 1.75727 1.69776 1.62576 1.54864 1.81237 1.60945 1.53845 1.5231 2.43984 2.26963 2.0021 1.8208 1.50236 1.43204 2.12739 1.54863 2.59212 3.04627 2.01491
threshold=1.0000000180025095e-35 283.50000000000006 3.5000000000000004 1.0000000180025095e-35 -0.25881904510252068 -0.032701564615071545 -0.22252093395631442 1.0000000180025095e-35 1.5000000000000002 -0.56174490092936669 285.50000000000006 22.500000000000004 1.0000000180025095e-35 192.50000000000003 17.500000000000004 281.50000000000006 0.98611507088852057 2.5000000000000004 -0.84874750804349186 0.16280825711809024 -0.58216583101416131 0.032701564615071219 1.0000000180025095e-35 8.5000000000000018 1.0000000180025095e-35 2.5000000000000004 -0.35206144883412549 261.50000000000006 247.50000000000003 -0.22252093395631442
decision_type=2 2 2 2 2 2 2 2 2 2 2 2 2 2 2 2 2 2 2 2 2 2 2 2 2 2 2 2 2 2
left_child=1 8 9 12 -5 -6 7 -7 18 14 11 13 -3 -11 16 17 -2 -16 21 -20 -21 22 -1 24 25 -22 27 28 -26 -29
right_child=2 3 -4 4 5 6 -8 -9 -10 10 -12 -13 -14 -15 15 -17 -18 -19 19 20 23 -23 -24 -25 26 -27 -28 29 -30 -31
leaf_value=-0.011115569520134478 0.018937840519691215 -0.031925782681589854 0.02000394725036193 -0.028389838154731811 0.04470144087645872 0.054068786347924516 -0.030570704640193999 -0.015358664495571142 0.0084277365013855059 0.044902508408937537 -0.026974464653933189 0.073068276616669273 -0.0094716552663558357 0.0013639828474977256 0.0033816069500310917 -0.026823938029702329 -0.023577135669355251 0.0597202874078408 -0.012700819030562131 -0.020525032267401388 0.0098903137837488258 -0.0078389468303613138 0.025035351074375708 -0.047055675337924679 -0.0034733924302618236 0.065709771045303872 -0.0047706123100683395 0.029009136290683465 0.098270163606259231 -0.037815640951871059
leaf_weight=18.602489915663682 198.67087493550207 217.9877710044384 311.72491986020759 52.857550412416458 14.643469393253325 21.820942461490631 39.501261293888092 23.91145646572113 190.66528825221576 8.7710786476090998 36.441279411315918 3.543259782716631 39.825064659118652 386.59337556175888 42.093953820945899 18.773643553256989 9.321970789722398 5.4777074563025954 342.43725203771646 48.668236689329206 74.721586178899088 67.596771506216101 55.496382158280539 5.894016641424968 5.0539027379745693 7.5143330879727719 158.5845653743454 9.1202186644077319 7.0447043776512146 8.9302483201026899
leaf_count=246 1307 389 1599 90 19 24 67 35 2170 2283 52 4 69 2038 392 23 74 65 4865 617 933 731 458 36 302 50 2412 19 14 21
internal_value=-0.000380074 -0.00770141 0.0097329 -0.0208932 -0.0081254 0.00259906 -0.00463429 0.0177682 -0.00228732 0.00522141 0.000452662 0.0029582 -0.0284572 0.00232988 0.012789 -0.000514092 0.0170324 0.00986881 -0.00481058 -0.00680819 -0.00060955 0.0046064 0.0159597 0.00289128 0.0039777 0.0149908 -0.000820992 0.0199541 0.0557692 -0.00405161
internal_weight=2432.29 1410.88 1021.41 410.548 152.735 99.8771 85.2337 45.7324 1000.33 709.687 435.349 398.908 257.813 395.364 274.338 66.3453 207.993 47.5717 809.665 667.969 325.532 141.696 74.0989 276.864 270.97 82.2359 188.734 30.1491 12.0986 18.0505
internal_count=21404 13567 7837 693 235 145 126 59 12874 6238 4377 4325 458 4321 1861 480 1381 457 10704 9269 4404 1435 704 3787 3751 983 2768 356 316 40
is_linear=0
shrinkage=0.1


Tree=21
num_leaves=31
num_cat=0
split_feature=12 3 12 15 7 6 1 13 9 7 6 9 6 3 3 3 2 3 11 6 3 13 3 9 6 0 0 2 0 6
split_gain=16.2454 9.40073 4.12543 3.79162 3.09874 2.66662 3.42358 2.60616 2.60263 2.55051 2.30929 2.22827 2.41485 2.24494 1.95487 2.53507 2.1764 1.95372 1.72805 1.68266 2.17529 1.64722 1.58199 1.93636 1.56577 1.6339 1.52923 1.60121 2.38171 2.27827
threshold=1.0000000180025095e-35 283.50000000000006 3.5000000000000004 1.0000000180025095e-35 -0.25881904510252068 -0.68322629814330804 2.5000000000000004 1.5000000000000002 -0.22252093395631442 -0.16280825711808977 0.97335555334614954 -0.56174490092936669 0.95642797789208711 285.50000000000006 275.50000000000006 289.50000000000006 3.5000000000000004 287.50000000000006 1.0000000180025095e-35 0.68322629814330826 269.50000000000006 1.0000000180025095e-35 280.50000000000006 -0.22252093395631442 0.98611507088852057 2.5000000000000004 4.5000000000000009 3.5000000000000004 2.5000000000000004 0.41248606129204562
decision_type=2 2 2 2 2 2 2 2 2 2 2 2 2 2 2 2 2 2 2 2 2 2 2 2 2 2 2 2 2 2
left_child=1 7 10 21 -5 17 8 9 -7 19 11 12 14 -13 16 -16 -2 -6 26 20 -1 -3 23 -20 25 -9 27 -11 29 -29
right_child=2 3 -4 4 5 6 -8 24 -10 18 -12 13 -14 -15 15 -17 -18 -19 22 -21 -22 -23 -24 -25 -26 -27 -28 28 -30 -31
leaf_value=0.001853154370260502 0.028469594740893209 -0.031350516953572993 0.018624268137449298 -0.027777370414805432 0.0051801043194592148 0.020826481418660867 -0.049658530260917218 -0.015572779785922806 -0.026013578747662643 -0.0024166788573883641 -0.018563076139549085 0.0038694309132658849 0.063006698146866727 -0.023746257195206844 -0.0070310008645009456 0.032924498515214333 0.003883159613542784 0.054287561900194473 0.060738337182326886 -0.023248115270004567 -0.016520597364880606 -0.0090892106347412998 -0.019469983050638323 0.011045402111934317 -0.0272295873183548 0.015583416737518584 -0.0065681745916087442 0.021041737608400047 0.037469525873859121 -0.025427777520177504
leaf_weight=132.9284518677141 92.03681692504324 211.13826054334641 318.02343732832378 51.378034234046936 19.579878777265549 32.12608140707016 15.872434735298155 19.184877633204451 18.807004183530807 108.53529913056445 39.52403091211454 381.05180015371661 9.5092344396980462 31.901345461606979 80.539886713027954 19.779254496097565 59.137836546229664 13.819724380969999 12.319215600073219 85.392496035650765 125.05133903026581 39.449636071920395 8.3569210767745954 21.573298426663314 11.024333031979038 137.24810020260338 261.7785645600452 24.885131232833373 31.587465806587716 18.315498061732796
leaf_count=3195 815 389 1599 90 29 39 26 203 33 1493 374 4060 42 46 100 11 790 18 68 1442 281 69 4 91 95 1476 3473 402 386 265
internal_value=-0.000371281 -0.00738605 0.00915185 -0.0202941 -0.00780989 0.00242801 -0.00910652 -0.00218534 0.00353082 -0.00447948 0.00492966 0.00630738 0.01354 0.00173607 0.0116696 0.000846758 0.0188517 0.0254993 0.000171528 -0.0110807 -0.00705321 -0.027846 0.0194991 0.0291077 0.00919544 0.0117624 -0.00166306 0.00534125 0.0165999 0.00134035
internal_weight=2431.86 1400.35 1031.5 402.171 151.583 100.205 66.8055 998.181 50.9331 830.724 713.48 673.956 261.003 412.953 251.494 100.319 151.175 33.3996 487.351 343.372 257.98 250.588 42.2494 33.8925 167.457 156.433 445.102 183.323 74.7881 43.2006
internal_count=21404 13567 7837 693 235 145 98 12874 72 11100 6238 5864 1758 4106 1716 111 1605 47 6182 4918 3476 458 163 159 1774 1679 6019 2546 1053 667
is_linear=0
shrinkage=0.1


Tree=22
num_leaves=31
num_cat=0
split_feature=12 3 12 15 7 6 7 8 2 14 8 3 2 7 0 3 6 6 15 1 3 9 15 13 7 1 6 3 6 13
split_gain=14.6576 8.76017 3.63271 3.62143 2.89178 2.83573 2.54906 4.30241 5.08888 2.37533 2.0794 2.98655 2.53515 2.24217 2.31059 1.9165 1.85328 3.09212 1.76577 1.7203 1.79962 1.72541 1.9368 1.59563 1.57608 1.56203 1.50387 2.36255 1.49363 1.78593
threshold=1.0000000180025095e-35 283.50000000000006 5.5000000000000009 1.0000000180025095e-35 -0.25881904510252068 0.97335555334614954 -0.032701564615071545 1.0000000180025095e-35 4.5000000000000009 6.5000000000000009 1.0000000180025095e-35 280.50000000000006 2.5000000000000004 0.97335555334614943 6.5000000000000009 284.50000000000006 -0.065403129230143256 -0.25881904510252046 1.5000000000000002 1.0000000180025095e-35 271.50000000000006 1.0000000180025095e-35 2.5000000000000004 1.0000000180025095e-35 0.95642797789208711 1.0000000180025095e-35 -0.99465189230620676 289.50000000000006 0.98611507088852057 1.5000000000000002
decision_type=2 2 2 2 2 2 2 2 2 2 2 2 2 2 2 2 2 2 2 2 2 2 2 2 2 2 2 2 2 2
left_child=1 9 5 23 -5 10 -6 8 -8 28 13 12 -12 14 15 19 17 26 -10 21 -21 22 -2 -3 -14 -13 27 -16 29 -1
right_child=2 3 -4 4 6 -7 7 -9 18 -11 11 25 24 -15 16 -17 -18 -19 -20 20 -22 -23 -24 -25 -26 -27 -28 -29 -30 -31
leaf_value=-0.004183426685192968 0.06888964005321721 -0.030767459451292879 0.019839019108223603 -0.027161049021061992 0.039596194855538835 -0.019131147560360311 0.047953075053119347 -0.035441763949102499 0.012325646190968922 0.018387094481578686 0.0085346847937748434 0.017468931172634272 0.030636236233132032 -0.027410701572167309 -0.0032726064682522048 0.046210313896731518 -0.014097739702520387 0.045150361055650103 -0.034433634166634412 0.015166546617571232 -0.019198513843839669 -0.0070922365380499319 -0.0057886580006502901 -0.0087187867387980844 -0.012267515519689026 -0.01782324412784253 -0.002666081443985854 0.058191965947810745 -0.020613062146388226 0.008476324862798295
leaf_weight=765.00297276216588 13.285933097737148 204.62164995074272 225.66987040584354 49.970526278018951 15.481055319309233 44.197027264977805 22.931255728006363 29.426337629556656 14.61914277076721 53.612513128591672 158.72379405492393 17.730341255664825 117.38345372299227 24.073419601481874 14.445926306889305 18.097962498664856 75.464817118332576 16.913320061248669 18.044206857681274 39.082473749498604 24.977692306041718 7.7419790848798575 4.7020244515733784 39.092694759368896 9.2359295655623992 42.848410040140152 175.48639219929464 11.027295112609863 47.08091841465648 130.43234758007384
leaf_count=10257 81 389 778 90 19 422 33 47 21 247 1885 20 882 240 138 17 770 144 25 427 34 86 20 69 79 53 1760 1 735 1635
internal_value=-0.000362119 -0.00708089 0.00861043 -0.0196993 -0.00750101 0.00550288 0.00227415 -0.00452164 0.0118444 -0.00208753 0.0069146 0.0126722 0.0169534 0.00223164 0.00401017 0.0165232 -0.000592074 0.00408589 -0.0135056 0.0105396 0.00176727 0.0323801 0.0493688 -0.0272308 0.0275067 -0.00749384 0.000629794 0.0233353 -0.00325218 -0.00233936
internal_weight=2431.4 1390.32 1041.09 394.187 150.473 815.418 100.502 85.0209 55.5946 996.129 771.221 345.922 285.343 425.299 401.226 107.888 293.338 217.873 32.6633 89.7901 64.0602 25.7299 17.988 243.714 126.619 60.5788 200.96 25.4732 942.516 895.435
internal_count=21404 13567 7837 693 235 7059 145 126 79 12874 6637 2919 2846 3718 3478 665 2813 2043 46 648 461 187 101 458 961 73 1899 139 12627 11892
is_linear=0
shrinkage=0.1


Tree=23
num_leaves=31
num_cat=0
split_feature=12 3 15 12 3 0 6 7 3 3 6 1 7 2 8 3 14 0 3 7 3 6 13 13 7 9 2 2 7 6
split_gain=13.2145 8.16068 3.45205 3.18303 2.78068 3.31918 3.63823 2.69502 2.5657 3.55959 2.91293 2.85779 2.34401 3.40885 3.63258 2.29163 2.16318 2.15921 1.80149 2.01526 1.66639 1.60302 1.62481 1.54318 1.46314 1.42863 2.16902 1.36506 1.31071 1.29649
threshold=1.0000000180025095e-35 283.50000000000006 1.0000000180025095e-35 6.5000000000000009 261.50000000000006 20.500000000000004 0.97335555334614954 -0.25881904510252068 272.50000000000006 275.50000000000006 0.91037613702198772 1.5000000000000002 0.72947329433276265 4.5000000000000009 1.0000000180025095e-35 257.50000000000006 1.5000000000000002 1.5000000000000002 227.50000000000003 0.22695468355932455 269.50000000000006 0.72947329433276253 1.0000000180025095e-35 1.0000000180025095e-35 -0.88144907265856332 -0.22252093395631442 1.5000000000000002 2.5000000000000004 0.93540483100319638 -0.84874750804349186
decision_type=2 2 2 2 2 2 2 2 2 2 2 2 2 2 2 2 2 2 2 2 2 2 2 2 2 2 2 2 2 2
left_child=1 16 23 4 15 6 8 25 20 11 21 27 13 14 -9 18 29 -14 -2 -20 -6 22 24 -3 -11 -4 -27 -10 -21 -1
right_child=3 2 7 -5 5 -7 -8 12 9 10 -12 -13 17 -15 -16 -17 -18 -19 19 28 -22 -23 -24 -25 -26 26 -28 -29 -30 -31
leaf_value=0.0043693692334754114 0.018891455266544482 -0.030177195127817615 -0.043311909356217593 0.019299780431354146 -0.0015557018409133622 -0.023397870684685896 -0.031636687393538185 0.061006105250566593 -0.014958601219911459 -0.010448168417993434 0.033752401239308234 0.048798704552415924 0.0096788932062255115 -0.020117733132190507 0.0043429285613028421 0.02632039071439975 0.0074901036929137868 -0.042339673299308239 -0.01337341893702769 0.018377030359509852 -0.033128228074094976 -0.01953741354347175 -0.0090372230775653695 -0.0083602807349096066 0.01519604517589244 -0.037710363325771726 0.022764021741814008 0.02726978702114671 -0.014480718612329843 -0.0061569316410105277
leaf_weight=142.31728581339303 83.564768930169521 198.42182719707489 24.845361918210983 204.37467426410876 102.46927952766418 50.284391641616821 27.668153762817383 19.361220151185989 14.182562083005907 27.491364270448685 31.166293621063232 38.068479120731354 14.004994630813597 21.665947377681732 27.220436304807663 90.811507984995842 193.79351723001128 18.547001391649246 60.211916405707598 57.028754819184542 19.975949078798294 32.119035571813583 62.147717505693436 38.753335297107697 116.6710792183876 12.503292232751846 11.282886773347855 16.631940364837646 15.423700142651795 657.96893415366503
leaf_count=1435 5481 389 43 561 242 92 47 27 27 39 33 42 23 29 37 173 2170 29 384 309 45 41 80 69 131 26 21 21 89 9269
internal_value=-0.000353479 -0.00678393 -0.0191119 0.00809983 0.00539391 0.00106613 0.00358389 -0.00720721 0.0056981 0.0101855 0.00500185 0.0304733 0.00212082 0.0126524 0.0278944 0.0129894 -0.00198948 -0.0199595 0.00739074 0.000146488 -0.0067065 0.00124372 0.00447899 -0.0266124 0.0103058 -0.0265416 -0.00902456 0.00783391 0.0113823 -0.00428501
internal_weight=2430.98 1380.69 386.606 1050.29 845.917 538.876 488.592 149.431 460.924 338.478 269.595 68.883 100.8 68.2476 46.5817 307.041 994.08 32.552 216.229 132.664 122.445 238.429 206.31 237.175 144.162 48.6315 23.7862 30.8145 72.4525 800.286
internal_count=21404 13567 693 7837 7276 840 748 235 701 414 324 90 145 93 64 6436 12874 52 6263 782 287 291 250 458 170 90 47 48 398 10704
is_linear=0
shrinkage=0.1


Tree=24
num_leaves=31
num_cat=0
split_feature=12 3 15 12 7 9 6 13 7 9 2 0 6 9 3 6 3 13 3 8 3 7 3 3 1 3 2 7 6 0
split_gain=11.9154 7.59595 3.28479 2.83134 2.5256 2.57827 2.37553 2.09174 2.33068 1.96082 2.37266 1.76363 2.33221 1.68067 2.33397 1.58281 2.01033 1.49007 1.47886 2.52437 2.14791 1.43485 3.22746 1.50911 1.35893 2.30566 1.80723 1.32132 1.44649 3.63057
threshold=1.0000000180025095e-35 283.50000000000006 1.0000000180025095e-35 8.5000000000000018 -0.16280825711808977 -0.56174490092936669 0.97335555334614954 1.5000000000000002 -0.16280825711808977 -0.22252093395631442 1.5000000000000002 17.500000000000004 0.29012925520284133 -0.56174490092936669 287.50000000000006 0.68322629814330826 269.50000000000006 1.0000000180025095e-35 275.50000000000006 0.87837969732492682 269.50000000000006 0.77259657388510627 262.50000000000006 284.50000000000006 1.0000000180025095e-35 277.50000000000006 2.5000000000000004 -0.065403129230143256 0.25881904510252091 10.500000000000002
decision_type=2 2 2 2 2 2 2 2 2 2 2 2 2 2 2 2 2 2 2 2 2 2 2 2 2 2 2 2 2 2
left_child=1 7 17 6 9 -6 13 8 15 -4 -11 12 -7 -2 21 16 -1 -3 20 24 -10 23 -23 -15 -20 -26 -27 28 -9 -30
right_child=3 2 4 -5 5 11 -8 27 18 10 -12 -13 -14 14 -16 -17 -18 -19 19 -21 -22 22 -24 -25 25 26 -28 -29 29 -31
leaf_value=0.0020719868906551287 0.011954492149310655 -0.029580342882469648 -0.04368976231260728 0.020133564806087398 0.026856304121124653 0.0412290590142666 -0.017290301575666044 0.010681339074792897 0.0015748503916800955 -0.033726567904980825 0.025588075942908746 -0.028985428482975407 -0.011509129651837076 0.0049096888647755278 -0.030822744228926488 -0.022389077560477467 -0.015719176020439766 -0.0080135686883712216 0.032076875968219988 -0.025495984349508595 -0.016640162264441857 0.010264594027771955 -0.02519303141876399 0.02477982046385219 0.035357516037316253 0.016999820461963536 -0.012487690072948542 0.00092303512497015098 0.022367044743790209 0.1427720872375646
leaf_weight=132.36613252811549 351.7888941900128 192.52345860004425 26.418198555707932 154.50786209550279 30.428057849407196 12.155918180942534 43.585913008777425 52.301849457744538 237.94227535157006 14.111180901527405 12.917230427265167 25.383940696716309 27.032763868570328 343.23294347704723 19.653601467609406 82.702476535334426 122.09846052527428 38.430697292089462 29.727276057004929 19.275194108486176 88.93455183506012 55.458146309138101 47.794486373662949 43.01243993639946 23.934507727622986 36.504177331924438 48.26506844162941 101.36883074060825 13.632642905264222 3.0678512774538822
leaf_count=3195 2195 389 47 324 35 15 447 534 5751 29 23 42 44 3816 26 1442 281 69 38 29 217 897 90 42 36 41 70 959 256 25
internal_value=-0.000344947 -0.00649748 -0.0185318 0.00762302 -0.00692586 0.0028576 0.00548601 -0.00189538 -0.00398612 -0.0243158 -0.00537933 -0.00845112 0.0048497 0.00663908 0.0029665 -0.0103707 -0.00646466 -0.0259916 0.000456199 0.00840948 -0.00338097 0.00432315 -0.00614834 0.00712243 0.0131305 0.00794922 0.000210516 0.00818886 0.0188628 0.0444852
internal_weight=2430.56 1371.52 379.401 1059.03 148.447 95.0007 904.526 992.121 821.75 53.4466 27.0284 64.5726 39.1887 860.941 509.152 337.167 254.465 230.954 484.583 157.706 326.877 489.498 103.253 386.245 138.431 108.704 84.7692 170.371 69.0023 16.7005
internal_count=21404 13567 693 7837 235 136 7513 12874 11100 99 52 101 59 7066 4871 4918 3476 458 6182 214 5968 4845 987 3858 185 147 111 1774 815 281
is_linear=0
shrinkage=0.1


Tree=25
num_leaves=31
num_cat=0
split_feature=12 3 15 12 7 7 2 8 6 2 14 9 3 13 6 13 7 7 3 6 6 3 15 9 2 3 0 7 3 3
split_gain=10.7607 7.05722 3.12249 2.47126 2.35855 2.17445 2.87068 2.99499 2.15738 2.13413 1.94046 1.48587 2.16091 1.43649 1.3824 1.4273 2.24199 1.59828 2.07397 1.88164 1.48819 1.91372 1.41876 1.35508 1.85221 1.34278 1.32442 1.29035 2.9914 1.31144
threshold=1.0000000180025095e-35 283.50000000000006 1.0000000180025095e-35 8.5000000000000018 -0.25881904510252068 0.72947329433276265 4.5000000000000009 1.0000000180025095e-35 0.97335555334614954 3.5000000000000004 6.5000000000000009 -0.56174490092936669 287.50000000000006 1.0000000180025095e-35 0.98611507088852057 1.5000000000000002 -0.16280825711808977 0.032701564615071219 254.50000000000003 -0.58216583101416131 0.68322629814330826 269.50000000000006 8.5000000000000018 -0.22252093395631442 1.5000000000000002 261.50000000000006 22.500000000000004 0.77259657388510627 263.50000000000006 284.50000000000006
decision_type=2 2 2 2 2 2 2 2 2 2 2 2 2 2 2 2 2 2 2 2 2 2 2 2 2 2 2 2 2 2
left_child=1 10 13 8 23 6 7 -6 11 -7 14 -2 27 -3 15 16 20 18 -18 -19 21 -1 26 -4 -25 -10 -21 29 -29 -13
right_child=3 2 4 -5 5 9 -8 -9 25 -11 -12 12 -14 -15 -16 -17 17 19 -20 22 -22 -23 -24 24 -26 -27 -28 28 -30 -31
leaf_value=0.0023154057425149462 0.011222324811741617 -0.028977551754943317 -0.042735010968680841 0.018742452168508981 0.054117430804899051 -0.049658530446484661 -0.019046240473114276 0.0037341242470531411 0.0056519824631930974 0.0024896339508240868 0.016404273497068987 0.0046424324654025032 -0.030233134133281672 -0.0076785034365234447 -0.019822772682626964 0.007559664235074314 -0.028781459641122522 -0.011945995475856274 0.032041432916241605 0.0072834926819899315 -0.021751981700350392 -0.015181462372801859 -0.046988688697314401 -0.036825595912028358 0.019345550809001757 -0.030733006831685755 -0.013060499777987906 0.008999306736035162 -0.025465956267226114 0.022957916333652642
leaf_weight=130.25412290212444 356.01958949157415 186.91195347905159 22.775136113166809 157.65018447165494 20.646422952413559 13.608268588781355 20.907595038414001 27.53081414103508 16.491759778407868 18.538776457309723 55.221650176907133 344.92225285117092 19.057064175605774 38.123960822820663 45.83383977140511 132.52193053880183 6.8692611368951466 108.96732048817103 30.489460155367851 237.64374612727624 79.950651129256585 120.19417950510979 5.4484761080529998 11.641252815723419 11.841842323541641 26.347017198801041 36.9797626035961 58.305599762963539 44.330172806978226 44.091595977544785
leaf_count=3136 2195 389 43 324 27 25 29 37 400 27 247 3816 26 69 735 1635 196 1349 26 3304 1430 281 44 26 21 47 491 904 83 42
internal_value=-0.00033599 -0.00622443 -0.0179573 0.00718391 -0.00664853 0.00189972 0.0118973 0.025326 0.00518053 -0.0195854 -0.00181113 0.00626327 0.00280626 -0.0253692 -0.00288677 -0.00201392 -0.00369034 0.0011008 0.0208577 -0.000796417 -0.00987357 -0.00608162 0.00354154 -0.0253556 -0.00850012 -0.0167258 0.00454405 0.00408691 -0.00588684 0.00671835
internal_weight=2430.12 1362.9 372.526 1067.22 147.49 101.232 69.0848 48.1772 909.565 32.147 990.374 866.726 510.707 225.036 935.153 889.319 756.797 426.398 37.3587 389.039 330.399 250.448 280.072 46.2582 23.4831 42.8388 274.624 491.65 102.636 389.014
internal_count=21404 13567 693 7837 235 145 93 64 7513 52 12874 7066 4871 458 12627 11892 10257 5410 222 5188 4847 3417 3839 90 47 447 3795 4845 987 3858
is_linear=0
shrinkage=0.1


Tree=26
num_leaves=31
num_cat=0
split_feature=12 3 6 1 9 14 12 6 7 3 8 2 3 7 3 0 14 3 13 13 14 3 7 3 7 13 3 3 6 14
split_gain=9.71848 6.56124 3.77786 2.61123 3.82463 2.57624 2.19085 1.97689 1.74831 1.63923 2.3852 1.70069 2.37081 2.2384 5.3827 1.8946 2.07977 1.42071 1.67185 1.40163 1.36654 1.31094 1.29426 9.40107 1.2519 1.20573 1.19594 3.08513 1.81291 1.19233
threshold=1.0000000180025095e-35 285.50000000000006 -0.9733555533461492 1.0000000180025095e-35 -0.56174490092936669 6.5000000000000009 12.500000000000002 0.97335555334614954 0.98611507088852057 265.50000000000006 0.87837969732492682 4.5000000000000009 276.50000000000006 0.29012925520284133 277.50000000000006 11.500000000000002 1.0000000180025095e-35 259.50000000000006 1.5000000000000002 4.5000000000000009 13.500000000000002 261.50000000000006 -0.91037613702198739 257.50000000000006 0.25881904510252102 1.0000000180025095e-35 268.50000000000006 271.50000000000006 0.22695468355932452 1.0000000180025095e-35
decision_type=2 2 2 2 2 2 2 2 2 2 2 2 2 2 2 2 2 2 2 2 2 2 2 2 2 2 2 2 2 2
left_child=1 5 -3 4 24 9 7 8 19 17 11 26 -13 15 -15 -14 -17 18 29 -2 -7 -9 23 -20 -4 -5 28 -28 -11 -1
right_child=6 2 3 25 -6 20 -8 21 -10 10 -12 12 13 14 -16 16 -18 -19 22 -21 -22 -23 -24 -25 -26 -27 27 -29 -30 -31
leaf_value=-0.0097545120885703298 0.0060710203385408081 0.023577377869530805 0.0010651079506206055 -0.031411020883979242 -0.023805573285413474 0.026265241346194568 0.020155723934934752 0.0057360240668277249 -0.015873440906943641 0.0045942096245119831 -0.02241230058818254 -0.030218078823890961 -0.030842572212613991 0.072926683260089373 -0.0050608476161327137 -0.021115813734636654 0.024568169989152309 0.012396740822858866 0.0099982341007459757 0.022736443044705422 -0.011418822559050433 -0.030142338519902251 0.0090837702785635452 0.40861296277325104 0.041775390540104908 -0.0082929543250489738 0.044091591041913222 -9.0669614804197605e-05 -0.035384952927105327 0.0049066212421020267
leaf_weight=176.09197017959195 834.48298770103793 19.367640614509583 15.297274351119997 169.97513747215271 50.524651646614075 45.415415749106614 109.82994788937503 16.933663733594585 34.474898419081001 23.211055248975754 83.986364811658859 51.037125408649445 40.439447700977325 11.068755209445952 44.153363466262817 21.739621937274933 18.399227559566498 91.771861642599106 4.6133944223474819 53.714531066048949 12.210121501302636 25.549610286951065 49.382654920344066 0.67869970202445973 14.922317147254942 26.013098031282425 16.809129476547241 264.40272501111031 22.182225942611694 80.979433285394407
leaf_count=7019 6315 26 25 341 96 199 144 408 320 64 205 163 97 18 83 44 33 300 200 603 49 47 1349 2 16 46 42 464 71 2615
internal_value=-0.000326707 -0.00596063 -0.0191194 -0.0221077 -0.00697374 -0.00227989 0.00677303 0.00525015 0.00622128 -0.00346357 -0.00678943 -0.00423392 -0.0118432 -0.00493752 0.010571 -0.0155659 -0.000174755 0.00146052 -0.00175888 0.00707888 0.0182805 -0.0158414 0.0141204 0.0611197 0.0211677 -0.0283426 0.000119065 0.00255028 -0.0149423 -0.00513614
internal_weight=2429.66 1354.67 296.1 276.732 80.7442 1058.57 1074.99 965.156 922.672 1000.95 597.429 513.443 186.838 135.8 55.2221 80.5783 40.1388 403.518 311.746 888.198 57.6255 42.4833 54.6747 5.29209 30.2196 195.988 326.605 281.212 45.3933 257.071
internal_count=21404 13567 550 524 137 13017 7837 7693 7238 12769 1284 1079 438 275 101 174 77 11485 11185 6918 248 455 1551 202 41 387 641 506 135 9634
is_linear=0
shrinkage=0.1


Tree=27
num_leaves=31
num_cat=0
split_feature=12 3 6 7 7 7 15 2 0 6 6 3 1 7 7 3 8 3 2 6 6 14 3 3 6 2 0 3 3 3
split_gain=8.83178 8.24622 2.48739 2.14635 6.94463 1.705 1.70263 1.66688 1.91909 2.54498 1.56103 2.25997 1.65381 2.04458 2.55319 3.50393 1.8824 1.70107 1.53021 1.4987 2.886 1.62556 1.48706 1.4478 1.39872 1.6861 1.32646 1.29091 1.74226 1.39502
threshold=1.5000000000000002 284.50000000000006 0.98611507088852057 0.77259657388510627 0.65934581510006873 0.99465189230620699 3.5000000000000004 4.5000000000000009 4.5000000000000009 -0.097964660725097477 -0.98611507088852024 260.50000000000006 1.5000000000000002 0.97335555334614943 0.88144907265856365 261.50000000000006 0.6078576107927941 247.50000000000003 2.5000000000000004 0.58216583101416142 0.097964660725097366 6.5000000000000009 290.50000000000006 278.50000000000006 0.77259657388510639 5.5000000000000009 2.5000000000000004 281.50000000000006 254.50000000000003 232.50000000000003
decision_type=2 2 2 2 2 2 2 2 2 2 2 2 2 2 2 2 2 2 2 2 2 2 2 2 2 2 2 2 2 2
left_child=1 2 7 4 6 22 -3 10 19 -10 11 -1 13 14 -12 17 27 -16 -17 20 -9 24 -2 -13 25 -21 -27 28 29 -14
right_child=5 3 -4 -5 -6 -7 -8 8 9 -11 12 23 16 -15 15 18 -18 -19 -20 21 -22 -23 -24 -25 -26 26 -28 -29 -30 -31
leaf_value=-0.016301815399050998 0.010510974303610608 -0.019919142096237435 -0.021152030169541772 -0.032289973663755939 0.045605052021428914 -0.026743620371294765 0.010267105279639026 0.049411252631242776 -0.0029669944776082508 -0.023989015327048249 0.0039818249708865596 0.037415876687734016 0.012149266587827301 -0.020179150513695992 0.018411786147930636 -0.020786219692895312 -0.01207250279705703 0.071869963499192377 0.026901498822555672 0.069225955936845815 -0.018477175502943564 0.092855057719117964 -0.049658531700081651 0.010546822570383226 0.00014864112177613364 -0.039339652305155189 0.048474849346970911 -0.012518428506425537 0.011154389836764632 -0.019662955140901134
leaf_weight=19.915938946096503 654.9927393955295 245.59765297174454 56.297783274043468 77.22097635269165 18.586029797792435 12.78049635744537 20.224064588546753 7.6825860866629219 173.57739367995055 86.181169868903453 390.24198979544053 33.167992442846298 20.836945199560432 30.026466973577044 9.1153254840537574 14.078200399875641 160.14896580748791 17.154518976807594 12.889348238706589 8.3670658555674873 33.861785072254861 2.9213922591879955 4.1334116458892813 50.721747100353241 23.427628566128988 3.6151897284908037 3.2814736161344626 51.120057702064514 146.39073573052883 40.727407235652208
leaf_count=435 4232 488 899 152 34 105 17 106 2292 1405 4382 37 2173 375 414 31 2049 29 22 93 418 27 4 15 269 52 47 75 368 359
internal_value=-0.000319115 -0.00404738 -0.000560615 -0.017505 -0.0134906 0.0094322 -0.0176225 0.000304852 -0.00570885 -0.00994156 0.00237421 0.0139809 0.0010246 0.00507449 0.00678433 0.0273273 -0.00354968 0.0533206 0.00200649 0.0075129 -0.00592292 0.0209266 0.0101336 0.0211702 0.0154957 0.0390512 0.00244301 0.00171876 0.00521859 -0.00889586
internal_weight=2429.28 1757.38 1395.75 361.629 284.408 671.907 265.822 1339.45 342.916 259.759 996.536 103.806 892.73 473.506 443.479 53.2374 419.224 26.2698 26.9675 83.1571 41.5444 41.6128 659.126 83.8897 38.6914 15.2637 6.89666 259.075 207.955 61.5644
internal_count=21404 17063 16372 691 539 4341 505 15473 4709 3697 10764 487 10277 5253 4878 496 5024 443 53 1012 524 488 4236 52 461 192 99 2975 2900 2532
is_linear=0
shrinkage=0.1


Tree=28
num_leaves=31
num_cat=0
split_feature=12 3 6 7 6 14 6 12 6 3 8 3 3 2 3 7 3 0 14 14 6 15 3 3 6 1 15 6 1 3
split_gain=8.00663 5.69146 4.14033 9.77215 4.28709 2.14118 1.90798 1.77523 2.23163 1.59231 2.12029 1.49627 1.30542 1.2344 2.29693 1.99736 4.46891 1.75566 1.88457 1.5137 1.28615 3.06587 2.79702 1.71218 1.64603 1.67765 2.39782 1.28604 1.23396 1.20374
threshold=1.0000000180025095e-35 286.50000000000006 -0.68322629814330804 0.41248606129204557 -0.9733555533461492 6.5000000000000009 0.97335555334614954 2.5000000000000004 0.95642797789208711 265.50000000000006 0.87837969732492682 275.50000000000006 261.50000000000006 4.5000000000000009 276.50000000000006 0.29012925520284133 277.50000000000006 11.500000000000002 1.0000000180025095e-35 2.5000000000000004 -0.16280825711808977 2.5000000000000004 268.50000000000006 279.50000000000006 -1.0000000180025095e-35 1.0000000180025095e-35 1.0000000180025095e-35 0.16280825711808991 2.5000000000000004 259.50000000000006
decision_type=2 2 2 2 2 2 2 2 2 2 2 2 2 2 2 2 2 2 2 2 2 2 2 2 2 2 2 2 2 2
left_child=1 5 3 4 -3 9 7 8 -2 29 13 -10 -8 19 -15 17 -17 -16 -19 20 21 23 -22 28 -24 26 -26 -27 -11 -1
right_child=6 2 -4 -5 -6 -7 12 -9 11 10 -12 -13 -14 14 15 16 -18 18 -20 -21 22 -23 24 -25 25 27 -28 -29 -30 -31
leaf_value=-0.001524846021480542 0.0023298663145155068 0.022804669611089737 -0.026246819930640375 0.07922234796266453 -0.041079152647250004 0.016068354977429519 0.0060871874862857703 0.011818857555044948 0.0013076322543095547 0.0052560447384079369 -0.021617642479419826 0.056861162615627528 -0.029534717416380054 -0.029501246089383756 -0.029809824913063377 0.064689195766175947 -0.0045237169764752519 -0.020303117720363546 0.023260452241814694 -0.036834765888497371 -0.025811927072068166 0.022947324545671586 0.046249110370786405 -0.024468053634885484 0.00075293463871218148 -0.030561451624794896 0.042129051266248968 0.0040771688659867319 -0.028790861620247021 0.011434065825485423
leaf_weight=310.23039595524642 594.37725503546244 16.446237504482266 190.98242425918579 13.376551777124403 29.076498299837116 59.564988594956958 17.591385652456665 431.41818997252267 7.8066565553308491 52.820198506116867 81.606252402067184 12.79375123977661 24.778162688016891 49.222144037485123 38.335344046354294 11.866136431694029 43.627912700176239 21.137766808271408 18.729196459054947 11.390480548143385 24.48994155228138 29.116701006889343 11.882305949926375 64.887067288160324 27.999976813793182 12.234062373638151 28.024494558572769 86.522032171487808 13.33182308077812 93.217969372868538
leaf_count=11185 4879 21 368 23 58 248 421 2384 95 126 205 11 47 163 97 18 83 44 33 22 81 26 24 113 51 25 32 188 33 300
