{"learner":{"attributes":{"scikit_learn":"{\"_estimator_type\": \"regressor\"}"},"feature_names":["hour","quarter","dayofweek","dayofyear","weekofyear","month","tod_sin","tod_cos","dayofweek_sin","dayofweek_cos","is_weekend","is_business_hours","lag_15m","lag_1h","lag_1d","lag_1w"],"feature_types":["int","int","int","int","int","int","float","float","float","float","int","int","float","float","float","float"],"gradient_booster":{"model":{"gbtree_model_param":{"num_parallel_tree":"1","num_trees":"100"},"iteration_indptr":[0,1,2,3,4,5,6,7,8,9,10,11,12,13,14,15,16,17,18,19,20,21,22,23,24,25,26,27,28,29,30,31,32,33,34,35,36,37,38,39,40,41,42,43,44,45,46,47,48,49,50,51,52,53,54,55,56,57,58,59,60,61,62,63,64,65,66,67,68,69,70,71,72,73,74,75,76,77,78,79,80,81,82,83,84,85,86,87,88,89,90,91,92,93,94,95,96,97,98,99,100],"tree_info":[0,0,0,0,0,0,0,0,0,0,0,0,0,0,0,0,0,0,0,0,0,0,0,0,0,0,0,0,0,0,0,0,0,0,0,0,0,0,0,0,0,0,0,0,0,0,0,0,0,0,0,0,0,0,0,0,0,0,0,0,0,0,0,0,0,0,0,0,0,0,0,0,0,0,0,0,0,0,0,0,0,0,0,0,0,0,0,0,0,0,0,0,0,0,0,0,0,0,0,0],"trees":[{"base_weights":[-3.599118E-8,-2.7764475E-1,2.1000001E-1,-3.456088E-1,7E-1,-4.066608E-1,5.11422E-2,7E-1,-5.163365E-2,-4.1779795E-1,-9.286585E-2,4.6930262E-1,-6.370131E-2,-1.5321161E-2,7E-1,-1.2456814E-1,2.1000001E-1,-4.3066686E-1,-2.3932508E-1,3.9513057E-1,-2.4388488E-1,-1.6505712E-1,7E-1,2.537813E-1,-2.3021437E-1,6.461237E-2,-5.5595726E-2,7E-1,-4.4756163E-2,-1.1470018E-1,-1.4416997E-1,-1.2236705E-1,2.1000001E-1,-3.0782355E-2,2.090399E-1,3.3348963E-2,-1.1793278E-1,-1.177641E-1,7.087301E-2,2.1000001E-1,-1.04504395E-2,1.182793E-1,-1.0699434E-1,-1.0075588E-1,-2.4295498E-3,2.1000001E-1,7.340412E-2],"categories":[],"categories_nodes":[],"categories_segments":[],"categories_sizes":[],"default_left":[0,0,0,0,0,0,0,0,0,0,0,0,0,0,0,0,0,0,0,0,0,0,0,0,0,0,0,0,0,0,0,0,0,0,0,0,0,0,0,0,0,0,0,0,0,0,0],"id":0,"left_children":[1,3,-1,5,7,9,11,13,15,17,19,21,23,25,27,-1,-1,29,31,33,35,37,39,41,43,-1,-1,45,-1,-1,-1,-1,-1,-1,-1,-1,-1,-1,-1,-1,-1,-1,-1,-1,-1,-1,-1],"loss_changes":[1.7973409E2,3.4179394E1,0E0,1.0211376E1,3.6161346E0,1.2357864E0,2.7668872E0,1.4024982E0,2.9952247E0,7.052307E-1,1.1123863E0,4.006171E0,2.4687393E0,1.8496275E-1,1.2807522E0,0E0,0E0,6.049385E-1,5.122646E0,6.180261E-1,6.3427E-1,7.2175425E-1,1.2601433E0,1.5265553E0,7.1133924E-1,0E0,0E0,1.0030365E-1,0E0,0E0,0E0,0E0,0E0,0E0,0E0,0E0,0E0,0E0,0E0,0E0,0E0,0E0,0E0,0E0,0E0,0E0,0E0],"parents":[2147483647,0,0,1,1,3,3,4,4,5,5,6,6,7,7,8,8,9,9,10,10,11,11,12,12,13,13,14,14,17,17,18,18,19,19,20,20,21,21,22,22,23,23,24,24,27,27],"right_children":[2,4,-1,6,8,10,12,14,16,18,20,22,24,26,28,-1,-1,30,32,34,36,38,40,42,44,-1,-1,46,-1,-1,-1,-1,-1,-1,-1,-1,-1,-1,-1,-1,-1,-1,-1,-1,-1,-1,-1],"split_conditions":[1E0,1E0,2.1000001E-1,2.88E2,2.9E2,1E0,-7.518398E-1,2.7E2,8.660254E-1,2.86E2,1E0,-6.5403126E-2,-2.2252093E-1,2.3E2,9.8078525E-1,-1.2456814E-1,2.1000001E-1,2.74E2,1.6E1,-5E-1,1E0,-2.2252093E-1,6E0,2.1E1,6.087614E-1,6.461237E-2,-5.5595726E-2,8.9687276E-1,-4.4756163E-2,-1.1470018E-1,-1.4416997E-1,-1.2236705E-1,2.1000001E-1,-3.0782355E-2,2.090399E-1,3.3348963E-2,-1.1793278E-1,-1.177641E-1,7.087301E-2,2.1000001E-1,-1.04504395E-2,1.182793E-1,-1.0699434E-1,-1.0075588E-1,-2.4295498E-3,2.1000001E-1,7.340412E-2],"split_indices":[12,13,0,3,3,14,7,3,6,3,2,6,9,3,7,0,0,3,0,7,1,9,2,0,7,0,0,6,0,0,0,0,0,0,0,0,0,0,0,0,0,0,0,0,0,0,0],"split_type":[0,0,0,0,0,0,0,0,0,0,0,0,0,0,0,0,0,0,0,0,0,0,0,0,0,0,0,0,0,0,0,0,0,0,0,0,0,0,0,0,0,0,0,0,0,0,0],"sum_hessian":[4.9913397E2,4.4396185E2,5.517212E1,4.19708E2,2.4253836E1,3.6371466E2,5.5993343E1,1.798574E1,6.2680945E0,3.509282E2,1.2786497E1,1.1399565E1,4.459378E1,2.69857E0,1.528717E1,5.1036944E0,1.1643999E0,3.2600803E2,2.4920141E1,2.639831E0,1.0146667E1,5.890188E0,5.509376E0,1.5161662E1,2.9432117E1,1.0316477E0,1.6669223E0,1.383161E1,1.4555609E0,1.7000388E2,1.5600417E2,2.2205416E1,2.7147245E0,1.2451929E0,1.3946381E0,3.0780807E0,7.068586E0,3.7731001E0,2.117088E0,3.2682633E0,2.2411125E0,1.261304E1,2.5486221E0,1.9598831E1,9.833286E0,1.19842615E1,1.8473487E0],"tree_param":{"num_deleted":"0","num_feature":"16","num_nodes":"47","size_leaf_vector":"1"}},{"base_weights":[2.7633429E-2,-2.564599E-1,2.1000001E-1,-3.2895935E-1,7E-1,-3.950562E-1,5.211001E-2,7E-1,-3.0761607E-2,-4.073253E-1,-8.094339E-2,4.335408E-1,-5.8150213E-2,-1.2535266E-2,7E-1,-1.2191834E-1,2.1000001E-1,-4.21645E-1,-2.1870767E-1,3.3006325E-1,-2.2741707E-1,-1.5186505E-1,7E-1,1.9692187E-1,-2.1245304E-1,6.553309E-2,-5.515364E-2,7E-1,-4.1980192E-2,-1.1056175E-1,-1.4343019E-1,-1.19071186E-1,2.0327678E-1,-2.8761314E-2,1.6634412E-1,2.8798675E-2,-1.14580765E-1,-1.14759244E-1,6.0427386E-2,2.1000001E-1,-9.4474545E-3,-5.1116984E-2,1.206267E-1,-8.8936016E-2,1.7207978E-2,2.1000001E-1,6.293252E-2],"categories":[],"categories_nodes":[],"categories_segments":[],"categories_sizes":[],"default_left":[0,0,0,0,0,0,0,0,0,0,0,0,0,0,0,0,0,0,0,0,0,0,0,0,0,0,0,0,0,0,0,0,0,0,0,0,0,0,0,0,0,0,0,0,0,0,0],"id":1,"left_children":[1,3,-1,5,7,9,11,13,15,17,19,21,23,25,27,-1,-1,29,31,33,35,37,39,41,43,-1,-1,45,-1,-1,-1,-1,-1,-1,-1,-1,-1,-1,-1,-1,-1,-1,-1,-1,-1,-1,-1],"loss_changes":[1.5647517E2,2.9549849E1,0E0,9.564655E0,3.2173471E0,1.2119484E0,2.4179313E0,1.3769817E0,2.542522E0,7.4679184E-1,8.812248E-1,3.4044611E0,1.8136119E0,1.8566641E-1,1.1974258E0,0E0,0E0,6.861801E-1,4.101656E0,4.284645E-1,5.5962056E-1,6.170573E-1,1.2317877E0,1.3863171E0,6.636145E-1,0E0,0E0,2.2808647E-1,0E0,0E0,0E0,0E0,0E0,0E0,0E0,0E0,0E0,0E0,0E0,0E0,0E0,0E0,0E0,0E0,0E0,0E0,0E0],"parents":[2147483647,0,0,1,1,3,3,4,4,5,5,6,6,7,7,8,8,9,9,10,10,11,11,12,12,13,13,14,14,17,17,18,18,19,19,20,20,21,21,22,22,23,23,24,24,27,27],"right_children":[2,4,-1,6,8,10,12,14,16,18,20,22,24,26,28,-1,-1,30,32,34,36,38,40,42,44,-1,-1,46,-1,-1,-1,-1,-1,-1,-1,-1,-1,-1,-1,-1,-1,-1,-1,-1,-1,-1,-1],"split_conditions":[1E0,1E0,2.1000001E-1,2.88E2,2.9E2,1E0,-7.518398E-1,2.7E2,8.660254E-1,2.86E2,1E0,-6.5403126E-2,-2.2252093E-1,2.29E2,9.8078525E-1,-1.2191834E-1,2.1000001E-1,2.74E2,1.6E1,-5E-1,1E0,-2.2252093E-1,6E0,-2.5881904E-1,1E0,6.553309E-2,-5.515364E-2,8.9687276E-1,-4.1980192E-2,-1.1056175E-1,-1.4343019E-1,-1.19071186E-1,2.0327678E-1,-2.8761314E-2,1.6634412E-1,2.8798675E-2,-1.14580765E-1,-1.14759244E-1,6.0427386E-2,2.1000001E-1,-9.4474545E-3,-5.1116984E-2,1.206267E-1,-8.8936016E-2,1.7207978E-2,2.1000001E-1,6.293252E-2],"split_indices":[12,13,0,3,3,14,7,3,6,3,2,6,9,3,7,0,0,3,0,7,1,9,2,7,14,0,0,6,0,0,0,0,0,0,0,0,0,0,0,0,0,0,0,0,0,0,0],"split_type":[0,0,0,0,0,0,0,0,0,0,0,0,0,0,0,0,0,0,0,0,0,0,0,0,0,0,0,0,0,0,0,0,0,0,0,0,0,0,0,0,0,0,0,0,0,0,0],"sum_hessian":[4.7277008E2,4.0470544E2,6.806464E1,3.779211E2,2.6784344E1,3.220283E2,5.5892815E1,2.084191E1,5.9424343E0,3.0963724E2,1.2391039E1,1.18763075E1,4.401651E1,2.6772833E0,1.8164625E1,4.50594E0,1.4364946E0,2.866403E2,2.299697E1,2.92633E0,9.464709E0,5.626508E0,6.2497993E0,1.6486727E1,2.7529781E1,1.0229274E0,1.6543559E0,1.6772774E1,1.3918519E0,1.5158116E2,1.3505913E2,1.9647873E1,3.3490963E0,1.2074467E0,1.7188834E0,3.1824622E0,6.2822466E0,3.3539307E0,2.2725775E0,4.0319853E0,2.217814E0,5.969323E0,1.0517405E1,2.0918522E1,6.61126E0,1.4784721E1,1.9880526E0],"tree_param":{"num_deleted":"0","num_feature":"16","num_nodes":"47","size_leaf_vector":"1"}},{"base_weights":[4.6379875E-2,-2.3571488E-1,7E-1,-3.1158397E-1,6.0915655E-1,2.1000001E-1,-7.883568E-2,-3.992325E-1,-1.3794428E-2,7E-1,-1.825552E-2,-3.333419E-1,-1.4270988E-1,5.948525E-2,-1.3593633E-1,-9.95577E-3,7E-1,-1.1911329E-1,2.0099737E-1,-4.2056343E-1,2.2510548E-1,1.0731211E-1,-1.258413E-1,6.1045725E-2,-5.2883264E-2,7E-1,-3.935778E-2,-5.047588E-2,-1.3315338E-1,-2.7824768E-3,1.4487608E-1,1.936227E-2,1.6764866E-1,2.0538192E-2,2.1000001E-1],"categories":[],"categories_nodes":[],"categories_segments":[],"categories_sizes":[],"default_left":[0,0,0,0,0,0,0,0,0,0,0,0,0,0,0,0,0,0,0,0,0,0,0,0,0,0,0,0,0,0,0,0,0,0,0],"id":2,"left_children":[1,3,5,7,9,-1,-1,11,13,15,17,19,-1,21,-1,23,25,-1,-1,27,29,31,-1,-1,-1,33,-1,-1,-1,-1,-1,-1,-1,-1,-1],"loss_changes":[1.3106697E2,2.4127342E1,1.4788284E0,8.955761E0,2.7411633E0,0E0,0E0,1.177742E0,2.573785E0,1.3536634E0,2.0285895E0,7.196659E0,0E0,1.6183666E0,0E0,1.6572142E-1,1.1229506E0,0E0,0E0,6.681423E-1,1.23403E0,1.1853117E0,0E0,0E0,0E0,3.5716057E-1,0E0,0E0,0E0,0E0,0E0,0E0,0E0,0E0,0E0],"parents":[2147483647,0,0,1,1,2,2,3,3,4,4,7,7,8,8,9,9,10,10,11,11,13,13,15,15,16,16,19,19,20,20,21,21,25,25],"right_children":[2,4,6,8,10,-1,-1,12,14,16,18,20,-1,22,-1,24,26,-1,-1,28,30,32,-1,-1,-1,34,-1,-1,-1,-1,-1,-1,-1,-1,-1],"split_conditions":[1E0,1E0,2.92E2,2.86E2,2.9E2,2.1000001E-1,-7.883568E-2,2.74E2,9.469301E-1,2.7E2,8.660254E-1,2.69E2,-1.4270988E-1,9.8078525E-1,-1.3593633E-1,2.28E2,9.8078525E-1,-1.1911329E-1,2.0099737E-1,-9.469301E-1,2.5881904E-1,9.238795E-1,-1.258413E-1,6.1045725E-2,-5.2883264E-2,2.71E2,-3.935778E-2,-5.047588E-2,-1.3315338E-1,-2.7824768E-3,1.4487608E-1,1.936227E-2,1.6764866E-1,2.0538192E-2,2.1000001E-1],"split_indices":[12,13,3,3,3,0,0,3,6,3,6,3,0,7,0,3,7,0,0,7,6,7,0,0,0,3,0,0,0,0,0,0,0,0,0],"split_type":[0,0,0,0,0,0,0,0,0,0,0,0,0,0,0,0,0,0,0,0,0,0,0,0,0,0,0,0,0,0,0,0,0,0,0],"sum_hessian":[4.5641266E2,3.7244284E2,8.396985E1,3.423327E2,3.0110117E1,8.284587E1,1.1239772E0,2.642231E2,7.810959E1,2.4349194E1,5.7609224E0,1.448055E2,1.1941763E2,6.7684425E1,1.0425161E1,2.657791E0,2.1691402E1,3.9887507E0,1.7721719E0,1.25457695E2,1.93478E1,6.2244823E1,5.4396005E0,1.0661496E0,1.5916412E0,2.0356771E1,1.3346311E0,1.1293272E1,1.1416442E2,1.0639455E1,8.708344E0,5.7902763E1,4.3420625E0,1.1240494E0,1.9232723E1],"tree_param":{"num_deleted":"0","num_feature":"16","num_nodes":"35","size_leaf_vector":"1"}},{"base_weights":[5.324882E-2,-2.1700731E-1,7E-1,-2.9426733E-1,4.7220522E-1,7E-1,-7.59043E-2,-3.6952847E-1,5.2816305E-2,6.9716954E-1,2.1086966E-1,2.1000001E-1,3.0020216E-1,-3.839516E-1,-6.688212E-2,1.2060121E-1,-1.284001E-1,2.0798031E-2,7E-1,6.018447E-2,4.330264E-1,-3.399562E-2,1.6077639E-1,-4.0059367E-1,-2.0171806E-1,2.3489203E-1,-2.3023826E-1,1.702797E-1,-1.1773024E-1,-2.609027E-1,1.5684609E-1,3.1547E-2,2.1000001E-1,2.0253883E-1,-1.05202034E-1,5.509324E-1,-2.8279202E-2,-1.0136554E-1,-1.4161104E-1,1.5385655E-1,-1.1550411E-1,-7.936603E-2,1.461553E-1,1.9812176E-2,-1.0917187E-1,1.5337401E-3,1.0070527E-1,-9.467736E-2,-1.9052126E-2,-6.581827E-3,1.5387143E-1,4.2276207E-2,2.065794E-1],"categories":[],"categories_nodes":[],"categories_segments":[],"categories_sizes":[],"default_left":[0,0,0,0,0,0,0,0,0,0,0,0,0,0,0,0,0,0,0,0,0,0,0,0,0,0,0,0,0,0,0,0,0,0,0,0,0,0,0,0,0,0,0,0,0,0,0,0,0,0,0,0,0],"id":3,"left_children":[1,3,5,7,9,11,-1,13,15,17,19,-1,21,23,25,27,-1,29,31,33,35,-1,-1,37,39,41,43,45,-1,47,-1,-1,-1,49,-1,51,-1,-1,-1,-1,-1,-1,-1,-1,-1,-1,-1,-1,-1,-1,-1,-1,-1],"loss_changes":[1.0358658E2,1.869366E1,1.361702E0,8.220398E0,1.9405427E0,1.5706635E-1,0E0,1.1010742E0,1.9034902E0,1.9860439E0,5.718064E-1,0E0,4.553447E-1,6.657753E-1,6.9261295E-1,1.3559277E0,0E0,8.95503E-1,2.2863865E-1,7.6135737E-1,4.9065006E-1,0E0,0E0,8.465538E-1,3.1594372E0,7.644745E-1,3.768452E-1,1.2771409E0,0E0,2.4276793E-2,0E0,0E0,0E0,6.661384E-1,0E0,2.3672915E-1,0E0,0E0,0E0,0E0,0E0,0E0,0E0,0E0,0E0,0E0,0E0,0E0,0E0,0E0,0E0,0E0,0E0],"parents":[2147483647,0,0,1,1,2,2,3,3,4,4,5,5,7,7,8,8,9,9,10,10,12,12,13,13,14,14,15,15,17,17,18,18,19,19,20,20,23,23,24,24,25,25,26,26,27,27,29,29,33,33,35,35],"right_children":[2,4,6,8,10,12,-1,14,16,18,20,-1,22,24,26,28,-1,30,32,34,36,-1,-1,38,40,42,44,46,-1,48,-1,-1,-1,50,-1,52,-1,-1,-1,-1,-1,-1,-1,-1,-1,-1,-1,-1,-1,-1,-1,-1,-1],"split_conditions":[1E0,1E0,2.92E2,2.88E2,-1.3052619E-1,2E0,-7.59043E-2,1E0,9.469301E-1,-2.2252093E-1,8.314696E-1,2.1000001E-1,6.234898E-1,2.86E2,1E0,9.8078525E-1,-1.284001E-1,1E0,2.71E2,2.9E2,6E0,-3.399562E-2,1.6077639E-1,2.74E2,-4.422887E-1,6.234898E-1,1E0,-6.5403126E-2,-1.1773024E-1,4E0,1.5684609E-1,3.1547E-2,2.1000001E-1,3E0,-1.05202034E-1,2.74E2,-2.8279202E-2,-1.0136554E-1,-1.4161104E-1,1.5385655E-1,-1.1550411E-1,-7.936603E-2,1.461553E-1,1.9812176E-2,-1.0917187E-1,1.5337401E-3,1.0070527E-1,-9.467736E-2,-1.9052126E-2,-6.581827E-3,1.5387143E-1,4.2276207E-2,2.065794E-1],"split_indices":[12,13,3,3,6,14,0,14,6,9,6,0,9,3,1,7,0,14,3,3,2,0,0,3,6,9,2,6,0,2,0,0,0,2,0,3,0,0,0,0,0,0,0,0,0,0,0,0,0,0,0,0,0],"split_type":[0,0,0,0,0,0,0,0,0,0,0,0,0,0,0,0,0,0,0,0,0,0,0,0,0,0,0,0,0,0,0,0,0,0,0,0,0,0,0,0,0,0,0,0,0,0,0,0,0,0,0,0,0],"sum_hessian":[4.5069833E2,3.4745444E2,1.03243904E2,3.1294647E2,3.4507942E1,1.0220513E2,1.0387704E0,2.571268E2,5.5819675E1,1.7648203E1,1.685974E1,9.915675E1,3.0483787E0,2.4517397E2,1.1952841E1,4.9579235E1,6.2404413E0,4.367681E0,1.3280522E1,1.0803093E1,6.056646E0,1.2953014E0,1.7530774E0,2.2355965E2,2.1614315E1,4.044101E0,7.9087396E0,4.5811306E1,3.7679293E0,3.1054246E0,1.2622566E0,1.0309854E0,1.22495365E1,8.399769E0,2.403324E0,4.9131846E0,1.143461E0,1.22109E2,1.01450645E2,4.0454125E0,1.7568903E1,1.340939E0,2.7031624E0,2.6160734E0,5.2926664E0,2.3437923E1,2.2373384E1,1.9628439E0,1.1425807E0,5.413593E0,2.9861763E0,1.7436595E0,3.1695254E0],"tree_param":{"num_deleted":"0","num_feature":"16","num_nodes":"53","size_leaf_vector":"1"}},{"base_weights":[5.0928812E-2,-1.9867437E-1,6.9020236E-1,-2.7649885E-1,3.7626487E-1,7E-1,2.52773E-1,-3.7391508E-1,-1.3830783E-2,4.508311E-1,-3.4005392E-2,5.444254E-1,7E-1,7E-1,-1.1655805E-1,-2.9913345E-1,-4.689296E-1,9.49766E-2,-2.3290296E-1,5.909644E-1,2.1289837E-1,-1.1546252E-1,4.154608E-1,7E-1,3.5967216E-1,2.851033E-1,7E-1,-7.818669E-2,2.1000001E-1,-4.014702E-1,2.2072925E-1,-1.4237887E-1,-2.1155514E-1,1.9092204E-2,2.1000001E-1,-1.39363E-1,8.444332E-2,6.854065E-2,7E-1,2.7311042E-1,-7.532278E-2,1.928979E-1,1.8621262E-2,7E-1,2.5505692E-1,-1.1856478E-1,4.5654163E-1,8.060001E-2,1.3638622E-1,2.816711E-1,2.1000001E-1,-3.611371E-2,-1.2902729E-1,5.658266E-3,1.2355597E-1,-9.3724154E-2,6.706739E-3,6.874168E-2,-2.2102887E-2,2.1000001E-1,-5.14409E-2,-6.453508E-2,1.3037717E-1,2.8657021E-2,2.1000001E-1,1.2934837E-2,1.5825997E-1,6.6049844E-2,2.1000001E-1,1.011483E-1,8.334774E-3,8.959724E-2,-1.11572005E-1,2.510165E-2,1.6099142E-1,1.1085331E-1,-3.6810555E-2,-8.346519E-2,2.1000001E-1],"categories":[],"categories_nodes":[],"categories_segments":[],"categories_sizes":[],"default_left":[0,0,0,0,0,0,0,0,0,0,0,0,0,0,0,0,0,0,0,0,0,0,0,0,0,0,0,0,0,0,0,0,0,0,0,0,0,0,0,0,0,0,0,0,0,0,0,0,0,0,0,0,0,0,0,0,0,0,0,0,0,0,0,0,0,0,0,0,0,0,0,0,0,0,0,0,0,0,0],"id":4,"left_children":[1,3,5,7,9,11,13,15,17,19,21,23,25,27,-1,29,31,33,35,37,39,-1,41,43,45,47,49,-1,-1,51,53,-1,55,57,-1,-1,59,61,63,65,-1,-1,-1,67,69,71,73,75,-1,77,-1,-1,-1,-1,-1,-1,-1,-1,-1,-1,-1,-1,-1,-1,-1,-1,-1,-1,-1,-1,-1,-1,-1,-1,-1,-1,-1,-1,-1],"loss_changes":[7.251765E1,1.4735934E1,1.4075546E0,7.3795776E0,1.2209983E0,5.30468E-1,3.0453918E0,1.3552895E0,1.9079714E0,9.8847437E-1,1.2624283E0,1.8532438E0,6.887741E-1,1.4520268E0,0E0,6.5017242E0,3.2226562E-2,3.9377635E0,1.9905041E0,1.2261429E0,4.5830208E-1,0E0,2.4519968E-1,4.4852352E-1,1.399538E0,2.0074868E-1,1.4201736E-1,0E0,0E0,7.6135826E-1,7.820779E-1,0E0,9.576917E-2,1.0271411E0,0E0,0E0,2.9175901E0,6.037444E-1,2.6418018E-1,7.27834E-1,0E0,0E0,0E0,1.8787766E-1,7.909384E-2,7.120371E-1,6.8251085E-1,2.9902792E-1,0E0,1.0540669E0,0E0,0E0,0E0,0E0,0E0,0E0,0E0,0E0,0E0,0E0,0E0,0E0,0E0,0E0,0E0,0E0,0E0,0E0,0E0,0E0,0E0,0E0,0E0,0E0,0E0,0E0,0E0,0E0,0E0],"parents":[2147483647,0,0,1,1,2,2,3,3,4,4,5,5,6,6,7,7,8,8,9,9,10,10,11,11,12,12,13,13,15,15,16,16,17,17,18,18,19,19,20,20,22,22,23,23,24,24,25,25,26,26,29,29,30,30,32,32,33,33,36,36,37,37,38,38,39,39,43,43,44,44,45,45,46,46,47,47,49,49],"right_children":[2,4,6,8,10,12,14,16,18,20,22,24,26,28,-1,30,32,34,36,38,40,-1,42,44,46,48,50,-1,-1,52,54,-1,56,58,-1,-1,60,62,64,66,-1,-1,-1,68,70,72,74,76,-1,78,-1,-1,-1,-1,-1,-1,-1,-1,-1,-1,-1,-1,-1,-1,-1,-1,-1,-1,-1,-1,-1,-1,-1,-1,-1,-1,-1,-1,-1],"split_conditions":[1E0,1E0,2.91E2,2.86E2,2.9E2,-1.3052619E-1,-7.933533E-1,2.74E2,6.593458E-1,-1.3052619E-1,8.660254E-1,2.72E2,2.71E2,1.9509032E-1,-1.1655805E-1,2.69E2,9.9785894E-1,9.749279E-1,4E0,-2.2252093E-1,9.9785894E-1,-1.1546252E-1,9.8078525E-1,2.5881904E-1,-9.469301E-1,2E1,-9.9785894E-1,-7.818669E-2,2.1000001E-1,-9.469301E-1,2.5881904E-1,-1.4237887E-1,4.3388373E-1,-7.0710677E-1,2.1000001E-1,-1.39363E-1,5E0,1E0,2.71E2,3E0,-7.532278E-2,1.928979E-1,1.8621262E-2,4E0,3E0,-9.914449E-1,2.74E2,2.13E2,1.3638622E-1,6.234898E-1,2.1000001E-1,-3.611371E-2,-1.2902729E-1,5.658266E-3,1.2355597E-1,-9.3724154E-2,6.706739E-3,6.874168E-2,-2.2102887E-2,2.1000001E-1,-5.14409E-2,-6.453508E-2,1.3037717E-1,2.8657021E-2,2.1000001E-1,1.2934837E-2,1.5825997E-1,6.6049844E-2,2.1000001E-1,1.011483E-1,8.334774E-3,8.959724E-2,-1.11572005E-1,2.510165E-2,1.6099142E-1,1.1085331E-1,-3.6810555E-2,-8.346519E-2,2.1000001E-1],"split_indices":[12,13,3,3,3,7,7,3,6,6,6,3,3,6,0,3,7,8,2,9,6,0,6,6,7,0,6,0,0,7,6,0,8,6,0,0,2,14,3,2,0,0,0,2,1,7,3,3,0,9,0,0,0,0,0,0,0,0,0,0,0,0,0,0,0,0,0,0,0,0,0,0,0,0,0,0,0,0,0],"split_type":[0,0,0,0,0,0,0,0,0,0,0,0,0,0,0,0,0,0,0,0,0,0,0,0,0,0,0,0,0,0,0,0,0,0,0,0,0,0,0,0,0,0,0,0,0,0,0,0,0,0,0,0,0,0,0,0,0,0,0,0,0,0,0,0,0,0,0,0,0,0,0,0,0,0,0,0,0,0,0],"sum_hessian":[4.5261234E2,3.260111E2,1.2660122E2,2.8760028E2,3.841084E1,1.18052795E2,8.5484295E0,2.0948473E2,7.811555E1,3.2419724E1,5.9911175E0,4.116217E1,7.6890625E1,4.9529066E0,3.5955234E0,1.1954476E2,8.9939964E1,5.257125E1,2.5544294E1,1.9469303E1,1.295042E1,3.4452984E0,2.545819E0,1.3120315E1,2.8041855E1,5.847781E0,7.104284E1,1.1045052E0,3.8484013E0,1.0007282E2,1.947194E1,8.7176605E1,2.7633572E0,5.084612E1,1.7251312E0,1.4497967E1,1.1046329E1,3.9142122E0,1.555509E1,1.1826951E1,1.1234696E0,1.0501645E0,1.4956546E0,9.379676E0,3.7406392E0,4.685574E0,2.3356281E1,3.319116E0,2.5286653E0,2.6115408E0,6.84313E1,9.728899E0,9.0343925E1,1.0004111E1,9.467827E0,1.6963204E0,1.0670367E0,1.5126543E1,3.5719574E1,1.5493027E0,9.4970255E0,2.437605E0,1.4766073E0,1.0640283E0,1.4491062E1,6.8259044E0,5.001046E0,1.9442098E0,7.435466E0,2.3927486E0,1.3478905E0,1.7026511E0,2.982923E0,4.491558E0,1.8864723E1,1.0332385E0,2.2858775E0,1.2740753E0,1.3374654E0],"tree_param":{"num_deleted":"0","num_feature":"16","num_nodes":"79","size_leaf_vector":"1"}},{"base_weights":[4.657361E-2,-1.8051994E-1,5.1284003E-1,-2.5744528E-1,2.920014E-1,4.4395578E-1,7E-1,-3.598198E-1,-5.7565114E-3,3.2725403E-1,-1.3820408E-1,3.2665962E-1,5.268189E-1,2.1000001E-1,-4.7215052E-2,-2.8131205E-1,-4.648407E-1,4.4558503E-2,-1.3088521E-1,3.4832025E-1,-7.238258E-2,-9.419939E-2,3.9377753E-2,-7.2713256E-2,3.7014565E-1,-5.6153428E-2,5.458991E-1,-3.8952014E-1,1.7783931E-1,-4.77421E-1,-2.842885E-1,7.89314E-2,-1.2041076E-1,3.7213653E-1,-4.372195E-2,4.5263816E-2,-1.536451E-1,5.3632295E-1,2.2622536E-1,5.7465184E-1,1.5547127E-1,-3.2363053E-2,-1.2631415E-1,9.362762E-2,-1.5442501E-2,-8.4473506E-2,-1.4675616E-1,1.179113E-2,-1.2241506E-1,1.2558793E-2,1.4133604E-1,9.360104E-2,2.1000001E-1,-8.0334164E-2,1.9573864E-2,1.01390354E-1,2.1000001E-1,1.1202601E-1,-1.0917964E-2,7.822797E-2,1.855908E-1,1.2973005E-1,-7.2021954E-2],"categories":[],"categories_nodes":[],"categories_segments":[],"categories_sizes":[],"default_left":[0,0,0,0,0,0,0,0,0,0,0,0,0,0,0,0,0,0,0,0,0,0,0,0,0,0,0,0,0,0,0,0,0,0,0,0,0,0,0,0,0,0,0,0,0,0,0,0,0,0,0,0,0,0,0,0,0,0,0,0,0,0,0],"id":5,"left_children":[1,3,5,7,9,11,13,15,17,19,21,23,25,-1,-1,27,29,31,-1,33,-1,-1,-1,35,37,-1,39,41,43,45,47,49,-1,51,-1,-1,53,55,57,59,61,-1,-1,-1,-1,-1,-1,-1,-1,-1,-1,-1,-1,-1,-1,-1,-1,-1,-1,-1,-1,-1,-1],"loss_changes":[4.8508934E1,1.127891E1,3.2812386E0,6.841671E0,7.06794E-1,1.1661205E0,1.7535553E0,1.4258137E0,1.7050486E0,5.704794E-1,2.31022E-1,1.0625315E0,1.1791267E0,0E0,0E0,5.5625944E0,4.42276E-2,1.1135031E0,0E0,5.1987934E-1,0E0,0E0,0E0,1.442641E-1,1.1687069E0,0E0,7.778568E-1,7.518711E-1,6.863962E-1,2.95372E-2,3.2171255E-1,9.450687E-1,0E0,7.6469326E-1,0E0,0E0,1.5259032E-1,8.426261E-1,1.1978215E0,8.2694244E-1,8.344847E-1,0E0,0E0,0E0,0E0,0E0,0E0,0E0,0E0,0E0,0E0,0E0,0E0,0E0,0E0,0E0,0E0,0E0,0E0,0E0,0E0,0E0,0E0],"parents":[2147483647,0,0,1,1,2,2,3,3,4,4,5,5,6,6,7,7,8,8,9,9,10,10,11,11,12,12,15,15,16,16,17,17,19,19,23,23,24,24,26,26,27,27,28,28,29,29,30,30,31,31,33,33,36,36,37,37,38,38,39,39,40,40],"right_children":[2,4,6,8,10,12,14,16,18,20,22,24,26,-1,-1,28,30,32,-1,34,-1,-1,-1,36,38,-1,40,42,44,46,48,50,-1,52,-1,-1,54,56,58,60,62,-1,-1,-1,-1,-1,-1,-1,-1,-1,-1,-1,-1,-1,-1,-1,-1,-1,-1,-1,-1,-1,-1],"split_conditions":[1E0,1E0,2E0,2.86E2,2.91E2,1E0,4.422887E-1,2.74E2,9.469301E-1,9.9785894E-1,2.5881904E-1,2.7E2,-9.8078525E-1,2.1000001E-1,-4.7215052E-2,2.69E2,2.2E1,9.8078525E-1,-1.3088521E-1,9.8078525E-1,-7.238258E-2,-9.419939E-2,3.9377753E-2,2.08E2,2E0,-5.6153428E-2,9.659258E-1,-9.469301E-1,1E0,-9.659258E-1,3E0,9.749279E-1,-1.2041076E-1,9.238795E-1,-4.372195E-2,4.5263816E-2,-1.9509032E-1,6.123234E-17,6.087614E-1,1E0,1.3052619E-1,-3.2363053E-2,-1.2631415E-1,9.362762E-2,-1.5442501E-2,-8.4473506E-2,-1.4675616E-1,1.179113E-2,-1.2241506E-1,1.2558793E-2,1.4133604E-1,9.360104E-2,2.1000001E-1,-8.0334164E-2,1.9573864E-2,1.01390354E-1,2.1000001E-1,1.1202601E-1,-1.0917964E-2,7.822797E-2,1.855908E-1,1.2973005E-1,-7.2021954E-2],"split_indices":[12,13,12,3,3,13,6,3,6,6,7,3,7,0,0,3,0,7,0,7,0,0,0,3,1,0,6,7,14,6,2,8,0,7,0,0,7,7,7,2,7,0,0,0,0,0,0,0,0,0,0,0,0,0,0,0,0,0,0,0,0,0,0],"split_type":[0,0,0,0,0,0,0,0,0,0,0,0,0,0,0,0,0,0,0,0,0,0,0,0,0,0,0,0,0,0,0,0,0,0,0,0,0,0,0,0,0,0,0,0,0,0,0,0,0,0,0,0,0,0,0,0,0,0,0,0,0,0,0],"sum_hessian":[4.562495E2,3.0722797E2,1.4902155E2,2.6460593E2,4.2622036E1,1.3668304E2,1.2338491E1,1.8779185E2,7.681407E1,3.961513E1,3.006902E0,5.863084E1,7.805221E1,1.0286479E1,2.0520127E0,1.0956545E2,7.82264E1,6.9578995E1,7.2350755E0,3.8573177E1,1.0419554E0,1.7197139E0,1.287188E0,5.6911917E0,5.293965E1,1.8022046E0,7.625E1,8.879161E1,2.0773848E1,7.159376E1,6.632642E0,6.536365E1,4.21535E0,3.703469E1,1.5384874E0,1.2828233E0,4.408368E0,2.3304556E1,2.9635094E1,7.058032E1,5.6696787E0,9.383821E0,7.940778E1,1.2875103E1,7.898746E0,5.470527E0,6.612323E1,2.023733E0,4.6089087E0,6.07303E1,4.633345E0,3.4493324E1,2.5413675E0,2.7507226E0,1.6576455E0,1.4135352E1,9.169204E0,1.872054E1,1.0914556E1,9.5260935E0,6.105423E1,3.27985E0,2.3898287E0],"tree_param":{"num_deleted":"0","num_feature":"16","num_nodes":"63","size_leaf_vector":"1"}},{"base_weights":[3.8794607E-2,-1.6467708E-1,3.8705012E-1,-3.001151E-1,6.75123E-2,3.2965305E-1,7E-1,-3.4491345E-1,1.8535452E-1,8.977254E-3,3.643904E-1,5.308703E-1,3.0225837E-1,2.1000001E-1,6.545954E-2,-2.632038E-1,-4.6026784E-1,3.1399995E-1,-1.7099379E-1,-1.5101777E-1,9.457584E-2,-3.026125E-1,7E-1,2.1000001E-1,2.7148587E-1,3.1114414E-1,-5.5668466E-2,3.1944326E-1,-9.474793E-2,-3.765211E-1,1.4421119E-1,-4.676162E-1,-1.7348522E-1,-1.8098189E-2,3.922158E-1,-8.106457E-2,6.734296E-4,-1.23698235E-1,-8.967589E-2,1.3718918E-1,-1.1960691E-1,3.019649E-2,-1.2209342E-1,2.1000001E-1,3.3823502E-1,4.2597136E-1,-1.3352714E-1,7.432186E-2,3.2492226E-1,4.9486686E-2,-7.866944E-2,3.0605271E-2,1.1710202E-1,5.9750164E-3,-1.2076971E-1,6.950742E-2,-3.6204062E-2,-7.973129E-2,-1.4391464E-1,4.778588E-4,-8.022015E-2,1.8009683E-2,1.6395658E-1,2.5685015E-3,-7.86912E-2,5.8456708E-2,-5.0022587E-2,-2.9651241E-2,1.652247E-1,1.5224154E-1,-1.9118816E-2,-8.5563675E-2,2.7319623E-2,-2.4381075E-2,8.7347955E-2,1.418401E-3,1.01127245E-1],"categories":[],"categories_nodes":[],"categories_segments":[],"categories_sizes":[],"default_left":[0,0,0,0,0,0,0,0,0,0,0,0,0,0,0,0,0,0,0,0,0,0,0,0,0,0,0,0,0,0,0,0,0,0,0,0,0,0,0,0,0,0,0,0,0,0,0,0,0,0,0,0,0,0,0,0,0,0,0,0,0,0,0,0,0,0,0,0,0,0,0,0,0,0,0,0,0],"id":6,"left_children":[1,3,5,7,9,11,13,15,17,19,21,23,25,-1,27,29,31,33,35,37,39,41,43,-1,45,47,49,51,-1,53,55,57,59,-1,61,-1,-1,-1,63,65,-1,-1,-1,-1,67,69,71,73,75,-1,-1,-1,-1,-1,-1,-1,-1,-1,-1,-1,-1,-1,-1,-1,-1,-1,-1,-1,-1,-1,-1,-1,-1,-1,-1,-1,-1],"loss_changes":[3.293528E1,9.250521E0,4.22229E0,4.099636E0,1.8900491E0,7.034855E-1,1.7703037E0,1.4834385E0,8.021827E-1,1.2746964E0,4.2533827E0,9.5612144E-1,4.6344757E-1,0E0,6.445206E-1,4.76273E0,6.481266E-2,3.852222E-1,8.617854E-2,4.833613E-1,1.3278685E0,3.2406056E-1,5.07421E-1,0E0,7.198037E-1,4.2295742E-1,2.3676819E-1,1.9779176E-2,0E0,8.347454E-1,5.5899906E-1,3.5964012E-2,5.5013902E-2,0E0,4.976107E-1,0E0,0E0,0E0,4.6976182E-1,1.0227087E0,0E0,0E0,0E0,0E0,7.6232594E-1,3.479694E-1,1.5157317E-1,3.215809E-1,5.0178623E-1,0E0,0E0,0E0,0E0,0E0,0E0,0E0,0E0,0E0,0E0,0E0,0E0,0E0,0E0,0E0,0E0,0E0,0E0,0E0,0E0,0E0,0E0,0E0,0E0,0E0,0E0,0E0,0E0],"parents":[2147483647,0,0,1,1,2,2,3,3,4,4,5,5,6,6,7,7,8,8,9,9,10,10,11,11,12,12,14,14,15,15,16,16,17,17,18,18,19,19,20,20,21,21,22,22,24,24,25,25,26,26,27,27,29,29,30,30,31,31,32,32,34,34,38,38,39,39,44,44,45,45,46,46,47,47,48,48],"right_children":[2,4,6,8,10,12,14,16,18,20,22,24,26,-1,28,30,32,34,36,38,40,42,44,-1,46,48,50,52,-1,54,56,58,60,-1,62,-1,-1,-1,64,66,-1,-1,-1,-1,68,70,72,74,76,-1,-1,-1,-1,-1,-1,-1,-1,-1,-1,-1,-1,-1,-1,-1,-1,-1,-1,-1,-1,-1,-1,-1,-1,-1,-1,-1,-1],"split_conditions":[1E0,2.86E2,2E0,1E0,9.749279E-1,2E0,2.88E2,2.74E2,4.3388373E-1,-4.422887E-1,9E0,-2.2252093E-1,2E0,2.1000001E-1,3.8268343E-1,2.69E2,9.9785894E-1,6E0,3.8268343E-1,1E0,9.8078525E-1,5.5557024E-1,-7.518398E-1,2.1000001E-1,3.8268343E-1,2.7E2,1E0,7.933533E-1,-9.474793E-2,2.14E2,3E0,-9.659258E-1,4E0,-1.8098189E-2,-7.933533E-1,-8.106457E-2,6.734296E-4,-1.23698235E-1,4.422887E-1,9.469301E-1,-1.1960691E-1,3.019649E-2,-1.2209342E-1,2.1000001E-1,-1.9509032E-1,3E0,3E0,1E0,-9.8078525E-1,4.9486686E-2,-7.866944E-2,3.0605271E-2,1.1710202E-1,5.9750164E-3,-1.2076971E-1,6.950742E-2,-3.6204062E-2,-7.973129E-2,-1.4391464E-1,4.778588E-4,-8.022015E-2,1.8009683E-2,1.6395658E-1,2.5685015E-3,-7.86912E-2,5.8456708E-2,-5.0022587E-2,-2.9651241E-2,1.652247E-1,1.5224154E-1,-1.9118816E-2,-8.5563675E-2,2.7319623E-2,-2.4381075E-2,8.7347955E-2,1.418401E-3,1.01127245E-1],"split_indices":[12,3,12,13,8,0,3,3,8,7,0,9,14,0,6,3,7,0,6,2,7,6,7,0,6,3,11,7,0,3,1,6,2,0,7,0,0,0,6,6,0,0,0,0,7,1,1,13,7,0,0,0,0,0,0,0,0,0,0,0,0,0,0,0,0,0,0,0,0,0,0,0,0,0,0,0,0],"split_type":[0,0,0,0,0,0,0,0,0,0,0,0,0,0,0,0,0,0,0,0,0,0,0,0,0,0,0,0,0,0,0,0,0,0,0,0,0,0,0,0,0,0,0,0,0,0,0,0,0,0,0,0,0,0,0,0,0,0,0,0,0,0,0,0,0,0,0,0,0,0,0,0,0,0,0,0,0],"sum_hessian":[4.6289328E2,2.9251544E2,1.7037787E2,1.8456473E2,1.0795071E2,1.5573029E2,1.4647583E1,1.692373E2,1.532741E1,9.103225E1,1.6918463E1,1.6458921E1,1.3927136E2,1.0033895E1,4.6136885E0,1.00986595E2,6.825072E1,1.1349105E1,3.9783046E0,3.146178E1,5.9570465E1,5.7264156E0,1.1192048E1,6.863756E0,9.595165E0,1.3602515E2,3.2462122E0,2.8664637E0,1.7472248E0,7.907009E1,2.191651E1,6.593078E1,2.319932E0,2.001065E0,9.34804E0,2.1736002E0,1.8047044E0,4.8936367E0,2.6568144E1,5.5497864E1,4.072601E0,1.1846174E0,4.541798E0,4.5708084E0,6.6212397E0,6.9083443E0,2.6868207E0,7.830276E0,1.2819487E2,1.6670791E0,1.5791332E0,1.3045723E0,1.5618913E0,4.8889E0,7.418119E1,1.656971E1,5.3468013E0,5.027392E0,6.090339E1,1.1531862E0,1.1667459E0,3.405619E0,5.942421E0,1.753812E1,9.030024E0,4.694888E1,8.548985E0,2.341155E0,4.2800846E0,5.891533E0,1.0168115E0,1.4426056E0,1.2442153E0,4.9229884E0,2.9072878E0,4.744327E0,1.2345055E2],"tree_param":{"num_deleted":"0","num_feature":"16","num_nodes":"77","size_leaf_vector":"1"}},{"base_weights":[3.3036206E-2,-1.4916766E-1,3.0244255E-1,-2.8267574E-1,5.7217203E-2,2.5431174E-1,7E-1,-3.291305E-1,1.4910296E-1,4.9315616E-3,3.0686358E-1,4.0354392E-1,2.3328426E-1,7E-1,5.7889763E-2,-2.4492618E-1,-4.5509216E-1,2.4854887E-1,-1.5962015E-1,1.3289848E-1,-7.510295E-2,-2.875164E-1,5.505833E-1,5.9101236E-1,2.1346843E-1,4.744988E-1,2.1975575E-1,8.9795694E-2,2.1000001E-1,2.7276555E-1,-9.144006E-2,-3.6243096E-1,1.1735208E-1,-4.7139356E-1,-2.429196E-1,4.2238925E-2,3.6152875E-1,-7.723883E-2,6.0859043E-4,6.1234576E-1,2.1787621E-2,1.0020285E-1,-2.1733539E-1,2.7266646E-2,-1.1929794E-1,2.1042444E-1,7E-1,1.1515406E-1,2.1000001E-1,4.5355415E-1,1.4183039E-2,-8.983852E-2,2.1000001E-1,5.0157916E-2,2.4645959E-1,2.2601264E-2,1.0490713E-1,-1.6180407E-2,-1.2029915E-1,-7.488208E-2,5.0791703E-2,-7.500288E-2,-1.460304E-1,2.3710268E-2,-1.163973E-1,-4.5604758E-2,7.2552E-2,1.342602E-1,1.631727E-2,2.1000001E-1,9.205181E-3,1.2899323E-1,-1.927303E-2,7.48233E-2,-4.899959E-2,-1.20682046E-1,-2.4116946E-2,9.3109116E-2,-9.39334E-3,2.1000001E-1,2.5608798E-2,7.04101E-2,1.9581239E-1,5.4309096E-2,-9.569753E-2,5.5352163E-2,-5.127926E-2,7.7102594E-2,-5.9104327E-2],"categories":[],"categories_nodes":[],"categories_segments":[],"categories_sizes":[],"default_left":[0,0,0,0,0,0,0,0,0,0,0,0,0,0,0,0,0,0,0,0,0,0,0,0,0,0,0,0,0,0,0,0,0,0,0,0,0,0,0,0,0,0,0,0,0,0,0,0,0,0,0,0,0,0,0,0,0,0,0,0,0,0,0,0,0,0,0,0,0,0,0,0,0,0,0,0,0,0,0,0,0,0,0,0,0,0,0,0,0],"id":7,"left_children":[1,3,5,7,9,11,13,15,17,19,21,23,25,27,29,31,33,35,37,39,41,43,45,47,49,51,53,-1,-1,55,-1,57,59,61,63,65,67,-1,-1,69,71,73,75,-1,-1,77,79,-1,-1,81,83,-1,-1,85,87,-1,-1,-1,-1,-1,-1,-1,-1,-1,-1,-1,-1,-1,-1,-1,-1,-1,-1,-1,-1,-1,-1,-1,-1,-1,-1,-1,-1,-1,-1,-1,-1,-1,-1],"loss_changes":[2.306377E1,7.7426686E0,3.811533E0,3.4677134E0,1.4470487E0,4.470234E-1,1.8561516E0,1.5239773E0,5.690887E-1,9.6015763E-1,2.9398603E0,5.8395433E-1,3.9672756E-1,1.935196E-2,5.266049E-1,4.0687284E0,9.512997E-2,2.9785663E-1,7.6602176E-2,1.907574E0,1.4608755E0,2.9624897E-1,7.7773285E-1,6.0414076E-2,5.419195E-1,1.8612059E0,6.544595E-1,0E0,0E0,3.5938293E-2,0E0,8.3095074E-1,4.9827328E-1,6.627178E-2,3.2901865E-1,2.6497698E-1,2.014581E-1,0E0,0E0,6.044419E-1,1.0920676E0,1.0841993E0,7.826468E-1,0E0,0E0,1.6891393E-1,3.8031435E-1,0E0,0E0,7.197344E-2,4.6326306E-1,0E0,0E0,6.637631E-1,6.445422E-1,0E0,0E0,0E0,0E0,0E0,0E0,0E0,0E0,0E0,0E0,0E0,0E0,0E0,0E0,0E0,0E0,0E0,0E0,0E0,0E0,0E0,0E0,0E0,0E0,0E0,0E0,0E0,0E0,0E0,0E0,0E0,0E0,0E0,0E0],"parents":[2147483647,0,0,1,1,2,2,3,3,4,4,5,5,6,6,7,7,8,8,9,9,10,10,11,11,12,12,13,13,14,14,15,15,16,16,17,17,18,18,19,19,20,20,21,21,22,22,23,23,24,24,25,25,26,26,29,29,31,31,32,32,33,33,34,34,35,35,36,36,39,39,40,40,41,41,42,42,45,45,46,46,49,49,50,50,53,53,54,54],"right_children":[2,4,6,8,10,12,14,16,18,20,22,24,26,28,30,32,34,36,38,40,42,44,46,48,50,52,54,-1,-1,56,-1,58,60,62,64,66,68,-1,-1,70,72,74,76,-1,-1,78,80,-1,-1,82,84,-1,-1,86,88,-1,-1,-1,-1,-1,-1,-1,-1,-1,-1,-1,-1,-1,-1,-1,-1,-1,-1,-1,-1,-1,-1,-1,-1,-1,-1,-1,-1,-1,-1,-1,-1,-1,-1],"split_conditions":[1E0,2.86E2,2E0,1E0,9.749279E-1,2E0,2.88E2,2.74E2,4.3388373E-1,-2.2252093E-1,9E0,-2.2252093E-1,-9.914449E-1,-9.914449E-1,3.8268343E-1,2.69E2,2.2E1,2E0,3.8268343E-1,6E0,-1.9509032E-1,5.5557024E-1,2E0,1E0,2.74E2,6.234898E-1,1E0,8.9795694E-2,2.1000001E-1,1.4E1,-9.144006E-2,-9.469301E-1,-9.238795E-1,-9.659258E-1,3E0,2.72E2,4.422887E-1,-7.723883E-2,6.0859043E-4,3E0,-9.469301E-1,2E0,2E0,2.7266646E-2,-1.1929794E-1,-2.5881904E-1,2.2E1,1.1515406E-1,2.1000001E-1,2.72E2,3.8268343E-1,-8.983852E-2,2.1000001E-1,2.73E2,2E0,2.2601264E-2,1.0490713E-1,-1.6180407E-2,-1.2029915E-1,-7.488208E-2,5.0791703E-2,-7.500288E-2,-1.460304E-1,2.3710268E-2,-1.163973E-1,-4.5604758E-2,7.2552E-2,1.342602E-1,1.631727E-2,2.1000001E-1,9.205181E-3,1.2899323E-1,-1.927303E-2,7.48233E-2,-4.899959E-2,-1.20682046E-1,-2.4116946E-2,9.3109116E-2,-9.39334E-3,2.1000001E-1,2.5608798E-2,7.04101E-2,1.9581239E-1,5.4309096E-2,-9.569753E-2,5.5352163E-2,-5.127926E-2,7.7102594E-2,-5.9104327E-2],"split_indices":[12,3,12,13,8,0,3,3,8,9,0,9,6,6,6,3,0,1,6,0,6,6,1,14,3,9,2,0,0,0,0,7,6,6,2,3,6,0,0,1,6,2,2,0,0,6,0,0,0,3,6,0,0,3,14,0,0,0,0,0,0,0,0,0,0,0,0,0,0,0,0,0,0,0,0,0,0,0,0,0,0,0,0,0,0,0,0,0,0],"split_type":[0,0,0,0,0,0,0,0,0,0,0,0,0,0,0,0,0,0,0,0,0,0,0,0,0,0,0,0,0,0,0,0,0,0,0,0,0,0,0,0,0,0,0,0,0,0,0,0,0,0,0,0,0,0,0,0,0,0,0,0,0,0,0,0,0,0,0,0,0,0,0,0,0,0,0,0,0,0,0,0,0,0,0,0,0,0,0,0,0],"sum_hessian":[4.6793704E2,2.794123E2,1.8852475E2,1.6943622E2,1.0997608E2,1.7145583E2,1.7068922E1,1.5319212E2,1.6244097E1,9.177466E1,1.8201422E1,1.8928545E1,1.5252728E2,1.2378595E1,4.6903276E0,9.357947E1,5.9612656E1,1.24338255E1,3.8102713E0,3.505878E1,5.671588E1,5.2407236E0,1.2960699E1,8.467666E0,1.046088E1,6.290634E0,1.4623665E2,2.1726317E0,1.0205964E1,3.101048E0,1.5892797E0,7.0660385E1,2.2919085E1,5.4224777E1,5.3878784E0,4.885815E0,7.5480103E0,2.0043511E0,1.8059202E0,5.7474036E0,2.9311375E1,2.5536667E1,3.1179216E1,1.2209343E0,4.019789E0,5.589547E0,7.3711514E0,5.6318693E0,2.8357964E0,4.166027E0,6.2948537E0,1.724873E0,4.565761E0,2.0284803E1,1.2595184E2,1.4244798E0,1.676568E0,8.118431E0,6.2541958E1,2.3706021E0,2.0548481E1,4.642115E0,4.958266E1,1.8150288E0,3.5728498E0,2.596887E0,2.2889278E0,5.5396714E0,2.0083392E0,4.188644E0,1.5587597E0,4.406415E0,2.490496E1,1.6339285E1,9.197381E0,1.2440916E1,1.87383E1,3.753757E0,1.8357904E0,6.067385E0,1.3037663E0,3.022754E0,1.1432731E0,4.4986634E0,1.7961901E0,1.27204275E1,7.564377E0,1.234361E2,2.515744E0],"tree_param":{"num_deleted":"0","num_feature":"16","num_nodes":"89","size_leaf_vector":"1"}},{"base_weights":[2.8490437E-2,-1.3427362E-1,2.4172209E-1,-2.6500806E-1,4.9949314E-2,2.1803445E-1,2.1000001E-1,-3.1274804E-1,1.2261651E-1,7.181454E-2,-1.2100317E-1,1.9963896E-1,4.6763185E-1,-2.2690718E-1,-4.4930312E-1,2.0246989E-1,-1.4893195E-1,3.9168987E-2,4.4867018E-1,3.983506E-1,1.7836197E-1,-5.718071E-3,1.6235119E-1,-3.4740216E-1,9.509826E-2,-4.6769366E-1,-2.2825836E-1,-1.9417617E-2,2.51915E-1,-7.379642E-2,3.145992E-4,-1.303316E-1,1.13383286E-1,7.739237E-2,2.1000001E-1,6.0102874E-1,-2.3083965E-1,1.3253157E-1,2.6153812E-1,1.9520853E-2,-1.1364824E-1,4.6893544E-2,-5.2643932E-2,-7.0327066E-2,-1.455779E-1,-1.1421992E-1,2.76345E-2,2.532851E-2,1.1650963E-1,7.932426E-2,-9.015877E-2,6.3988892E-3,1.4395669E-1,9.741451E-2,-9.3115814E-2,2.0356005E-1,2.3379304E-2,-1.0494421E-1,2.8684684E-3,4.690038E-2,-2.4033988E-2,1.3650715E-1,3.989942E-2],"categories":[],"categories_nodes":[],"categories_segments":[],"categories_sizes":[],"default_left":[0,0,0,0,0,0,0,0,0,0,0,0,0,0,0,0,0,0,0,0,0,0,0,0,0,0,0,0,0,0,0,0,0,0,0,0,0,0,0,0,0,0,0,0,0,0,0,0,0,0,0,0,0,0,0,0,0,0,0,0,0,0,0],"id":8,"left_children":[1,3,5,7,9,11,-1,13,15,17,-1,19,21,23,25,27,29,31,33,35,37,-1,-1,39,41,43,45,-1,47,-1,-1,49,51,53,-1,55,57,59,61,-1,-1,-1,-1,-1,-1,-1,-1,-1,-1,-1,-1,-1,-1,-1,-1,-1,-1,-1,-1,-1,-1,-1,-1],"loss_changes":[1.6448498E1,6.4891386E0,3.5527296E0,2.9516792E0,1.1435165E0,8.380184E-1,0E0,1.5444221E0,4.200709E-1,1.3126642E0,0E0,7.3510075E-1,4.819994E-1,3.4575272E0,1.0947323E-1,2.054851E-1,6.812616E-2,1.2802854E0,1.1173649E0,2.3870506E0,6.2877655E-1,0E0,0E0,8.599405E-1,4.385029E-1,8.355427E-2,3.3006182E-1,0E0,2.4802947E-1,0E0,0E0,2.1688974E0,2.3681607E0,6.3168347E-1,0E0,4.9900866E-1,1.4686921E-1,5.907521E-1,1.451654E0,0E0,0E0,0E0,0E0,0E0,0E0,0E0,0E0,0E0,0E0,0E0,0E0,0E0,0E0,0E0,0E0,0E0,0E0,0E0,0E0,0E0,0E0,0E0,0E0],"parents":[2147483647,0,0,1,1,2,2,3,3,4,4,5,5,7,7,8,8,9,9,11,11,12,12,13,13,14,14,15,15,16,16,17,17,18,18,19,19,20,20,23,23,24,24,25,25,26,26,28,28,31,31,32,32,33,33,35,35,36,36,37,37,38,38],"right_children":[2,4,6,8,10,12,-1,14,16,18,-1,20,22,24,26,28,30,32,34,36,38,-1,-1,40,42,44,46,-1,48,-1,-1,50,52,54,-1,56,58,60,62,-1,-1,-1,-1,-1,-1,-1,-1,-1,-1,-1,-1,-1,-1,-1,-1,-1,-1,-1,-1,-1,-1,-1,-1],"split_conditions":[1E0,2.86E2,4E0,1E0,9.8078525E-1,2E0,2.1000001E-1,2.74E2,4.3388373E-1,9.238795E-1,-1.2100317E-1,-9.8078525E-1,-9.659258E-1,2.69E2,2.2E1,6E0,3.2143947E-1,9E0,4.3388373E-1,2.88E2,7.0710677E-1,-5.718071E-3,1.6235119E-1,2.14E2,8.660254E-1,-9.659258E-1,6.234898E-1,-1.9417617E-2,-5E-1,-7.379642E-2,3.145992E-4,-2.2252093E-1,9.749279E-1,2E0,2.1000001E-1,4E0,6.123234E-17,6.087614E-1,-2.2252093E-1,1.9520853E-2,-1.1364824E-1,4.6893544E-2,-5.2643932E-2,-7.0327066E-2,-1.455779E-1,-1.1421992E-1,2.76345E-2,2.532851E-2,1.1650963E-1,7.932426E-2,-9.015877E-2,6.3988892E-3,1.4395669E-1,9.741451E-2,-9.3115814E-2,2.0356005E-1,2.3379304E-2,-1.0494421E-1,2.8684684E-3,4.690038E-2,-2.4033988E-2,1.3650715E-1,3.989942E-2],"split_indices":[12,3,12,13,7,13,0,3,8,7,0,6,6,3,0,0,6,0,8,3,7,0,0,3,7,6,9,0,7,0,0,9,8,1,0,2,7,7,9,0,0,0,0,0,0,0,0,0,0,0,0,0,0,0,0,0,0,0,0,0,0,0,0],"split_type":[0,0,0,0,0,0,0,0,0,0,0,0,0,0,0,0,0,0,0,0,0,0,0,0,0,0,0,0,0,0,0,0,0,0,0,0,0,0,0,0,0,0,0,0,0,0,0,0,0,0,0,0,0,0,0,0,0,0,0,0,0,0,0],"sum_hessian":[4.719968E2,2.67885E2,2.0411179E2,1.5643317E2,1.1145186E2,2.0184932E2,2.2624674E0,1.3945145E2,1.6981716E1,1.0712606E2,4.3258023E0,1.8967033E2,1.2178982E1,8.725999E1,5.2191463E1,1.3319331E1,3.6623847E0,9.960187E1,7.52419E0,1.66306E1,1.7303973E2,1.695918E0,1.0483065E1,6.3441277E1,2.3818705E1,4.7152615E1,5.038848E0,2.0316281E0,1.1287703E1,1.8348658E0,1.8275189E0,3.0099785E1,6.950208E1,4.5355697E0,2.9886198E0,1.2612539E1,4.0180607E0,1.1323834E2,5.98014E1,4.4154773E0,5.9025803E1,1.9768688E1,4.050016E0,4.3066797E0,4.2845936E1,3.2863684E0,1.7524796E0,5.794261E0,5.4934416E0,8.901237E0,2.1198547E1,5.6394604E1,1.3107478E1,2.8686135E0,1.6669564E0,1.0726153E1,1.8863856E0,2.383395E0,1.6346655E0,1.0207687E2,1.1161465E1,2.285653E1,3.694487E1],"tree_param":{"num_deleted":"0","num_feature":"16","num_nodes":"63","size_leaf_vector":"1"}},{"base_weights":[2.356799E-2,-1.20848216E-1,1.942846E-1,-2.4717453E-1,4.204881E-2,1.7327258E-1,2.1000001E-1,-1.5096863E-1,-4.4367084E-1,6.0771063E-2,-1.1814962E-1,1.5933253E-1,3.4960464E-1,-3.2249594E-1,1.1321294E-1,-4.5420465E-1,-3.3198215E-2,3.23407E-2,3.635403E-1,-5.2975364E-2,1.708441E-1,-5.2023865E-3,1.1919627E-1,1.16243266E-1,-3.465592E-1,1.7173256E-1,-9.888973E-2,-2.4281603E-1,-1.41384E-1,-3.1844333E-1,5.9813403E-2,6.271208E-2,6.505951E-1,1.7430885E-1,-1.4647573E-1,5.718342E-2,1.8932286E-1,-1.181102E-2,-1.1729549E-1,-8.112423E-3,9.910511E-2,-1.0491622E-1,8.865571E-2,5.144985E-2,-1.15115926E-1,-8.949101E-3,-1.2272031E-1,4.756949E-3,7.161513E-2,-6.797207E-2,2.1000001E-1,2.1000001E-1,4.1769583E-2,6.1472934E-2,1.3834205E-2,-5.4639082E-2,-3.5585263E-3,-1.1933038E-1,4.468885E-2,6.164099E-2,-1.1789177E-1],"categories":[],"categories_nodes":[],"categories_segments":[],"categories_sizes":[],"default_left":[0,0,0,0,0,0,0,0,0,0,0,0,0,0,0,0,0,0,0,0,0,0,0,0,0,0,0,0,0,0,0,0,0,0,0,0,0,0,0,0,0,0,0,0,0,0,0,0,0,0,0,0,0,0,0,0,0,0,0,0,0],"id":9,"left_children":[1,3,5,7,9,11,-1,13,15,17,-1,19,21,23,25,27,-1,29,31,33,35,-1,-1,-1,37,39,41,43,-1,45,47,49,51,53,55,57,59,-1,-1,-1,-1,-1,-1,-1,-1,-1,-1,-1,-1,-1,-1,-1,-1,-1,-1,-1,-1,-1,-1,-1,-1],"loss_changes":[1.1795215E1,5.3458533E0,3.4907799E0,2.696351E0,9.5507693E-1,4.762354E-1,0E0,4.5519285E0,1.16464615E-1,9.374161E-1,0E0,5.036826E-1,2.6983047E-1,1.1709266E0,5.1307744E-1,5.0702095E-2,0E0,1.0010617E0,7.681539E-1,2.6296172E-1,3.9288425E-1,0E0,0E0,0E0,7.9274416E-1,1.0081228E0,1.0211612E0,3.858496E-1,0E0,1.8550974E-1,7.45985E-1,1.2211908E0,1.6162562E-1,5.116947E-3,3.844148E-2,1.2414497E0,1.6312156E0,0E0,0E0,0E0,0E0,0E0,0E0,0E0,0E0,0E0,0E0,0E0,0E0,0E0,0E0,0E0,0E0,0E0,0E0,0E0,0E0,0E0,0E0,0E0,0E0],"parents":[2147483647,0,0,1,1,2,2,3,3,4,4,5,5,7,7,8,8,9,9,11,11,12,12,13,13,14,14,15,15,17,17,18,18,19,19,20,20,24,24,25,25,26,26,27,27,29,29,30,30,31,31,32,32,33,33,34,34,35,35,36,36],"right_children":[2,4,6,8,10,12,-1,14,16,18,-1,20,22,24,26,28,-1,30,32,34,36,-1,-1,-1,38,40,42,44,-1,46,48,50,52,54,56,58,60,-1,-1,-1,-1,-1,-1,-1,-1,-1,-1,-1,-1,-1,-1,-1,-1,-1,-1,-1,-1,-1,-1,-1,-1],"split_conditions":[1E0,2.86E2,4E0,2.74E2,9.8078525E-1,2E0,2.1000001E-1,2.69E2,9.9785894E-1,9.238795E-1,-1.1814962E-1,2.7E2,-9.659258E-1,1.86E2,2.73E2,-9.659258E-1,-3.3198215E-2,3E0,4.3388373E-1,2.06E2,-7.933533E-1,-5.2023865E-3,1.1919627E-1,1.16243266E-1,-9.469301E-1,1E1,3.8268343E-1,2.77E2,-1.41384E-1,-2.2252093E-1,9.749279E-1,3.2143947E-1,3E0,1.5E1,1E0,-2.2252093E-1,2.91E2,-1.181102E-2,-1.1729549E-1,-8.112423E-3,9.910511E-2,-1.0491622E-1,8.865571E-2,5.144985E-2,-1.15115926E-1,-8.949101E-3,-1.2272031E-1,4.756949E-3,7.161513E-2,-6.797207E-2,2.1000001E-1,2.1000001E-1,4.1769583E-2,6.1472934E-2,1.3834205E-2,-5.4639082E-2,-3.5585263E-3,-1.1933038E-1,4.468885E-2,6.164099E-2,-1.1789177E-1],"split_indices":[12,3,12,3,7,13,0,3,7,7,0,3,6,3,3,6,0,0,8,3,7,0,0,0,7,0,6,3,0,9,8,6,1,0,13,9,3,0,0,0,0,0,0,0,0,0,0,0,0,0,0,0,0,0,0,0,0,0,0,0,0],"split_type":[0,0,0,0,0,0,0,0,0,0,0,0,0,0,0,0,0,0,0,0,0,0,0,0,0,0,0,0,0,0,0,0,0,0,0,0,0,0,0,0,0,0,0,0,0,0,0,0,0,0,0,0,0,0,0,0,0,0,0,0,0],"sum_hessian":[4.76473E2,2.5827753E2,2.1819547E2,1.4517625E2,1.13101265E2,2.1540431E2,2.7911565E0,9.864655E1,4.6529705E1,1.0926847E2,3.8327956E0,2.0138712E2,1.4017197E1,5.9678123E1,3.896843E1,4.475022E1,1.7794819E0,1.0090061E2,8.367861E0,1.0172554E1,1.9121455E2,1.6862482E0,1.2330949E1,1.4612852E0,5.821684E1,3.0691036E1,8.277394E0,4.482178E0,4.0268044E1,6.5591474E0,9.434146E1,4.680866E0,3.686995E0,2.713126E0,7.459428E0,2.7312595E1,1.6390196E2,7.5938835E0,5.0622955E1,1.398947E1,1.6701567E1,5.128892E0,3.1485023E0,1.0823829E0,3.3997955E0,1.8850286E0,4.6741185E0,7.660751E1,1.773395E1,3.680505E0,1.0003607E0,2.5784142E0,1.1085808E0,1.7071854E0,1.0059406E0,5.618343E0,1.8410847E0,4.025282E0,2.3287313E1,1.6010925E2,3.792704E0],"tree_param":{"num_deleted":"0","num_feature":"16","num_nodes":"61","size_leaf_vector":"1"}},{"base_weights":[1.9303152E-2,-1.08199924E-1,1.5731978E-1,-2.2928403E-1,3.5797115E-2,1.3880609E-1,2.1000001E-1,-1.3612339E-1,-4.3648943E-1,5.1980607E-2,-1.1516116E-1,1.21619634E-1,2.422109E-1,-3.0510205E-1,9.2461795E-2,-4.5950192E-1,-1.928154E-1,2.6563603E-2,3.083981E-1,2.3252569E-1,1.0735433E-1,2.9927692E-1,-3.2093864E-2,1.1867658E-1,-3.5302627E-1,1.3718785E-1,-1.0799358E-1,-2.2747402E-1,-1.4450803E-1,2.9136544E-2,-1.0765071E-1,-3.0428356E-1,5.0168317E-2,1.4885648E-1,2.0645048E-1,3.5148308E-1,-2.3125847E-1,-5.909429E-3,1.24245584E-1,1.9376017E-1,3.567704E-1,-9.430874E-2,1.4571218E-1,9.8156676E-2,-7.0205946E-3,-2.1602198E-2,-1.1923531E-1,9.505474E-3,9.48927E-2,-1.1206956E-1,3.741346E-2,5.128992E-2,-1.12511955E-1,-8.129218E-3,-1.1995989E-1,2.2327717E-2,-5.2241176E-2,-6.355825E-2,1.3382694E-1,1.2319987E-1,1.2103257E-2,-1.0358927E-1,-3.16009E-3,2.595582E-2,-6.3213475E-2,3.0245917E-2,5.515303E-2,8.733626E-2,-4.1388045E-3,1.1721098E-1,3.7910208E-2,-9.310223E-5,6.814522E-2],"categories":[],"categories_nodes":[],"categories_segments":[],"categories_sizes":[],"default_left":[0,0,0,0,0,0,0,0,0,0,0,0,0,0,0,0,0,0,0,0,0,0,0,0,0,0,0,0,0,0,0,0,0,0,0,0,0,0,0,0,0,0,0,0,0,0,0,0,0,0,0,0,0,0,0,0,0,0,0,0,0,0,0,0,0,0,0,0,0,0,0,0,0],"id":10,"left_children":[1,3,5,7,9,11,-1,13,15,17,-1,19,21,23,25,27,29,31,33,35,37,39,41,43,45,47,49,51,-1,-1,-1,53,55,57,-1,59,61,63,65,67,69,-1,71,-1,-1,-1,-1,-1,-1,-1,-1,-1,-1,-1,-1,-1,-1,-1,-1,-1,-1,-1,-1,-1,-1,-1,-1,-1,-1,-1,-1,-1,-1],"loss_changes":[8.488836E0,4.3816843E0,3.1584258E0,2.573423E0,8.03994E-1,3.7598848E-1,0E0,3.7186444E0,1.4607668E-1,7.2198373E-1,0E0,2.8772116E-1,5.0278413E-1,1.162283E0,3.8577908E-1,8.3598614E-2,2.916174E-1,8.198515E-1,5.04033E-1,1.2766246E0,3.393085E-1,8.96759E-2,3.6344615E-1,1.9587149E-1,5.9325504E-1,6.37587E-1,5.476265E-1,3.6807433E-1,0E0,0E0,0E0,1.7469162E-1,5.4087114E-1,9.870392E-1,0E0,3.0826402E-1,1.2287301E-1,4.7105557E-1,1.9653797E-1,2.3481557E-1,7.3811054E-2,0E0,5.437135E-2,0E0,0E0,0E0,0E0,0E0,0E0,0E0,0E0,0E0,0E0,0E0,0E0,0E0,0E0,0E0,0E0,0E0,0E0,0E0,0E0,0E0,0E0,0E0,0E0,0E0,0E0,0E0,0E0,0E0,0E0],"parents":[2147483647,0,0,1,1,2,2,3,3,4,4,5,5,7,7,8,8,9,9,11,11,12,12,13,13,14,14,15,15,16,16,17,17,18,18,19,19,20,20,21,21,22,22,23,23,24,24,25,25,26,26,27,27,31,31,32,32,33,33,35,35,36,36,37,37,38,38,39,39,40,40,42,42],"right_children":[2,4,6,8,10,12,-1,14,16,18,-1,20,22,24,26,28,30,32,34,36,38,40,42,44,46,48,50,52,-1,-1,-1,54,56,58,-1,60,62,64,66,68,70,-1,72,-1,-1,-1,-1,-1,-1,-1,-1,-1,-1,-1,-1,-1,-1,-1,-1,-1,-1,-1,-1,-1,-1,-1,-1,-1,-1,-1,-1,-1,-1],"split_conditions":[1E0,2.86E2,4E0,2.74E2,9.8078525E-1,9.659258E-1,2.1000001E-1,2.69E2,2.2E1,9.238795E-1,-1.1516116E-1,-9.8078525E-1,9.749279E-1,2.14E2,8.9687276E-1,-9.659258E-1,3E0,3E0,3.2143947E-1,2.88E2,1E0,-6.5403126E-2,9.914449E-1,1.86E2,-9.469301E-1,2.5881904E-1,2.71E2,-6.5403126E-2,-1.4450803E-1,2.9136544E-2,-1.0765071E-1,-2.2252093E-1,9.469301E-1,4.3388373E-1,2.0645048E-1,2E0,6.123234E-17,6.087614E-1,7.0710677E-1,2E0,1E0,-9.430874E-2,1E0,9.8156676E-2,-7.0205946E-3,-2.1602198E-2,-1.1923531E-1,9.505474E-3,9.48927E-2,-1.1206956E-1,3.741346E-2,5.128992E-2,-1.12511955E-1,-8.129218E-3,-1.1995989E-1,2.2327717E-2,-5.2241176E-2,-6.355825E-2,1.3382694E-1,1.2319987E-1,1.2103257E-2,-1.0358927E-1,-3.16009E-3,2.595582E-2,-6.3213475E-2,3.0245917E-2,5.515303E-2,8.733626E-2,-4.1388045E-3,1.1721098E-1,3.7910208E-2,-9.310223E-5,6.814522E-2],"split_indices":[12,3,12,3,7,7,0,3,0,7,0,6,8,3,6,6,2,0,6,3,2,6,7,3,7,6,3,7,0,0,0,9,6,8,0,14,7,7,7,1,7,0,1,0,0,0,0,0,0,0,0,0,0,0,0,0,0,0,0,0,0,0,0,0,0,0,0,0,0,0,0,0,0],"split_type":[0,0,0,0,0,0,0,0,0,0,0,0,0,0,0,0,0,0,0,0,0,0,0,0,0,0,0,0,0,0,0,0,0,0,0,0,0,0,0,0,0,0,0,0,0,0,0,0,0,0,0,0,0,0,0,0,0,0,0,0,0,0,0,0,0,0,0,0,0,0,0,0,0],"sum_hessian":[4.8042026E2,2.498338E2,2.3058644E2,1.3539265E2,1.1444114E2,2.2714305E2,3.4433887E0,9.454271E1,4.0849953E1,1.1103546E2,3.4056811E0,1.9663702E2,3.0506023E1,5.416626E1,4.037645E1,3.6515697E1,4.334253E0,1.0202589E2,9.009569E0,2.0666288E1,1.7597073E2,2.517716E1,5.328863E0,5.3532076E0,4.881305E1,3.3269012E1,7.107438E0,4.16964E0,3.2346058E1,1.7292674E0,2.6049855E0,6.002544E0,9.6023346E1,7.324505E0,1.6850641E0,1.6640306E1,4.0259814E0,2.2921501E1,1.5304924E2,1.04212885E1,1.4755872E1,1.7626438E0,3.5662196E0,1.6414165E0,3.711791E0,7.0209975E0,4.1792053E1,2.1677681E1,1.1591332E1,3.03662E0,4.0708184E0,1.0840459E0,3.0855944E0,1.8682345E0,4.1343093E0,8.7255356E1,8.767989E0,3.4386463E0,3.8858585E0,1.3712171E1,2.9281363E0,2.282389E0,1.7435925E0,1.6191635E1,6.729867E0,1.1179725E2,4.1251987E1,6.819689E0,3.601599E0,1.2255232E1,2.5006394E0,1.6334924E0,1.9327271E0],"tree_param":{"num_deleted":"0","num_feature":"16","num_nodes":"73","size_leaf_vector":"1"}},{"base_weights":[1.5629333E-2,-9.713795E-2,1.292182E-1,-2.1185626E-1,2.9409222E-2,1.14370085E-1,2.1000001E-1,-1.2237549E-1,-4.2863354E-1,4.3437324E-2,-1.1205676E-1,1.0305734E-1,2.4546544E-1,-2.8725147E-1,7.593904E-2,-4.5428926E-1,-1.800739E-1,1.9331617E-2,2.4215338E-1,-5.076647E-2,1.1230145E-1,-6.422749E-3,2.7449864E-1,8.114766E-3,-3.597279E-1,3.821676E-2,3.1111643E-1,-2.1256919E-1,-1.438374E-1,9.345262E-2,-1.1276657E-1,6.546826E-2,-1.4154457E-1,3.637388E-1,-1.3510951E-1,-1.8192187E-1,1.2557548E-1,-3.669331E-2,1.193228E-1,1.2930003E-1,8.926918E-2,8.327192E-2,-2.2774043E-2,-2.15173E-2,-1.250747E-1,-4.73937E-3,7.903763E-2,1.4653073E-1,-7.5735815E-2,5.430269E-2,-1.1023218E-1,-2.3321226E-2,3.8563713E-2,-9.160041E-2,1.2964926E-2,-2.4807812E-3,1.3178834E-1,-8.657754E-2,2.428406E-2,3.0277902E-2,-1.0257475E-1,-2.1526208E-2,6.880389E-2,2.584976E-2,-4.0943038E-2,4.032634E-2,1.4352139E-2,6.965019E-2,3.4128688E-3],"categories":[],"categories_nodes":[],"categories_segments":[],"categories_sizes":[],"default_left":[0,0,0,0,0,0,0,0,0,0,0,0,0,0,0,0,0,0,0,0,0,0,0,0,0,0,0,0,0,0,0,0,0,0,0,0,0,0,0,0,0,0,0,0,0,0,0,0,0,0,0,0,0,0,0,0,0,0,0,0,0,0,0,0,0,0,0,0,0],"id":11,"left_children":[1,3,5,7,9,11,-1,13,15,17,-1,19,21,23,25,27,29,31,33,35,37,-1,39,41,43,45,47,49,-1,-1,-1,51,53,55,57,59,61,63,65,67,-1,-1,-1,-1,-1,-1,-1,-1,-1,-1,-1,-1,-1,-1,-1,-1,-1,-1,-1,-1,-1,-1,-1,-1,-1,-1,-1,-1,-1],"loss_changes":[6.2233453E0,3.5468113E0,2.5815778E0,2.4312725E0,6.766652E-1,3.2889414E-1,0E0,3.0310328E0,1.5421772E-1,5.4048026E-1,0E0,3.2077765E-1,1.472702E-1,1.0831647E0,3.6577165E-1,9.819031E-2,6.098927E-1,7.706632E-1,6.0992E-1,3.2928574E-1,2.2336626E-1,0E0,1.6885638E-2,2.6833534E-1,6.378269E-1,4.6436924E-1,6.9735324E-1,3.6508363E-1,0E0,0E0,0E0,7.362845E-1,7.1462834E-1,2.7111685E-1,1.4635026E-1,3.9684463E-1,1.4429343E-1,1.3662612E-1,2.0957613E-1,4.6297908E-2,0E0,0E0,0E0,0E0,0E0,0E0,0E0,0E0,0E0,0E0,0E0,0E0,0E0,0E0,0E0,0E0,0E0,0E0,0E0,0E0,0E0,0E0,0E0,0E0,0E0,0E0,0E0,0E0,0E0],"parents":[2147483647,0,0,1,1,2,2,3,3,4,4,5,5,7,7,8,8,9,9,11,11,12,12,13,13,14,14,15,15,16,16,17,17,18,18,19,19,20,20,22,22,23,23,24,24,25,25,26,26,27,27,31,31,32,32,33,33,34,34,35,35,36,36,37,37,38,38,39,39],"right_children":[2,4,6,8,10,12,-1,14,16,18,-1,20,22,24,26,28,30,32,34,36,38,-1,40,42,44,46,48,50,-1,-1,-1,52,54,56,58,60,62,64,66,68,-1,-1,-1,-1,-1,-1,-1,-1,-1,-1,-1,-1,-1,-1,-1,-1,-1,-1,-1,-1,-1,-1,-1,-1,-1,-1,-1,-1,-1],"split_conditions":[1E0,2.86E2,5E0,2.74E2,9.8078525E-1,2E0,2.1000001E-1,2.69E2,2.2E1,8.9687276E-1,-1.1205676E-1,-9.469301E-1,-9.659258E-1,2.31E2,2.1E1,-9.659258E-1,2E0,5E0,3E0,5E0,2.7E2,-6.422749E-3,-3.2143947E-1,1.86E2,-9.238795E-1,6E0,2.73E2,2.77E2,-1.438374E-1,9.345262E-2,-1.1276657E-1,2E0,2E0,1E0,1E0,-9.914449E-1,-9.8078525E-1,2.26E2,7.518398E-1,3E0,8.926918E-2,8.327192E-2,-2.2774043E-2,-2.15173E-2,-1.250747E-1,-4.73937E-3,7.903763E-2,1.4653073E-1,-7.5735815E-2,5.430269E-2,-1.1023218E-1,-2.3321226E-2,3.8563713E-2,-9.160041E-2,1.2964926E-2,-2.4807812E-3,1.3178834E-1,-8.657754E-2,2.428406E-2,3.0277902E-2,-1.0257475E-1,-2.1526208E-2,6.880389E-2,2.584976E-2,-4.0943038E-2,4.032634E-2,1.4352139E-2,6.965019E-2,3.4128688E-3],"split_indices":[12,3,12,3,7,13,0,3,0,7,0,7,6,3,0,6,2,2,1,2,3,0,6,3,7,2,3,3,0,0,0,2,1,2,13,7,7,3,6,2,0,0,0,0,0,0,0,0,0,0,0,0,0,0,0,0,0,0,0,0,0,0,0,0,0,0,0,0,0],"split_type":[0,0,0,0,0,0,0,0,0,0,0,0,0,0,0,0,0,0,0,0,0,0,0,0,0,0,0,0,0,0,0,0,0,0,0,0,0,0,0,0,0,0,0,0,0,0,0,0,0,0,0,0,0,0,0,0,0,0,0,0,0,0,0,0,0,0,0,0,0],"sum_hessian":[4.838732E2,2.4288742E2,2.4098578E2,1.2704431E2,1.158431E2,2.3782669E2,3.1590912E0,9.103262E1,3.601169E1,1.12807884E2,3.0352197E0,2.2057823E2,1.7248453E1,4.9462067E1,4.1570553E1,3.189217E1,4.1195173E0,1.0158247E2,1.1225412E1,1.2249662E1,2.0832857E2,1.7181095E0,1.5530344E1,9.920529E0,3.954154E1,3.6826168E1,4.744387E0,3.8983433E0,2.7993828E1,1.0051943E0,3.1143231E0,7.940382E1,2.2178656E1,8.516528E0,2.7088847E0,7.0067253E0,5.242937E0,9.185438E0,1.9914313E2,3.034385E0,1.2495958E1,1.8107051E0,8.109824E0,6.9242864E0,3.2617252E1,3.0453146E1,6.373021E0,3.710307E0,1.0340803E0,1.0531585E0,2.8451848E0,2.4209106E1,5.519471E1,1.1410599E1,1.0768058E1,1.5880601E0,6.9284678E0,1.387504E0,1.3213807E0,2.6648347E0,4.3418903E0,1.9132515E0,3.3296854E0,4.177872E0,5.0075655E0,1.6368872E2,3.545442E1,1.1032273E0,1.9311576E0],"tree_param":{"num_deleted":"0","num_feature":"16","num_nodes":"69","size_leaf_vector":"1"}},{"base_weights":[1.2506629E-2,-8.703209E-2,1.0679662E-1,-1.9454321E-1,2.352678E-2,9.396058E-2,2.1000001E-1,-1.09256074E-1,-4.1988358E-1,3.575106E-2,-1.0885793E-1,8.4663436E-2,1.9817968E-1,-2.6919267E-1,6.421129E-2,-4.484526E-1,-1.6493808E-1,6.8858646E-2,-7.461483E-2,-4.583522E-2,9.2171945E-2,-5.843527E-3,2.2016908E-1,9.289938E-3,-3.448209E-1,1.0480781E-1,-9.741473E-2,-1.980524E-1,-1.4307404E-1,8.210513E-2,-1.0958708E-1,1.7307393E-2,2.3480798E-1,-3.3627307E-1,1.8092449E-1,-8.841824E-2,3.6540244E-2,1.7633101E-1,8.1523895E-2,2.6310673E-1,1.4850716E-1,7.096782E-2,-2.01926E-2,-1.9101502E-2,-1.2199722E-1,-1.3097142E-2,6.3392326E-2,-1.0065462E-1,6.281109E-2,5.3727344E-2,-1.0760688E-1,-3.5983637E-2,2.5080694E-2,2.1000001E-1,2.870305E-2,-1.3626108E-1,6.905505E-2,1.7148873E-1,-1.6633421E-2,-5.8903202E-2,2.722708E-2,8.093444E-2,-6.818976E-2,-8.80229E-3,2.9186329E-2,9.736409E-2,3.4415156E-2,3.0704094E-3,5.5563424E-2],"categories":[],"categories_nodes":[],"categories_segments":[],"categories_sizes":[],"default_left":[0,0,0,0,0,0,0,0,0,0,0,0,0,0,0,0,0,0,0,0,0,0,0,0,0,0,0,0,0,0,0,0,0,0,0,0,0,0,0,0,0,0,0,0,0,0,0,0,0,0,0,0,0,0,0,0,0,0,0,0,0,0,0,0,0,0,0,0,0],"id":12,"left_children":[1,3,5,7,9,11,-1,13,15,17,-1,19,21,23,25,27,29,31,33,35,37,-1,39,41,43,45,47,49,-1,-1,-1,51,53,55,57,-1,59,61,63,65,67,-1,-1,-1,-1,-1,-1,-1,-1,-1,-1,-1,-1,-1,-1,-1,-1,-1,-1,-1,-1,-1,-1,-1,-1,-1,-1,-1,-1],"loss_changes":[4.587989E0,2.8319669E0,1.9420202E0,2.2739067E0,5.710991E-1,2.2262788E-1,0E0,2.4841328E0,1.6485643E-1,4.269904E-1,0E0,2.2820902E-1,9.75731E-2,9.8158884E-1,2.95376E-1,1.11531734E-1,5.293387E-1,7.6014465E-1,1.8742683E0,2.7945018E-1,1.7962384E-1,0E0,1.5645921E-2,2.0559117E-1,6.097021E-1,5.660701E-1,7.454167E-1,3.465653E-1,0E0,0E0,0E0,6.4002526E-1,1.4030473E0,1.0230821E0,1.3588817E0,0E0,1.533707E-1,9.459999E-1,3.4195483E-1,5.2339375E-2,4.357229E-2,0E0,0E0,0E0,0E0,0E0,0E0,0E0,0E0,0E0,0E0,0E0,0E0,0E0,0E0,0E0,0E0,0E0,0E0,0E0,0E0,0E0,0E0,0E0,0E0,0E0,0E0,0E0,0E0],"parents":[2147483647,0,0,1,1,2,2,3,3,4,4,5,5,7,7,8,8,9,9,11,11,12,12,13,13,14,14,15,15,16,16,17,17,18,18,19,19,20,20,22,22,23,23,24,24,25,25,26,26,27,27,31,31,32,32,33,33,34,34,36,36,37,37,38,38,39,39,40,40],"right_children":[2,4,6,8,10,12,-1,14,16,18,-1,20,22,24,26,28,30,32,34,36,38,-1,40,42,44,46,48,50,-1,-1,-1,52,54,56,58,-1,60,62,64,66,68,-1,-1,-1,-1,-1,-1,-1,-1,-1,-1,-1,-1,-1,-1,-1,-1,-1,-1,-1,-1,-1,-1,-1,-1,-1,-1,-1,-1],"split_conditions":[1E0,2.86E2,5E0,2.74E2,9.8078525E-1,2E0,2.1000001E-1,2.69E2,2.2E1,6.593458E-1,-1.0885793E-1,-9.469301E-1,-9.659258E-1,2.31E2,2.73E2,-9.659258E-1,2E0,9.749279E-1,4E0,-2.2252093E-1,-9.8078525E-1,-5.843527E-3,3E0,1.86E2,-9.238795E-1,1E1,3.8268343E-1,-6.5403126E-2,-1.4307404E-1,8.210513E-2,-1.0958708E-1,-6.087614E-1,1E0,1E0,5E0,-8.841824E-2,2.71E2,2.88E2,1E0,3.8268343E-1,-3.2143947E-1,7.096782E-2,-2.01926E-2,-1.9101502E-2,-1.2199722E-1,-1.3097142E-2,6.3392326E-2,-1.0065462E-1,6.281109E-2,5.3727344E-2,-1.0760688E-1,-3.5983637E-2,2.5080694E-2,2.1000001E-1,2.870305E-2,-1.3626108E-1,6.905505E-2,1.7148873E-1,-1.6633421E-2,-5.8903202E-2,2.722708E-2,8.093444E-2,-6.818976E-2,-8.80229E-3,2.9186329E-2,9.736409E-2,3.4415156E-2,3.0704094E-3,5.5563424E-2],"split_indices":[12,3,12,3,7,13,0,3,0,6,0,7,6,3,3,6,2,8,2,9,6,0,2,3,7,0,6,7,0,0,0,7,13,13,2,0,3,3,2,6,6,0,0,0,0,0,0,0,0,0,0,0,0,0,0,0,0,0,0,0,0,0,0,0,0,0,0,0,0],"split_type":[0,0,0,0,0,0,0,0,0,0,0,0,0,0,0,0,0,0,0,0,0,0,0,0,0,0,0,0,0,0,0,0,0,0,0,0,0,0,0,0,0,0,0,0,0,0,0,0,0,0,0,0,0,0,0,0,0,0,0,0,0,0,0,0,0,0,0,0,0],"sum_hessian":[4.8684735E2,2.3686942E2,2.4997794E2,1.1970481E2,1.171646E2,2.4608064E2,3.897302E0,8.791534E1,3.1789474E1,1.14451126E2,2.7134666E0,2.275902E2,1.8490444E1,4.545452E1,4.2460815E1,2.7903605E1,3.885871E0,8.832997E1,2.6121159E1,1.210471E1,2.1548549E2,1.7071098E0,1.6783335E1,9.895161E0,3.555936E1,3.4217705E1,8.243113E0,3.660151E0,2.4243452E1,1.1036617E0,2.7822094E0,6.8236855E1,2.0093113E1,1.2749963E1,1.3371197E1,2.3690178E0,9.735692E0,2.2454187E1,1.930313E2,8.824474E0,7.95886E0,1.9679419E0,7.927219E0,6.7768855E0,2.8782476E1,1.4539359E1,1.9678345E1,4.5883627E0,3.6547499E0,1.0589861E0,2.601165E0,2.1960968E1,4.6275887E1,3.4108608E0,1.6682253E1,1.0716967E1,2.0329957E0,4.5054975E0,8.8657E0,1.3434634E0,8.392228E0,1.8502102E1,3.9520855E0,2.3923016E1,1.6910828E2,5.401056E0,3.4234185E0,1.9377596E0,6.0211005E0],"tree_param":{"num_deleted":"0","num_feature":"16","num_nodes":"69","size_leaf_vector":"1"}},{"base_weights":[9.736035E-3,-7.768857E-2,8.821377E-2,-1.7823182E-1,1.968709E-2,7.754516E-2,1.6195765E-1,-9.781359E-2,-4.103258E-1,3.046146E-2,-1.0558794E-1,7.983491E-2,-7.484204E-2,-2.5096405E-1,5.288049E-2,-4.2707738E-1,-6.667565E-3,3.9530177E-2,-9.885808E-2,-7.704009E-2,8.38023E-2,9.928256E-3,-3.2908866E-1,8.577936E-2,-1.0584801E-1,-1.8418127E-1,-4.5385924E-1,4.7332622E-2,-9.2640616E-2,-8.465818E-2,3.012776E-2,1.8840304E-1,7.444677E-2,8.066081E-2,-1.3198524E-2,-1.6924314E-2,-1.1862897E-1,-9.3786285E-4,7.009444E-2,-1.08346164E-1,2.6173646E-2,5.593307E-2,-1.0536974E-1,-4.926508E-2,-1.42295E-1,8.359753E-3,6.641335E-2,1.5965406E-2,2.8954959E-3,7.4320704E-2,-9.0936E-2,1.909463E-2,5.5483516E-2],"categories":[],"categories_nodes":[],"categories_segments":[],"categories_sizes":[],"default_left":[0,0,0,0,0,0,0,0,0,0,0,0,0,0,0,0,0,0,0,0,0,0,0,0,0,0,0,0,0,0,0,0,0,0,0,0,0,0,0,0,0,0,0,0,0,0,0,0,0,0,0,0,0],"id":13,"left_children":[1,3,5,7,9,11,-1,13,15,17,-1,19,-1,21,23,25,-1,27,-1,29,31,33,35,37,39,41,43,45,-1,-1,47,49,51,-1,-1,-1,-1,-1,-1,-1,-1,-1,-1,-1,-1,-1,-1,-1,-1,-1,-1,-1,-1],"loss_changes":[3.372233E0,2.280416E0,1.205883E0,2.097339E0,4.8740205E-1,2.1021831E-1,0E0,2.0064535E0,1.800623E-1,3.937145E-1,0E0,1.6400385E-1,0E0,8.798394E-1,2.4071157E-1,9.7869396E-2,0E0,3.261826E-1,0E0,1.5723518E-1,2.2804952E-1,1.63766E-1,5.769174E-1,4.910123E-1,4.289941E-1,3.4119952E-1,6.693506E-2,3.7666216E-1,0E0,0E0,2.0145085E-3,6.483062E-1,2.611227E-1,0E0,0E0,0E0,0E0,0E0,0E0,0E0,0E0,0E0,0E0,0E0,0E0,0E0,0E0,0E0,0E0,0E0,0E0,0E0,0E0],"parents":[2147483647,0,0,1,1,2,2,3,3,4,4,5,5,7,7,8,8,9,9,11,11,13,13,14,14,15,15,17,17,19,19,20,20,21,21,22,22,23,23,24,24,25,25,26,26,27,27,30,30,31,31,32,32],"right_children":[2,4,6,8,10,12,-1,14,16,18,-1,20,-1,22,24,26,-1,28,-1,30,32,34,36,38,40,42,44,46,-1,-1,48,50,52,-1,-1,-1,-1,-1,-1,-1,-1,-1,-1,-1,-1,-1,-1,-1,-1,-1,-1,-1,-1],"split_conditions":[1E0,2.86E2,5E0,2.74E2,9.8078525E-1,2.92E2,1.6195765E-1,2.69E2,9.9785894E-1,9.9785894E-1,-1.0558794E-1,-9.9785894E-1,-7.484204E-2,2.31E2,8.9687276E-1,-9.659258E-1,-6.667565E-3,2E0,-9.885808E-2,6.234898E-1,-9.8078525E-1,1.71E2,-9.238795E-1,2.5881904E-1,2.71E2,2.77E2,1E0,9.238795E-1,-9.2640616E-2,-8.465818E-2,2.73E2,2.89E2,2E0,8.066081E-2,-1.3198524E-2,-1.6924314E-2,-1.1862897E-1,-9.3786285E-4,7.009444E-2,-1.08346164E-1,2.6173646E-2,5.593307E-2,-1.0536974E-1,-4.926508E-2,-1.42295E-1,8.359753E-3,6.641335E-2,1.5965406E-2,2.8954959E-3,7.4320704E-2,-9.0936E-2,1.909463E-2,5.5483516E-2],"split_indices":[12,3,12,3,7,3,0,3,7,6,0,6,0,3,6,6,0,14,0,9,6,3,7,6,3,3,2,7,0,0,3,3,13,0,0,0,0,0,0,0,0,0,0,0,0,0,0,0,0,0,0,0,0],"split_type":[0,0,0,0,0,0,0,0,0,0,0,0,0,0,0,0,0,0,0,0,0,0,0,0,0,0,0,0,0,0,0,0,0,0,0,0,0,0,0,0,0,0,0,0,0,0,0,0,0,0,0,0,0],"sum_hessian":[4.8951685E2,2.3156372E2,2.5795312E2,1.13520294E2,1.1804342E2,2.5314511E2,4.808016E0,8.5363976E1,2.815632E1,1.15609825E2,2.433594E0,2.5213556E2,1.0095569E0,4.200693E1,4.3357044E1,2.689502E1,1.2612998E0,1.136373E2,1.9725256E0,5.7649426E0,2.4637062E2,9.881431E0,3.21255E1,3.6294125E1,7.0629196E0,3.4532344E0,2.3441786E1,1.1199284E2,1.6444601E0,1.4177384E0,4.347204E0,1.8655226E1,2.277154E2,1.0160747E0,8.8653555E0,6.6486645E0,2.5476835E1,2.327748E1,1.30166445E1,2.6666927E0,4.396227E0,1.0368223E0,2.416412E0,2.1419973E0,2.129979E1,1.0177007E2,1.0222773E1,1.2916367E0,3.0555677E0,1.7088432E1,1.5667921E0,2.0887949E2,1.8835901E1],"tree_param":{"num_deleted":"0","num_feature":"16","num_nodes":"53","size_leaf_vector":"1"}},{"base_weights":[7.059032E-3,-6.967874E-2,7.288434E-2,-1.6264662E-1,1.5466199E-2,6.318723E-2,3.7915537E-1,-9.384794E-2,-4.2437756E-1,2.4981692E-2,-1.02270916E-1,5.2223876E-2,1.2686945E-1,2.5936564E-2,1.23146795E-1,-2.3259595E-1,2.2033542E-2,-1.4133811E-1,-8.476939E-2,3.3012535E-2,-9.551906E-2,9.291042E-2,4.9197525E-2,1.6402018E-1,-6.414312E-2,-5.9160363E-2,-3.5734153E-1,7.314306E-2,-1.6040649E-1,8.1728585E-2,-9.629006E-2,3.994271E-2,-8.936056E-2,-1.1943369E-1,5.4601565E-2,2.8571072E-1,1.2384633E-1,-9.411817E-2,8.47727E-2,-4.3748982E-2,1.9270575E-1,-1.15522996E-1,-4.6401978E-2,-2.471812E-3,7.461451E-2,-1.0655405E-1,2.6763614E-2,-5.456311E-3,2.4801238E-2,7.036912E-3,-9.8878175E-2,-2.1502528E-2,1.75108E-2,1.05739444E-1,2.6380155E-2,1.4009515E-2,6.222138E-2,-8.176425E-3,4.633753E-2],"categories":[],"categories_nodes":[],"categories_segments":[],"categories_sizes":[],"default_left":[0,0,0,0,0,0,0,0,0,0,0,0,0,0,0,0,0,0,0,0,0,0,0,0,0,0,0,0,0,0,0,0,0,0,0,0,0,0,0,0,0,0,0,0,0,0,0,0,0,0,0,0,0,0,0,0,0,0,0],"id":14,"left_children":[1,3,5,7,9,11,13,15,17,19,-1,21,23,-1,-1,25,27,-1,29,31,-1,-1,33,35,37,39,41,43,45,-1,-1,47,-1,49,51,53,55,-1,57,-1,-1,-1,-1,-1,-1,-1,-1,-1,-1,-1,-1,-1,-1,-1,-1,-1,-1,-1,-1],"loss_changes":[2.4959898E0,1.8088905E0,7.658212E-1,1.9260693E0,4.155236E-1,1.7417455E-1,3.752756E-2,1.415755E0,3.1634188E-1,3.35455E-1,0E0,1.5823907E-1,2.7545774E-1,0E0,0E0,8.4458756E-1,4.6602187E-1,0E0,4.19411E-1,2.7800345E-1,0E0,0E0,2.0812619E-1,1.18792415E-1,2.7925354E-1,1.184343E0,7.014918E-2,5.556607E-1,5.6528354E-1,0E0,0E0,2.8602085E-1,0E0,2.2344272E-1,1.064989E-1,6.22437E-2,1.5453333E-1,0E0,4.3593537E-2,0E0,0E0,0E0,0E0,0E0,0E0,0E0,0E0,0E0,0E0,0E0,0E0,0E0,0E0,0E0,0E0,0E0,0E0,0E0,0E0],"parents":[2147483647,0,0,1,1,2,2,3,3,4,4,5,5,6,6,7,7,8,8,9,9,11,11,12,12,15,15,16,16,18,18,19,19,22,22,23,23,24,24,25,25,26,26,27,27,28,28,31,31,33,33,34,34,35,35,36,36,38,38],"right_children":[2,4,6,8,10,12,14,16,18,20,-1,22,24,-1,-1,26,28,-1,30,32,-1,-1,34,36,38,40,42,44,46,-1,-1,48,-1,50,52,54,56,-1,58,-1,-1,-1,-1,-1,-1,-1,-1,-1,-1,-1,-1,-1,-1,-1,-1,-1,-1,-1,-1],"split_conditions":[1E0,2.86E2,4E0,2.76E2,9.8078525E-1,9.659258E-1,-9.9785894E-1,2.69E2,2.2E1,9.9785894E-1,-1.02270916E-1,-9.9785894E-1,9.749279E-1,2.5936564E-2,1.23146795E-1,2.48E2,7.818315E-1,-1.4133811E-1,2E0,2E0,-9.551906E-2,9.291042E-2,-9.8078525E-1,9.8078525E-1,9.914449E-1,2.46E2,9.749279E-1,1.6E1,4.422887E-1,8.1728585E-2,-9.629006E-2,-2.5881904E-1,-8.936056E-2,2.89E2,-9.9785894E-1,4.3388373E-1,4.3388373E-1,-9.411817E-2,1E0,-4.3748982E-2,1.9270575E-1,-1.15522996E-1,-4.6401978E-2,-2.471812E-3,7.461451E-2,-1.0655405E-1,2.6763614E-2,-5.456311E-3,2.4801238E-2,7.036912E-3,-9.8878175E-2,-2.1502528E-2,1.75108E-2,1.05739444E-1,2.6380155E-2,1.4009515E-2,6.222138E-2,-8.176425E-3,4.633753E-2],"split_indices":[12,3,12,3,7,7,7,3,0,6,0,7,8,0,0,3,8,0,2,14,0,0,7,7,7,3,8,0,6,0,0,7,0,3,6,8,8,0,1,0,0,0,0,0,0,0,0,0,0,0,0,0,0,0,0,0,0,0,0],"split_type":[0,0,0,0,0,0,0,0,0,0,0,0,0,0,0,0,0,0,0,0,0,0,0,0,0,0,0,0,0,0,0,0,0,0,0,0,0,0,0,0,0,0,0,0,0,0,0,0,0,0,0,0,0,0,0,0,0,0,0],"sum_hessian":[4.9212408E2,2.2720024E2,2.6492383E2,1.0817553E2,1.1902471E2,2.5796255E2,6.961265E0,8.6734924E1,2.1440607E1,1.1683498E2,2.1897366E0,2.2162782E2,3.6334755E1,1.0366589E0,5.924606E0,3.9014557E1,4.7720367E1,1.8505873E1,2.9347327E0,1.1504812E2,1.7868541E0,1.3974801E0,2.2023033E2,3.0536842E1,5.7979097E0,1.6938692E1,2.2075865E1,3.774532E1,9.975048E0,1.1070951E0,1.8276374E0,1.1354916E2,1.4989599E0,6.1832523E0,2.1404709E2,6.0621476E0,2.4474695E1,1.7530469E0,4.0448627E0,1.5781109E1,1.1575826E0,1.862676E1,3.4491036E0,2.6441862E1,1.1303459E1,5.36552E0,4.609528E0,4.8347713E1,6.520145E1,4.2095346E0,1.9737177E0,5.679381E0,2.083677E2,3.9476087E0,2.1145391E0,1.3536002E1,1.0938693E1,1.7846822E0,2.2601807E0],"tree_param":{"num_deleted":"0","num_feature":"16","num_nodes":"59","size_leaf_vector":"1"}},{"base_weights":[5.2256407E-3,-6.2319465E-2,6.0998034E-2,-1.4749818E-1,1.1779512E-2,5.2864604E-2,2.988582E-1,-7.6346904E-2,-3.8949803E-1,2.0230414E-2,-9.893107E-2,9.603316E-2,5.0612E-2,3.3507314E-1,3.6604858E-3,-2.1411443E-1,3.8421422E-2,-4.2787892E-1,-1.14148244E-1,5.4363962E-2,-5.5405974E-2,5.5125497E-2,-1.2509018E-1,2.1133225E-2,1.0980692E-1,3.1907823E-2,-2.9819825E-1,-1.889306E-1,5.821451E-2,-1.445592E-1,-1.4036259E-1,7.184786E-2,-9.989979E-2,2.8859269E-2,4.0742153E-1,6.2224764E-2,-2.9743794E-1,-6.108169E-2,6.16734E-2,1.3911498E-2,-2.5759783E-1,6.2349036E-2,-1.2417311E-2,-5.614485E-3,-1.1232428E-1,-1.4098122E-2,-8.205569E-2,6.309204E-2,4.469723E-4,5.324528E-2,-9.739319E-2,-5.7971224E-2,1.95451E-2,2.1000001E-1,2.4358265E-2,4.7058523E-2,-8.236905E-2,-1.3133575E-1,2.4649698E-5,-4.5219548E-2,1.6788065E-2,4.0214572E-2,1.627299E-2,-9.500108E-2,-2.1564757E-2],"categories":[],"categories_nodes":[],"categories_segments":[],"categories_sizes":[],"default_left":[0,0,0,0,0,0,0,0,0,0,0,0,0,0,0,0,0,0,0,0,0,0,0,0,0,0,0,0,0,0,0,0,0,0,0,0,0,0,0,0,0,0,0,0,0,0,0,0,0,0,0,0,0,0,0,0,0,0,0,0,0,0,0,0,0],"id":15,"left_children":[1,3,5,7,9,11,13,15,17,19,-1,-1,21,23,-1,25,27,29,31,33,35,37,39,-1,-1,41,43,45,47,49,-1,-1,-1,51,53,55,57,59,61,-1,63,-1,-1,-1,-1,-1,-1,-1,-1,-1,-1,-1,-1,-1,-1,-1,-1,-1,-1,-1,-1,-1,-1,-1,-1],"loss_changes":[1.8682617E0,1.4176507E0,5.096295E-1,1.7685373E0,3.5562348E-1,1.4262289E-1,8.690244E-2,1.3040035E0,1.9935846E-1,3.1002796E-1,0E0,0E0,2.153126E-1,3.7641168E-2,0E0,7.8311646E-1,2.159997E-1,1.6181636E-1,4.0767235E-1,7.306261E-1,1.0853944E0,1.9926262E-1,1.6843992E-1,0E0,0E0,1.4308171E-1,5.887337E-1,3.3778086E-2,3.678328E-1,2.8681612E-1,0E0,0E0,0E0,6.41009E-1,5.3046525E-1,8.7317455E-1,5.190269E-1,1.5750605E-1,1.2378788E-1,0E0,2.1535248E-2,0E0,0E0,0E0,0E0,0E0,0E0,0E0,0E0,0E0,0E0,0E0,0E0,0E0,0E0,0E0,0E0,0E0,0E0,0E0,0E0,0E0,0E0,0E0,0E0],"parents":[2147483647,0,0,1,1,2,2,3,3,4,4,5,5,6,6,7,7,8,8,9,9,12,12,13,13,15,15,16,16,17,17,18,18,19,19,20,20,21,21,22,22,25,25,26,26,27,27,28,28,29,29,33,33,34,34,35,35,36,36,37,37,38,38,40,40],"right_children":[2,4,6,8,10,12,14,16,18,20,-1,-1,22,24,-1,26,28,30,32,34,36,38,40,-1,-1,42,44,46,48,50,-1,-1,-1,52,54,56,58,60,62,-1,64,-1,-1,-1,-1,-1,-1,-1,-1,-1,-1,-1,-1,-1,-1,-1,-1,-1,-1,-1,-1,-1,-1,-1,-1],"split_conditions":[1E0,2.86E2,4E0,2.74E2,9.8078525E-1,1.43E2,7E0,2.69E2,2.2E1,4.422887E-1,-9.893107E-2,9.603316E-2,2E0,-9.9785894E-1,3.6604858E-3,2.31E2,2E0,-9.659258E-1,2E0,3.2143947E-1,6.234898E-1,2.7E2,-9.914449E-1,2.1133225E-2,1.0980692E-1,-7.933533E-1,-9.238795E-1,1E0,1E0,2.77E2,-1.4036259E-1,7.184786E-2,-9.989979E-2,-7.818315E-1,6.234898E-1,3E0,8.9687276E-1,1E0,-9.8078525E-1,1.3911498E-2,-8.314696E-1,6.2349036E-2,-1.2417311E-2,-5.614485E-3,-1.1232428E-1,-1.4098122E-2,-8.205569E-2,6.309204E-2,4.469723E-4,5.324528E-2,-9.739319E-2,-5.7971224E-2,1.95451E-2,2.1000001E-1,2.4358265E-2,4.7058523E-2,-8.236905E-2,-1.3133575E-1,2.4649698E-5,-4.5219548E-2,1.6788065E-2,4.0214572E-2,1.627299E-2,-9.500108E-2,-2.1564757E-2],"split_indices":[12,3,12,3,7,3,12,3,0,6,0,0,14,7,0,3,0,6,2,6,9,3,6,0,0,7,7,14,2,3,0,0,0,8,9,1,6,13,6,0,6,0,0,0,0,0,0,0,0,0,0,0,0,0,0,0,0,0,0,0,0,0,0,0,0],"split_type":[0,0,0,0,0,0,0,0,0,0,0,0,0,0,0,0,0,0,0,0,0,0,0,0,0,0,0,0,0,0,0,0,0,0,0,0,0,0,0,0,0,0,0,0,0,0,0,0,0,0,0,0,0,0,0,0,0,0,0,0,0,0,0,0,0],"sum_hessian":[4.9392572E2,2.2333305E2,2.7059268E2,1.0343791E2,1.19895134E2,2.6282776E2,7.764926E0,8.095232E1,2.2485601E1,1.17918274E2,1.9768614E0,1.017406E0,2.6181033E2,6.7440157E0,1.0209103E0,3.6396477E1,4.4555836E1,1.9248602E1,3.2369993E0,8.144475E1,3.6473526E1,2.5592238E2,5.887969E0,1.0491972E0,5.6948185E0,9.428882E0,2.6967598E1,2.8839738E0,4.167186E1,2.9520035E0,1.6296598E1,1.2013768E0,2.0356224E0,7.696648E1,4.4782763E0,2.5044481E1,1.1429043E1,1.3206952E1,2.4271542E2,2.8500788E0,3.0378904E0,2.2333376E0,7.195544E0,6.0452576E0,2.092234E1,1.6577964E0,1.2261776E0,1.0584574E1,3.1087288E1,1.0638943E0,1.8881093E0,1.0202687E1,6.676379E1,1.5886513E0,2.8896248E0,1.9967802E1,5.0766788E0,7.4454045E0,3.983638E0,7.3156033E0,5.8913493E0,2.1010914E1,2.2170451E2,1.7698103E0,1.2680801E0],"tree_param":{"num_deleted":"0","num_feature":"16","num_nodes":"65","size_leaf_vector":"1"}},{"base_weights":[3.620652E-3,-5.5776365E-2,5.1081076E-2,-1.3369064E-1,9.0865735E-3,4.4192567E-2,2.410341E-1,-7.3850535E-2,-4.0595764E-1,1.6648116E-2,-9.5591776E-2,3.510572E-2,9.624972E-2,2.6763517E-1,3.37824E-3,-1.9644228E-1,1.5001794E-2,-1.3910095E-1,-6.937264E-2,3.086558E-2,-1.5636863E-1,7.8337386E-2,3.24256E-2,1.2646043E-1,-6.5863825E-2,1.9293133E-2,8.6553946E-2,-3.424042E-2,-3.2943115E-1,5.544789E-2,-1.4191175E-1,6.3221395E-2,-8.94343E-2,1.7433185E-2,2.8628927E-1,1.666568E-1,-1.2193305E-1,-7.118112E-2,3.929837E-2,2.2428013E-1,9.373666E-2,-9.137467E-2,6.70874E-2,-3.6399588E-2,1.7347781E-1,-7.03056E-2,-1.3028283E-1,-1.9980077E-2,4.030287E-2,-1.0190782E-1,2.5024667E-2,1.1849894E-2,-4.0470686E-2,-9.510712E-2,1.9676366E-1,-1.4791162E-2,1.0801539E-1,-4.7785204E-2,2.211713E-2,2.5961963E-2,8.798935E-3,8.182351E-2,2.1501094E-2,1.4120071E-2,5.7845753E-2,-8.912611E-3,3.8095027E-2],"categories":[],"categories_nodes":[],"categories_segments":[],"categories_sizes":[],"default_left":[0,0,0,0,0,0,0,0,0,0,0,0,0,0,0,0,0,0,0,0,0,0,0,0,0,0,0,0,0,0,0,0,0,0,0,0,0,0,0,0,0,0,0,0,0,0,0,0,0,0,0,0,0,0,0,0,0,0,0,0,0,0,0,0,0,0,0],"id":16,"left_children":[1,3,5,7,9,11,13,15,17,19,-1,21,23,25,-1,27,29,-1,31,33,35,-1,37,39,41,-1,-1,43,45,47,49,-1,-1,51,53,55,-1,57,59,61,63,-1,65,-1,-1,-1,-1,-1,-1,-1,-1,-1,-1,-1,-1,-1,-1,-1,-1,-1,-1,-1,-1,-1,-1,-1,-1],"loss_changes":[1.4025252E0,1.1181096E0,3.5116035E-1,1.6068318E0,3.0649203E-1,1.23422325E-1,5.4758966E-2,9.133979E-1,3.151455E-1,2.9939038E-1,0E0,1.3073301E-1,2.0062268E-1,1.7219901E-2,0E0,7.479042E-1,3.2132453E-1,0E0,3.0584797E-1,3.7752753E-1,8.155893E-1,0E0,1.6532205E-1,8.601272E-2,2.3704699E-1,0E0,0E0,9.7549784E-1,8.9850664E-2,3.9398444E-1,4.9193862E-1,0E0,0E0,3.649595E-1,1.4355055E0,2.1609248E-1,0E0,1.9755295E-1,9.856591E-2,3.7136674E-2,1.14732E-1,0E0,3.3938803E-2,0E0,0E0,0E0,0E0,0E0,0E0,0E0,0E0,0E0,0E0,0E0,0E0,0E0,0E0,0E0,0E0,0E0,0E0,0E0,0E0,0E0,0E0,0E0,0E0],"parents":[2147483647,0,0,1,1,2,2,3,3,4,4,5,5,6,6,7,7,8,8,9,9,11,11,12,12,13,13,15,15,16,16,18,18,19,19,20,20,22,22,23,23,24,24,27,27,28,28,29,29,30,30,33,33,34,34,35,35,37,37,38,38,39,39,40,40,42,42],"right_children":[2,4,6,8,10,12,14,16,18,20,-1,22,24,26,-1,28,30,-1,32,34,36,-1,38,40,42,-1,-1,44,46,48,50,-1,-1,52,54,56,-1,58,60,62,64,-1,66,-1,-1,-1,-1,-1,-1,-1,-1,-1,-1,-1,-1,-1,-1,-1,-1,-1,-1,-1,-1,-1,-1,-1,-1],"split_conditions":[1E0,2.86E2,4E0,2.76E2,9.8078525E-1,9.659258E-1,7E0,2.69E2,2.2E1,9.469301E-1,-9.5591776E-2,-9.9785894E-1,9.749279E-1,-9.9785894E-1,3.37824E-3,2.48E2,7.818315E-1,-1.3910095E-1,2E0,8.9687276E-1,-2.2252093E-1,7.8337386E-2,-9.469301E-1,9.8078525E-1,9.914449E-1,1.9293133E-2,8.6553946E-2,2.46E2,4E0,1E1,4.422887E-1,6.3221395E-2,-8.94343E-2,6.593458E-1,4E0,1.3052619E-1,-1.2193305E-1,5E0,-6.593458E-1,4.3388373E-1,7.818315E-1,-9.137467E-2,1E0,-3.6399588E-2,1.7347781E-1,-7.03056E-2,-1.3028283E-1,-1.9980077E-2,4.030287E-2,-1.0190782E-1,2.5024667E-2,1.1849894E-2,-4.0470686E-2,-9.510712E-2,1.9676366E-1,-1.4791162E-2,1.0801539E-1,-4.7785204E-2,2.211713E-2,2.5961963E-2,8.798935E-3,8.182351E-2,2.1501094E-2,1.4120071E-2,5.7845753E-2,-8.912611E-3,3.8095027E-2],"split_indices":[12,3,12,3,7,7,12,3,0,6,0,7,8,7,0,3,8,0,2,6,9,0,7,7,7,0,0,3,2,0,6,0,0,6,2,7,0,2,7,8,8,0,1,0,0,0,0,0,0,0,0,0,0,0,0,0,0,0,0,0,0,0,0,0,0,0,0],"split_type":[0,0,0,0,0,0,0,0,0,0,0,0,0,0,0,0,0,0,0,0,0,0,0,0,0,0,0,0,0,0,0,0,0,0,0,0,0,0,0,0,0,0,0,0,0,0,0,0,0,0,0,0,0,0,0,0,0,0,0,0,0,0,0,0,0,0,0],"sum_hessian":[4.9551376E2,2.2000319E2,2.755106E2,9.9464226E1,1.20538956E2,2.6705856E2,8.452033E0,8.258464E1,1.6879591E1,1.1874831E2,1.7906511E0,2.2879547E2,3.826308E1,7.427379E0,1.024654E0,3.4194607E1,4.839003E1,1.4086667E1,2.792925E0,1.1049048E2,8.257833E0,1.5511825E0,2.272443E2,3.2438015E1,5.825067E0,1.0716062E0,6.355773E0,1.5971813E1,1.8222795E1,3.8987286E1,9.402744E0,1.2908697E0,1.502055E0,1.0598511E2,4.505365E0,3.7488976E0,4.5089345E0,1.3554451E1,2.1368983E2,6.6639686E0,2.5774046E1,1.621921E0,4.203146E0,1.4685574E1,1.2862395E0,1.1253097E1,6.969698E0,1.5368508E1,2.3618776E1,4.7371554E0,4.6655893E0,9.3222176E1,1.2762934E1,1.7655435E0,2.7398217E0,2.1231115E0,1.6257861E0,8.367648E0,5.1868033E0,3.5896015E1,1.7779382E2,4.4602914E0,2.2036774E0,1.8523941E1,7.250105E0,1.7993187E0,2.4038274E0],"tree_param":{"num_deleted":"0","num_feature":"16","num_nodes":"67","size_leaf_vector":"1"}},{"base_weights":[2.5189843E-3,-4.985472E-2,4.3222513E-2,-1.2081027E-1,6.956709E-3,3.736725E-2,1.9707716E-1,-6.575793E-2,-3.953494E-1,1.3761468E-2,-9.227496E-2,8.471192E-2,3.5327267E-2,2.1719733E-1,3.1177707E-3,-1.7934632E-1,1.1641177E-2,-1.377384E-1,-6.432886E-2,2.0216882E-2,-8.948638E-2,3.9223373E-2,-1.2095055E-1,3.3213083E-2,8.025584E-2,-2.6448695E-2,-3.1409597E-1,4.6386477E-2,-1.29901E-1,5.5694748E-2,-8.621075E-2,-5.6242164E-2,4.5122474E-2,8.801881E-2,3.6725953E-2,1.118806E-2,-2.4860738E-1,8.776923E-2,-4.8877187E-2,-3.4445763E-2,-1.0628369E-1,-4.277701E-3,4.9357414E-2,-9.7815E-2,2.1467898E-2,1.2737923E-2,-1.2581295E-1,-2.4604067E-2,2.5281861E-2,-2.9485509E-2,1.2422792E-2,-9.201089E-2,-2.185198E-2],"categories":[],"categories_nodes":[],"categories_segments":[],"categories_sizes":[],"default_left":[0,0,0,0,0,0,0,0,0,0,0,0,0,0,0,0,0,0,0,0,0,0,0,0,0,0,0,0,0,0,0,0,0,0,0,0,0,0,0,0,0,0,0,0,0,0,0,0,0,0,0,0,0],"id":17,"left_children":[1,3,5,7,9,11,13,15,17,19,-1,-1,21,23,-1,25,27,-1,29,31,-1,33,35,-1,-1,37,39,41,43,-1,-1,45,47,-1,49,-1,51,-1,-1,-1,-1,-1,-1,-1,-1,-1,-1,-1,-1,-1,-1,-1,-1],"loss_changes":[1.0629565E0,8.799144E-1,2.453593E-1,1.4403745E0,2.6547125E-1,1.2571478E-1,3.549555E-2,7.2313064E-1,3.0838466E-1,2.4861678E-1,0E0,0E0,1.6937542E-1,1.8733382E-2,0E0,6.777276E-1,2.505283E-1,0E0,2.6235744E-1,2.2899476E-1,0E0,1.5716383E-1,1.470784E-1,0E0,0E0,7.7432734E-1,1.0031402E-1,2.9361796E-1,4.209452E-1,0E0,0E0,1.0810426E0,4.561584E-1,0E0,1.7045018E-1,0E0,1.754792E-2,0E0,0E0,0E0,0E0,0E0,0E0,0E0,0E0,0E0,0E0,0E0,0E0,0E0,0E0,0E0,0E0],"parents":[2147483647,0,0,1,1,2,2,3,3,4,4,5,5,6,6,7,7,8,8,9,9,12,12,13,13,15,15,16,16,18,18,19,19,21,21,22,22,25,25,26,26,27,27,28,28,31,31,32,32,34,34,36,36],"right_children":[2,4,6,8,10,12,14,16,18,20,-1,-1,22,24,-1,26,28,-1,30,32,-1,34,36,-1,-1,38,40,42,44,-1,-1,46,48,-1,50,-1,52,-1,-1,-1,-1,-1,-1,-1,-1,-1,-1,-1,-1,-1,-1,-1,-1],"split_conditions":[1E0,2.86E2,4E0,2.76E2,9.8078525E-1,1.42E2,7E0,2.69E2,2.2E1,9.9785894E-1,-9.227496E-2,8.471192E-2,2E0,1.3052619E-1,3.1177707E-3,2.48E2,7.818315E-1,-1.377384E-1,2E0,1E0,-8.948638E-2,-9.9785894E-1,-9.914449E-1,3.3213083E-2,8.025584E-2,-7.933533E-1,-7.0710677E-1,1.6E1,4.422887E-1,5.5694748E-2,-8.621075E-2,5E0,2E0,8.801881E-2,2.69E2,1.118806E-2,-8.314696E-1,8.776923E-2,-4.8877187E-2,-3.4445763E-2,-1.0628369E-1,-4.277701E-3,4.9357414E-2,-9.7815E-2,2.1467898E-2,1.2737923E-2,-1.2581295E-1,-2.4604067E-2,2.5281861E-2,-2.9485509E-2,1.2422792E-2,-9.201089E-2,-2.185198E-2],"split_indices":[12,3,12,3,7,3,12,3,0,6,0,0,14,6,0,3,8,0,2,1,0,7,6,0,0,7,6,0,6,0,0,2,2,0,3,0,6,0,0,0,0,0,0,0,0,0,0,0,0,0,0,0,0],"split_type":[0,0,0,0,0,0,0,0,0,0,0,0,0,0,0,0,0,0,0,0,0,0,0,0,0,0,0,0,0,0,0,0,0,0,0,0,0,0,0,0,0,0,0,0,0,0,0,0,0,0,0,0,0],"sum_hessian":[4.966097E2,2.1707367E2,2.7953604E2,9.602064E1,1.2105304E2,2.7048505E2,9.0510025E0,8.1014595E1,1.5006042E1,1.1942564E2,1.6274064E0,1.0987908E0,2.6938626E2,8.0228815E0,1.0281212E0,3.2297977E1,4.8716618E1,1.2257374E1,2.7486672E0,1.1792139E2,1.5042453E0,2.6356445E2,5.821811E0,3.6015806E0,4.421301E0,1.5690535E1,1.6607443E1,3.9654613E1,9.062003E0,1.3751154E0,1.3735518E0,2.8664488E1,8.92569E1,1.4311463E0,2.621333E2,2.915546E0,2.9062653E0,4.358579E0,1.1331955E1,3.434141E0,1.3173302E1,2.6784348E1,1.2870267E1,4.278186E0,4.7838173E0,2.3232767E1,5.4317193E0,2.0756834E1,6.850007E1,8.118159E0,2.5401514E2,1.6244178E0,1.2818475E0],"tree_param":{"num_deleted":"0","num_feature":"16","num_nodes":"53","size_leaf_vector":"1"}},{"base_weights":[1.3157313E-3,-4.50463E-2,3.652424E-2,-1.0900495E-1,4.359097E-3,3.1472705E-2,1.6456236E-1,-5.2148014E-2,-3.5348657E-1,1.0492497E-2,-8.90005E-2,7.437474E-2,2.961859E-2,1.8035337E-1,2.8773907E-3,-1.4669305E-1,4.5968197E-2,-1.3463247E-1,-1.8945698E-1,1.6313221E-2,-8.626179E-2,3.3075072E-2,-1.1321215E-1,2.85215E-2,6.56304E-2,2.785271E-1,-2.3692381E-1,-4.2489313E-2,2.6405293E-1,5.4524887E-2,-2.6957285E-1,2.2215039E-2,-8.593404E-2,7.5842045E-2,3.0834299E-2,9.857434E-3,-2.3728961E-1,-8.8385835E-2,2.1000001E-1,1.1531095E-2,-9.5713384E-2,-6.976381E-2,6.1424174E-3,-1.3511848E-2,1.179399E-1,2.1025406E-2,-1.2075188E-1,-8.11915E-3,1.7312644E-2,-8.646384E-3,1.2246198E-2,-8.873312E-2,-2.0289423E-2],"categories":[],"categories_nodes":[],"categories_segments":[],"categories_sizes":[],"default_left":[0,0,0,0,0,0,0,0,0,0,0,0,0,0,0,0,0,0,0,0,0,0,0,0,0,0,0,0,0,0,0,0,0,0,0,0,0,0,0,0,0,0,0,0,0,0,0,0,0,0,0,0,0],"id":18,"left_children":[1,3,5,7,9,11,13,15,17,19,-1,-1,21,23,-1,25,27,-1,29,31,-1,33,35,-1,-1,37,39,41,43,-1,45,47,-1,-1,49,-1,51,-1,-1,-1,-1,-1,-1,-1,-1,-1,-1,-1,-1,-1,-1,-1,-1],"loss_changes":[8.158756E-1,6.822286E-1,1.785483E-1,1.2891217E0,2.2963047E-1,1.0282299E-1,2.4076134E-2,7.2557294E-1,1.8968081E-1,2.149471E-1,0E0,0E0,1.3868028E-1,1.0369748E-2,0E0,1.5892677E0,7.5949347E-1,0E0,2.9252562E-1,2.2047353E-1,0E0,1.2398031E-1,1.2893991E-1,0E0,0E0,4.042646E0,7.650968E-1,3.452955E-1,4.6980977E-1,0E0,3.5049736E-1,2.0876528E-1,0E0,0E0,1.5968728E-1,0E0,1.7065704E-2,0E0,0E0,0E0,0E0,0E0,0E0,0E0,0E0,0E0,0E0,0E0,0E0,0E0,0E0,0E0,0E0],"parents":[2147483647,0,0,1,1,2,2,3,3,4,4,5,5,6,6,7,7,8,8,9,9,12,12,13,13,15,15,16,16,18,18,19,19,21,21,22,22,25,25,26,26,27,27,28,28,30,30,31,31,34,34,36,36],"right_children":[2,4,6,8,10,12,14,16,18,20,-1,-1,22,24,-1,26,28,-1,30,32,-1,34,36,-1,-1,38,40,42,44,-1,46,48,-1,-1,50,-1,52,-1,-1,-1,-1,-1,-1,-1,-1,-1,-1,-1,-1,-1,-1,-1,-1],"split_conditions":[1E0,2.86E2,4E0,2.74E2,9.8078525E-1,1.42E2,7E0,2.7E2,1.7E1,9.9785894E-1,-8.90005E-2,7.437474E-2,2E0,1.3052619E-1,2.8773907E-3,-9.469301E-1,5.5557024E-1,-1.3463247E-1,1.8E1,2E0,-8.626179E-2,-9.9785894E-1,-9.914449E-1,2.85215E-2,6.56304E-2,1.9509032E-1,2.31E2,2.71E2,3E0,5.4524887E-2,2E0,-2.5881904E-1,-8.593404E-2,7.5842045E-2,-7.933533E-1,9.857434E-3,-8.314696E-1,-8.8385835E-2,2.1000001E-1,1.1531095E-2,-9.5713384E-2,-6.976381E-2,6.1424174E-3,-1.3511848E-2,1.179399E-1,2.1025406E-2,-1.2075188E-1,-8.11915E-3,1.7312644E-2,-8.646384E-3,1.2246198E-2,-8.873312E-2,-2.0289423E-2],"split_indices":[12,3,12,3,7,3,12,3,0,6,0,0,14,6,0,7,7,0,0,14,0,7,6,0,0,6,3,3,0,0,2,7,0,0,7,0,6,0,0,0,0,0,0,0,0,0,0,0,0,0,0,0,0],"split_type":[0,0,0,0,0,0,0,0,0,0,0,0,0,0,0,0,0,0,0,0,0,0,0,0,0,0,0,0,0,0,0,0,0,0,0,0,0,0,0,0,0,0,0,0,0,0,0,0,0,0,0,0,0],"sum_hessian":[4.9781226E2,2.1475142E2,2.8306085E2,9.306548E1,1.21685936E2,2.7351553E2,9.545304E0,7.649014E1,1.6575338E1,1.2020198E2,1.4839576E0,1.1959276E0,2.723196E2,8.513972E0,1.0313318E0,3.8701847E1,3.7788296E1,9.386551E0,7.188788E0,1.188265E2,1.375483E0,2.666355E2,5.6841125E0,3.7232094E0,4.790763E0,6.4095345E0,3.2292313E1,2.7456726E1,1.0331573E1,1.0509167E0,6.1378713E0,1.1746336E2,1.3631334E0,1.5628241E0,2.650727E2,2.9483483E0,2.735764E0,4.912323E0,1.4972112E0,7.5403986E0,2.4751913E1,6.162357E0,2.1294369E1,3.2353482E0,7.096224E0,1.859487E0,4.278384E0,4.9280613E1,6.818275E1,3.773985E1,2.2733282E2,1.4816238E0,1.2541403E0],"tree_param":{"num_deleted":"0","num_feature":"16","num_nodes":"53","size_leaf_vector":"1"}},{"base_weights":[1.1180174E-3,-3.90934E-2,3.0942705E-2,-9.514671E-2,2.569289E-3,3.279034E-2,-7.455935E-2,-4.7299E-2,-3.7357894E-1,8.134351E-3,-8.578584E-2,2.847375E-2,1.3833195E-1,-1.4630997E-1,1.3993555E-2,-1.3488361E-1,-4.6669856E-2,1.9472582E-2,-1.3933459E-1,-9.0021566E-2,3.1430837E-2,1.5536273E-1,-4.3005543E-3,8.791881E-2,-2.3105675E-1,5.438653E-2,-1.0661739E-1,-8.063112E-2,5.1752813E-2,8.471086E-3,2.1366315E-1,1.4378457E-1,-1.18559346E-1,-8.333284E-2,5.2760816E-3,1.0895135E-1,2.4383286E-2,2.2865143E-2,5.7046924E-2,1.7321298E-1,-4.9929503E-2,1.4058008E-3,-9.97743E-2,4.028573E-2,-2.3232538E-2,-7.084122E-2,2.231204E-2,7.9895565E-3,-3.706499E-2,-9.202059E-2,1.4141455E-1,-1.0597759E-2,8.451662E-2,9.61426E-3,-3.318139E-3,4.6469763E-2,-9.094511E-2,-1.2826205E-2,1.0147795E-2],"categories":[],"categories_nodes":[],"categories_segments":[],"categories_sizes":[],"default_left":[0,0,0,0,0,0,0,0,0,0,0,0,0,0,0,0,0,0,0,0,0,0,0,0,0,0,0,0,0,0,0,0,0,0,0,0,0,0,0,0,0,0,0,0,0,0,0,0,0,0,0,0,0,0,0,0,0,0,0],"id":19,"left_children":[1,3,5,7,9,11,-1,13,15,17,-1,19,21,23,25,-1,27,29,31,33,35,37,-1,39,41,43,45,-1,-1,47,49,51,-1,-1,53,55,57,-1,-1,-1,-1,-1,-1,-1,-1,-1,-1,-1,-1,-1,-1,-1,-1,-1,-1,-1,-1,-1,-1],"loss_changes":[5.996694E-1,4.9753934E-1,1.5638053E-1,1.1922415E0,2.0002227E-1,1.2638637E-1,0E0,4.7931552E-1,3.0644798E-1,2.0631427E-1,0E0,9.956944E-2,3.0778095E-2,6.189441E-1,2.4689378E-1,0E0,2.2168738E-1,2.4163532E-1,6.954822E-1,1.2636986E-1,1.4490855E-1,1.2943745E-2,0E0,1.183763E0,5.3816724E-1,4.0785325E-1,3.165251E-1,0E0,0E0,2.643499E-1,9.584497E-1,1.3146913E-1,0E0,0E0,2.8088274E-3,4.6771502E-1,1.5922661E-1,0E0,0E0,0E0,0E0,0E0,0E0,0E0,0E0,0E0,0E0,0E0,0E0,0E0,0E0,0E0,0E0,0E0,0E0,0E0,0E0,0E0,0E0],"parents":[2147483647,0,0,1,1,2,2,3,3,4,4,5,5,7,7,8,8,9,9,11,11,12,12,13,13,14,14,16,16,17,17,18,18,19,19,20,20,21,21,23,23,24,24,25,25,26,26,29,29,30,30,31,31,34,34,35,35,36,36],"right_children":[2,4,6,8,10,12,-1,14,16,18,-1,20,22,24,26,-1,28,30,32,34,36,38,-1,40,42,44,46,-1,-1,48,50,52,-1,-1,54,56,58,-1,-1,-1,-1,-1,-1,-1,-1,-1,-1,-1,-1,-1,-1,-1,-1,-1,-1,-1,-1,-1,-1],"split_conditions":[1E0,2.86E2,2.92E2,2.76E2,9.8078525E-1,4E0,-7.455935E-2,2.69E2,2.2E1,9.469301E-1,-8.578584E-2,-9.9785894E-1,4.3388373E-1,1E0,3E0,-1.3488361E-1,2E0,8.9687276E-1,-2.2252093E-1,6.234898E-1,-9.8078525E-1,1.3052619E-1,-4.3005543E-3,-9.469301E-1,2.31E2,1E0,3.8268343E-1,-8.063112E-2,5.1752813E-2,6.593458E-1,4E0,1.3052619E-1,-1.18559346E-1,-8.333284E-2,2.73E2,2.89E2,1E0,2.2865143E-2,5.7046924E-2,1.7321298E-1,-4.9929503E-2,1.4058008E-3,-9.97743E-2,4.028573E-2,-2.3232538E-2,-7.084122E-2,2.231204E-2,7.9895565E-3,-3.706499E-2,-9.202059E-2,1.4141455E-1,-1.0597759E-2,8.451662E-2,9.61426E-3,-3.318139E-3,4.6469763E-2,-9.094511E-2,-1.2826205E-2,1.0147795E-2],"split_indices":[12,3,3,3,7,12,0,3,0,6,0,6,8,1,1,0,1,6,9,9,6,6,0,7,3,14,7,0,0,6,2,7,0,0,3,3,2,0,0,0,0,0,0,0,0,0,0,0,0,0,0,0,0,0,0,0,0,0,0],"split_type":[0,0,0,0,0,0,0,0,0,0,0,0,0,0,0,0,0,0,0,0,0,0,0,0,0,0,0,0,0,0,0,0,0,0,0,0,0,0,0,0,0,0,0,0,0,0,0,0,0,0,0,0,0,0,0,0,0,0,0],"sum_hessian":[4.9801044E2,2.1194405E2,2.8606638E2,8.981821E1,1.2212585E2,2.8506445E2,1.0019231E0,7.764503E1,1.217318E1,1.2076826E2,1.3575914E0,2.750835E2,9.980964E0,2.9157465E1,4.848756E1,9.571646E0,2.6015334E0,1.1295184E2,7.8164105E0,5.9807925E0,2.691027E2,8.963395E0,1.0175682E0,7.7367344E0,2.142073E1,3.6734226E1,1.1753331E1,1.1797752E0,1.4217582E0,1.0788353E2,5.0683136E0,3.9185152E0,3.8978956E0,1.3689241E0,4.6118684E0,2.1220913E1,2.4788177E2,3.7114537E0,5.251941E0,2.2113442E0,5.52539E0,6.7352023E0,1.4685529E1,2.2860294E1,1.3873934E1,6.673193E0,5.080138E0,9.553944E1,1.2344096E1,1.6156723E0,3.4526415E0,2.0284688E0,1.8900464E0,1.3832934E0,3.228575E0,1.9653719E1,1.5671954E0,3.0130074E1,2.1775171E2],"tree_param":{"num_deleted":"0","num_feature":"16","num_nodes":"59","size_leaf_vector":"1"}},{"base_weights":[1.5845172E-4,-3.5012588E-2,2.5762996E-2,-1.0151822E-1,-5.7037207E-3,2.1977266E-2,1.16566874E-1,-2.0196933E-1,6.15231E-2,-4.346961E-2,2.123484E-1,3.9598394E-2,4.509646E-3,1.3055275E-1,-3.98675E-3,-2.5830352E-1,9.2311926E-2,-1.9856511E-1,1.7187722E-1,1.07573226E-1,-7.443163E-2,5.4043263E-1,-1.9450167E-1,5.824917E-2,-5.906279E-2,2.4759702E-2,-7.559717E-2,1.9790305E-2,4.7364328E-2,-5.3593405E-2,-3.0827066E-1,-7.836153E-2,2.590448E-1,-2.828097E-1,3.092429E-2,-2.1985741E-2,3.128582E-1,-2.355707E-1,2.7809632E-1,-1.7817618E-1,-1.1756276E-2,2.1000001E-1,2.5449288E-1,1.3706015E-1,-3.2977268E-1,-8.370582E-2,6.647414E-2,1.3946206E-3,-2.8731143E-1,-2.159571E-2,5.3230684E-2,-1.9845794E-1,2.3529937E-2,-8.472364E-2,2.3369636E-2,-5.871818E-2,-1.35593E-1,1.3627611E-1,1.9161059E-2,1.1595631E-2,-1.1872416E-1,3.773629E-2,-1.0021383E-1,1.22821406E-1,1.6697653E-2,-2.7754543E-2,-1.0947062E-1,-1.7001199E-2,1.17626436E-1,-6.764758E-2,-8.6805895E-3,-1.1326139E-2,6.450912E-2,-2.8712437E-2,1.513558E-1,-4.5901667E-2,9.580023E-2,-1.217597E-1,-3.1141499E-2,-8.0153E-2,1.5112665E-3,-6.918237E-3,2.261306E-2,2.1479776E-2,-1.025118E-1,-2.0156186E-2,-1.0177825E-1,-2.249129E-2,3.4113184E-2,2.126927E-2,-1.0245059E-1,-1.0555371E-1,-1.6913781E-2,-2.302926E-2,3.7881944E-2],"categories":[],"categories_nodes":[],"categories_segments":[],"categories_sizes":[],"default_left":[0,0,0,0,0,0,0,0,0,0,0,0,0,0,0,0,0,0,0,0,0,0,0,0,0,0,0,0,0,0,0,0,0,0,0,0,0,0,0,0,0,0,0,0,0,0,0,0,0,0,0,0,0,0,0,0,0,0,0,0,0,0,0,0,0,0,0,0,0,0,0,0,0,0,0,0,0,0,0,0,0,0,0,0,0,0,0,0,0,0,0,0,0,0,0],"id":20,"left_children":[1,3,5,7,9,11,13,15,17,19,21,23,25,27,-1,29,31,33,35,37,39,41,43,45,47,49,51,-1,-1,53,55,-1,57,59,-1,61,63,65,67,69,71,-1,73,75,77,79,81,83,85,87,89,91,93,-1,-1,-1,-1,-1,-1,-1,-1,-1,-1,-1,-1,-1,-1,-1,-1,-1,-1,-1,-1,-1,-1,-1,-1,-1,-1,-1,-1,-1,-1,-1,-1,-1,-1,-1,-1,-1,-1,-1,-1,-1,-1],"loss_changes":[4.5114824E-1,4.1082275E-1,9.7098395E-2,1.068826E0,1.2243688E0,8.586432E-2,2.238597E-2,6.893829E-1,7.619128E-1,6.000877E-1,3.035526E0,2.5927252E-1,2.3142654E-1,7.866055E-3,0E0,3.3083463E-1,4.912871E-1,2.3289865E-1,5.081023E-1,1.3496928E0,6.849215E-1,1.0606921E0,5.177363E-1,1.4267358E-1,3.122697E-1,1.5122248E-1,3.554309E-1,0E0,0E0,2.5888306E-1,3.495958E-1,0E0,1.7618302E-1,2.5253087E-1,0E0,4.4117025E-1,2.424978E-1,1.11053735E-1,5.991919E-1,2.739662E-1,4.027728E-1,0E0,8.718734E-1,2.4761887E-1,9.158254E-2,1.132673E-1,9.066063E-2,4.7881868E-1,3.138104E-2,3.2613036E-1,5.1748055E-1,2.627511E-1,1.8316056E-1,0E0,0E0,0E0,0E0,0E0,0E0,0E0,0E0,0E0,0E0,0E0,0E0,0E0,0E0,0E0,0E0,0E0,0E0,0E0,0E0,0E0,0E0,0E0,0E0,0E0,0E0,0E0,0E0,0E0,0E0,0E0,0E0,0E0,0E0,0E0,0E0,0E0,0E0,0E0,0E0,0E0,0E0],"parents":[2147483647,0,0,1,1,2,2,3,3,4,4,5,5,6,6,7,7,8,8,9,9,10,10,11,11,12,12,13,13,15,15,16,16,17,17,18,18,19,19,20,20,21,21,22,22,23,23,24,24,25,25,26,26,29,29,30,30,32,32,33,33,35,35,36,36,37,37,38,38,39,39,40,40,42,42,43,43,44,44,45,45,46,46,47,47,48,48,49,49,50,50,51,51,52,52],"right_children":[2,4,6,8,10,12,14,16,18,20,22,24,26,28,-1,30,32,34,36,38,40,42,44,46,48,50,52,-1,-1,54,56,-1,58,60,-1,62,64,66,68,70,72,-1,74,76,78,80,82,84,86,88,90,92,94,-1,-1,-1,-1,-1,-1,-1,-1,-1,-1,-1,-1,-1,-1,-1,-1,-1,-1,-1,-1,-1,-1,-1,-1,-1,-1,-1,-1,-1,-1,-1,-1,-1,-1,-1,-1,-1,-1,-1,-1,-1,-1],"split_conditions":[1E0,9E0,4E0,2.89E2,2.5881904E-1,2E0,4.3388373E-1,1E0,1.3052619E-1,1E0,6.234898E-1,7.518398E-1,2E1,1.3052619E-1,-3.98675E-3,4.422887E-1,6.087614E-1,6E0,3E0,1.6E1,2.86E2,4.422887E-1,2.72E2,-9.9785894E-1,1E0,-1.3052619E-1,1E0,1.9790305E-2,4.7364328E-2,1E0,2.74E2,-7.836153E-2,4E0,1E0,3.092429E-2,2E0,9.469301E-1,2.73E2,-9.469301E-1,1E0,0E0,2.1000001E-1,-2.2252093E-1,2.65E2,4.3388373E-1,6.234898E-1,2.71E2,8E0,1E0,5E0,2.91E2,-5.5557024E-1,3E0,-8.472364E-2,2.3369636E-2,-5.871818E-2,-1.35593E-1,1.3627611E-1,1.9161059E-2,1.1595631E-2,-1.1872416E-1,3.773629E-2,-1.0021383E-1,1.22821406E-1,1.6697653E-2,-2.7754543E-2,-1.0947062E-1,-1.7001199E-2,1.17626436E-1,-6.764758E-2,-8.6805895E-3,-1.1326139E-2,6.450912E-2,-2.8712437E-2,1.513558E-1,-4.5901667E-2,9.580023E-2,-1.217597E-1,-3.1141499E-2,-8.0153E-2,1.5112665E-3,-6.918237E-3,2.261306E-2,2.1479776E-2,-1.025118E-1,-2.0156186E-2,-1.0177825E-1,-2.249129E-2,3.4113184E-2,2.126927E-2,-1.0245059E-1,-1.0555371E-1,-1.6913781E-2,-2.302926E-2,3.7881944E-2],"split_indices":[12,0,12,3,6,1,8,14,7,2,9,6,0,6,0,6,6,2,0,0,3,6,3,6,14,7,13,0,0,0,3,0,0,1,0,1,6,3,6,13,6,0,9,3,8,9,3,0,1,2,3,6,1,0,0,0,0,0,0,0,0,0,0,0,0,0,0,0,0,0,0,0,0,0,0,0,0,0,0,0,0,0,0,0,0,0,0,0,0,0,0,0,0,0,0],"split_type":[0,0,0,0,0,0,0,0,0,0,0,0,0,0,0,0,0,0,0,0,0,0,0,0,0,0,0,0,0,0,0,0,0,0,0,0,0,0,0,0,0,0,0,0,0,0,0,0,0,0,0,0,0,0,0,0,0,0,0,0,0,0,0,0,0,0,0,0,0,0,0,0,0,0,0,0,0,0,0,0,0,0,0,0,0,0,0,0,0,0,0,0,0,0,0],"sum_hessian":[4.9897437E2,2.1006139E2,2.8891296E2,6.350241E1,1.4655898E2,2.785422E2,1.0370755E1,3.914567E1,2.4356735E1,1.25605225E2,2.0953756E1,1.380311E2,1.4051112E2,9.3575535E0,1.0132016E0,3.295866E1,6.187012E0,7.017705E0,1.7339031E1,2.094658E1,1.04658646E2,1.1417965E1,9.53579E0,1.16430786E2,2.1600313E1,1.1271022E2,2.7800898E1,3.797294E0,5.5602593E0,6.873056E0,2.6085606E1,1.8012613E0,4.385751E0,5.534468E0,1.4832369E0,7.655712E0,9.683318E0,6.8270454E0,1.4119536E1,3.8721428E1,6.593722E1,3.0119433E0,8.406022E0,2.7592895E0,6.776501E0,5.8740087E0,1.1055678E2,1.7862791E1,3.7375212E0,4.2977425E1,6.9732796E1,1.1966832E1,1.5834065E1,2.089399E0,4.7836566E0,1.5953564E1,1.0132042E1,1.5290297E0,2.856721E0,1.6098883E0,3.9245799E0,5.6005397E0,2.0551724E0,6.6102204E0,3.073098E0,4.0559864E0,2.7710593E0,3.7143178E0,1.0405218E1,2.9012348E1,9.70908E0,5.9903725E1,6.033491E0,3.7586524E0,4.6473694E0,1.1267633E0,1.6325263E0,4.4738445E0,2.3026567E0,1.2594715E0,4.614537E0,9.854954E0,1.0070183E2,1.5485495E1,2.3772972E0,1.1515218E0,2.5859993E0,3.1139515E1,1.1837911E1,6.753074E1,2.202054E0,5.044447E0,6.922385E0,8.140481E0,7.6935844E0],"tree_param":{"num_deleted":"0","num_feature":"16","num_nodes":"95","size_leaf_vector":"1"}},{"base_weights":[-5.232295E-4,-3.0425593E-2,2.0830201E-2,-9.180751E-2,-3.9362074E-3,1.3575163E-1,1.7652467E-2,-1.8563852E-1,4.9442437E-2,-3.8343087E-2,1.8481848E-1,1.9512126E-1,-9.280853E-3,-1.6528913E-1,2.1288754E-2,-2.4138592E-1,8.084367E-2,-1.8398386E-1,1.3944975E-1,1.1324929E-2,-1.2081904E-1,4.382828E-1,-1.8039973E-1,7.1203254E-2,1.8342989E-2,1.4715653E-2,-1.7509233E-2,-4.1807382E-3,-1.9656415E-1,2.4901768E-2,-1.300575E-1,-5.0384454E-2,-2.9166764E-1,-7.4764974E-2,2.2189178E-1,-2.6810426E-1,2.7611578E-2,-2.3047555E-2,2.4896303E-1,-1.8187425E-1,6.5469675E-2,-1.7013459E-1,3.0082226E-1,7E-1,2.1595578E-1,1.18476935E-1,-3.1624126E-1,-7.997826E-2,-1.2781234E-3,-7.893986E-2,2.739955E-2,2.6515143E-3,-7.517548E-2,-8.098847E-2,2.0063791E-2,-5.359996E-2,-1.33847E-1,1.13139406E-1,1.6785748E-2,1.0448681E-2,-1.15760915E-1,3.183623E-2,-9.687164E-2,9.5355906E-2,-9.620164E-3,-1.0532432E-1,2.4028784E-3,6.0141865E-2,7.474493E-3,-8.0363885E-2,-2.5745269E-2,-2.6672397E-2,2.0027721E-1,2.1000001E-1,3.5915356E-2,8.806787E-3,1.2332984E-1,-4.3392036E-2,8.143461E-2,-1.1894605E-1,-2.856745E-2,-7.868772E-2,1.3193991E-3,3.4845803E-2,6.1922274E-3,-2.2153887E-3,3.611218E-3],"categories":[],"categories_nodes":[],"categories_segments":[],"categories_sizes":[],"default_left":[0,0,0,0,0,0,0,0,0,0,0,0,0,0,0,0,0,0,0,0,0,0,0,0,0,0,0,0,0,0,0,0,0,0,0,0,0,0,0,0,0,0,0,0,0,0,0,0,0,0,0,0,0,0,0,0,0,0,0,0,0,0,0,0,0,0,0,0,0,0,0,0,0,0,0,0,0,0,0,0,0,0,0,0,0,0,0],"id":21,"left_children":[1,3,5,7,9,11,13,15,17,19,21,23,25,27,29,31,33,35,37,39,41,43,45,-1,-1,-1,-1,-1,47,49,51,53,55,-1,57,59,-1,61,63,65,67,69,71,73,75,77,79,-1,-1,81,83,85,-1,-1,-1,-1,-1,-1,-1,-1,-1,-1,-1,-1,-1,-1,-1,-1,-1,-1,-1,-1,-1,-1,-1,-1,-1,-1,-1,-1,-1,-1,-1,-1,-1,-1,-1],"loss_changes":[3.203151E-1,3.3944115E-1,1.0448632E-1,8.4356004E-1,9.619643E-1,6.833312E-2,1.9374166E-1,5.8458424E-1,5.701901E-1,5.141941E-1,2.1934266E0,1.6754612E-2,1.2020925E-2,2.4181128E-2,1.5703835E-1,2.8981936E-1,3.9653108E-1,2.0215636E-1,3.487311E-1,8.3881986E-1,1.031375E0,1.1784706E0,4.4614115E-1,0E0,0E0,0E0,0E0,0E0,6.1309412E-2,7.3632166E-2,1.08129285E-1,2.1931575E-1,3.548205E-1,0E0,1.2481171E-1,2.3155323E-1,0E0,3.70273E-1,2.3474926E-1,5.672962E-1,3.3708605E-1,3.3009768E-1,8.165685E-1,2.769277E-1,3.9387673E-1,1.9514342E-1,8.981699E-2,0E0,0E0,1.0398756E-1,1.594552E-1,4.8332187E-4,0E0,0E0,0E0,0E0,0E0,0E0,0E0,0E0,0E0,0E0,0E0,0E0,0E0,0E0,0E0,0E0,0E0,0E0,0E0,0E0,0E0,0E0,0E0,0E0,0E0,0E0,0E0,0E0,0E0,0E0,0E0,0E0,0E0,0E0,0E0],"parents":[2147483647,0,0,1,1,2,2,3,3,4,4,5,5,6,6,7,7,8,8,9,9,10,10,11,11,12,12,13,13,14,14,15,15,16,16,17,17,18,18,19,19,20,20,21,21,22,22,28,28,29,29,30,30,31,31,32,32,34,34,35,35,37,37,38,38,39,39,40,40,41,41,42,42,43,43,44,44,45,45,46,46,49,49,50,50,51,51],"right_children":[2,4,6,8,10,12,14,16,18,20,22,24,26,28,30,32,34,36,38,40,42,44,46,-1,-1,-1,-1,-1,48,50,52,54,56,-1,58,60,-1,62,64,66,68,70,72,74,76,78,80,-1,-1,82,84,86,-1,-1,-1,-1,-1,-1,-1,-1,-1,-1,-1,-1,-1,-1,-1,-1,-1,-1,-1,-1,-1,-1,-1,-1,-1,-1,-1,-1,-1,-1,-1,-1,-1,-1,-1],"split_conditions":[1E0,9E0,2.14E2,2.89E2,2.5881904E-1,1.5E1,2.69E2,1E0,1.3052619E-1,4E0,6.234898E-1,-6.5403126E-2,1.77E2,2.27E2,2E0,4.422887E-1,6.087614E-1,6E0,3E0,-8.9687276E-1,0E0,3.8268343E-1,2.72E2,7.1203254E-2,1.8342989E-2,1.4715653E-2,-1.7509233E-2,-4.1807382E-3,-1.9509032E-1,-9.9785894E-1,-9.914449E-1,1E0,2.74E2,-7.4764974E-2,4E0,1E0,2.7611578E-2,2E0,6E0,2.88E2,-3.8268343E-1,2E0,2.86E2,2.7E2,2E0,2.65E2,4.3388373E-1,-7.997826E-2,-1.2781234E-3,6.234898E-1,-9.8078525E-1,1.8E1,-7.517548E-2,-8.098847E-2,2.0063791E-2,-5.359996E-2,-1.33847E-1,1.13139406E-1,1.6785748E-2,1.0448681E-2,-1.15760915E-1,3.183623E-2,-9.687164E-2,9.5355906E-2,-9.620164E-3,-1.0532432E-1,2.4028784E-3,6.0141865E-2,7.474493E-3,-8.0363885E-2,-2.5745269E-2,-2.6672397E-2,2.0027721E-1,2.1000001E-1,3.5915356E-2,8.806787E-3,1.2332984E-1,-4.3392036E-2,8.143461E-2,-1.1894605E-1,-2.856745E-2,-7.868772E-2,1.3193991E-3,3.4845803E-2,6.1922274E-3,-2.2153887E-3,3.611218E-3],"split_indices":[12,0,3,3,6,0,3,14,7,2,9,7,3,3,14,6,6,2,0,7,6,6,3,0,0,0,0,0,7,6,6,0,3,0,0,1,0,1,2,3,7,1,3,3,1,3,8,0,0,9,6,0,0,0,0,0,0,0,0,0,0,0,0,0,0,0,0,0,0,0,0,0,0,0,0,0,0,0,0,0,0,0,0,0,0,0,0],"split_type":[0,0,0,0,0,0,0,0,0,0,0,0,0,0,0,0,0,0,0,0,0,0,0,0,0,0,0,0,0,0,0,0,0,0,0,0,0,0,0,0,0,0,0,0,0,0,0,0,0,0,0,0,0,0,0,0,0,0,0,0,0,0,0,0,0,0,0,0,0,0,0,0,0,0,0,0,0,0,0,0,0,0,0,0,0,0,0],"sum_hessian":[4.9966144E2,2.0798456E2,2.9167688E2,6.1954983E1,1.4602957E2,6.7256875E0,2.8495117E2,3.703724E1,2.4917744E1,1.2418885E2,2.1840727E1,4.5271273E0,2.1985602E0,4.6871147E0,2.8026407E2,3.0707485E1,6.329753E0,6.64372E0,1.8274023E1,7.80493E1,4.6139545E1,1.2774834E1,9.065892E0,2.8556561E0,1.6714711E0,1.0049088E0,1.1936513E0,1.0502225E0,3.636892E0,2.7454544E2,5.7186213E0,6.8164353E0,2.389105E1,1.6655005E0,4.6642523E0,5.1138988E0,1.5298216E0,7.675121E0,1.0598902E1,1.6568954E1,6.1480347E1,4.1842148E1,4.2974005E0,2.626718E0,1.0148116E1,2.8728712E0,6.1930213E0,2.3828328E0,1.2540592E0,5.7298822E0,2.6881555E2,3.1872454E0,2.531376E0,1.9196694E0,4.8967657E0,1.5043771E1,8.84728E0,1.7522655E0,2.9119868E0,1.6286646E0,3.485234E0,5.8159213E0,1.8591995E0,8.407029E0,2.191873E0,8.312607E0,8.256348E0,1.3291336E1,4.818901E1,1.8369797E1,2.347235E1,2.4507794E0,1.8466213E0,1.3491254E0,1.2775928E0,5.7757115E0,4.372404E0,1.0762119E0,1.7966591E0,3.960968E0,2.2320535E0,1.1195064E0,4.610376E0,1.7877087E1,2.5093848E2,1.6433072E0,1.543938E0],"tree_param":{"num_deleted":"0","num_feature":"16","num_nodes":"87","size_leaf_vector":"1"}},{"base_weights":[-5.047923E-4,1.459288E-1,-4.3731234E-3,7.613377E-2,8.322285E-2,-1.7913918E-1,5.793059E-3,7.5083956E-2,5.7648253E-3,-3.1418183E-1,-4.6706986E-2,8.810808E-3,-2.5347868E-1,4.658996E-2,-3.4745287E-2,-3.4314087E-1,1.2351845E-3,2.2586168E-1,-1.5909903E-1,1.2510664E-2,-1.7998043E-1,-1.1411851E-1,3.8488775E-2,7.7262074E-2,-1.6459158E-2,-1.0601469E-1,-1.2469987E-1,-4.659996E-2,1.6647744E-1,7.423626E-2,-2.4414216E-1,2.0801507E-2,-2.9109057E-2,2.4192508E-3,-2.8267413E-1,8.048831E-3,3.8342196E-2,-5.5499338E-2,2.1130173E-2,8.160938E-2,-5.3225424E-2,5.065129E-3,-8.6841404E-2,1.09146405E-2,-8.031797E-3,1.0946157E-3,-8.079536E-2,-2.0131983E-3,3.2769237E-3,-2.2477617E-3,-1.13507815E-1],"categories":[],"categories_nodes":[],"categories_segments":[],"categories_sizes":[],"default_left":[0,0,0,0,0,0,0,0,0,0,0,0,0,0,0,0,0,0,0,0,0,0,0,0,0,0,0,0,0,0,0,0,0,0,0,0,0,0,0,0,0,0,0,0,0,0,0,0,0,0,0],"id":22,"left_children":[1,3,5,-1,7,9,11,-1,13,15,17,19,21,23,-1,25,-1,27,29,31,33,-1,-1,35,-1,37,-1,-1,-1,39,41,43,45,47,49,-1,-1,-1,-1,-1,-1,-1,-1,-1,-1,-1,-1,-1,-1,-1,-1],"loss_changes":[2.842291E-1,6.621662E-2,8.693637E-1,0E0,1.23481065E-1,4.6636796E-1,3.6435997E-1,0E0,4.3216083E-2,1.2256122E-1,4.879426E-1,3.224946E-1,3.084481E-1,2.4208128E-2,0E0,1.6331804E-1,0E0,6.783962E-1,2.3707372E-1,1.5608892E-1,1.669662E-1,0E0,0E0,1.0190435E-2,0E0,7.109993E-2,0E0,0E0,0E0,2.3313619E-1,1.0332659E-1,2.799216E-1,5.9323555E-1,3.985467E-4,1.4693624E-1,0E0,0E0,0E0,0E0,0E0,0E0,0E0,0E0,0E0,0E0,0E0,0E0,0E0,0E0,0E0,0E0],"parents":[2147483647,0,0,1,1,2,2,4,4,5,5,6,6,8,8,9,9,10,10,11,11,12,12,13,13,15,15,17,17,18,18,19,19,20,20,23,23,25,25,29,29,30,30,31,31,32,32,33,33,34,34],"right_children":[2,4,6,-1,8,10,12,-1,14,16,18,20,22,24,-1,26,-1,28,30,32,34,-1,-1,36,-1,38,-1,-1,-1,40,42,44,46,48,50,-1,-1,-1,-1,-1,-1,-1,-1,-1,-1,-1,-1,-1,-1,-1,-1],"split_conditions":[2.14E2,1.63E2,2.69E2,7.613377E-2,-9.238795E-1,4.3388373E-1,1E0,7.5083956E-2,7.518398E-1,2.65E2,1E0,2E0,2.87E2,2.08E2,-3.4745287E-2,2.31E2,1.2351845E-3,6.5403126E-2,-7.0710677E-1,7.518398E-1,-9.914449E-1,-1.1411851E-1,3.8488775E-2,2.02E2,-1.6459158E-2,2.29E2,-1.2469987E-1,-4.659996E-2,1.6647744E-1,1.3052619E-1,2.27E2,3E0,8E0,1.8E1,2.72E2,8.048831E-3,3.8342196E-2,-5.5499338E-2,2.1130173E-2,8.160938E-2,-5.3225424E-2,5.065129E-3,-8.6841404E-2,1.09146405E-2,-8.031797E-3,1.0946157E-3,-8.079536E-2,-2.0131983E-3,3.2769237E-3,-2.2477617E-3,-1.13507815E-1],"split_indices":[3,3,3,0,7,8,15,0,6,3,1,14,3,3,0,3,0,6,6,6,6,0,0,3,0,3,0,0,0,7,3,1,0,0,3,0,0,0,0,0,0,0,0,0,0,0,0,0,0,0,0],"split_type":[0,0,0,0,0,0,0,0,0,0,0,0,0,0,0,0,0,0,0,0,0,0,0,0,0,0,0,0,0,0,0,0,0,0,0,0,0,0,0,0,0,0,0,0,0,0,0,0,0,0,0],"sum_hessian":[4.9964282E2,1.1914173E1,4.8772864E2,3.2600148E0,8.654159E0,2.5897947E1,4.618307E2,2.03469E0,6.6194687E0,1.2143094E1,1.3754852E1,4.5747205E2,4.3586507E0,5.4172573E0,1.2022114E0,1.1058903E1,1.0841914E0,3.7210712E0,1.0033781E1,4.495948E2,7.877248E0,3.273897E0,1.0847539E0,4.3427753E0,1.0744822E0,3.166756E0,7.892147E0,1.9685764E0,1.7524949E0,2.7141006E0,7.31968E0,3.753279E2,7.426687E1,3.1891944E0,4.6880536E0,2.9400628E0,1.4027122E0,2.1540806E0,1.0126753E0,1.4743335E0,1.239767E0,1.1758916E0,6.143789E0,2.829097E2,9.241822E1,6.6220985E1,8.045884E0,1.6396707E0,1.5495237E0,1.4877452E0,3.2003083E0],"tree_param":{"num_deleted":"0","num_feature":"16","num_nodes":"51","size_leaf_vector":"1"}},{"base_weights":[-8.6107606E-4,-6.587843E-2,6.8440177E-3,-1.0788995E-1,-1.2062643E-2,2.106855E-2,-3.2979287E-2,2.617826E-2,-1.12740405E-1,3.041027E-3,8.077757E-2,-1.7043726E-1,1.8412416E-3,-8.447973E-2,1.1005766E-1,2.0492813E-2,-2.2209096E-1,1.8739711E-1,-1.8731765E-2,-1.1765718E-1,-1.1463322E-1,-9.497318E-2,7.491618E-2,-2.708844E-1,8.054199E-2,2.1073613E-1,-3.1592067E-2,-8.892466E-2,3.3131685E-2,6.831425E-2,-2.9781508E-1,5.2096015E-1,6.0665037E-2,1.1182038E-1,-9.106291E-2,4.9954616E-2,-1.491029E-1,-4.1512895E-2,-1.2363941E-1,3.8497642E-1,4.7114946E-2,-1.20918915E-1,5.9123863E-2,7.48962E-2,-2.2121597E-2,7.844721E-2,1.1879284E-2,2.9942675E-2,-6.927189E-2,-5.7783746E-3,-8.25045E-2,-3.0292999E-2,1.2743426E-2,-2.5739878E-2,-1.12316E-1,2.1000001E-1,6.5473625E-3,-1.0354365E-2,3.9311506E-2,1.0639526E-2,8.805515E-2,-8.983315E-3,-8.89783E-2,-3.801744E-2,5.9928764E-2,-6.7204766E-2,-1.0154156E-2,-6.803846E-2,8.778334E-3,1.6877647E-1,1.33546665E-2,-1.0617705E-1,2.2368908E-2],"categories":[],"categories_nodes":[],"categories_segments":[],"categories_sizes":[],"default_left":[0,0,0,0,0,0,0,0,0,0,0,0,0,0,0,0,0,0,0,0,0,0,0,0,0,0,0,0,0,0,0,0,0,0,0,0,0,0,0,0,0,0,0,0,0,0,0,0,0,0,0,0,0,0,0,0,0,0,0,0,0,0,0,0,0,0,0,0,0,0,0,0,0],"id":23,"left_children":[1,3,5,-1,7,9,11,13,-1,15,17,19,21,23,25,27,29,31,33,35,-1,37,39,41,43,45,47,49,51,-1,53,55,57,59,61,63,65,67,-1,69,71,-1,-1,-1,-1,-1,-1,-1,-1,-1,-1,-1,-1,-1,-1,-1,-1,-1,-1,-1,-1,-1,-1,-1,-1,-1,-1,-1,-1,-1,-1,-1,-1],"loss_changes":[2.5143555E-1,8.363081E-1,2.5494048E-1,0E0,6.493717E-1,3.5638106E-1,5.675633E-1,4.041371E-1,0E0,1.008472E0,8.182674E-1,2.2277564E-1,6.830987E-1,6.034195E-1,3.5792634E-1,3.321511E-1,6.968165E-1,1.5394104E0,3.93857E-1,1.1616376E-1,0E0,6.872147E-1,4.5604676E-1,6.4278364E-1,3.0017966E-1,1.15838885E-1,3.1383577E-1,3.1777844E-1,2.726864E-1,0E0,2.3151052E-1,1.2900536E0,1.9249225E-1,1.967816E-1,3.2647157E-1,1.3138446E-1,1.445427E-1,4.8736292E-1,0E0,2.4024075E-1,5.946357E-1,0E0,0E0,0E0,0E0,0E0,0E0,0E0,0E0,0E0,0E0,0E0,0E0,0E0,0E0,0E0,0E0,0E0,0E0,0E0,0E0,0E0,0E0,0E0,0E0,0E0,0E0,0E0,0E0,0E0,0E0,0E0,0E0],"parents":[2147483647,0,0,1,1,2,2,4,4,5,5,6,6,7,7,9,9,10,10,11,11,12,12,13,13,14,14,15,15,16,16,17,17,18,18,19,19,21,21,22,22,23,23,24,24,25,25,26,26,27,27,28,28,30,30,31,31,32,32,33,33,34,34,35,35,36,36,37,37,39,39,40,40],"right_children":[2,4,6,-1,8,10,12,14,-1,16,18,20,22,24,26,28,30,32,34,36,-1,38,40,42,44,46,48,50,52,-1,54,56,58,60,62,64,66,68,-1,70,72,-1,-1,-1,-1,-1,-1,-1,-1,-1,-1,-1,-1,-1,-1,-1,-1,-1,-1,-1,-1,-1,-1,-1,-1,-1,-1,-1,-1,-1,-1,-1,-1],"split_conditions":[-7.818315E-1,-7.933533E-1,4.422887E-1,-1.0788995E-1,9.238795E-1,1.2246469E-16,6.087614E-1,1.9509032E-1,-1.12740405E-1,2.9E2,-2.2252093E-1,2.9E2,2.88E2,1.6E1,-7.0710677E-1,2.7E2,-9.8078525E-1,1E0,1.9509032E-1,-8.660254E-1,-1.1463322E-1,2.74E2,-7.518398E-1,3E0,1E0,1.1E1,2E0,5.5557024E-1,-8.9687276E-1,6.831425E-2,1E0,2E0,1E0,3E0,1.1E1,7.818315E-1,1E0,2.7E2,-1.2363941E-1,3E0,3E0,-1.20918915E-1,5.9123863E-2,7.48962E-2,-2.2121597E-2,7.844721E-2,1.1879284E-2,2.9942675E-2,-6.927189E-2,-5.7783746E-3,-8.25045E-2,-3.0292999E-2,1.2743426E-2,-2.5739878E-2,-1.12316E-1,2.1000001E-1,6.5473625E-3,-1.0354365E-2,3.9311506E-2,1.0639526E-2,8.805515E-2,-8.983315E-3,-8.89783E-2,-3.801744E-2,5.9928764E-2,-6.7204766E-2,-1.0154156E-2,-6.803846E-2,8.778334E-3,1.6877647E-1,1.33546665E-2,-1.0617705E-1,2.2368908E-2],"split_indices":[8,6,6,0,6,6,6,6,0,3,9,3,3,0,7,3,6,12,6,7,0,3,7,1,12,0,1,7,7,0,1,1,13,2,0,8,13,3,0,2,2,0,0,0,0,0,0,0,0,0,0,0,0,0,0,0,0,0,0,0,0,0,0,0,0,0,0,0,0,0,0,0,0],"split_type":[0,0,0,0,0,0,0,0,0,0,0,0,0,0,0,0,0,0,0,0,0,0,0,0,0,0,0,0,0,0,0,0,0,0,0,0,0,0,0,0,0,0,0,0,0,0,0,0,0,0,0,0,0,0,0,0,0,0,0,0,0,0,0,0,0,0,0,0,0,0,0,0,0],"sum_hessian":[5.0000262E2,5.217638E1,4.4782626E2,7.198814E0,4.4977566E1,3.303125E2,1.1751376E2,4.153853E1,3.4390361E0,2.5451846E2,7.579403E1,2.2964413E1,9.454935E1,1.7907234E1,2.3631294E1,2.3705167E2,1.7466803E1,3.6163425E1,3.9630604E1,1.9626461E1,3.3379514E0,4.0539852E1,5.40095E1,8.107586E0,9.799647E0,1.3528265E1,1.0103029E1,2.3921576E1,2.1313008E2,2.2275991E0,1.52392025E1,9.100331E0,2.7063095E1,1.3934306E1,2.5696299E1,3.0074697E0,1.6618992E1,3.56599E1,4.8799534E0,3.3870547E0,5.0622444E1,6.4300704E0,1.6775159E0,4.380194E0,5.419453E0,1.0026699E1,3.5015666E0,6.389736E0,3.7132933E0,1.820863E1,5.712945E0,1.3247163E1,1.9988292E2,4.606099E0,1.0633103E1,5.526027E0,3.5743036E0,1.1720595E1,1.5342501E1,1.0652812E1,3.281494E0,2.068957E1,5.00673E0,1.4506717E0,1.5567981E0,9.500373E0,7.1186175E0,9.247091E0,2.641281E1,1.7971073E0,1.5899473E0,2.4808564E0,4.8141586E1],"tree_param":{"num_deleted":"0","num_feature":"16","num_nodes":"73","size_leaf_vector":"1"}},{"base_weights":[-1.5226319E-3,1.4157295E-1,-5.319174E-3,1.6180985E-1,-1.0653835E-2,-1.561636E-1,2.8186864E-3,2.4810493E-1,1.10340506E-1,-2.9419568E-1,-3.0355057E-2,5.4686773E-3,-2.3929222E-1,1.0714864E-1,8.757247E-3,5.679728E-2,3.878156E-3,-3.25232E-1,3.992033E-3,1.9997539E-1,-1.3648403E-1,8.685447E-3,-1.6662648E-1,-1.1098532E-1,3.349774E-2,-1.9867215E-2,2.1225443E-2,-8.850085E-2,-1.21338524E-1,1.627953E-1,-9.547687E-2,-1.0883948E-2,-9.568032E-2,4.046797E-2,-2.020572E-3,