{"learner":{"attributes":{"scikit_learn":"{\"_estimator_type\": \"regressor\"}"},"feature_names":["hour","quarter","dayofweek","dayofyear","weekofyear","month","tod_sin","tod_cos","dayofweek_sin","dayofweek_cos","is_weekend","is_business_hours","lag_15m","lag_1h","lag_1d","lag_1w"],"feature_types":["int","int","int","int","int","int","float","float","float","float","int","int","float","float","float","float"],"gradient_booster":{"model":{"gbtree_model_param":{"num_parallel_tree":"1","num_trees":"100"},"iteration_indptr":[0,1,2,3,4,5,6,7,8,9,10,11,12,13,14,15,16,17,18,19,20,21,22,23,24,25,26,27,28,29,30,31,32,33,34,35,36,37,38,39,40,41,42,43,44,45,46,47,48,49,50,51,52,53,54,55,56,57,58,59,60,61,62,63,64,65,66,67,68,69,70,71,72,73,74,75,76,77,78,79,80,81,82,83,84,85,86,87,88,89,90,91,92,93,94,95,96,97,98,99,100],"tree_info":[0,0,0,0,0,0,0,0,0,0,0,0,0,0,0,0,0,0,0,0,0,0,0,0,0,0,0,0,0,0,0,0,0,0,0,0,0,0,0,0,0,0,0,0,0,0,0,0,0,0,0,0,0,0,0,0,0,0,0,0,0,0,0,0,0,0,0,0,0,0,0,0,0,0,0,0,0,0,0,0,0,0,0,0,0,0,0,0,0,0,0,0,0,0,0,0,0,0,0,0],"trees":[{"base_weights":[-3.4239687E-8,-2.3183522E-1,2.1000001E-1,1.2115309E-1,-1.3589272E-1,7E-1,-1.3112155E-1,-2.7803952E-1,7E-1,4.7230334E-3,-1.089601E-1,2.1000001E-1,1.3848705E-2],"categories":[],"categories_nodes":[],"categories_segments":[],"categories_sizes":[],"default_left":[0,0,0,0,0,0,0,0,0,0,0,0,0],"id":0,"left_children":[1,3,-1,5,-1,7,-1,9,11,-1,-1,-1,-1],"loss_changes":[1.2578168E1,2.8740897E0,0E0,5.3728876E0,0E0,4.05228E0,0E0,1.2452099E-1,4.2204475E-1,0E0,0E0,0E0,0E0],"parents":[2147483647,0,0,1,1,3,3,5,5,7,7,8,8],"right_children":[2,4,-1,6,-1,8,-1,10,12,-1,-1,-1,-1],"split_conditions":[2.54E2,-3.2143947E-1,2.1000001E-1,2.38E2,-1.3589272E-1,2.27E2,-1.3112155E-1,2E2,1.9509032E-1,4.7230334E-3,-1.089601E-1,2.1000001E-1,1.3848705E-2],"split_indices":[3,6,0,3,0,3,0,3,7,0,0,0,0],"split_type":[0,0,0,0,0,0,0,0,0,0,0,0,0],"sum_hessian":[3.633041E1,3.511593E1,1.2144815E0,1.369996E1,2.141597E1,6.3558946E0,7.344065E0,3.748551E0,2.6073437E0,1.0256057E0,2.7229455E0,1.4739219E0,1.1334218E0],"tree_param":{"num_deleted":"0","num_feature":"16","num_nodes":"13","size_leaf_vector":"1"}},{"base_weights":[4.745015E-2,7E-1,-1.349306E-1,7E-1,-2.1719635E-1,7E-1,-9.171129E-2,7.5763282E-3,-1.1707943E-1,-4.5679223E-2,2.1000001E-1,9.722548E-2,-7.054464E-2],"categories":[],"categories_nodes":[],"categories_segments":[],"categories_sizes":[],"default_left":[0,0,0,0,0,0,0,0,0,0,0,0,0],"id":1,"left_children":[1,3,-1,5,7,9,-1,11,-1,-1,-1,-1,-1],"loss_changes":[1.260358E1,6.436161E0,0E0,2.1416435E0,3.232364E-1,1.0345039E0,0E0,4.2672414E-1,0E0,0E0,0E0,0E0,0E0],"parents":[2147483647,0,0,1,1,3,3,4,4,5,5,7,7],"right_children":[2,4,-1,6,8,10,-1,12,-1,-1,-1,-1,-1],"split_conditions":[-3.2143947E-1,-1.3052619E-1,-1.349306E-1,5E0,2.38E2,2.27E2,-9.171129E-2,-9.238795E-1,-1.1707943E-1,-4.5679223E-2,2.1000001E-1,9.722548E-2,-7.054464E-2],"split_indices":[6,7,0,2,3,3,0,6,0,0,0,0,0],"split_type":[0,0,0,0,0,0,0,0,0,0,0,0,0],"sum_hessian":[3.3074493E1,1.3194088E1,1.9880405E1,5.9608994E0,7.2331886E0,4.3590255E0,1.601874E0,3.5625494E0,3.670639E0,1.0988469E0,3.2601786E0,1.4007747E0,2.1617746E0],"tree_param":{"num_deleted":"0","num_feature":"16","num_nodes":"13","size_leaf_vector":"1"}},{"base_weights":[8.768984E-2,7E-1,-1.3301212E-1,7E-1,-2.025628E-1,7E-1,-8.844561E-2,8.042535E-3,-1.1404653E-1,-4.320664E-2,2.1000001E-1,8.338221E-2,-6.6713616E-2],"categories":[],"categories_nodes":[],"categories_segments":[],"categories_sizes":[],"default_left":[0,0,0,0,0,0,0,0,0,0,0,0,0],"id":2,"left_children":[1,3,-1,5,7,9,-1,11,-1,-1,-1,-1,-1],"loss_changes":[1.1631029E1,5.883111E0,0E0,1.9460573E0,2.9566815E-1,9.702101E-1,0E0,3.4529212E-1,0E0,0E0,0E0,0E0,0E0],"parents":[2147483647,0,0,1,1,3,3,4,4,5,5,7,7],"right_children":[2,4,-1,6,8,10,-1,12,-1,-1,-1,-1,-1],"split_conditions":[-3.2143947E-1,-1.3052619E-1,-1.3301212E-1,5E0,2.38E2,2.27E2,-8.844561E-2,-9.238795E-1,-1.1404653E-1,-4.320664E-2,2.1000001E-1,8.338221E-2,-6.6713616E-2],"split_indices":[6,7,0,2,3,3,0,6,0,0,0,0,0],"split_type":[0,0,0,0,0,0,0,0,0,0,0,0,0],"sum_hessian":[3.0727747E1,1.3356714E1,1.7371033E1,6.5332923E0,6.8234215E0,5.0717936E0,1.4614991E0,3.558334E0,3.2650874E0,1.0497818E0,4.0220118E0,1.5438067E0,2.0145276E0],"tree_param":{"num_deleted":"0","num_feature":"16","num_nodes":"13","size_leaf_vector":"1"}},{"base_weights":[1.2157978E-1,-1.6232492E-1,2.1000001E-1,1.170575E-1,-1.3835247E-1,6.00279E-1,-3.788512E-1,-2.5552633E-1,7E-1,-1.2771139E-1,-1.6578978E-2,4.9084914E-3,-1.035826E-1,2.1000001E-1,-7.4568786E-2],"categories":[],"categories_nodes":[],"categories_segments":[],"categories_sizes":[],"default_left":[0,0,0,0,0,0,0,0,0,0,0,0,0,0,0],"id":3,"left_children":[1,3,-1,5,-1,7,9,11,13,-1,-1,-1,-1,-1,-1],"loss_changes":[1.0748006E1,2.442358E0,0E0,3.9613564E0,0E0,3.3583338E0,1.0235846E-1,1.1070019E-1,1.3115015E0,0E0,0E0,0E0,0E0,0E0,0E0],"parents":[2147483647,0,0,1,1,3,3,5,5,6,6,7,7,8,8],"right_children":[2,4,-1,6,-1,8,10,12,14,-1,-1,-1,-1,-1,-1],"split_conditions":[2.54E2,2.4E2,2.1000001E-1,-3.2143947E-1,-1.3835247E-1,2.27E2,9.749279E-1,2.01E2,5E0,-1.2771139E-1,-1.6578978E-2,4.9084914E-3,-1.035826E-1,2.1000001E-1,-7.4568786E-2],"split_indices":[3,3,0,6,0,3,8,3,2,0,0,0,0,0,0],"split_type":[0,0,0,0,0,0,0,0,0,0,0,0,0,0,0],"sum_hessian":[2.8988321E1,2.7605534E1,1.3827883E0,1.4581862E1,1.3023671E1,7.2788095E0,7.303053E0,3.3050704E0,3.9737394E0,6.1037016E0,1.1993515E0,1.0231644E0,2.281906E0,2.9715624E0,1.0021769E0],"tree_param":{"num_deleted":"0","num_feature":"16","num_nodes":"15","size_leaf_vector":"1"}},{"base_weights":[1.5892036E-1,7E-1,-4.3037266E-1,7E-1,-1.795455E-1,-1.3697143E-1,-1.9138929E-1,7E-1,-8.157526E-2,6.085374E-4,-1.0792359E-1,-5.1867263E-3,-7.985158E-2,2.1000001E-1,1.7114557E-1,-1.8845838E-1,9.570366E-2,-8.3108336E-2,1.8047667E-1,-7.478844E-3,-8.1966266E-2],"categories":[],"categories_nodes":[],"categories_segments":[],"categories_sizes":[],"default_left":[0,0,0,0,0,0,0,0,0,0,0,0,0,0,0,0,0,0,0,0,0],"id":4,"left_children":[1,3,5,7,9,-1,11,13,-1,15,-1,-1,-1,-1,17,19,-1,-1,-1,-1,-1],"loss_changes":[1.0094902E1,5.1228085E0,5.0537586E-3,1.598175E0,2.3575741E-1,0E0,3.680493E-2,4.534588E-1,0E0,3.386334E-1,0E0,0E0,0E0,0E0,8.1740344E-1,4.2138517E-2,0E0,0E0,0E0,0E0,0E0],"parents":[2147483647,0,0,1,1,2,2,3,3,4,4,6,6,7,7,9,9,14,14,15,15],"right_children":[2,4,6,8,10,-1,12,14,-1,16,-1,-1,-1,-1,18,20,-1,-1,-1,-1,-1],"split_conditions":[-3.2143947E-1,-1.3052619E-1,9.749279E-1,5E0,2.38E2,-1.3697143E-1,7E0,7.818315E-1,-8.157526E-2,2.32E2,-1.0792359E-1,-5.1867263E-3,-7.985158E-2,2.1000001E-1,-7.0710677E-1,6.234898E-1,9.570366E-2,-8.3108336E-2,1.8047667E-1,-7.478844E-3,-8.1966266E-2],"split_indices":[6,7,8,2,3,0,0,8,0,3,0,0,0,0,6,9,0,0,0,0,0],"split_type":[0,0,0,0,0,0,0,0,0,0,0,0,0,0,0,0,0,0,0,0,0],"sum_hessian":[2.728005E1,1.351622E1,1.3763831E1,7.260783E0,6.2554364E0,1.1583508E1,2.180324E0,6.0501933E0,1.2105899E0,3.62649E0,2.6289465E0,1.0250691E0,1.1552551E0,3.676932E0,2.373261E0,2.5314434E0,1.0950469E0,1.337295E0,1.0359659E0,1.3059793E0,1.2254641E0],"tree_param":{"num_deleted":"0","num_feature":"16","num_nodes":"21","size_leaf_vector":"1"}},{"base_weights":[1.8243179E-1,-1.2309562E-1,2.1000001E-1,1.7425765E-1,-4.2223385E-1,-3.524027E-1,6.7308086E-1,-2.380678E-2,-1.3627306E-1,-5.4901848E-3,-1.2155979E-1,7E-1,-1.0139818E-1,2.1000001E-1,5.2606156E-3],"categories":[],"categories_nodes":[],"categories_segments":[],"categories_sizes":[],"default_left":[0,0,0,0,0,0,0,0,0,0,0,0,0,0,0],"id":5,"left_children":[1,3,-1,5,7,9,11,-1,-1,-1,-1,13,-1,-1,-1],"loss_changes":[9.541045E0,2.3507767E0,0E0,3.7960415E0,1.0722971E-1,1.2039679E-1,2.8783884E0,0E0,0E0,0E0,0E0,5.5898666E-1,0E0,0E0,0E0],"parents":[2147483647,0,0,1,1,3,3,4,4,5,5,6,6,11,11],"right_children":[2,4,-1,6,8,10,12,-1,-1,-1,-1,14,-1,-1,-1],"split_conditions":[2.54E2,2.38E2,2.1000001E-1,2.27E2,2.4E2,1.88E2,-3.2143947E-1,-2.380678E-2,-1.3627306E-1,-5.4901848E-3,-1.2155979E-1,1.9509032E-1,-1.0139818E-1,2.1000001E-1,5.2606156E-3],"split_indices":[3,3,0,3,3,3,6,0,0,0,0,7,0,0,0],"split_type":[0,0,0,0,0,0,0,0,0,0,0,0,0,0,0],"sum_hessian":[2.6300837E1,2.4600967E1,1.699869E0,1.2546651E1,1.2054316E1,6.2458158E0,6.300835E0,1.3263174E0,1.0727999E1,1.0360726E0,5.209743E0,4.169611E0,2.1312237E0,2.9173973E0,1.2522138E0],"tree_param":{"num_deleted":"0","num_feature":"16","num_nodes":"15","size_leaf_vector":"1"}},{"base_weights":[2.1147534E-1,-9.956926E-2,7E-1,1.5287155E-1,-1.3459754E-1,2.1000001E-1,-7.772384E-2,-3.3933845E-1,4.9623117E-1,-5.0893E-3,-1.186474E-1,7E-1,-2.180553E-1,7E-1,-7.6315194E-2,-4.0109092E-3,-8.8810384E-2,2.1000001E-1,5.4015663E-2],"categories":[],"categories_nodes":[],"categories_segments":[],"categories_sizes":[],"default_left":[0,0,0,0,0,0,0,0,0,0,0,0,0,0,0,0,0,0,0],"id":6,"left_children":[1,3,5,7,-1,-1,-1,9,11,-1,-1,13,15,17,-1,-1,-1,-1,-1],"loss_changes":[8.658845E0,2.1909657E0,1.433219E0,2.656585E0,0E0,0E0,0E0,1.1355883E-1,2.0700707E0,0E0,0E0,1.3775129E0,5.1662996E-2,4.0004253E-1,0E0,0E0,0E0,0E0,0E0],"parents":[2147483647,0,0,1,1,2,2,3,3,7,7,8,8,11,11,12,12,13,13],"right_children":[2,4,6,8,-1,-1,-1,10,12,-1,-1,14,16,18,-1,-1,-1,-1,-1],"split_conditions":[2.54E2,2.4E2,0E0,2.27E2,-1.3459754E-1,2.1000001E-1,-7.772384E-2,1.88E2,-3.2143947E-1,-5.0893E-3,-1.186474E-1,5E0,6E0,4.3388373E-1,-7.6315194E-2,-4.0109092E-3,-8.8810384E-2,2.1000001E-1,5.4015663E-2],"split_indices":[3,3,6,3,0,0,0,3,6,0,0,2,0,8,0,0,0,0,0],"split_type":[0,0,0,0,0,0,0,0,0,0,0,0,0,0,0,0,0,0,0],"sum_hessian":[2.5180998E1,2.3083906E1,2.0970914E0,1.3722607E1,9.3612995E0,1.0062573E0,1.0908341E0,5.643827E0,8.07878E0,1.0303998E0,4.613427E0,5.594029E0,2.484751E0,4.5437293E0,1.0502998E0,1.0086435E0,1.4761076E0,2.2514906E0,2.2922387E0],"tree_param":{"num_deleted":"0","num_feature":"16","num_nodes":"19","size_leaf_vector":"1"}},{"base_weights":[2.4252957E-1,-7.77698E-2,7E-1,1.8460721E-1,-4.0405396E-1,2.1000001E-1,-8.207794E-2,5.1534253E-1,-1.20830424E-1,-2.0308126E-2,-1.3282901E-1,-2.0673822E-1,7E-1,6.618165E-3,-9.122175E-2,2.1000001E-1,-3.5338126E-2],"categories":[],"categories_nodes":[],"categories_segments":[],"categories_sizes":[],"default_left":[0,0,0,0,0,0,0,0,0,0,0,0,0,0,0,0,0],"id":7,"left_children":[1,3,5,7,9,-1,-1,11,-1,-1,-1,13,15,-1,-1,-1,-1],"loss_changes":[8.07173E0,2.0290842E0,1.6208601E0,2.7992303E0,1.0660362E-1,0E0,0E0,2.1477451E0,0E0,0E0,0E0,8.6443916E-2,8.749647E-1,0E0,0E0,0E0,0E0],"parents":[2147483647,0,0,1,1,2,2,3,3,4,4,7,7,11,11,12,12],"right_children":[2,4,6,8,10,-1,-1,12,-1,-1,-1,14,16,-1,-1,-1,-1],"split_conditions":[2.54E2,2.38E2,-3.8268343E-1,-3.2143947E-1,4E0,2.1000001E-1,-8.207794E-2,2.27E2,-1.20830424E-1,-2.0308126E-2,-1.3282901E-1,2.03E2,3.8268343E-1,6.618165E-3,-9.122175E-2,2.1000001E-1,-3.5338126E-2],"split_indices":[3,3,6,6,0,0,0,3,0,0,0,3,7,0,0,0,0],"split_type":[0,0,0,0,0,0,0,0,0,0,0,0,0,0,0,0,0],"sum_hessian":[2.4080992E1,2.1830334E1,2.2506588E0,1.2340833E1,9.489501E0,1.0237403E0,1.2269185E0,7.9736934E0,4.367139E0,1.2630615E0,8.226439E0,2.5804253E0,5.3932686E0,1.0009338E0,1.5794915E0,4.3523107E0,1.0409579E0],"tree_param":{"num_deleted":"0","num_feature":"16","num_nodes":"17","size_leaf_vector":"1"}},{"base_weights":[2.59203E-1,-6.460325E-2,7E-1,1.4712556E-1,-1.3098438E-1,2.1000001E-1,-8.487266E-2,-3.133673E-1,3.9127883E-1,-3.912161E-3,-1.126616E-1,5.70719E-1,-9.393796E-2,3.3088226E-2,7E-1,-8.1971765E-2,8.5186094E-2,2.1000001E-1,6.7706175E-2],"categories":[],"categories_nodes":[],"categories_segments":[],"categories_sizes":[],"default_left":[0,0,0,0,0,0,0,0,0,0,0,0,0,0,0,0,0,0,0],"id":8,"left_children":[1,3,5,7,-1,-1,-1,9,11,-1,-1,13,-1,15,17,-1,-1,-1,-1],"loss_changes":[7.684439E0,1.8076707E0,1.7552452E0,1.7926652E0,0E0,0E0,0E0,1.0157013E-1,1.4619008E0,0E0,0E0,1.0618446E0,0E0,3.7010017E-1,2.0386624E-1,0E0,0E0,0E0,0E0],"parents":[2147483647,0,0,1,1,2,2,3,3,7,7,8,8,11,11,13,13,14,14],"right_children":[2,4,6,8,-1,-1,-1,10,12,-1,-1,14,-1,16,18,-1,-1,-1,-1],"split_conditions":[2.54E2,2.4E2,-5E-1,2.27E2,-1.3098438E-1,2.1000001E-1,-8.487266E-2,1.89E2,5E0,-3.912161E-3,-1.126616E-1,1E0,-9.393796E-2,2E0,4.3388373E-1,-8.1971765E-2,8.5186094E-2,2.1000001E-1,6.7706175E-2],"split_indices":[3,3,6,3,0,0,0,3,2,0,0,11,0,2,8,0,0,0,0],"split_type":[0,0,0,0,0,0,0,0,0,0,0,0,0,0,0,0,0,0,0],"sum_hessian":[2.3527681E1,2.113448E1,2.3932035E0,1.3854027E1,7.280452E0,1.0691975E0,1.324006E0,4.702065E0,9.151961E0,1.0139239E0,3.6881413E0,7.4451666E0,1.706795E0,2.8064349E0,4.6387315E0,1.223389E0,1.5830458E0,2.5545049E0,2.0842266E0],"tree_param":{"num_deleted":"0","num_feature":"16","num_nodes":"19","size_leaf_vector":"1"}},{"base_weights":[2.7538773E-1,-5.1402364E-2,7E-1,1.3699685E-1,-1.2880738E-1,2.1000001E-1,-8.830685E-2,3.3563405E-1,-3.078695E-1,4.7607517E-1,-9.112534E-2,-1.3421206E-2,-1.1167219E-1,7E-1,5.408143E-2,2.1000001E-1,6.475487E-2,-9.479162E-2,1.6774504E-1],"categories":[],"categories_nodes":[],"categories_segments":[],"categories_sizes":[],"default_left":[0,0,0,0,0,0,0,0,0,0,0,0,0,0,0,0,0,0,0],"id":9,"left_children":[1,3,5,7,-1,-1,-1,9,11,13,-1,-1,-1,15,17,-1,-1,-1,-1],"loss_changes":[7.3071527E0,1.5882037E0,1.9379168E0,1.4369211E0,0E0,0E0,0E0,1.1244133E0,7.108688E-2,1.0593979E0,0E0,0E0,0E0,2.4581623E-1,1.0804863E0,0E0,0E0,0E0,0E0],"parents":[2147483647,0,0,1,1,2,2,3,3,7,7,8,8,9,9,13,13,14,14],"right_children":[2,4,6,8,-1,-1,-1,10,12,14,-1,-1,-1,16,18,-1,-1,-1,-1],"split_conditions":[2.54E2,2.4E2,-6.087614E-1,-3.2143947E-1,-1.2880738E-1,2.1000001E-1,-8.830685E-2,5E0,4E0,4.3388373E-1,-9.112534E-2,-1.3421206E-2,-1.1167219E-1,-7.933533E-1,9.749279E-1,2.1000001E-1,6.475487E-2,-9.479162E-2,1.6774504E-1],"split_indices":[3,3,6,6,0,0,0,2,0,8,0,0,0,6,8,0,0,0,0],"split_type":[0,0,0,0,0,0,0,0,0,0,0,0,0,0,0,0,0,0,0],"sum_hessian":[2.3013447E1,2.0478132E1,2.535316E0,1.409149E1,6.386642E0,1.0797584E0,1.4555575E0,9.911463E0,4.1800265E0,8.335898E0,1.575565E0,1.1547413E0,3.0252852E0,4.5001626E0,3.8357358E0,2.3610353E0,2.1391273E0,2.4298396E0,1.4058961E0],"tree_param":{"num_deleted":"0","num_feature":"16","num_nodes":"19","size_leaf_vector":"1"}},{"base_weights":[2.8790036E-1,-4.052414E-2,7E-1,1.26284E-1,-1.2645398E-1,-8.891075E-2,2.1000001E-1,-2.953335E-1,3.110862E-1,-4.4478397E-3,-1.0814673E-1,4.290605E-1,-8.747497E-2,1.728633E-1,2.1000001E-1,-9.40898E-2,1.1308275E-1],"categories":[],"categories_nodes":[],"categories_segments":[],"categories_sizes":[],"default_left":[0,0,0,0,0,0,0,0,0,0,0,0,0,0,0,0,0],"id":10,"left_children":[1,3,5,7,-1,-1,-1,9,11,-1,-1,13,-1,15,-1,-1,-1],"loss_changes":[6.99409E0,1.3856522E0,1.9722681E0,1.2879641E0,0E0,0E0,0E0,8.95313E-2,9.1857266E-1,0E0,0E0,8.341328E-1,0E0,8.467364E-1,0E0,0E0,0E0],"parents":[2147483647,0,0,1,1,2,2,3,3,7,7,8,8,11,11,13,13],"right_children":[2,4,6,8,-1,-1,-1,10,12,-1,-1,14,-1,16,-1,-1,-1],"split_conditions":[2.54E2,2.4E2,1.5E1,2.27E2,-1.2645398E-1,-8.891075E-2,2.1000001E-1,1.9E2,5E0,-4.4478397E-3,-1.0814673E-1,4E0,-8.747497E-2,2.32E2,2.1000001E-1,-9.40898E-2,1.1308275E-1],"split_indices":[3,3,0,3,0,0,0,3,2,0,0,2,0,3,0,0,0],"split_type":[0,0,0,0,0,0,0,0,0,0,0,0,0,0,0,0,0],"sum_hessian":[2.263043E1,1.9965822E1,2.664608E0,1.435105E1,5.6147723E0,1.480246E0,1.1843619E0,4.191114E0,1.0159936E1,1.0213883E0,3.169726E0,8.737594E0,1.4223427E0,6.3377094E0,2.3998845E0,1.7142829E0,4.6234264E0],"tree_param":{"num_deleted":"0","num_feature":"16","num_nodes":"17","size_leaf_vector":"1"}},{"base_weights":[2.8804314E-1,-3.712449E-2,7E-1,1.308122E-1,-3.633501E-1,-8.5697986E-2,2.1000001E-1,3.132254E-1,-1.14006855E-1,-1.2409421E-1,-2.0476121E-2,4.2154098E-1,-8.483495E-2,5.336046E-1,-4.548803E-2,-1.31970635E-2,1.896905E-1],"categories":[],"categories_nodes":[],"categories_segments":[],"categories_sizes":[],"default_left":[0,0,0,0,0,0,0,0,0,0,0,0,0,0,0,0,0],"id":11,"left_children":[1,3,5,7,9,-1,-1,11,-1,-1,-1,13,-1,15,-1,-1,-1],"loss_changes":[6.807988E0,1.1876496E0,1.7972784E0,1.4677314E0,8.066738E-2,0E0,0E0,8.431084E-1,0E0,0E0,0E0,7.1618354E-1,0E0,5.12043E-1,0E0,0E0,0E0],"parents":[2147483647,0,0,1,1,2,2,3,3,4,4,7,7,11,11,13,13],"right_children":[2,4,6,8,10,-1,-1,12,-1,-1,-1,14,-1,16,-1,-1,-1],"split_conditions":[2.54E2,-3.2143947E-1,1.5E1,2.38E2,9.749279E-1,-8.5697986E-2,2.1000001E-1,5E0,-1.14006855E-1,-1.2409421E-1,-2.0476121E-2,3.8268343E-1,-8.483495E-2,2.27E2,-4.548803E-2,-1.31970635E-2,1.896905E-1],"split_indices":[3,6,0,3,8,0,0,2,0,0,0,7,0,3,0,0,0],"split_type":[0,0,0,0,0,0,0,0,0,0,0,0,0,0,0,0,0],"sum_hessian":[2.2626131E1,1.9810694E1,2.8154387E0,1.3473648E1,6.337045E0,1.3543174E0,1.4611213E0,1.0213399E1,3.2602487E0,5.070991E0,1.2660538E0,8.890425E0,1.3229746E0,7.49421E0,1.396215E0,1.1745859E0,6.319624E0],"tree_param":{"num_deleted":"0","num_feature":"16","num_nodes":"17","size_leaf_vector":"1"}},{"base_weights":[2.7509657E-1,-4.076424E-2,7E-1,8.1457354E-2,-1.21567E-1,-8.256024E-2,2.1000001E-1,-2.7020496E-1,2.0070173E-1,-4.5122285E-3,-1.015879E-1,-9.102331E-2,3.4023315E-1,5.0900646E-2,-2.3114845E-1,2.097813E-1,2.0664091E-1,-9.2881344E-2,-3.4451566E-3,1.1604025E-1,-9.212729E-2],"categories":[],"categories_nodes":[],"categories_segments":[],"categories_sizes":[],"default_left":[0,0,0,0,0,0,0,0,0,0,0,0,0,0,0,0,0,0,0,0,0],"id":12,"left_children":[1,3,5,7,-1,-1,-1,9,11,-1,-1,13,15,-1,17,-1,19,-1,-1,-1,-1],"loss_changes":[6.6835766E0,9.674183E-1,1.6432152E0,7.478782E-1,0E0,0E0,0E0,7.5476706E-2,5.571447E-1,0E0,0E0,2.2081767E-1,2.8504097E-1,0E0,5.9463203E-2,0E0,8.5424125E-1,0E0,0E0,0E0,0E0],"parents":[2147483647,0,0,1,1,2,2,3,3,7,7,8,8,11,11,12,12,14,14,16,16],"right_children":[2,4,6,8,-1,-1,-1,10,12,-1,-1,14,16,-1,18,-1,20,-1,-1,-1,-1],"split_conditions":[2.54E2,2.4E2,1.5E1,2.27E2,-1.21567E-1,-8.256024E-2,2.1000001E-1,1.92E2,1E0,-4.5122285E-3,-1.015879E-1,-2.2252093E-1,2.28E2,5.0900646E-2,-3.2143947E-1,2.097813E-1,-5E-1,-9.2881344E-2,-3.4451566E-3,1.1604025E-1,-9.212729E-2],"split_indices":[3,3,0,3,0,0,0,3,11,0,0,9,3,0,6,0,6,0,0,0,0],"split_type":[0,0,0,0,0,0,0,0,0,0,0,0,0,0,0,0,0,0,0,0,0],"sum_hessian":[2.302251E1,1.9976868E1,3.0456426E0,1.554151E1,4.435357E0,1.2430892E0,1.8025534E0,3.6148925E0,1.1926618E1,1.0222893E0,2.5926034E0,3.9712937E0,7.9553237E0,1.31465E0,2.6566436E0,1.0090551E0,6.9462686E0,1.6558086E0,1.000835E0,5.3256874E0,1.6205813E0],"tree_param":{"num_deleted":"0","num_feature":"16","num_nodes":"21","size_leaf_vector":"1"}},{"base_weights":[2.678895E-1,-3.8663343E-2,7E-1,8.699988E-2,-3.419185E-1,-7.950957E-2,7E-1,2.0846094E-1,-1.0849998E-1,-1.19736835E-1,-1.3799515E-2,2.1000001E-1,6.350724E-2,6.3606817E-1,5.848404E-2,2.1000001E-1,-7.4721865E-2,-2.4571064E-1,5.1724136E-1,-9.7099235E-3,-1.1392967E-1,2.1000001E-1,-8.357188E-2],"categories":[],"categories_nodes":[],"categories_segments":[],"categories_sizes":[],"default_left":[0,0,0,0,0,0,0,0,0,0,0,0,0,0,0,0,0,0,0,0,0,0,0],"id":13,"left_children":[1,3,5,7,9,-1,11,13,-1,-1,-1,-1,-1,15,17,-1,-1,19,21,-1,-1,-1,-1],"loss_changes":[6.375204E0,8.254663E-1,1.5072203E0,9.23357E-1,8.863169E-2,0E0,1.3835907E-2,7.88786E-1,0E0,0E0,0E0,0E0,0E0,1.303902E0,1.6114352E0,0E0,0E0,1.900124E-1,1.5388135E0,0E0,0E0,0E0,0E0],"parents":[2147483647,0,0,1,1,2,2,3,3,4,4,6,6,7,7,13,13,14,14,17,17,18,18],"right_children":[2,4,6,8,10,-1,12,14,-1,-1,-1,-1,-1,16,18,-1,-1,20,22,-1,-1,-1,-1],"split_conditions":[2.54E2,-3.2143947E-1,1.5E1,2.38E2,9.749279E-1,-7.950957E-2,1.6E1,-7.518398E-1,-1.0849998E-1,-1.19736835E-1,-1.3799515E-2,2.1000001E-1,6.350724E-2,2.33E2,2.34E2,2.1000001E-1,-7.4721865E-2,2.28E2,-8.314696E-1,-9.7099235E-3,-1.1392967E-1,2.1000001E-1,-8.357188E-2],"split_indices":[3,6,0,3,8,0,0,7,0,0,0,0,0,3,3,0,0,3,6,0,0,0,0],"split_type":[0,0,0,0,0,0,0,0,0,0,0,0,0,0,0,0,0,0,0,0,0,0,0],"sum_hessian":[2.324898E1,1.9880627E1,3.3683527E0,1.4560248E1,5.3203793E0,1.1445819E0,2.2237706E0,1.1879624E1,2.6806242E0,4.16625E0,1.154129E0,1.1107734E0,1.1129972E0,2.2430983E0,9.636526E0,1.2367936E0,1.0063045E0,6.073611E0,3.5629153E0,2.8227434E0,3.2508674E0,2.2851303E0,1.277785E0],"tree_param":{"num_deleted":"0","num_feature":"16","num_nodes":"23","size_leaf_vector":"1"}},{"base_weights":[2.7571663E-1,-2.7640404E-2,7E-1,-1.2119986E-1,2.1000001E-1,-7.6555416E-2,7E-1,1.4760342E-1,-2.7131066E-1,2.8568316E-2,2.1000001E-1,-9.627585E-2,5.8991385E-1,-3.34461E-1,2.104522E-2,2.1000001E-1,-7.482064E-2,-2.4123948E-2,-1.3022861E-1,2.336778E-2,-1.3100805E-2,-7.74291E-2,8.668408E-2],"categories":[],"categories_nodes":[],"categories_segments":[],"categories_sizes":[],"default_left":[0,0,0,0,0,0,0,0,0,0,0,0,0,0,0,0,0,0,0,0,0,0,0],"id":14,"left_children":[1,3,5,7,-1,-1,9,11,13,-1,-1,-1,15,17,19,-1,-1,21,-1,-1,-1,-1,-1],"loss_changes":[5.984628E0,1.7838954E0,1.3868527E0,8.220479E-1,0E0,0E0,4.3491268E-1,1.7626792E0,2.4313694E-1,0E0,0E0,0E0,1.2692211E0,3.1652915E-1,1.5219503E-2,0E0,0E0,3.4040236E-1,0E0,0E0,0E0,0E0,0E0],"parents":[2147483647,0,0,1,1,2,2,3,3,6,6,7,7,8,8,12,12,13,13,14,14,17,17],"right_children":[2,4,6,8,-1,-1,10,12,14,-1,-1,-1,16,18,20,-1,-1,22,-1,-1,-1,-1,-1],"split_conditions":[2.54E2,1E0,1.5E1,-8.314696E-1,2.1000001E-1,-7.6555416E-2,-7.933533E-1,2.34E2,9.749279E-1,2.8568316E-2,2.1000001E-1,-9.627585E-2,2.38E2,2.28E2,-5.5557024E-1,2.1000001E-1,-7.482064E-2,2.23E2,-1.3022861E-1,2.336778E-2,-1.3100805E-2,-7.74291E-2,8.668408E-2],"split_indices":[3,12,0,6,0,0,6,3,8,0,0,0,3,3,7,0,0,3,0,0,0,0,0],"split_type":[0,0,0,0,0,0,0,0,0,0,0,0,0,0,0,0,0,0,0,0,0,0,0],"sum_hessian":[2.3003222E1,1.9389812E1,3.6134105E0,1.8380327E1,1.009484E0,1.0571004E0,2.5563102E0,6.592265E0,1.1788062E1,1.5288144E0,1.0274957E0,3.3345492E0,3.2577162E0,9.575652E0,2.21241E0,2.2487395E0,1.0089766E0,2.6290174E0,6.9466352E0,1.0693899E0,1.14302E0,1.605068E0,1.0239495E0],"tree_param":{"num_deleted":"0","num_feature":"16","num_nodes":"23","size_leaf_vector":"1"}},{"base_weights":[2.846873E-1,-1.6283838E-2,7E-1,-1.06757484E-1,2.1000001E-1,2.1000001E-1,4.2236587E-3,1.3539399E-1,-2.5497374E-1,-9.2271954E-2,4.8548535E-1,-3.1983575E-1,1.9373696E-2,2.1000001E-1,1.7327344E-1,-2.0599788E-2,-1.2798844E-1,2.8977498E-2,-1.7733233E-2,1.5458979E-1,-8.183422E-2,-7.658028E-2,8.6256966E-2],"categories":[],"categories_nodes":[],"categories_segments":[],"categories_sizes":[],"default_left":[0,0,0,0,0,0,0,0,0,0,0,0,0,0,0,0,0,0,0,0,0,0,0],"id":15,"left_children":[1,3,5,7,-1,-1,-1,9,11,-1,13,15,17,-1,19,21,-1,-1,-1,-1,-1,-1,-1],"loss_changes":[5.6312466E0,1.4426196E0,8.888416E-1,7.043275E-1,0E0,0E0,0E0,1.3494695E0,2.1836948E-1,0E0,2.9367185E-1,3.012039E-1,2.5241202E-2,0E0,6.906911E-1,3.338543E-1,0E0,0E0,0E0,0E0,0E0,0E0,0E0],"parents":[2147483647,0,0,1,1,2,2,3,3,7,7,8,8,10,10,11,11,12,12,14,14,15,15],"right_children":[2,4,6,8,-1,-1,-1,10,12,-1,14,16,18,-1,20,22,-1,-1,-1,-1,-1,-1,-1],"split_conditions":[2.54E2,1E0,-5.5557024E-1,-8.314696E-1,2.1000001E-1,2.1000001E-1,4.2236587E-3,2.34E2,9.749279E-1,-9.2271954E-2,1E0,2.28E2,-6.087614E-1,2.1000001E-1,2.35E2,2.24E2,-1.2798844E-1,2.8977498E-2,-1.7733233E-2,1.5458979E-1,-8.183422E-2,-7.658028E-2,8.6256966E-2],"split_indices":[3,12,7,6,0,0,0,3,8,0,2,3,7,0,3,3,0,0,0,0,0,0,0],"split_type":[0,0,0,0,0,0,0,0,0,0,0,0,0,0,0,0,0,0,0,0,0,0,0],"sum_hessian":[2.2727613E1,1.8907701E1,3.8199127E0,1.7662323E1,1.2453784E0,1.8892484E0,1.9306642E0,6.7389426E0,1.092338E1,3.0284824E0,3.7104602E0,8.700563E0,2.222817E0,1.1045351E0,2.605925E0,2.6021485E0,6.0984144E0,1.0041554E0,1.2186617E0,1.3870909E0,1.2188342E0,1.5745242E0,1.0276244E0],"tree_param":{"num_deleted":"0","num_feature":"16","num_nodes":"23","size_leaf_vector":"1"}},{"base_weights":[2.8075874E-1,-8.194588E-3,7E-1,-9.334481E-2,1.8021482E-1,-7.890154E-2,7E-1,1.1139003E-1,-2.4935766E-1,2.5060909E-2,2.1000001E-1,-2.4455135E-1,3.6183664E-1,-3.2524553E-1,3.383793E-2,-2.2940058E-2,-9.259346E-2,5.5949485E-1,-7.48071E-2,-7.350874E-2,-1.2417047E-1,2.8545234E-2,-1.20059885E-2,2.0183262E-1,3.3391654E-2,-7.114296E-2,4.731512E-2],"categories":[],"categories_nodes":[],"categories_segments":[],"categories_sizes":[],"default_left":[0,0,0,0,0,0,0,0,0,0,0,0,0,0,0,0,0,0,0,0,0,0,0,0,0,0,0],"id":16,"left_children":[1,3,5,7,-1,-1,9,11,13,-1,-1,15,17,19,21,-1,-1,23,-1,25,-1,-1,-1,-1,-1,-1,-1],"loss_changes":[5.1376076E0,1.0711694E0,1.4815826E0,6.040466E-1,0E0,0E0,4.90386E-1,8.4565085E-1,2.3769152E-1,0E0,0E0,2.0619467E-2,7.905411E-1,1.5733504E-1,1.800428E-2,0E0,0E0,1.4751172E-1,0E0,1.6631527E-1,0E0,0E0,0E0,0E0,0E0,0E0,0E0],"parents":[2147483647,0,0,1,1,2,2,3,3,6,6,7,7,8,8,11,11,12,12,13,13,14,14,17,17,19,19],"right_children":[2,4,6,8,-1,-1,10,12,14,-1,-1,16,18,20,22,-1,-1,24,-1,26,-1,-1,-1,-1,-1,-1,-1],"split_conditions":[2.54E2,1E0,1.5E1,-7.933533E-1,1.8021482E-1,-7.890154E-2,-7.933533E-1,2.34E2,9.749279E-1,2.5060909E-2,2.1000001E-1,2.28E2,2.38E2,2.28E2,-3.2143947E-1,-2.2940058E-2,-9.259346E-2,1.8E1,-7.48071E-2,2.24E2,-1.2417047E-1,2.8545234E-2,-1.20059885E-2,2.0183262E-1,3.3391654E-2,-7.114296E-2,4.731512E-2],"split_indices":[3,12,0,6,0,0,6,3,8,0,0,3,3,3,6,0,0,0,0,3,0,0,0,0,0,0,0],"split_type":[0,0,0,0,0,0,0,0,0,0,0,0,0,0,0,0,0,0,0,0,0,0,0,0,0,0,0],"sum_hessian":[2.2847528E1,1.8577969E1,4.2695603E0,1.7041573E1,1.5363959E0,1.1259732E0,3.1435874E0,7.4936786E0,9.5478945E0,1.5797783E0,1.5638089E0,3.1047146E0,4.3889637E0,7.412961E0,2.1349332E0,1.4624662E0,1.6422485E0,3.380354E0,1.00861E0,2.407126E0,5.005835E0,1.009011E0,1.1259221E0,2.298347E0,1.0820068E0,1.3946005E0,1.0125254E0],"tree_param":{"num_deleted":"0","num_feature":"16","num_nodes":"27","size_leaf_vector":"1"}},{"base_weights":[2.708573E-1,-7.884704E-3,7E-1,-8.616041E-2,1.4504462E-1,-7.596791E-2,7E-1,1.0295253E-1,-2.2398773E-1,7E-1,-7.472316E-2,-8.554408E-2,3.3595368E-1,-2.9071105E-1,1.6666582E-2,2.1000001E-1,4.9984735E-2,1.6951856E-1,1.06289774E-1,-1.0602499E-2,-1.23291016E-1,-1.8578412E-2,2.8746119E-2,-8.852235E-2,1.3606161E-1,-7.3139876E-2,8.1405744E-2],"categories":[],"categories_nodes":[],"categories_segments":[],"categories_sizes":[],"default_left":[0,0,0,0,0,0,0,0,0,0,0,0,0,0,0,0,0,0,0,0,0,0,0,0,0,0,0],"id":17,"left_children":[1,3,5,7,-1,-1,9,11,13,15,-1,-1,17,19,21,-1,-1,-1,23,25,-1,-1,-1,-1,-1,-1,-1],"loss_changes":[4.865808E0,7.941889E-1,1.3641224E0,4.8508066E-1,0E0,0E0,1.3172064E0,8.3347785E-1,1.7453927E-1,1.5200138E-1,0E0,0E0,2.3231119E-1,2.7618414E-1,2.6089067E-2,0E0,0E0,0E0,6.9223636E-1,2.9812855E-1,0E0,0E0,0E0,0E0,0E0,0E0,0E0],"parents":[2147483647,0,0,1,1,2,2,3,3,6,6,7,7,8,8,9,9,12,12,13,13,14,14,18,18,19,19],"right_children":[2,4,6,8,-1,-1,10,12,14,16,-1,-1,18,20,22,-1,-1,-1,24,26,-1,-1,-1,-1,-1,-1,-1],"split_conditions":[2.54E2,1E0,1.5E1,-8.314696E-1,1.4504462E-1,-7.596791E-2,1E0,2.34E2,9.749279E-1,1.6E1,-7.472316E-2,-8.554408E-2,1E0,2.28E2,1.4E1,2.1000001E-1,4.9984735E-2,1.6951856E-1,-1.9509032E-1,2.25E2,-1.23291016E-1,-1.8578412E-2,2.8746119E-2,-8.852235E-2,1.3606161E-1,-7.3139876E-2,8.1405744E-2],"split_indices":[3,12,0,6,0,0,12,3,8,0,0,0,2,3,0,0,0,0,7,3,0,0,0,0,0,0,0],"split_type":[0,0,0,0,0,0,0,0,0,0,0,0,0,0,0,0,0,0,0,0,0,0,0,0,0,0,0],"sum_hessian":[2.3155207E1,1.8565554E1,4.5896525E0,1.672576E1,1.8397952E0,1.0405465E0,3.5491061E0,7.1577034E0,9.568056E0,2.5427668E0,1.0063394E0,2.6012008E0,4.5565023E0,7.3282404E0,2.2398155E0,1.2861581E0,1.2566087E0,1.5499334E0,3.006569E0,2.5280478E0,4.800193E0,1.2330753E0,1.0067402E0,1.4643105E0,1.5422585E0,1.4577268E0,1.0703208E0],"tree_param":{"num_deleted":"0","num_feature":"16","num_nodes":"27","size_leaf_vector":"1"}},{"base_weights":[2.6721513E-1,-5.34396E-3,7E-1,-8.7507784E-2,2.1000001E-1,2.1000001E-1,2.4156221E-3,4.658666E-2,-2.2038463E-1,-1.711129E-1,1.6502818E-1,1.3753136E-2,-3.0903628E-1,-7.720712E-2,1.1034355E-2,2.7348655E-1,-3.8864538E-2,8.383359E-2,-8.17403E-2,-8.695062E-3,-1.0686232E-1,1.3875628E-1,-1.679123E-2],"categories":[],"categories_nodes":[],"categories_segments":[],"categories_sizes":[],"default_left":[0,0,0,0,0,0,0,0,0,0,0,0,0,0,0,0,0,0,0,0,0,0,0],"id":18,"left_children":[1,3,5,7,-1,-1,-1,9,11,13,15,17,19,-1,-1,21,-1,-1,-1,-1,-1,-1,-1],"loss_changes":[4.647805E0,1.2704389E0,9.299364E-1,3.390687E-1,0E0,0E0,0E0,2.863447E-1,2.002604E-1,8.1508346E-2,2.588194E-1,3.461741E-1,8.072692E-2,0E0,0E0,3.641771E-1,0E0,0E0,0E0,0E0,0E0,0E0,0E0],"parents":[2147483647,0,0,1,1,2,2,3,3,7,7,8,8,9,9,10,10,11,11,12,12,15,15],"right_children":[2,4,6,8,-1,-1,-1,10,12,14,16,18,20,-1,-1,22,-1,-1,-1,-1,-1,-1,-1],"split_conditions":[2.54E2,2E0,-5.5557024E-1,-7.933533E-1,2.1000001E-1,2.1000001E-1,2.4156221E-3,2.34E2,-7.933533E-1,-8.9687276E-1,3E0,2.33E2,4E0,-7.720712E-2,1.1034355E-2,-1.3052619E-1,-3.8864538E-2,8.383359E-2,-8.17403E-2,-8.695062E-3,-1.0686232E-1,1.3875628E-1,-1.679123E-2],"split_indices":[3,12,7,6,0,0,0,3,7,6,1,3,0,0,0,7,0,0,0,0,0,0,0],"split_type":[0,0,0,0,0,0,0,0,0,0,0,0,0,0,0,0,0,0,0,0,0,0,0],"sum_hessian":[2.3270391E1,1.846436E1,4.806031E0,1.7453299E1,1.0110614E0,2.8403661E0,1.9656649E0,9.010068E0,8.443231E0,3.0180626E0,5.992005E0,2.550904E0,5.8923264E0,1.9649752E0,1.0530874E0,4.4318604E0,1.5601448E0,1.3351694E0,1.2157347E0,1.0821468E0,4.8101797E0,2.559434E0,1.8724263E0],"tree_param":{"num_deleted":"0","num_feature":"16","num_nodes":"23","size_leaf_vector":"1"}},{"base_weights":[2.4923247E-1,-3.2327422E-3,7E-1,-8.029892E-2,1.8601665E-1,-7.865997E-2,7E-1,-1.4763042E-2,-1.05999716E-1,7E-1,-7.715079E-2,-1.4073326E-1,1.11266404E-1,2.1000001E-1,4.419772E-2,6.447355E-2,-2.5441548E-1,-8.629066E-2,2.3056978E-1,-1.4224124E-2,-9.067312E-2,1.0388293E-1,-1.692102E-2],"categories":[],"categories_nodes":[],"categories_segments":[],"categories_sizes":[],"default_left":[0,0,0,0,0,0,0,0,0,0,0,0,0,0,0,0,0,0,0,0,0,0,0],"id":19,"left_children":[1,3,5,7,-1,-1,9,11,-1,13,-1,15,17,-1,-1,-1,19,-1,21,-1,-1,-1,-1],"loss_changes":[4.0442004E0,9.807485E-1,1.4715247E0,3.1925964E-1,0E0,0E0,1.4102831E0,2.6439148E-1,0E0,2.1992683E-1,0E0,3.893203E-1,4.656151E-1,0E0,0E0,0E0,5.2300245E-2,0E0,2.52418E-1,0E0,0E0,0E0,0E0],"parents":[2147483647,0,0,1,1,2,2,3,3,6,6,7,7,9,9,11,11,12,12,16,16,18,18],"right_children":[2,4,6,8,-1,-1,10,12,-1,14,-1,16,18,-1,-1,-1,20,-1,22,-1,-1,-1,-1],"split_conditions":[2.54E2,2E0,1.5E1,2.4E2,1.8601665E-1,-7.865997E-2,1E0,2.34E2,-1.05999716E-1,1.6E1,-7.715079E-2,-7.933533E-1,-5E-1,2.1000001E-1,4.419772E-2,6.447355E-2,1E0,-8.629066E-2,1.8E1,-1.4224124E-2,-9.067312E-2,1.0388293E-1,-1.692102E-2],"split_indices":[3,12,0,3,0,0,12,3,0,0,0,7,7,0,0,0,1,0,0,0,0,0,0],"split_type":[0,0,0,0,0,0,0,0,0,0,0,0,0,0,0,0,0,0,0,0,0,0,0],"sum_hessian":[2.3855581E1,1.8381065E1,5.4745164E0,1.7133741E1,1.2473245E0,1.1186696E0,4.355847E0,1.466725E1,2.4664912E0,3.2816944E0,1.0741526E0,7.277E0,7.3902497E0,1.9574832E0,1.3242114E0,1.5469717E0,5.7300286E0,1.3765771E0,6.0136724E0,1.4491976E0,4.280831E0,4.138423E0,1.8752494E0],"tree_param":{"num_deleted":"0","num_feature":"16","num_nodes":"23","size_leaf_vector":"1"}},{"base_weights":[2.380291E-1,-3.898329E-3,7E-1,-7.4978806E-2,1.5187845E-1,-7.5734615E-2,7E-1,-1.5354151E-2,-1.0268723E-1,1.7503947E-2,2.1000001E-1,3.4028698E-2,-8.834347E-2,-8.949001E-2,1.415565E-1,6.960618E-2,-6.392246E-2,-8.013748E-2,7.510777E-2],"categories":[],"categories_nodes":[],"categories_segments":[],"categories_sizes":[],"default_left":[0,0,0,0,0,0,0,0,0,0,0,0,0,0,0,0,0,0,0],"id":20,"left_children":[1,3,5,7,-1,-1,9,11,-1,-1,-1,13,-1,15,17,-1,-1,-1,-1],"loss_changes":[3.7402587E0,7.4171245E-1,1.3552032E0,2.801198E-1,0E0,0E0,6.2035894E-1,2.2624244E-1,0E0,0E0,0E0,2.015978E-1,0E0,3.3682612E-1,4.2224652E-1,0E0,0E0,0E0,0E0],"parents":[2147483647,0,0,1,1,2,2,3,3,6,6,7,7,11,11,13,13,14,14],"right_children":[2,4,6,8,-1,-1,10,12,-1,-1,-1,14,-1,16,18,-1,-1,-1,-1],"split_conditions":[2.54E2,2E0,1.5E1,2.4E2,1.5187845E-1,-7.5734615E-2,-7.933533E-1,5E0,-1.0268723E-1,1.7503947E-2,2.1000001E-1,2.34E2,-8.834347E-2,-7.933533E-1,-5E-1,6.960618E-2,-6.392246E-2,-8.013748E-2,7.510777E-2],"split_indices":[3,12,0,3,0,0,6,2,0,0,0,3,0,7,7,0,0,0,0],"split_type":[0,0,0,0,0,0,0,0,0,0,0,0,0,0,0,0,0,0,0],"sum_hessian":[2.4234646E1,1.8407248E1,5.827399E0,1.6904917E1,1.5023303E0,1.0340469E0,4.7933517E0,1.4686494E1,2.2184231E0,1.6968815E0,3.0964704E0,1.3224834E1,1.4616601E0,6.2328367E0,6.9919972E0,1.4869809E0,4.745856E0,1.1641439E0,5.827853E0],"tree_param":{"num_deleted":"0","num_feature":"16","num_nodes":"19","size_leaf_vector":"1"}},{"base_weights":[2.1647774E-1,-6.0357885E-3,7E-1,-7.1133025E-2,1.2490845E-1,7E-1,-7.997948E-2,-1.70249E-2,-9.9348925E-2,2.1000001E-1,1.9011963E-2,2.7462302E-2,-8.5138515E-2,8.9812234E-2,-1.5182392E-1,-6.361545E-2,4.6386994E-2,-5.554892E-3,-7.921091E-2],"categories":[],"categories_nodes":[],"categories_segments":[],"categories_sizes":[],"default_left":[0,0,0,0,0,0,0,0,0,0,0,0,0,0,0,0,0,0,0],"id":21,"left_children":[1,3,5,7,-1,9,-1,11,-1,-1,-1,13,-1,15,17,-1,-1,-1,-1],"loss_changes":[3.1483912E0,5.655813E-1,1.5273557E0,2.4400233E-1,0E0,5.932169E-1,0E0,1.946073E-1,0E0,0E0,0E0,1.7464018E-1,0E0,2.5415474E-1,5.62646E-2,0E0,0E0,0E0,0E0],"parents":[2147483647,0,0,1,1,2,2,3,3,5,5,7,7,11,11,13,13,14,14],"right_children":[2,4,6,8,-1,10,-1,12,-1,-1,-1,14,-1,16,18,-1,-1,-1,-1],"split_conditions":[2.54E2,2E0,1E0,2.4E2,1.2490845E-1,-5.5557024E-1,-7.997948E-2,5E0,-9.9348925E-2,2.1000001E-1,1.9011963E-2,3E0,-8.5138515E-2,2.27E2,-7.933533E-1,-6.361545E-2,4.6386994E-2,-5.554892E-3,-7.921091E-2],"split_indices":[3,12,12,3,0,7,0,2,0,0,0,1,0,3,6,0,0,0,0],"split_type":[0,0,0,0,0,0,0,0,0,0,0,0,0,0,0,0,0,0,0],"sum_hessian":[2.499733E1,1.849181E1,6.5055184E0,1.674307E1,1.7487407E0,5.34633E0,1.159188E0,1.4741145E1,2.0019252E0,3.6736588E0,1.6726716E0,1.3403073E1,1.3380713E0,1.0314932E1,3.088142E0,1.421645E0,8.893287E0,1.9438602E0,1.1442817E0],"tree_param":{"num_deleted":"0","num_feature":"16","num_nodes":"19","size_leaf_vector":"1"}},{"base_weights":[1.907706E-1,-1.0298047E-2,6.4373595E-1,2.6043975E-1,-9.281961E-2,-7.890153E-2,7E-1,4.8495576E-1,-7.839592E-2,-4.3858853E-3,-2.6047146E-1,7E-1,-7.7009745E-2,1.5488051E-2,1.9948158E-1,8.7745085E-2,-7.69596E-2,-1.03634015E-1,-2.1059094E-2,2.1000001E-1,3.53689E-2,4.753755E-3,-8.2086906E-2,-6.9962494E-2,3.5009075E-2],"categories":[],"categories_nodes":[],"categories_segments":[],"categories_sizes":[],"default_left":[0,0,0,0,0,0,0,0,0,0,0,0,0,0,0,0,0,0,0,0,0,0,0,0,0],"id":22,"left_children":[1,3,5,7,9,-1,11,13,-1,15,17,19,-1,-1,-1,-1,21,-1,-1,-1,-1,23,-1,-1,-1],"loss_changes":[2.462946E0,4.6347117E-1,1.4552853E0,6.9557166E-1,2.3320892E-1,0E0,1.4046955E0,2.577672E-1,0E0,2.6737428E-1,6.373036E-2,3.3526516E-1,0E0,0E0,0E0,0E0,1.6078597E-1,0E0,0E0,0E0,0E0,2.4016489E-1,0E0,0E0,0E0],"parents":[2147483647,0,0,1,1,2,2,3,3,4,4,6,6,7,7,9,9,10,10,11,11,16,16,21,21],"right_children":[2,4,6,8,10,-1,12,14,-1,16,18,20,-1,-1,-1,-1,22,-1,-1,-1,-1,24,-1,-1,-1],"split_conditions":[2.54E2,-7.518398E-1,1.5E1,2.33E2,-7.933533E-1,-7.890153E-2,1E0,2E0,-7.839592E-2,-4.422887E-1,6.087614E-1,1.6E1,-7.7009745E-2,1.5488051E-2,1.9948158E-1,8.7745085E-2,1E0,-1.03634015E-1,-2.1059094E-2,2.1000001E-1,3.53689E-2,2.34E2,-8.2086906E-2,-6.9962494E-2,3.5009075E-2],"split_indices":[3,7,0,3,6,0,12,1,0,7,7,0,0,0,0,0,12,0,0,0,0,3,0,0,0],"split_type":[0,0,0,0,0,0,0,0,0,0,0,0,0,0,0,0,0,0,0,0,0,0,0,0,0],"sum_hessian":[2.5969631E1,1.8662655E1,7.3069763E0,3.8559577E0,1.4806697E1,1.125973E0,6.1810036E0,2.7452145E0,1.1107434E0,1.0365316E1,4.441381E0,5.110916E0,1.0700874E0,1.1832498E0,1.5619646E0,1.4409242E0,8.924392E0,2.5064847E0,1.9348962E0,3.6753912E0,1.4355248E0,6.994158E0,1.9302341E0,1.891035E0,5.1031227E0],"tree_param":{"num_deleted":"0","num_feature":"16","num_nodes":"25","size_leaf_vector":"1"}},{"base_weights":[1.7163432E-1,-1.0953762E-2,5.497923E-1,-6.905006E-2,9.927395E-2,-7.596791E-2,6.856851E-1,-2.1842469E-2,-9.491558E-2,1.3737497E-2,2.1000001E-1,1.7820567E-2,-8.1980065E-2,7.192837E-2,-1.4441787E-1,-5.9850357E-2,3.7738733E-2,-5.1743626E-3,-7.657094E-2],"categories":[],"categories_nodes":[],"categories_segments":[],"categories_sizes":[],"default_left":[0,0,0,0,0,0,0,0,0,0,0,0,0,0,0,0,0,0,0],"id":23,"left_children":[1,3,5,7,-1,-1,9,11,-1,-1,-1,13,-1,15,17,-1,-1,-1,-1],"loss_changes":[1.9215264E0,4.1390076E-1,1.1615129E0,1.9924982E-1,0E0,0E0,6.8931055E-1,1.6343744E-1,0E0,0E0,0E0,1.3919298E-1,0E0,1.9573858E-1,5.1999494E-2,0E0,0E0,0E0,0E0],"parents":[2147483647,0,0,1,1,2,2,3,3,6,6,7,7,11,11,13,13,14,14],"right_children":[2,4,6,8,-1,-1,10,12,-1,-1,-1,14,-1,16,18,-1,-1,-1,-1],"split_conditions":[2.54E2,2E0,1.5E1,2.4E2,9.927395E-2,-7.596791E-2,-7.933533E-1,5E0,-9.491558E-2,1.3737497E-2,2.1000001E-1,3E0,-8.1980065E-2,2.27E2,-7.933533E-1,-5.9850357E-2,3.7738733E-2,-5.1743626E-3,-7.657094E-2],"split_indices":[3,12,0,3,0,0,6,2,0,0,0,1,0,3,6,0,0,0,0],"split_type":[0,0,0,0,0,0,0,0,0,0,0,0,0,0,0,0,0,0,0],"sum_hessian":[2.674198E1,1.8689203E1,8.052776E0,1.6656626E1,2.0325787E0,1.0405464E0,7.01223E0,1.4900882E1,1.7557433E0,1.7593083E0,5.2529216E0,1.3673037E1,1.2278453E0,1.0670868E1,3.0021687E0,1.3193427E0,9.351525E0,1.9360701E0,1.0660985E0],"tree_param":{"num_deleted":"0","num_feature":"16","num_nodes":"19","size_leaf_vector":"1"}},{"base_weights":[1.4113766E-1,-1.4648518E-2,4.29517E-1,2.1016966E-1,-8.848476E-2,5.4826504E-1,-8.008435E-2,-4.415697E-2,1.7505954E-1,-1.3758941E-2,-2.4231577E-1,1.9790246E-1,1.4979901E-2,3.2732785E-2,-7.442515E-2,7.350549E-2,-7.966526E-2,-9.971571E-2,-1.6096236E-2,-6.5597766E-3,-8.556992E-2,1.6732818E-2,-6.112347E-2],"categories":[],"categories_nodes":[],"categories_segments":[],"categories_sizes":[],"default_left":[0,0,0,0,0,0,0,0,0,0,0,0,0,0,0,0,0,0,0,0,0,0,0],"id":24,"left_children":[1,3,5,7,9,11,-1,13,-1,15,17,-1,-1,-1,-1,-1,19,-1,-1,21,-1,-1,-1],"loss_changes":[1.3122153E0,3.479379E-1,9.922925E-1,5.196663E-1,1.7643636E-1,4.70397E-1,0E0,1.5282387E-1,0E0,2.1711843E-1,6.8027794E-2,0E0,0E0,0E0,0E0,0E0,1.482419E-1,0E0,0E0,1.1451522E-1,0E0,0E0,0E0],"parents":[2147483647,0,0,1,1,2,2,3,3,4,4,5,5,7,7,9,9,10,10,16,16,19,19],"right_children":[2,4,6,8,10,12,-1,14,-1,16,18,-1,-1,-1,-1,-1,20,-1,-1,22,-1,-1,-1],"split_conditions":[2.54E2,-7.518398E-1,1E0,2E0,-7.933533E-1,-5.5557024E-1,-8.008435E-2,6.234898E-1,1.7505954E-1,-4.422887E-1,6.087614E-1,1.9790246E-1,1.4979901E-2,3.2732785E-2,-7.442515E-2,7.350549E-2,-8.9687276E-1,-9.971571E-2,-1.6096236E-2,1E0,-8.556992E-2,1.6732818E-2,-6.112347E-2],"split_indices":[3,7,12,12,6,7,0,9,0,7,7,0,0,0,0,0,6,0,0,12,0,0,0],"split_type":[0,0,0,0,0,0,0,0,0,0,0,0,0,0,0,0,0,0,0,0,0,0,0],"sum_hessian":[2.8068634E1,1.884015E1,9.228483E0,4.2013526E0,1.4638798E1,8.066009E0,1.162475E0,3.0235226E0,1.1778299E0,1.058595E1,4.0528483E0,6.327609E0,1.7383993E0,1.991626E0,1.0318966E0,1.5971521E0,8.988797E0,2.2275665E0,1.825282E0,7.3919353E0,1.5968622E0,6.161309E0,1.2306265E0],"tree_param":{"num_deleted":"0","num_feature":"16","num_nodes":"23","size_leaf_vector":"1"}},{"base_weights":[1.1342804E-1,-1.4621873E-2,3.2355437E-1,-7.481037E-2,2.3186378E-1,-7.8984566E-2,4.1236332E-1,6.968347E-2,-1.23853885E-1,1.4565878E-1,-1.4839857E-2,5.1669127E-1,-7.711118E-2,-1.23384325E-2,-1.0083393E-1,1.7614539E-1,2.8447645E-2,7.379278E-2,-8.2956545E-2,3.8483946E-3,-9.478391E-2],"categories":[],"categories_nodes":[],"categories_segments":[],"categories_sizes":[],"default_left":[0,0,0,0,0,0,0,0,0,0,0,0,0,0,0,0,0,0,0,0,0],"id":25,"left_children":[1,3,5,7,9,-1,11,-1,13,-1,-1,15,-1,17,-1,-1,-1,-1,19,-1,-1],"loss_changes":[8.223991E-1,3.1167006E-1,7.105118E-1,2.803043E-1,3.1929135E-1,0E0,8.606179E-1,0E0,3.5217676E-1,0E0,0E0,2.2220445E-1,0E0,2.1936661E-1,0E0,0E0,0E0,0E0,2.1189313E-1,0E0,0E0],"parents":[2147483647,0,0,1,1,2,2,3,3,4,4,6,6,8,8,11,11,13,13,18,18],"right_children":[2,4,6,8,10,-1,12,-1,14,-1,-1,16,-1,18,-1,-1,-1,-1,20,-1,-1],"split_conditions":[2.54E2,9.749279E-1,1.5E1,-8.660254E-1,-7.518398E-1,-7.8984566E-2,1E0,6.968347E-2,-7.933533E-1,1.4565878E-1,-1.4839857E-2,1.6E1,-7.711118E-2,-4.422887E-1,-1.0083393E-1,1.7614539E-1,2.8447645E-2,7.379278E-2,1E0,3.8483946E-3,-9.478391E-2],"split_indices":[3,8,0,7,7,0,12,0,6,0,0,0,0,7,0,0,0,0,12,0,0],"split_type":[0,0,0,0,0,0,0,0,0,0,0,0,0,0,0,0,0,0,0,0,0],"sum_hessian":[2.9389065E1,1.8839054E1,1.055001E1,1.570146E1,3.1375942E0,1.1284953E0,9.4215145E0,1.6477596E0,1.40537E1,1.2682351E0,1.8693591E0,8.348505E0,1.0730091E0,9.906967E0,4.1467333E0,6.817971E0,1.5305343E0,1.5938028E0,8.313164E0,6.560866E0,1.7522982E0],"tree_param":{"num_deleted":"0","num_feature":"16","num_nodes":"21","size_leaf_vector":"1"}},{"base_weights":[9.261548E-2,1.6752696E-1,-1.4932072E-1,2.1537477E-1,-8.062671E-2,3.2321226E-2,-2.54573E-1,3.396577E-1,3.599474E-3,-8.298285E-3,-8.851609E-2,4.0608054E-1,-7.605502E-2,3.1147096E-1,-2.2981429E-1,1.7120999E-1,3.096362E-1,-2.1093938E-2,1.4138491E-1,-9.6270904E-2,1.950156E-2,-7.55118E-2,1.19112216E-1],"categories":[],"categories_nodes":[],"categories_segments":[],"categories_sizes":[],"default_left":[0,0,0,0,0,0,0,0,0,0,0,0,0,0,0,0,0,0,0,0,0,0,0],"id":26,"left_children":[1,3,5,7,-1,-1,9,11,13,-1,-1,15,-1,17,19,-1,21,-1,-1,-1,-1,-1,-1],"loss_changes":[5.952354E-1,5.692241E-1,2.429907E-1,5.9438455E-1,0E0,0E0,4.6494037E-2,6.643928E-1,7.456148E-1,0E0,0E0,3.2847643E-2,0E0,3.058241E-1,1.7958161E-1,0E0,6.155517E-1,0E0,0E0,0E0,0E0,0E0,0E0],"parents":[2147483647,0,0,1,1,2,2,3,3,6,6,7,7,8,8,11,11,13,13,14,14,16,16],"right_children":[2,4,6,8,-1,-1,10,12,14,-1,-1,16,-1,18,20,-1,22,-1,-1,-1,-1,-1,-1],"split_conditions":[6.234898E-1,3E0,1E0,-5E-1,-8.062671E-2,3.2321226E-2,-9.8078525E-1,-3.2143947E-1,-9.238795E-1,-8.298285E-3,-8.851609E-2,2.33E2,-7.605502E-2,-9.8078525E-1,6.087614E-1,1.7120999E-1,1.5E1,-2.1093938E-2,1.4138491E-1,-9.6270904E-2,1.950156E-2,-7.55118E-2,1.19112216E-1],"split_indices":[9,12,1,7,0,0,6,6,6,0,0,3,0,6,7,0,0,0,0,0,0,0,0],"split_type":[0,0,0,0,0,0,0,0,0,0,0,0,0,0,0,0,0,0,0,0,0,0,0],"sum_hessian":[3.046251E1,2.3495178E1,6.9673305E0,2.162939E1,1.8657882E0,2.0171714E0,4.950159E0,1.3249752E1,8.379639E0,1.0042428E0,3.9459164E0,1.2199123E1,1.0506293E0,3.4692721E0,4.9103665E0,2.6900733E0,9.50905E0,1.1889493E0,2.2803228E0,3.683747E0,1.2266192E0,1.0278776E0,8.481173E0],"tree_param":{"num_deleted":"0","num_feature":"16","num_nodes":"23","size_leaf_vector":"1"}},{"base_weights":[7.428599E-2,1.15644924E-1,-2.509244E-1,1.479642E-1,-7.6961644E-2,-9.810701E-2,-4.9806805E-3,2.5480393E-1,-2.976072E-2,1.9029981E-1,1.7115001E-1,1.0208884E-1,-2.3136409E-1,-3.7332803E-2,2.6003677E-1,3.5483003E-1,-1.5658763E-1,-1.5518782E-2,-2.7158013E-1,-6.615286E-2,5.2909214E-2,2.5924234E-2,8.212529E-2,1.4394802E-1,1.5104941E-2,-1.441201E-2,-7.367046E-2,-9.307429E-2,-2.5494749E-2],"categories":[],"categories_nodes":[],"categories_segments":[],"categories_sizes":[],"default_left":[0,0,0,0,0,0,0,0,0,0,0,0,0,0,0,0,0,0,0,0,0,0,0,0,0,0,0,0,0],"id":27,"left_children":[1,3,5,7,-1,-1,-1,9,11,13,-1,15,17,19,21,23,25,-1,27,-1,-1,-1,-1,-1,-1,-1,-1,-1,-1],"loss_changes":[4.6578753E-1,3.927264E-1,6.5527886E-2,5.3490406E-1,0E0,0E0,0E0,2.4676144E-1,3.2457563E-1,2.6352698E-1,0E0,5.4845476E-1,2.0504713E-2,2.1989824E-1,5.786538E-3,1.3262415E-1,3.0890353E-2,0E0,1.3434887E-4,0E0,0E0,0E0,0E0,0E0,0E0,0E0,0E0,0E0,0E0],"parents":[2147483647,0,0,1,1,2,2,3,3,7,7,8,8,9,9,11,11,12,12,13,13,14,14,15,15,16,16,18,18],"right_children":[2,4,6,8,-1,-1,-1,10,12,14,-1,16,18,20,22,24,26,-1,28,-1,-1,-1,-1,-1,-1,-1,-1,-1,-1],"split_conditions":[-3.2143947E-1,3E0,6.087614E-1,-4.422887E-1,-7.6961644E-2,-9.810701E-2,-4.9806805E-3,1E0,-9.238795E-1,2.37E2,1.7115001E-1,-2.2252093E-1,1E0,-5.5557024E-1,2.54E2,-1.3052619E-1,1.8E1,-1.5518782E-2,1.7E1,-6.615286E-2,5.2909214E-2,2.5924234E-2,8.212529E-2,1.4394802E-1,1.5104941E-2,-1.441201E-2,-7.367046E-2,-9.307429E-2,-2.5494749E-2],"split_indices":[6,12,7,7,0,0,0,12,6,3,0,9,2,6,3,7,0,0,0,0,0,0,0,0,0,0,0,0,0],"split_type":[0,0,0,0,0,0,0,0,0,0,0,0,0,0,0,0,0,0,0,0,0,0,0,0,0,0,0,0,0],"sum_hessian":[3.1472704E1,2.8493425E1,2.979278E0,2.6771147E1,1.7222795E0,1.9502851E0,1.028993E0,1.6449059E1,1.0322087E1,1.4989206E1,1.4598527E0,6.5391E0,3.7829874E0,3.6241298E0,1.1365077E1,3.1194813E0,3.4196188E0,1.1102164E0,2.6727707E0,1.934249E0,1.6898807E0,1.3664749E0,9.998602E0,1.8032956E0,1.3161857E0,2.234113E0,1.185506E0,1.665072E0,1.0076988E0],"tree_param":{"num_deleted":"0","num_feature":"16","num_nodes":"29","size_leaf_vector":"1"}},{"base_weights":[6.039481E-2,9.5621124E-2,-2.3878604E-1,1.2287422E-1,-7.3420845E-2,-9.490695E-2,-3.6400268E-3,2.0902008E-1,-2.9456103E-2,1.5525255E-1,1.3922265E-1,8.789672E-2,-2.2036587E-1,1.9017561E-1,-4.6493847E-2,2.97174E-1,-1.4740999E-1,-1.442874E-2,-7.813027E-2,-2.7608564E-3,7.033149E-2,1.1741673E-1,1.3698046E-2,-1.3068659E-2,-7.0653066E-2],"categories":[],"categories_nodes":[],"categories_segments":[],"categories_sizes":[],"default_left":[0,0,0,0,0,0,0,0,0,0,0,0,0,0,0,0,0,0,0,0,0,0,0,0,0],"id":28,"left_children":[1,3,5,7,-1,-1,-1,9,11,13,-1,15,17,19,-1,21,23,-1,-1,-1,-1,-1,-1,-1,-1],"loss_changes":[3.7359938E-1,3.1289685E-1,6.28293E-2,3.8534772E-1,0E0,0E0,0E0,1.8276912E-1,2.728618E-1,2.1201855E-1,0E0,4.2407924E-1,1.9174576E-2,1.3976723E-1,0E0,8.683655E-2,2.911301E-2,0E0,0E0,0E0,0E0,0E0,0E0,0E0,0E0],"parents":[2147483647,0,0,1,1,2,2,3,3,7,7,8,8,9,9,11,11,12,12,13,13,15,15,16,16],"right_children":[2,4,6,8,-1,-1,-1,10,12,14,-1,16,18,20,-1,22,24,-1,-1,-1,-1,-1,-1,-1,-1],"split_conditions":[-3.2143947E-1,3E0,6.593458E-1,-4.422887E-1,-7.3420845E-2,-9.490695E-2,-3.6400268E-3,1E0,-9.238795E-1,3E0,1.3922265E-1,-2.2252093E-1,1E0,2.37E2,-4.6493847E-2,-1.3052619E-1,1.8E1,-1.442874E-2,-7.813027E-2,-2.7608564E-3,7.033149E-2,1.1741673E-1,1.3698046E-2,-1.3068659E-2,-7.0653066E-2],"split_indices":[6,12,6,7,0,0,0,12,6,1,0,9,2,3,0,7,0,0,0,0,0,0,0,0,0],"split_type":[0,0,0,0,0,0,0,0,0,0,0,0,0,0,0,0,0,0,0,0,0,0,0,0,0],"sum_hessian":[3.228258E1,2.9490665E1,2.7919157E0,2.7895962E1,1.5947022E0,1.785174E0,1.0067416E0,1.7581259E1,1.0314704E1,1.5848896E1,1.7323617E0,6.7221613E0,3.592543E0,1.4593125E1,1.2557706E0,3.4187067E0,3.3034546E0,1.0931203E0,2.4994228E0,2.7950568E0,1.1798069E1,2.0824893E0,1.3362174E0,2.2021458E0,1.1013088E0],"tree_param":{"num_deleted":"0","num_feature":"16","num_nodes":"25","size_leaf_vector":"1"}},{"base_weights":[4.8181802E-2,7.843233E-2,-2.2703622E-1,1.0166673E-1,-6.99841E-2,-9.157583E-2,-3.374614E-3,1.4968237E-1,-8.596374E-2,1.8044303E-1,-6.895849E-2,4.2274766E-2,-2.0138352E-1,2.2564103E-1,5.594748E-2,-2.2137936E-2,-8.619763E-2,1.1794005E-1,4.5495696E-2,6.283275E-2,-5.649531E-2],"categories":[],"categories_nodes":[],"categories_segments":[],"categories_sizes":[],"default_left":[0,0,0,0,0,0,0,0,0,0,0,0,0,0,0,0,0,0,0,0,0],"id":29,"left_children":[1,3,5,7,-1,-1,-1,9,11,13,-1,-1,15,17,19,-1,-1,-1,-1,-1,-1],"loss_changes":[3.011129E-1,2.5114524E-1,5.7776973E-2,2.8242502E-1,0E0,0E0,0E0,3.238781E-1,2.0465991E-1,1.1643165E-1,0E0,0E0,3.223802E-2,1.4481747E-1,3.1833813E-1,0E0,0E0,0E0,0E0,0E0,0E0],"parents":[2147483647,0,0,1,1,2,2,3,3,7,7,8,8,9,9,12,12,13,13,14,14],"right_children":[2,4,6,8,-1,-1,-1,10,12,14,-1,-1,16,18,20,-1,-1,-1,-1,-1,-1],"split_conditions":[-3.2143947E-1,3E0,6.593458E-1,6.234898E-1,-6.99841E-2,-9.157583E-2,-3.374614E-3,1E0,1E0,1.6E1,-6.895849E-2,4.2274766E-2,-8.9687276E-1,2.33E2,-9.238795E-1,-2.2137936E-2,-8.619763E-2,1.1794005E-1,4.5495696E-2,6.283275E-2,-5.649531E-2],"split_indices":[6,12,6,9,0,0,0,13,1,0,0,0,6,3,6,0,0,0,0,0,0],"split_type":[0,0,0,0,0,0,0,0,0,0,0,0,0,0,0,0,0,0,0,0,0],"sum_hessian":[3.3028736E1,3.0402111E1,2.6266239E0,2.8920298E1,1.4818128E0,1.6235403E0,1.0030836E0,2.318849E1,5.7318087E0,2.1935293E1,1.2531966E0,1.858221E0,3.8735874E0,1.5496764E1,6.4385285E0,2.3070912E0,1.5664963E0,3.426523E0,1.2070241E1,4.0414577E0,2.397071E0],"tree_param":{"num_deleted":"0","num_feature":"16","num_nodes":"21","size_leaf_vector":"1"}},{"base_weights":[3.7318174E-2,6.348876E-2,-2.1577384E-1,8.348145E-2,-6.666221E-2,-8.774867E-2,-5.0531365E-3,1.4252687E-1,-3.0656578E-2,1.0295054E-1,9.743733E-2,9.0729855E-2,-1.5806866E-1,1.3025582E-1,-4.554505E-2,-7.9812795E-2,2.1883392E-1,-4.1849107E-2,-8.3111934E-2,-7.390307E-3,4.917481E-2,-3.8497064E-2,1.0215122E-1,-3.712486E-2,1.6500512E-2],"categories":[],"categories_nodes":[],"categories_segments":[],"categories_sizes":[],"default_left":[0,0,0,0,0,0,0,0,0,0,0,0,0,0,0,0,0,0,0,0,0,0,0,0,0],"id":30,"left_children":[1,3,5,7,-1,-1,-1,9,11,13,-1,15,17,19,-1,-1,21,23,-1,-1,-1,-1,-1,-1,-1],"loss_changes":[2.4367693E-1,2.026996E-1,4.8203826E-2,2.1233356E-1,0E0,0E0,0E0,1.1454046E-1,1.8978676E-1,1.4720929E-1,0E0,3.5276434E-1,6.99735E-2,9.3106E-2,0E0,0E0,2.6716438E-1,3.9820418E-2,0E0,0E0,0E0,0E0,0E0,0E0,0E0],"parents":[2147483647,0,0,1,1,2,2,3,3,7,7,8,8,9,9,11,11,12,12,13,13,16,16,17,17],"right_children":[2,4,6,8,-1,-1,-1,10,12,14,-1,16,18,20,-1,-1,22,24,-1,-1,-1,-1,-1,-1,-1],"split_conditions":[-3.2143947E-1,3E0,3.8268343E-1,-4.422887E-1,-6.666221E-2,-8.774867E-2,-5.0531365E-3,1E0,-2.2252093E-1,3E0,9.743733E-2,-3.2143947E-1,1.8E1,2.37E2,-4.554505E-2,-7.9812795E-2,1E0,2E0,-8.3111934E-2,-7.390307E-3,4.917481E-2,-3.8497064E-2,1.0215122E-1,-3.712486E-2,1.6500512E-2],"split_indices":[6,12,7,7,0,0,0,12,9,1,0,7,0,3,0,0,1,1,0,0,0,0,0,0,0],"split_type":[0,0,0,0,0,0,0,0,0,0,0,0,0,0,0,0,0,0,0,0,0,0,0,0,0],"sum_hessian":[3.3721134E1,3.1239964E1,2.4811723E0,2.9858309E1,1.3816551E0,1.4511577E0,1.0300145E0,1.9514452E1,1.0343857E1,1.731875E1,2.1957002E0,5.444625E0,4.899232E0,1.6083673E1,1.2350777E0,1.1539844E0,4.2906404E0,3.1620615E0,1.7371707E0,2.9191446E0,1.3164528E1,1.0993154E0,3.191325E0,1.5627836E0,1.5992777E0],"tree_param":{"num_deleted":"0","num_feature":"16","num_nodes":"25","size_leaf_vector":"1"}},{"base_weights":[2.7656958E-2,4.5926116E-2,-8.09003E-2,6.24582E-2,-6.335387E-2,8.349998E-2,-5.199586E-2,1.0479069E-1,-4.4682615E-2,-6.060439E-2,1.3642003E-1,1.3396203E-2,-7.264385E-2,1.4464985E-2,5.3444415E-2],"categories":[],"categories_nodes":[],"categories_segments":[],"categories_sizes":[],"default_left":[0,0,0,0,0,0,0,0,0,0,0,0,0,0,0],"id":31,"left_children":[1,3,-1,5,-1,7,-1,9,-1,11,13,-1,-1,-1,-1],"loss_changes":[2.0446123E-1,1.5842286E-1,0E0,1.7757565E-1,0E0,1.6831554E-1,0E0,1.5921775E-1,0E0,1.1256023E-1,8.1695616E-2,0E0,0E0,0E0,0E0],"parents":[2147483647,0,0,1,1,3,3,5,5,7,7,9,9,10,10],"right_children":[2,4,-1,6,-1,8,-1,10,-1,12,14,-1,-1,-1,-1],"split_conditions":[5E0,3E0,-8.09003E-2,-3.2143947E-1,-6.335387E-2,1E0,-5.199586E-2,2E0,-4.4682615E-2,-8.314696E-1,1E0,1.3396203E-2,-7.264385E-2,1.4464985E-2,5.3444415E-2],"split_indices":[2,12,0,6,0,13,0,2,0,6,1,0,0,0,0],"split_type":[0,0,0,0,0,0,0,0,0,0,0,0,0,0,0],"sum_hessian":[3.4361008E1,3.31685E1,1.1925086E0,3.1875925E1,1.2925735E0,2.9857199E1,2.0187273E0,2.7854975E1,2.0022233E0,4.324639E0,2.3530336E1,3.2147484E0,1.1098903E0,8.249112E0,1.5281224E1],"tree_param":{"num_deleted":"0","num_feature":"16","num_nodes":"15","size_leaf_vector":"1"}},{"base_weights":[1.9442644E-2,3.571333E-2,-7.789584E-2,5.023451E-2,-6.0284127E-2,6.817723E-2,-4.859466E-2,8.61173E-2,-4.1551907E-2,-5.776837E-2,1.12601615E-1,1.1742962E-2,-6.97227E-2,6.0702763E-2,2.3094231E-2],"categories":[],"categories_nodes":[],"categories_segments":[],"categories_sizes":[],"default_left":[0,0,0,0,0,0,0,0,0,0,0,0,0,0,0],"id":32,"left_children":[1,3,-1,5,-1,7,-1,9,-1,11,13,-1,-1,-1,-1],"loss_changes":[1.7240612E-1,1.2977047E-1,0E0,1.39025E-1,0E0,1.2944795E-1,0E0,1.1998659E-1,0E0,9.863271E-2,6.590426E-2,0E0,0E0,0E0,0E0],"parents":[2147483647,0,0,1,1,3,3,5,5,7,7,9,9,10,10],"right_children":[2,4,-1,6,-1,8,-1,10,-1,12,14,-1,-1,-1,-1],"split_conditions":[5E0,3E0,-7.789584E-2,-3.2143947E-1,-6.0284127E-2,1E0,-4.859466E-2,2E0,-4.1551907E-2,-8.314696E-1,2.33E2,1.1742962E-2,-6.97227E-2,6.0702763E-2,2.3094231E-2],"split_indices":[2,12,0,6,0,13,0,2,0,6,3,0,0,0,0],"split_type":[0,0,0,0,0,0,0,0,0,0,0,0,0,0,0],"sum_hessian":[3.4923897E1,3.3824062E1,1.0998336E0,3.261084E1,1.2132239E0,3.0694395E1,1.9164442E0,2.8779667E1,1.914728E0,4.2902265E0,2.448944E1,3.2581036E0,1.0321226E0,5.628613E0,1.8860828E1],"tree_param":{"num_deleted":"0","num_feature":"16","num_nodes":"15","size_leaf_vector":"1"}},{"base_weights":[1.3203741E-2,2.7851243E-2,-7.4991904E-2,4.075351E-2,-5.7345588E-2,5.624747E-2,-4.536525E-2,7.158149E-2,-3.860085E-2,1.1830279E-2,1.3217533E-1,1.6861768E-2,-8.483441E-2,3.2173555E-2,7.1750164E-2],"categories":[],"categories_nodes":[],"categories_segments":[],"categories_sizes":[],"default_left":[0,0,0,0,0,0,0,0,0,0,0,0,0,0,0],"id":33,"left_children":[1,3,-1,5,-1,7,-1,9,-1,11,13,-1,-1,-1,-1],"loss_changes":[1.471392E-1,1.07665434E-1,0E0,1.10241316E-1,0E0,1.0101982E-1,0E0,1.0901369E-1,0E0,2.312941E-1,1.4535099E-2,0E0,0E0,0E0,0E0],"parents":[2147483647,0,0,1,1,3,3,5,5,7,7,9,9,10,10],"right_children":[2,4,-1,6,-1,8,-1,10,-1,12,14,-1,-1,-1,-1],"split_conditions":[5E0,3E0,-7.4991904E-2,-3.2143947E-1,-5.7345588E-2,1E0,-4.536525E-2,2.54E2,-3.860085E-2,2.38E2,1.6E1,1.6861768E-2,-8.483441E-2,3.2173555E-2,7.1750164E-2],"split_indices":[2,12,0,6,0,13,0,3,0,3,0,0,0,0,0],"split_type":[0,0,0,0,0,0,0,0,0,0,0,0,0,0,0],"sum_hessian":[3.536354E1,3.4346127E1,1.0174131E0,3.320388E1,1.1422467E0,3.137834E1,1.8255422E0,2.9541542E1,1.8367977E0,1.5475996E1,1.4065545E1,1.4153377E1,1.3226194E0,1.3031458E1,1.0340879E0],"tree_param":{"num_deleted":"0","num_feature":"16","num_nodes":"15","size_leaf_vector":"1"}},{"base_weights":[8.365488E-3,2.3753352E-2,-1.7181803E-1,3.5778716E-2,-5.465975E-2,-7.4218E-2,-3.0754968E-3,7.604417E-2,-4.5886587E-2,4.8510555E-2,2.0377176E-1,3.1119304E-2,-1.9268104E-1,6.912406E-2,-4.4772916E-2,7.2400436E-2,2.248454E-2,-6.5582216E-2,1.1765066E-1,-9.7750835E-3,-7.029729E-2,2.6012927E-2,-2.1950277E-2,7.017601E-2,-2.433817E-2],"categories":[],"categories_nodes":[],"categories_segments":[],"categories_sizes":[],"default_left":[0,0,0,0,0,0,0,0,0,0,0,0,0,0,0,0,0,0,0,0,0,0,0,0,0],"id":34,"left_children":[1,3,5,7,-1,-1,-1,9,11,13,15,17,19,21,-1,-1,-1,-1,23,-1,-1,-1,-1,-1,-1],"loss_changes":[1.0587032E-1,9.246358E-2,3.4217305E-2,1.1405287E-1,0E0,0E0,0E0,7.063632E-2,1.3856067E-1,9.244867E-2,4.8413873E-5,2.1054295E-1,2.0194009E-2,5.371224E-2,0E0,0E0,0E0,0E0,1.8080902E-1,0E0,0E0,0E0,0E0,0E0,0E0],"parents":[2147483647,0,0,1,1,2,2,3,3,7,7,8,8,9,9,10,10,11,11,12,12,13,13,18,18],"right_children":[2,4,6,8,-1,-1,-1,10,12,14,16,18,20,22,-1,-1,-1,-1,24,-1,-1,-1,-1,-1,-1],"split_conditions":[-3.2143947E-1,3E0,6.5403126E-2,-4.422887E-1,-5.465975E-2,-7.4218E-2,-3.0754968E-3,1E0,-9.238795E-1,3E0,-5.5557024E-1,2.34E2,1E0,4E0,-4.4772916E-2,7.2400436E-2,2.248454E-2,-6.5582216E-2,-2.2252093E-1,-9.7750835E-3,-7.029729E-2,2.6012927E-2,-2.1950277E-2,7.017601E-2,-2.433817E-2],"split_indices":[6,12,7,7,0,0,0,12,6,1,6,3,2,2,0,0,0,0,9,0,0,0,0,0,0],"split_type":[0,0,0,0,0,0,0,0,0,0,0,0,0,0,0,0,0,0,0,0,0,0,0,0,0],"sum_hessian":[3.5711964E1,3.3701954E1,2.0100112E0,3.2623383E1,1.0785702E0,1.007513E0,1.0024981E0,2.1896194E1,1.0727188E1,1.9148287E1,2.7479064E0,7.553013E0,3.1741753E0,1.7929771E1,1.218516E0,1.4513388E0,1.2965677E0,1.5508817E0,6.0021315E0,1.0231445E0,2.1510308E0,1.6305243E1,1.6245296E0,3.6754766E0,2.3266547E0],"tree_param":{"num_deleted":"0","num_feature":"16","num_nodes":"25","size_leaf_vector":"1"}},{"base_weights":[4.2203595E-3,1.8131707E-2,-4.9050733E-2,2.8957961E-2,-5.198258E-2,6.429686E-2,-4.4221524E-2,3.9436307E-2,5.364613E-2,4.7432827E-3,-7.938279E-2,-8.277296E-2,6.856124E-2,-1.6481762E-1,6.730336E-2,3.14837E-2,-8.616837E-2,-5.174532E-2,3.069192E-2,-2.4424344E-3,-7.465169E-2,4.8211474E-2,-5.0787743E-2],"categories":[],"categories_nodes":[],"categories_segments":[],"categories_sizes":[],"default_left":[0,0,0,0,0,0,0,0,0,0,0,0,0,0,0,0,0,0,0,0,0,0,0],"id":35,"left_children":[1,3,-1,5,-1,7,9,11,-1,13,-1,15,17,19,21,-1,-1,-1,-1,-1,-1,-1,-1],"loss_changes":[8.933175E-2,7.771321E-2,0E0,9.0924636E-2,0E0,5.9501506E-2,1.2734032E-1,7.860361E-2,0E0,1.2292396E-1,0E0,1.9887389E-1,1.5668327E-1,3.9194778E-2,2.1307863E-1,0E0,0E0,0E0,0E0,0E0,0E0,0E0,0E0],"parents":[2147483647,0,0,1,1,3,3,5,5,6,6,7,7,9,9,11,11,12,12,13,13,14,14],"right_children":[2,4,-1,6,-1,8,10,12,-1,14,-1,16,18,20,22,-1,-1,-1,-1,-1,-1,-1,-1],"split_conditions":[-3.2143947E-1,3E0,-4.9050733E-2,-4.422887E-1,-5.198258E-2,1E0,1E0,1.5E1,5.364613E-2,2.34E2,-7.938279E-2,2.33E2,2.37E2,2.28E2,-9.238795E-1,3.14837E-2,-8.616837E-2,-5.174532E-2,3.069192E-2,-2.4424344E-3,-7.465169E-2,4.8211474E-2,-5.0787743E-2],"split_indices":[6,12,0,7,0,12,12,0,0,3,0,3,3,3,6,0,0,0,0,0,0,0,0],"split_type":[0,0,0,0,0,0,0,0,0,0,0,0,0,0,0,0,0,0,0,0,0,0,0],"sum_hessian":[3.6015823E1,3.408096E1,1.9348648E0,3.305976E1,1.021198E0,2.237574E1,1.0684023E1,1.9489374E1,2.8863645E0,9.542409E0,1.1416136E0,3.396316E0,1.609306E1,2.1312866E0,7.4111223E0,2.0243661E0,1.3719499E0,1.4713863E0,1.4621673E1,1.1268765E0,1.0044101E0,5.5434732E0,1.8676494E0],"tree_param":{"num_deleted":"0","num_feature":"16","num_nodes":"23","size_leaf_vector":"1"}},{"base_weights":[-6.952767E-4,-1.7467909E-2,1.1284334E-1,-1.8094407E-1,1.8885184E-2,1.9458386E-1,-2.9828973E-2,3.570313E-2,-1.0534383E-1,4.866542E-2,-7.306769E-2,9.298219E-2,-1.3340185E-2,4.228693E-4,1.5851716E-2,-9.0182014E-2,1.0040607E-1,-2.8108191E-1,1.051073E-1,2.6435542E-1,6.0219444E-2,-2.6714185E-2,-9.84663E-2,-4.2625606E-2,7.256611E-2,9.762828E-2,2.8097594E-2,1.0337956E-2,6.92015E-2],"categories":[],"categories_nodes":[],"categories_segments":[],"categories_sizes":[],"default_left":[0,0,0,0,0,0,0,0,0,0,0,0,0,0,0,0,0,0,0,0,0,0,0,0,0,0,0,0,0],"id":36,"left_children":[1,3,5,7,9,11,-1,13,-1,15,-1,-1,-1,-1,-1,17,19,21,23,25,27,-1,-1,-1,-1,-1,-1,-1,-1],"loss_changes":[7.316067E-2,2.0212929E-1,1.05161205E-1,2.4032153E-1,2.3272067E-1,1.21573806E-1,0E0,2.0561018E-3,0E0,1.9737223E-1,0E0,0E0,0E0,0E0,0E0,3.1448638E-1,1.13019496E-1,8.22404E-3,1.8672007E-1,6.608367E-3,6.674908E-2,0E0,0E0,0E0,0E0,0E0,0E0,0E0,0E0],"parents":[2147483647,0,0,1,1,2,2,3,3,4,4,5,5,7,7,9,9,15,15,16,16,17,17,18,18,19,19,20,20],"right_children":[2,4,6,8,10,12,-1,14,-1,16,-1,-1,-1,-1,-1,18,20,22,24,26,28,-1,-1,-1,-1,-1,-1,-1,-1],"split_conditions":[9.749279E-1,1.5E1,1.5E1,-8.660254E-1,1E0,-5E-1,-2.9828973E-2,2E0,-1.0534383E-1,2.37E2,-7.306769E-2,9.298219E-2,-1.3340185E-2,4.228693E-4,1.5851716E-2,-1.9509032E-1,2.38E2,2.34E2,2.34E2,1.7E1,3E0,-2.6714185E-2,-9.84663E-2,-4.2625606E-2,7.256611E-2,9.762828E-2,2.8097594E-2,1.0337956E-2,6.92015E-2],"split_indices":[8,0,0,7,12,6,0,12,0,3,0,0,0,0,0,7,3,3,3,0,1,0,0,0,0,0,0,0,0],"split_type":[0,0,0,0,0,0,0,0,0,0,0,0,0,0,0,0,0,0,0,0,0,0,0,0,0,0,0,0,0],"sum_hessian":[3.6382755E1,3.2437096E1,3.9456599E0,5.1774087E0,2.7259687E1,2.9088686E0,1.0367913E0,2.6255822E0,2.5518267E0,2.5213242E1,2.0464454E0,1.7620343E0,1.1468341E0,1.2354248E0,1.3901573E0,6.6431656E0,1.8570076E1,3.1371841E0,3.5059814E0,2.557609E0,1.6012466E1,1.1877155E0,1.9494686E0,1.2350928E0,2.2708886E0,1.2160593E0,1.3415499E0,1.49546175E1,1.0578494E0],"tree_param":{"num_deleted":"0","num_feature":"16","num_nodes":"29","size_leaf_vector":"1"}},{"base_weights":[-1.3420371E-3,9.434646E-3,-4.2243015E-2,-1.1254461E-1,2.235697E-2,-4.51506E-3,-4.4252187E-2,1.01001225E-1,7.1048504E-3,5.5377614E-3,6.5065034E-2,3.1174663E-2,-8.458023E-2,4.8561815E-2,-6.7607686E-2,5.7392843E-2,9.400026E-3,1.1838545E-2,-8.731037E-2],"categories":[],"categories_nodes":[],"categories_segments":[],"categories_sizes":[],"default_left":[0,0,0,0,0,0,0,0,0,0,0,0,0,0,0,0,0,0,0],"id":37,"left_children":[1,3,-1,5,7,-1,-1,9,11,13,-1,15,-1,-1,-1,-1,17,-1,-1],"loss_changes":[5.7588235E-2,5.876311E-2,0E0,9.996347E-3,3.8985558E-2,0E0,0E0,5.744082E-2,2.0914738E-1,1.7844078E-1,0E0,9.404056E-2,0E0,0E0,0E0,0E0,2.3950759E-1,0E0,0E0],"parents":[2147483647,0,0,1,1,3,3,4,4,7,7,8,8,9,9,11,11,16,16],"right_children":[2,4,-1,6,8,-1,-1,10,12,14,-1,16,-1,-1,-1,-1,18,-1,-1],"split_conditions":[-3.2143947E-1,-9.8078525E-1,-4.2243015E-2,3E0,2.28E2,-4.51506E-3,-4.4252187E-2,-5.5557024E-1,-5E-1,1.4E1,6.5065034E-2,-7.518398E-1,-8.458023E-2,4.8561815E-2,-6.7607686E-2,5.7392843E-2,1E0,1.1838545E-2,-8.731037E-2],"split_indices":[6,6,0,2,3,0,0,7,6,0,0,7,0,0,0,0,12,0,0],"split_type":[0,0,0,0,0,0,0,0,0,0,0,0,0,0,0,0,0,0,0],"sum_hessian":[3.6431576E1,3.4683903E1,1.7476704E0,2.583916E0,3.2099987E1,1.0596149E0,1.5243012E0,4.3009515E0,2.7799036E1,2.9327488E0,1.3682028E0,2.6485584E1,1.313452E0,1.9269757E0,1.0057731E0,2.2383618E0,2.4247223E1,2.2831347E1,1.4158767E0],"tree_param":{"num_deleted":"0","num_feature":"16","num_nodes":"19","size_leaf_vector":"1"}},{"base_weights":[-3.4275171E-3,-1.8118098E-2,9.355173E-2,-1.6760767E-1,1.3544408E-2,1.6348918E-1,-2.8500205E-2,2.627668E-2,-1.0108601E-1,3.7841156E-2,-6.6721044E-2,7.1990594E-2,-8.209223E-3,2.2581297E-3,9.711049E-3,-8.645242E-2,8.26351E-2,-2.714401E-1,9.10654E-2,5.2515097E-2,8.178477E-2,-2.5847198E-2,-9.553525E-2,-3.827552E-2,6.741172E-2,2.3434512E-2,-2.6024729E-2],"categories":[],"categories_nodes":[],"categories_segments":[],"categories_sizes":[],"default_left":[0,0,0,0,0,0,0,0,0,0,0,0,0,0,0,0,0,0,0,0,0,0,0,0,0,0,0],"id":38,"left_children":[1,3,5,7,9,11,-1,13,-1,15,-1,-1,-1,-1,-1,17,19,21,23,25,-1,-1,-1,-1,-1,-1,-1],"loss_changes":[5.524857E-2,1.607502E-1,8.288133E-2,2.034575E-1,1.7211828E-1,6.63095E-2,0E0,1.7803768E-4,0E0,1.5604477E-1,0E0,0E0,0E0,0E0,0E0,2.734273E-1,1.0110363E-1,7.0558786E-3,1.634824E-1,7.326239E-2,0E0,0E0,0E0,0E0,0E0,0E0,0E0],"parents":[2147483647,0,0,1,1,2,2,3,3,4,4,5,5,7,7,9,9,15,15,16,16,17,17,18,18,19,19],"right_children":[2,4,6,8,10,12,-1,14,-1,16,-1,-1,-1,-1,-1,18,20,22,24,26,-1,-1,-1,-1,-1,-1,-1],"split_conditions":[9.749279E-1,1.5E1,1.5E1,-8.660254E-1,1E0,-5E-1,-2.8500205E-2,2E0,-1.0108601E-1,2.37E2,-6.6721044E-2,7.1990594E-2,-8.209223E-3,2.2581297E-3,9.711049E-3,-1.9509032E-1,3E0,2.34E2,-9.8078525E-1,-4.422887E-1,8.178477E-2,-2.5847198E-2,-9.553525E-2,-3.827552E-2,6.741172E-2,2.3434512E-2,-2.6024729E-2],"split_indices":[8,0,0,7,12,6,0,12,0,3,0,0,0,0,0,7,1,3,6,7,0,0,0,0,0,0,0],"split_type":[0,0,0,0,0,0,0,0,0,0,0,0,0,0,0,0,0,0,0,0,0,0,0,0,0,0,0],"sum_hessian":[3.6589867E1,3.2482533E1,4.1073337E0,4.926983E0,2.755555E1,3.0930068E0,1.0143268E0,2.690946E0,2.236037E0,2.5744164E1,1.811386E0,2.024425E0,1.0685817E0,1.2082973E0,1.4826487E0,6.5736613E0,1.9170502E1,2.9600098E0,3.6136515E0,1.7648838E1,1.5216647E0,1.1723112E0,1.7876986E0,1.3880149E0,2.2256367E0,1.5279249E1,2.3695881E0],"tree_param":{"num_deleted":"0","num_feature":"16","num_nodes":"27","size_leaf_vector":"1"}},{"base_weights":[-5.2647716E-3,-9.500475E-2,7.651807E-3,-8.932686E-2,2.7017996E-2,-1.7017577E-2,1.7243956E-1,-9.064774E-2,9.565632E-3,6.901255E-2,8.806309E-3,3.1105272E-2,-6.3152E-2,-8.153599E-2,7.051464E-2,-7.797532E-2,2.346672E-2,6.727476E-2,1.0263374E-2],"categories":[],"categories_nodes":[],"categories_segments":[],"categories_sizes":[],"default_left":[0,0,0,0,0,0,0,0,0,0,0,0,0,0,0,0,0,0,0],"id":39,"left_children":[1,3,5,-1,-1,7,9,-1,11,-1,-1,13,-1,15,17,-1,-1,-1,-1],"loss_changes":[4.446156E-2,2.0774402E-1,1.4077985E-1,0E0,0E0,2.333478E-1,3.0378297E-2,0E0,1.4297317E-1,0E0,0E0,1.2598552E-1,0E0,2.3360878E-1,1.0730746E-1,0E0,0E0,0E0,0E0],"parents":[2147483647,0,0,1,1,2,2,5,5,6,6,8,8,11,11,13,13,14,14],"right_children":[2,4,6,-1,-1,8,10,-1,12,-1,-1,14,-1,16,18,-1,-1,-1,-1],"split_conditions":[-8.314696E-1,4E0,9.749279E-1,-8.932686E-2,2.7017996E-2,1.5E1,-7.518398E-1,-9.064774E-2,1E0,6.901255E-2,8.806309E-3,2.37E2,-6.3152E-2,-1.9509032E-1,2.38E2,-7.797532E-2,2.346672E-2,6.727476E-2,1.0263374E-2],"split_indices":[7,2,8,0,0,0,7,0,12,0,0,3,0,7,3,0,0,0,0],"split_type":[0,0,0,0,0,0,0,0,0,0,0,0,0,0,0,0,0,0,0],"sum_hessian":[3.673043E1,3.821902E0,3.2908527E1,1.5332208E0,2.2886813E0,2.9403446E1,3.5050826E0,1.6234257E0,2.778002E1,2.0657432E0,1.4393394E0,2.6085548E1,1.6944721E0,6.483948E0,1.96016E1,2.767213E0,3.7167351E0,2.7555497E0,1.684605E1],"tree_param":{"num_deleted":"0","num_feature":"16","num_nodes":"19","size_leaf_vector":"1"}},{"base_weights":[-6.4834347E-3,8.935573E-3,-8.0183305E-2,-1.2013076E-2,5.8933E-2,-8.343749E-2,1.8859323E-2,7.009205E-3,-7.524641E-2,5.2148912E-2,-1.01827994E-1,7.1305126E-2,-1.2116103E-2,1.0167815E-2,-6.8734504E-2,1.9538222E-2,-1.4708392E-1,1.1348641E-2,-1.944225E-2,-8.574183E-2,2.9378483E-2],"categories":[],"categories_nodes":[],"categories_segments":[],"categories_sizes":[],"default_left":[0,0,0,0,0,0,0,0,0,0,0,0,0,0,0,0,0,0,0,0,0],"id":40,"left_children":[1,3,5,7,-1,-1,9,11,-1,-1,13,-1,15,-1,-1,17,19,-1,-1,-1,-1],"loss_changes":[4.3699156E-2,1.2876314E-1,1.3550788E-1,1.3753085E-1,0E0,0E0,1.18043505E-1,1.2930201E-1,0E0,0E0,7.0764855E-2,0E0,1.1999288E-1,0E0,0E0,3.8070664E-2,2.0898426E-1,0E0,0E0,0E0,0E0],"parents":[2147483647,0,0,1,1,2,2,3,3,6,6,7,7,10,10,12,12,15,15,16,16],"right_children":[2,4,6,8,-1,-1,10,12,-1,-1,14,-1,16,-1,-1,18,20,-1,-1,-1,-1],"split_conditions":[6.234898E-1,1.3052619E-1,1E0,-1.3052619E-1,5.8933E-2,-8.343749E-2,1E0,-9.659258E-1,-7.524641E-2,5.2148912E-2,-8.9687276E-1,7.1305126E-2,-5E-1,1.0167815E-2,-6.8734504E-2,-5E-1,3E0,1.1348641E-2,-1.944225E-2,-8.574183E-2,2.9378483E-2],"split_indices":[9,7,11,7,0,0,1,6,0,0,6,0,7,0,0,6,1,0,0,0,0],"split_type":[0,0,0,0,0,0,0,0,0,0,0,0,0,0,0,0,0,0,0,0,0],"sum_hessian":[3.682425E1,3.1179777E1,5.644473E0,2.888827E1,2.2915077E0,1.2793978E0,4.365075E0,2.765598E1,1.2322888E0,1.7183152E0,2.6467597E0,1.2424777E0,2.6413502E1,1.6360449E0,1.010715E0,2.2088314E1,4.325187E0,1.8605228E1,3.4830863E0,2.6553E0,1.6698875E0],"tree_param":{"num_deleted":"0","num_feature":"16","num_nodes":"21","size_leaf_vector":"1"}},{"base_weights":[-7.229248E-3,7.0809154E-3,-7.633471E-2,-1.1678736E-2,5.0502762E-2,-8.035421E-2,1.4896382E-2,5.8045145E-3,-7.2173245E-2,4.5565777E-2,-2.8888159E-2,6.263944E-2,-1.1707251E-2,1.6310863E-2,-1.3567084E-1,2.3826784E-2,-2.8349475E-3,-8.172784E-2,2.611353E-2],"categories":[],"categories_nodes":[],"categories_segments":[],"categories_sizes":[],"default_left":[0,0,0,0,0,0,0,0,0,0,0,0,0,0,0,0,0,0,0],"id":41,"left_children":[1,3,5,7,-1,-1,9,11,-1,-1,-1,-1,13,15,17,-1,-1,-1,-1],"loss_changes":[3.8002312E-2,9.9675134E-2,1.19018435E-1,1.2092364E-1,0E0,0E0,9.697912E-2,1.04554325E-1,0E0,0E0,0E0,0E0,9.734591E-2,3.8523752E-2,1.8077676E-1,0E0,0E0,0E0,0E0],"parents":[2147483647,0,0,1,1,2,2,3,3,6,6,7,7,12,12,13,13,14,14],"right_children":[2,4,6,8,-1,-1,10,12,-1,-1,-1,-1,14,16,18,-1,-1,-1,-1],"split_conditions":[6.234898E-1,1.3052619E-1,1E0,-1.3052619E-1,5.0502762E-2,-8.035421E-2,1E0,-9.659258E-1,-7.2173245E-2,4.5565777E-2,-2.8888159E-2,6.263944E-2,-5E-1,2.33E2,3E0,2.3826784E-2,-2.8349475E-3,-8.172784E-2,2.611353E-2],"split_indices":[9,7,11,7,0,0,1,6,0,0,0,0,7,3,1,0,0,0,0],"split_type":[0,0,0,0,0,0,0,0,0,0,0,0,0,0,0,0,0,0,0],"sum_hessian":[3.6881897E1,3.1298273E1,5.583624E0,2.886766E1,2.4306116E0,1.1769803E0,4.4066434E0,2.7724695E1,1.1429663E0,1.8103011E0,2.5963423E0,1.3343078E0,2.6390387E1,2.2233597E1,4.156791E0,5.840853E0,1.6392742E1,2.4371169E0,1.7196741E0],"tree_param":{"num_deleted":"0","num_feature":"16","num_nodes":"19","size_leaf_vector":"1"}},{"base_weights":[-7.240064E-3,-8.8106886E-2,4.1999314E-3,-8.5594594E-2,2.346576E-2,-1.6355412E-2,1.3386448E-1,-8.689757E-2,7.5239544E-3,6.586405E-2,-2.8129065E-2,2.513859E-2,-5.6522846E-2,-1.3948871E-1,4.59696E-2,-7.040853E-2,1.1710183E-2,4.895248E-2,6.595317E-3],"categories":[],"categories_nodes":[],"categories_segments":[],"categories_sizes":[],"default_left":[0,0,0,0,0,0,0,0,0,0,0,0,0,0,0,0,0,0,0],"id":42,"left_children":[1,3,5,-1,-1,7,9,-1,11,-1,-1,13,-1,15,17,-1,-1,-1,-1],"loss_changes":[3.541597E-2,1.7780901E-1,9.318875E-2,0E0,0E0,2.0032796E-1,1.1382747E-1,0E0,1.0446701E-1,0E0,0E0,1.00360446E-1,0E0,6.5673776E-2,6.689034E-2,0E0,0E0,0E0,0E0],"parents":[2147483647,0,0,1,1,2,2,5,5,6,6,8,8,11,11,13,13,14,14],"right_children":[2,4,6,-1,-1,8,10,-1,12,-1,-1,14,-1,16,18,-1,-1,-1,-1],"split_conditions":[-8.314696E-1,4E0,9.749279E-1,-8.5594594E-2,2.346576E-2,1.5E1,1.5E1,-8.689757E-2,1E0,6.586405E-2,-2.8129065E-2,2.34E2,-5.6522846E-2,-8.660254E-1,1E0,-7.040853E-2,1.1710183E-2,4.895248E-2,6.595317E-3],"split_indices":[7,2,8,0,0,0,0,0,12,0,0,3,0,6,2,0,0,0,0],"split_type":[0,0,0,0,0,0,0,0,0,0,0,0,0,0,0,0,0,0,0],"sum_hessian":[3.6882732E1,3.7404757E0,3.3142258E1,1.3840488E0,2.356427E0,2.9361525E1,3.7807333E0,1.4649429E0,2.7896582E1,2.772593E0,1.0081403E0,2.6395311E1,1.5012699E0,2.324961E0,2.407035E1,1.3110986E0,1.0138624E0,3.103202E0,2.0967148E1],"tree_param":{"num_deleted":"0","num_feature":"16","num_nodes":"19","size_leaf_vector":"1"}},{"base_weights":[-8.73414E-3,4.7522113E-3,-7.4206695E-2,-1.2568232E-2,1.5040064E-1,-7.7385485E-2,9.550445E-3,3.1413771E-3,-6.8485186E-2,5.7072263E-2,1.5358361E-2,3.577573E-2,-2.5742078E-2,5.5647306E-2,-1.3001628E-2,1.1129042E-2,-1.2382978E-1,7.994982E-3,-1.8380268E-2,-7.7336416E-2,2.3146568E-2],"categories":[],"categories_nodes":[],"categories_segments":[],"categories_sizes":[],"default_left":[0,0,0,0,0,0,0,0,0,0,0,0,0,0,0,0,0,0,0,0,0],"id":43,"left_children":[1,3,5,7,9,-1,11,13,-1,-1,-1,-1,-1,-1,15,17,19,-1,-1,-1,-1],"loss_changes":[3.390501E-2,8.374744E-2,1.0327469E-1,1.0211894E-1,4.195854E-3,0E0,6.738838E-2,8.741835E-2,0E0,0E0,0E0,0E0,0E0,0E0,7.482587E-2,2.80059E-2,1.5431863E-1,0E0,0E0,0E0,0E0],"parents":[2147483647,0,0,1,1,2,2,3,3,4,4,6,6,7,7,14,14,15,15,16,16],"right_children":[2,4,6,8,10,-1,12,14,-1,-1,-1,-1,-1,-1,16,18,20,-1,-1,-1,-1],"split_conditions":[6.234898E-1,1.3052619E-1,1E0,-1.3052619E-1,-9.238795E-1,-7.7385485E-2,1E0,-9.659258E-1,-6.8485186E-2,5.7072263E-2,1.5358361E-2,3.577573E-2,-2.5742078E-2,5.5647306E-2,-5E-1,-5E-1,3E0,7.994982E-3,-1.8380268E-2,-7.7336416E-2,2.3146568E-2],"split_indices":[9,7,11,7,6,0,1,6,0,0,0,0,0,0,7,6,1,0,0,0,0],"split_type":[0,0,0,0,0,0,0,0,0,0,0,0,0,0,0,0,0,0,0,0,0],"sum_hessian":[3.6998753E1,3.1448298E1,5.5504546E0,2.892255E1,2.5257478E0,1.0867046E0,4.46375E0,2.7877773E1,1.0447758E0,1.1473498E0,1.3783978E0,1.9592202E0,2.5045297E0,1.4140729E0,2.6463701E1,2.2470722E1,3.9929788E0,1.9024092E1,3.4466307E0,2.2264245E0,1.7665545E0],"tree_param":{"num_deleted":"0","num_feature":"16","num_nodes":"21","size_leaf_vector":"1"}},{"base_weights":[-8.642723E-3,-1.6568681E-3,-3.8110804E-2,-1.4509228E-2,6.64357E-2,-4.771095E-2,-1.2666438E-3,1.1817297E-2,-8.4784806E-2,3.2093305E-2,-8.7731324E-2,-8.37353E-2,2.1979993E-2,1.6518882E-2,-3.2504685E-2,2.4618313E-2,-6.0041774E-2],"categories":[],"categories_nodes":[],"categories_segments":[],"categories_sizes":[],"default_left":[0,0,0,0,0,0,0,0,0,0,0,0,0,0,0,0,0],"id":44,"left_children":[1,3,-1,5,-1,-1,7,9,11,13,15,-1,-1,-1,-1,-1,-1],"loss_changes":[3.1211566E-2,1.089888E-1,0E0,6.834986E-2,0E0,0E0,3.795752E-2,6.360352E-2,1.6489539E-1,8.904038E-2,1.18799284E-1,0E0,0E0,0E0,0E0,0E0,0E0],"parents":[2147483647,0,0,1,1,3,3,6,6,7,7,8,8,9,9,10,10],"right_children":[2,4,-1,6,-1,-1,8,10,12,14,16,-1,-1,-1,-1,-1,-1],"split_conditions":[6.593458E-1,3.2143947E-1,-3.8110804E-2,1E0,6.64357E-2,-4.771095E-2,-5E-1,4E0,4E0,1E0,-9.659258E-1,-8.37353E-2,2.1979993E-2,1.6518882E-2,-3.2504685E-2,2.4618313E-2,-6.0041774E-2],"split_indices":[7,7,0,11,0,0,6,2,2,12,6,0,0,0,0,0,0],"split_type":[0,0,0,0,0,0,0,0,0,0,0,0,0,0,0,0,0],"sum_hessian":[3.699163E1,3.5888035E1,1.1035969E0,3.4817326E1,1.070708E0,1.9983377E0,3.281899E1,2.9116163E1,3.7028267E0,2.475225E1,4.3639126E0,1.3172292E0,2.3855975E0,2.1795483E1,2.9567664E0,1.8457998E0,2.518113E0],"tree_param":{"num_deleted":"0","num_feature":"16","num_nodes":"17","size_leaf_vector":"1"}},{"base_weights":[-9.336713E-3,-1.7597518E-3,-3.2456305E-2,1.2965501E-2,-8.4350035E-2,9.3403534E-4,4.2904537E-2,1.0252767E-2,-7.332322E-2,1.3151966E-2,-3.784011E-2,3.5762303E-2,-3.616264E-2,4.6190247E-2,-6.4820686E-4,2.7786804E-2,-1.0170724E-2],"categories":[],"categories_nodes":[],"categories_segments":[],"categories_sizes":[],"default_left":[0,0,0,0,0,0,0,0,0,0,0,0,0,0,0,0,0],"id":45,"left_children":[1,3,-1,5,7,9,-1,11,-1,13,-1,-1,-1,-1,15,-1,-1],"loss_changes":[2.8305497E-2,4.5305632E-2,0E0,4.9497694E-2,8.781801E-2,4.829639E-2,0E0,7.851012E-2,0E0,5.511528E-2,0E0,0E0,0E0,0E0,8.620104E-2,0E0,0E0],"parents":[2147483647,0,0,1,1,3,3,4,4,5,5,7,7,9,9,14,14],"right_children":[2,4,-1,6,8,10,-1,12,-1,14,-1,-1,-1,-1,16,-1,-1],"split_conditions":[1E0,6.234898E-1,-3.2456305E-2,3.2143947E-1,-8.314696E-1,-1.3052619E-1,4.2904537E-2,-3.2143947E-1,-7.332322E-2,-9.659258E-1,-3.784011E-2,3.5762303E-2,-3.616264E-2,4.6190247E-2,2.33E2,2.7786804E-2,-1.0170724E-2],"split_indices":[13,9,0,7,6,7,0,7,0,6,0,0,0,0,3,0,0],"split_type":[0,0,0,0,0,0,0,0,0,0,0,0,0,0,0,0,0],"sum_hessian":[3.7045746E1,3.5353676E1,1.6920696E0,3.0719604E1,4.6340704E0,2.9040154E1,1.6794511E0,3.5008566E0,1.1332136E0,2.7310652E1,1.729502E0,1.958214E0,1.5426427E0,1.5310504E0,2.57796E1,6.3063517E0,1.947325E1],"tree_param":{"num_deleted":"0","num_feature":"16","num_nodes":"17","size_leaf_vector":"1"}},{"base_weights":[-8.628391E-3,-1.8876955E-3,-3.713638E-2,-1.344159E-2,5.685729E-2,-4.200595E-2,-2.446679E-3,1.0408709E-2,-8.4529825E-2,2.9305773E-2,-8.36644E-2,-8.034319E-2,1.6523754E-2,1.5216968E-2,-3.118749E-2,1.9147752E-2,-5.6206968E-2],"categories":[],"categories_nodes":[],"categories_segments":[],"categories_sizes":[],"default_left":[0,0,0,0,0,0,0,0,0,0,0,0,0,0,0,0,0],"id":46,"left_children":[1,3,-1,5,-1,-1,7,9,11,13,15,-1,-1,-1,-1,-1,-1],"loss_changes":[2.925667E-2,8.416543E-2,0E0,4.939483E-2,0E0,0E0,3.6651228E-2,5.6138273E-2,1.3501057E-1,7.916418E-2,9.318367E-2,0E0,0E0,0E0,0E0,0E0,0E0],"parents":[2147483647,0,0,1,1,3,3,6,6,7,7,8,8,9,9,10,10],"right_children":[2,4,-1,6,-1,-1,8,10,12,14,16,-1,-1,-1,-1,-1,-1],"split_conditions":[6.593458E-1,3.2143947E-1,-3.713638E-2,1E0,5.685729E-2,-4.200595E-2,-5E-1,4E0,4E0,1E0,-9.659258E-1,-8.034319E-2,1.6523754E-2,1.5216968E-2,-3.118749E-2,1.9147752E-2,-5.6206968E-2],"split_indices":[7,7,0,11,0,0,6,2,2,12,6,0,0,0,0,0,0],"split_type":[0,0,0,0,0,0,0,0,0,0,0,0,0,0,0,0,0],"sum_hessian":[3.6990517E1,3.5905247E1,1.085269E0,3.473818E1,1.1670684E0,1.8384277E0,3.289975E1,2.9199835E1,3.6999161E0,2.4888752E1,4.311083E0,1.2027014E0,2.4972148E0,2.1976234E1,2.9125187E0,1.9383992E0,2.3726838E0],"tree_param":{"num_deleted":"0","num_feature":"16","num_nodes":"17","size_leaf_vector":"1"}},{"base_weights":[-9.361636E-3,-1.9906826E-2,5.7513125E-2,-1.3101284E-1,1.0161718E-3,-3.6410287E-2,5.680887E-2,2.5017086E-2,-9.0136096E-2,1.412824E-2,-4.7930684E-2,5.369E-3,-2.9485652E-2,1.5446878E-2,-1.3513461E-3,-1.2568721E-1,3.0938761E-2,-6.64651E-2,1.2776073E-2,1.0395892E-1,2.7119375E-3,-2.5284594E-2,4.7744494E-2,6.493806E-3,-3.9407246E-2],"categories":[],"categories_nodes":[],"categories_segments":[],"categories_sizes":[],"default_left":[0,0,0,0,0,0,0,0,0,0,0,0,0,0,0,0,0,0,0,0,0,0,0,0,0],"id":47,"left_children":[1,3,5,7,9,11,-1,13,-1,15,-1,-1,-1,-1,-1,17,19,-1,-1,21,23,-1,-1,-1,-1],"loss_changes":[2.7976412E-2,7.826108E-2,7.4256524E-2,1.4852732E-1,6.397449E-2,1.525163E-2,0E0,3.123412E-3,0E0,6.966589E-2,0E0,0E0,0E0,0E0,0E0,6.1075184E-2,5.2863583E-2,0E0,0E0,8.781626E-2,5.2655764E-2,0E0,0E0,0E0,0E0],"parents":[2147483647,0,0,1,1,2,2,3,3,4,4,5,5,7,7,9,9,15,15,16,16,19,19,20,20],"right_children":[2,4,6,8,10,12,-1,14,-1,16,-1,-1,-1,-1,-1,18,20,-1,-1,22,24,-1,-1,-1,-1],"split_conditions":[9.749279E-1,1.5E1,-5.5557024E-1,-8.660254E-1,1E0,-7.518398E-1,5.680887E-2,1E0,-9.0136096E-2,2.34E2,-4.7930684E-2,5.369E-3,-2.9485652E-2,1.5446878E-2,-1.3513461E-3,-8.660254E-1,-9.238795E-1,-6.64651E-2,1.2776073E-2,1E0,-4.422887E-1,-2.5284594E-2,4.7744494E-2,6.493806E-3,-3.9407246E-2],"split_indices":[8,0,6,7,12,7,0,12,0,3,0,0,0,0,0,6,6,0,0,1,7,0,0,0,0],"split_type":[0,0,0,0,0,0,0,0,0,0,0,0,0,0,0,0,0,0,0,0,0,0,0,0,0],"sum_hessian":[3.704769E1,3.2608177E1,4.439515E0,4.333676E0,2.82745E1,3.015365E0,1.4241502E0,2.6998591E0,1.6338166E0,2.698592E1,1.2885793E0,1.9844258E0,1.0309391E0,1.0311103E0,1.668749E0,2.2012358E0,2.4784685E1,1.200644E0,1.0005916E0,6.161772E0,1.8622913E1,1.2774576E0,4.8843145E0,1.7053116E1,1.5697964E0],"tree_param":{"num_deleted":"0","num_feature":"16","num_nodes":"25","size_leaf_vector":"1"}},{"base_weights":[-1.0252608E-2,5.3363774E-2,-2.1171913E-2,-2.4268948E-2,4.525798E-2,-7.518047E-2,-6.144569E-3,1.2401791E-3,-1.1456416E-2,-2.1273522E-2,5.6501564E-2,-1.3332115E-1,-3.3277012E-3,7.0049036E-3,-8.345272E-2,6.9362726E-3,-3.3560593E-2,2.9377561E-2,-2.953505E-3],"categories":[],"categories_nodes":[],"categories_segments":[],"categories_sizes":[],"default_left":[0,0,0,0,0,0,0,0,0,0,0,0,0,0,0,0,0,0,0],"id":48,"left_children":[1,3,5,7,-1,-1,9,-1,-1,11,-1,13,15,-1,-1,17,-1,-1,-1],"loss_changes":[2.7607933E-2,4.807668E-2,1.13094136E-1,1.7899564E-3,0E0,0E0,9.883914E-2,0E0,0E0,6.1494008E-2,0E0,1.0241964E-1,3.1497236E-2,0E0,0E0,4.0870164E-2,0E0,0E0,0E0],"parents":[2147483647,0,0,1,1,2,2,3,3,6,6,9,9,11,11,12,12,15,15],"right_children":[2,4,6,8,-1,-1,10,-1,-1,12,-1,14,16,-1,-1,18,-1,-1,-1],"split_conditions":[2.28E2,1.5E1,-8.314696E-1,3E0,4.525798E-2,-7.518047E-2,-5.5557024E-1,1.2401791E-3,-1.1456416E-2,2.34E2,5.6501564E-2,-7.518398E-1,1E0,7.0049036E-3,-8.345272E-2,-9.659258E-1,-3.3560593E-2,2.9377561E-2,-2.953505E-3],"split_indices":[3,0,7,1,0,0,6,0,0,3,0,7,13,0,0,6,0,0,0],"split_type":[0,0,0,0,0,0,0,0,0,0,0,0,0,0,0,0,0,0,0],"sum_hessian":[3.7117393E1,4.8681602E0,3.2249233E1,3.1282911E0,1.7398691E0,1.0187728E0,3.1230461E1,1.2600588E0,1.8682325E0,2.9802708E1,1.4277548E0,3.226768E0,2.657594E1,1.9531256E0,1.2736424E0,2.5135172E1,1.440766E0,3.1609535E0,2.1974218E1],"tree_param":{"num_deleted":"0","num_feature":"16","num_nodes":"19","size_leaf_vector":"1"}},{"base_weights":[-9.788784E-3,-3.210711E-3,-3.6683798E-2,-1.3900584E-2,5.0865058E-2,-3.933179E-2,-3.946578E-3,7.852334E-2,-1.6812671E-2,4.4055402E-2,-4.2684185E-3,4.4600226E-2,-3.7570674E-2,2.8447019E-2,-2.7357435E-3,-5.7235632E-2,2.5225421E-3],"categories":[],"categories_nodes":[],"categories_segments":[],"categories_sizes":[],"default_left":[0,0,0,0,0,0,0,0,0,0,0,0,0,0,0,0,0],"id":49,"left_children":[1,3,-1,5,-1,-1,7,9,11,-1,-1,13,15,-1,-1,-1,-1],"loss_changes":[2.7786288E-2,7.069593E-2,0E0,4.1216634E-2,0E0,0E0,3.7399556E-2,3.2289132E-2,4.0223E-2,0E0,0E0,2.270704E-2,1.6463128E-1,0E0,0E0,0E0,0E0],"parents":[2147483647,0,0,1,1,3,3,6,6,7,7,8,8,11,11,12,12],"right_children":[2,4,-1,6,-1,-1,8,10,12,-1,-1,14,16,-1,-1,-1,-1],"split_conditions":[6.593458E-1,3.2143947E-1,-3.6683798E-2,1E0,5.0865058E-2,-3.933179E-2,1E0,1E0,2.33E2,4.4055402E-2,-4.2684185E-3,2E0,2.54E2,2.8447019E-2,-2.7357435E-3,-5.7235632E-2,2.5225421E-3],"split_indices":[7,7,0,11,0,0,2,1,3,0,0,12,3,0,0,0,0],"split_type":[0,0,0,0,0,0,0,0,0,0,0,0,0,0,0,0,0],"sum_hessian":[3.7081078E1,3.600421E1,1.0768645E0,3.4772163E1,1.2320479E0,1.7691997E0,3.3002964E1,3.7652292E0,2.9237734E1,1.8322043E0,1.933025E0,7.0958796E0,2.2141855E1,3.2718287E0,3.8240507E0,4.3839564E0,1.7757898E1],"tree_param":{"num_deleted":"0","num_feature":"16","num_nodes":"17","size_leaf_vector":"1"}},{"base_weights":[-8.719025E-3,-2.6138234E-3,-3.4546718E-2,-1.2425274E-2,4.527021E-2,5.73671E-5,-9.274663E-2,1.7275872E-2,-7.524001E-2,-8.189495E-2,1.4428772E-2,7.3022224E-2,-7.703118E-3,4.9253006E-2,-1.8949424E-1,3.748228E-2,-1.0514339E-2,-6.1273514E-3,2.487963E-2,4.6946354E-2,-2.88107E-2,-8.313786E-2,-2.3112628E-3],"categories":[],"categories_nodes":[],"categories_segments":[],"categories_sizes":[],"default_left":[0,0,0,0,0,0,0,0,0,0,0,0,0,0,0,0,0,0,0,0,0,0,0],"id":50,"left_children":[1,3,-1,5,-1,7,9,11,13,-1,-1,15,17,19,21,-1,-1,-1,-1,-1,-1,-1,-1],"loss_changes":[2.4390487E-2,5.7543382E-2,0E0,3.5762016E-2,0E0,4.2613916E-2,1.3491397E-1,3.780914E-2,9.634587E-2,0E0,0E0,5.135406E-2,2.4034584E-2,7.300502E-2,5.196791E-2,0E0,0E0,0E0,0E0,0E0,0E0,0E0,0E0],"parents":[2147483647,0,0,1,1,3,3,5,5,6,6,7,7,8,8,11,11,12,12,13,13,14,14],"right_children":[2,4,-1,6,-1,8,10,12,14,-1,-1,16,18,20,22,-1,-1,-1,-1,-1,-1,-1,-1],"split_conditions":[6.593458E-1,3.2143947E-1,-3.4546718E-2,-5E-1,4.527021E-2,4E0,4E0,2.38E2,-9.659258E-1,-8.189495E-2,1.4428772E-2,1E0,3E0,-1.3052619E-1,-8.660254E-1,3.748228E-2,-1.0514339E-2,-6.1273514E-3,2.487963E-2,4.6946354E-2,-2.88107E-2,-8.313786E-2,-2.3112628E-3],"split_indices":[7,7,0,6,0,2,2,3,6,0,0,12,1,7,6,0,0,0,0,0,0,0,0],"split_type":[0,0,0,0,0,0,0,0,0,0,0,0,0,0,0,0,0,0,0,0,0,0,0],"sum_hessian":[3.6997574E1,3.59595E1,1.0380768E0,3.466316E1,1.2963375E0,3.0865654E1,3.7975066E0,2.5748274E1,5.1173797E0,1.2542387E0,2.5432677E0,7.372191E0,1.8376083E1,2.7212188E0,2.396161E0,4.874356E0,2.4978352E0,1.6793615E1,1.5824683E0,1.5212964E0,1.1999223E0,1.2629334E0,1.1332277E0],"tree_param":{"num_deleted":"0","num_feature":"16","num_nodes":"23","size_leaf_vector":"1"}},{"base_weights":[-8.669254E-3,3.5528117E-3,-6.879479E-2,-1.2092594E-2,1.313111E-1,-6.7684434E-2,3.3590007E-3,4.840631E-2,-3.2687645E-2,5.934103E-2,8.71119E-3,2.7550574E-2,-2.4064941E-2,1.0253208E-1,-8.553756E-3,-1.7680992E-1,8.6318115E-3,5.8768895E-2,-9.889256E-3,-9.216343E-3,4.5340243E-3,4.9212817E-3,-9.828997E-2,4.704297E-2,-1.13021685E-2,5.246699E-3,-1.0775639E-2],"categories":[],"categories_nodes":[],"categories_segments":[],"categories_sizes":[],"default_left":[0,0,0,0,0,0,0,0,0,0,0,0,0,0,0,0,0,0,0,0,0,0,0,0,0,0,0],"id":51,"left_children":[1,3,5,7,9,-1,11,13,15,-1,-1,-1,-1,17,19,21,23,-1,-1,-1,-1,-1,-1,-1,25,-1,-1],"loss_changes":[2.8164398E-2,6.6602066E-2,7.393958E-2,3.8828522E-2,1.8961847E-2,0E0,4.7406588E-2,2.5525413E-2,1.3788655E-1,0E0,0E0,0E0,0E0,5.9291758E-2,2.9922563E-3,1.5541255E-1,5.7154488E-2,0E0,0E0,0E0,0E0,0E0,0E0,0E0,1.3002193E-2,0E0,0E0],"parents":[2147483647,0,0,1,1,2,2,3,3,4,4,6,6,7,7,8,8,13,13,14,14,15,15,16,16,24,24],"right_children":[2,4,6,8,10,-1,12,14,16,-1,-1,-1,-1,18,20,22,24,-1,-1,-1,-1,-1,-1,-1,26,-1,-1],"split_conditions":[6.234898E-1,1.3052619E-1,2.37E2,2.33E2,1.9E1,-6.7684434E-2,1E0,2E0,2.54E2,5.934103E-2,8.71119E-3,2.7550574E-2,-2.4064941E-2,-7.933533E-1,2.28E2,-9.659258E-1,-9.238795E-1,5.8768895E-2,-9.889256E-3,-9.216343E-3,4.5340243E-3,4.9212817E-3,-9.828997E-2,4.704297E-2,1E0,5.246699E-3,-1.0775639E-2],"split_indices":[9,7,3,3,0,0,1,12,3,0,0,0,0,7,3,6,6,0,0,0,0,0,0,0,1,0,0],"split_type":[0,0,0,0,0,0,0,0,0,0,0,0,0,0,0,0,0,0,0,0,0,0,0,0,0,0,0],"sum_hessian":[3.69937E1,3.1526114E1,5.4675856E0,2.8893173E1,2.6329389E0,1.0527233E0,4.414862E0,6.9949126E0,2.1898262E1,1.0295373E0,1.6034014E0,2.0965464E0,2.318316E0,3.1764503E0,3.8184621E0,4.148655E0,1.7749607E1,1.6166928E0,1.5597575E0,1.8178035E0,2.0006585E0,2.2094474E0,1.9392074E0,1.2904749E0,1.6459131E1,7.719771E0,8.739361E0],"tree_param":{"num_deleted":"0","num_feature":"16","num_nodes":"27","size_leaf_vector":"1"}},{"base_weights":[-7.702967E-3,3.701085E-3,-6.442106E-2,-1.0684761E-2,1.18283786E-1,8.409582E-3,-3.8954657E-2,7.747129E-3,-6.986548E-2,5.307476E-2,7.866038E-3,5.0231494E-2,-1.0269751E-2,-1.0166898E-2,-5.4404266E-2,1.1950763E-1,-8.818853E-3,7.929828E-3,-4.115823E-2,-2.6469063E-2,4.1864015E-2,1.06741935E-2,4.5542434E-2,4.0850323E-3,-8.909698E-3,3.8173692E-3,-7.602832E-2],"categories":[],"categories_nodes":[],"categories_segments":[],"categories_sizes":[],"default_left":[0,0,0,0,0,0,0,0,0,0,0,0,0,0,0,0,0,0,0,0,0,0,0,0,0,0,0],"id":52,"left_children":[1,3,5,7,9,-1,-1,11,13,-1,-1,15,17,19,-1,21,23,-1,25,-1,-1,-1,-1,-1,-1,-1,-1],"loss_changes":[2.4764791E-2,5.486299E-2,4.2366363E-2,3.3054624E-2,1.5386891E-2,0E0,0E0,1.8601663E-2,4.5931175E-2,0E0,0E0,3.0532254E-2,2.0839062E-2,7.933083E-2,0E0,3.773909E-3,2.663037E-3,0E0,1.1590193E-1,0E0,0E0,0E0,0E0,0E0,0E0,0E0,0E0],"parents":[2147483647,0,0,1,1,2,2,3,3,4,4,7,7,8,8,11,11,12,12,13,13,15,15,16,16,18,18],"right_children":[2,4,6,8,10,-1,-1,12,14,-1,-1,16,18,20,-1,22,24,-1,26,-1,-1,-1,-1,-1,-1,-1,-1],"split_conditions":[6.234898E-1,1.3052619E-1,1E0,-5E-1,1.9E1,8.409582E-3,-3.8954657E-2,2.33E2,-9.238795E-1,5.307476E-2,7.866038E-3,1E0,1E0,2.54E2,-5.4404266E-2,4E0,-5.5557024E-1,7.929828E-3,-7.518398E-1,-2.6469063E-2,4.1864015E-2,1.06741935E-2,4.5542434E-2,4.0850323E-3,-8.909698E-3,3.8173692E-3,-7.602832E-2],"split_indices":[9,7,1,7,0,0,0,3,6,0,0,12,1,3,0,2,6,0,6,0,0,0,0,0,0,0,0],"split_type":[0,0,0,0,0,0,0,0,0,0,0,0,0,0,0,0,0,0,0,0,0,0,0,0,0,0,0],"sum_hessian":[3.6918602E1,3.1516474E1,5.40213E0,2.8806562E1,2.7099102E0,2.4755723E0,2.9265578E0,2.262811E1,6.1784525E0,1.0924802E0,1.6174301E0,6.2060432E0,1.6422068E1,4.734388E0,1.4440643E0,2.384634E0,3.8214092E0,7.57066E0,8.851407E0,3.3817549E0,1.3526332E0,1.2467443E0,1.1378897E0,2.0097747E0,1.8116347E0,7.8091707E0,1.0422366E0],"tree_param":{"num_deleted":"0","num_feature":"16","num_nodes":"27","size_leaf_vector":"1"}},{"base_weights":[-7.0166E-3,-7.982463E-4,-3.472685E-2,-1.5381201E-2,9.259983E-2,-4.441684E-2,1.1824023E-3,-6.523632E-3,7.5305365E-2,1.382647E-2,-3.1176329E-2,-3.30506E-2,2.7331835E-2,3.3466455E-2,2.7295982E-3],"categories":[],"categories_nodes":[],"categories_segments":[],"categories_sizes":[],"default_left":[0,0,0,0,0,0,0,0,0,0,0,0,0,0,0],"id":53,"left_children":[1,3,-1,5,7,-1,9,-1,-1,11,-1,-1,13,-1,-1],"loss_changes":[2.551149E-2,5.1579524E-2,0E0,7.205458E-2,9.812401E-2,0E0,4.1398503E-2,0E0,0E0,4.9437594E-2,0E0,0E0,3.8608067E-2,0E0,0E0],"parents":[2147483647,0,0,1,1,3,3,4,4,6,6,9,9,12,12],"right_children":[2,4,-1,6,8,-1,10,-1,-1,12,-1,-1,14,-1,-1],"split_conditions":[6.593458E-1,9.749279E-1,-3.472685E-2,1E0,-5.5557024E-1,-4.441684E-2,2E0,-6.523632E-3,7.5305365E-2,1.5E1,-3.1176329E-2,-3.30506E-2,1E0,3.3466455E-2,2.7295982E-3],"split_indices":[7,8,0,11,6,0,12,0,0,0,0,0,2,0,0],"split_type":[0,0,0,0,0,0,0,0,0,0,0,0,0,0,0],"sum_hessian":[3.6865444E1,3.5824154E1,1.0412902E0,3.1708567E1,4.115585E0,2.638163E0,2.9070404E1,2.891355E0,1.2242302E0,2.6723934E1,2.34647E0,1.9218345E0,2.48021E1,3.5029547E0,2.1299145E1],"tree_param":{"num_deleted":"0","num_feature":"16","num_nodes":"15","size_leaf_vector":"1"}},{"base_weights":[-6.6248467E-3,4.6024346E-3,-6.272969E-2,-9.999611E-3,1.210321E-1,5.0723283E-3,-3.607202E-2,4.3370035E-2,-2.8535137E-2,5.2982565E-2,7.2046136E-3,8.3192185E-2,-5.9821215E-3,-1.570393E-1,6.0412274E-3,4.9276892E-2,-7.850344E-3,-3.0355467E-2,1.9210136E-2,7.658513E-3,-9.3707435E-2,3.6988202E-2,-1.0544812E-2,3.4549874E-3,-8.910379E-3],"categories":[],"categories_nodes":[],"categories_segments":[],"categories_sizes":[],"default_left":[0,0,0,0,0,0,0,0,0,0,0,0,0,0,0,0,0,0,0,0,0,0,0,0,0],"id":54,"left_children":[1,3,5,7,9,-1,-1,11,13,-1,-1,15,17,19,21,-1,-1,-1,-1,-1,-1,-1,23,-1,-1],"loss_changes":[2.412126E-2,5.6392472E-2,3.1240297E-2,3.0681733E-2,1.567293E-2,0E0,0E0,1.6356686E-2,1.0178776E-1,0E0,0E0,4.4484198E-2,3.671802E-2,1.4546943E-1,3.7951525E-2,0E0,0E0,0E0,0E0,0E0,0E0,0E0,7.7091195E-3,0E0,0E0],"parents":[2147483647,0,0,1,1,2,2,3,3,4,4,7,7,8,8,11,11,12,12,13,13,14,14,22,22],"right_children":[2,4,6,8,10,-1,-1,12,14,-1,-1,16,18,20,22,-1,-1,-1,-1,-1,-1,-1,24,-1,-1],"split_conditions":[6.234898E-1,1.3052619E-1,1E0,2.33E2,-9.238795E-1,5.0723283E-3,-3.607202E-2,-7.933533E-1,2.54E2,5.2982565E-2,7.2046136E-3,3E0,1E0,-9.659258E-1,-9.238795E-1,4.9276892E-2,-7.850344E-3,-3.0355467E-2,1.9210136E-2,7.658513E-3,-9.3707435E-2,3.6988202E-2,1E0,3.4549874E-3,-8.910379E-3],"split_indices":[9,7,1,3,6,0,0,7,3,0,0,1,12,6,6,0,0,0,0,0,0,0,1,0,0],"split_type":[0,0,0,0,0,0,0,0,0,0,0,0,0,0,0,0,0,0,0,0,0,0,0,0,0],"sum_hessian":[3.6835167E1,3.1457994E1,5.377172E0,2.8764593E1,2.6934016E0,2.5508664E0,2.8263054E0,7.069483E0,2.169511E1,1.1908342E0,1.5025675E0,3.533015E0,3.5364676E0,3.8488662E0,1.7846245E1,1.7407155E0,1.7922996E0,1.3100216E0,2.226446E0,2.1533616E0,1.6955047E0,1.4143173E0,1.6431927E1,7.822265E0,8.609662E0],"tree_param":{"num_deleted":"0","num_feature":"16","num_nodes":"25","size_leaf_vector":"1"}},{"base_weights":[-5.7855975E-3,3.92496E-5,-3.2856867E-2,-8.956609E-3,4.0626757E-2,-3.4862887E-2,-2.353831E-4,7.6137898E-3,-3.1701338E-2,1.8842548E-2,-6.610677E-2,8.97764E-3,-2.0318242E-2,-7.423924E-2,1.7472748E-2],"categories":[],"categories_nodes":[],"categories_segments":[],"categories_sizes":[],"default_left":[0,0,0,0,0,0,0,0,0,0,0,0,0,0,0],"id":55,"left_children":[1,3,-1,5,-1,-1,7,9,-1,11,13,-1,-1,-1,-1],"loss_changes":[2.2827247E-2,4.5985017E-2,0E0,3.309389E-2,0E0,0E0,2.8734434E-2,2.8018985E-2,0E0,2.9703196E-2,1.1582748E-1,0E0,0E0,0E0,0E0],"parents":[2147483647,0,0,1,1,3,3,6,6,7,7,9,9,10,10],"right_children":[2,4,-1,6,-1,-1,8,10,-1,12,14,-1,-1,-1,-1],"split_conditions":[6.593458E-1,3.2143947E-1,-3.2856867E-2,1E0,4.0626757E-2,-3.4862887E-2,1E0,-5E-1,-3.1701338E-2,2E0,4E0,8.97764E-3,-2.0318242E-2,-7.423924E-2,1.7472748E-2],"split_indices":[7,7,0,11,0,0,13,6,0,12,2,0,0,0,0],"split_type":[0,0,0,0,0,0,0,0,0,0,0,0,0,0,0],"sum_hessian":[3.677047E1,3.5762054E1,1.0084171E0,3.4409477E1,1.3525759E0,1.6607519E0,3.2748726E1,3.1343168E1,1.4055575E0,2.7846178E1,3.4969895E0,2.5265894E1,2.5802848E0,1.0197135E0,2.477276E0],"tree_param":{"num_deleted":"0","num_feature":"16","num_nodes":"15","size_leaf_vector":"1"}},{"base_weights":[-6.685528E-3,-1.22864265E-2,2.802936E-2,1.3415518E-4,-9.453634E-2,-1.1716267E-2,7.9343274E-2,-8.114833E-2,1.23269325E-2,-1.4244823E-1,4.9575847E-3,6.0508106E-2,-4.7182636E-3,8.523193E-4,-6.632167E-2,5.96807E-2,-1.9108327E-2,-2.0240724E-2,2.683909E-2,-3.584998E-2,1.1126333E-3],"categories":[],"categories_nodes":[],"categories_segments":[],"categories_sizes":[],"default_left":[0,0,0,0,0,0,0,0,0,0,0,0,0,0,0,0,0,0,0,0,0],"id":56,"left_children":[1,3,-1,5,7,9,11,-1,-1,13,15,-1,-1,-1,-1,17,19,-1,-1,-1,-1],"loss_changes":[2.236639E-2,3.75244E-2,0E0,3.1811595E-2,1.2611432E-1,6.4988166E-2,5.447198E-2,0E0,0E0,3.9117232E-2,3.685692E-2,0E0,0E0,0E0,0E0,3.8324527E-2,4.5326144E-2,0E0,0E0,0E0,0E0],"parents":[2147483647,0,0,1,1,3,3,4,4,5,5,6,6,9,9,10,10,15,15,16,16],"right_children":[2,4,-1,6,8,10,12,-1,-1,14,16,-1,-1,-1,-1,18,20,-1,-1,-1,-1],"split_conditions":[6.087614E-1,-5E-1,2.802936E-2,9.749279E-1,4E0,2.34E2,2E0,-8.114833E-2,1.23269325E-2,-4.422887E-1,-8.9687276E-1,6.0508106E-2,-4.7182636E-3,8.523193E-4,-6.632167E-2,1E0,-7.933533E-1,-2.0240724E-2,2.683909E-2,-3.584998E-2,1.1126333E-3],"split_indices":[7,6,0,8,2,3,1,0,0,7,6,0,0,0,0,1,6,0,0,0,0],"split_type":[0,0,0,0,0,0,0,0,0,0,0,0,0,0,0,0,0,0,0,0,0],"sum_hessian":[3.683985E1,3.5718887E1,1.120967E0,3.1900023E1,3.8188622E0,2.8489773E1,3.410251E0,1.2294242E0,2.589438E0,2.3693764E0,2.6120396E1,1.0007877E0,2.4094632E0,1.1704208E0,1.1989557E0,7.5263824E0,1.8594013E1,1.1882262E0,6.338156E0,2.65873E0,1.5935284E1],"tree_param":{"num_deleted":"0","num_feature":"16","num_nodes":"21","size_leaf_vector":"1"}},{"base_weights":[-6.8928194E-3,-1.1770674E-3,-3.257541E-2,-1.0609164E-2,3.924814E-2,-1.970921E-3,-2.8319474E-2,-1.277024E-2,6.961445E-2,-1.3896903E-1,3.1697229E-3,5.4169882E-2,-5.281101E-3,7.834637E-4,-6.5032214E-2,3.7841839E-3,-3.029756E-2],"categories":[],"categories_nodes":[],"categories_segments":[],"categories_sizes":[],"default_left":[0,0,0,0,0,0,0,0,0,0,0,0,0,0,0,0,0],"id":57,"left_children":[1,3,-1,5,-1,7,-1,9,11,13,15,-1,-1,-1,-1,-1,-1],"loss_changes":[2.1875743E-2,4.7271896E-2,0E0,2.5378006E-2,0E0,2.6431369E-2,0E0,5.9891477E-2,4.659E-2,3.7321E-2,2.804837E-2,0E0,0E0,0E0,0E0,0E0,0E0],"parents":[2147483647,0,0,1,1,3,3,5,5,7,7,8,8,9,9,10,10],"right_children":[2,4,-1,6,-1,8,-1,10,12,14,16,-1,-1,-1,-1,-1,-1],"split_conditions":[6.593458E-1,-3.8268343E-1,-3.257541E-2,-5E-1,3.924814E-2,9.749279E-1,-2.8319474E-2,2.34E2,2E0,-4.422887E-1,1E0,5.4169882E-2,-5.281101E-3,7.834637E-4,-6.5032214E-2,3.7841839E-3,-3.029756E-2],"split_indices":[7,6,0,6,0,8,0,3,1,7,13,0,0,0,0,0,0],"split_type":[0,0,0,0,0,0,0,0,0,0,0,0,0,0,0,0,0],"sum_hessian":[3.685587E1,3.585231E1,1.0035608E0,3.4319695E1,1.5326151E0,3.2040047E1,2.279649E0,2.8554014E1,3.4860308E0,2.3365963E0,2.6217419E1,1.0632131E0,2.4228177E0,1.1714187E0,1.1651775E0,2.4843761E1,1.3736577E0],"tree_param":{"num_deleted":"0","num_feature":"16","num_nodes":"17","size_leaf_vector":"1"}},{"base_weights":[-6.798426E-3,5.207081E-2,-1.7095815E-2,-9.133016E-3,4.9492057E-2,-3.4221485E-3,-1.3221344E-1,-1.4704615E-2,4.4748656E-2,8.020857E-3,-7.648151E-2,-1.919611E-3,-1.0055307E-1,4.568869E-2,-2.6855513E-2,-7.6684564E-2,1.6199935E-2,2.5588434E-2,-7.418079E-3,-1.3689747E-2,-1.01566E-3],"categories":[],"categories_nodes":[],"categories_segments":[],"categories_sizes":[],"default_left":[0,0,0,0,0,0,0,0,0,0,0,0,0,0,0,0,0,0,0,0,0],"id":58,"left_children":[1,3,5,-1,-1,7,9,11,-1,-1,-1,13,15,17,19,-1,-1,-1,-1,-1,-1],"loss_changes":[2.3833975E-2,5.9819393E-2,5.143959E-2,0E0,0E0,5.4688126E-2,7.457323E-2,3.1970132E-2,0E0,0E0,0E0,3.2716237E-2,1.0436675E-1,2.8569248E-2,7.7944268E-3,0E0,0E0,0E0,0E0,0E0,0E0],"parents":[2147483647,0,0,1,1,2,2,5,5,6,6,7,7,11,11,12,12,13,13,14,14],"right_children":[2,4,6,-1,-1,8,10,12,-1,-1,-1,14,16,18,20,-1,-1,-1,-1,-1,-1],"split_conditions":[2.28E2,-5.5557024E-1,1.8E1,-9.133016E-3,4.9492057E-2,-6.5403126E-2,-2.2252093E-1,3E0,4.4748656E-2,8.020857E-3,-7.648151E-2,2.38E2,2.54E2,2E0,2E0,-7.6684564E-2,1.6199935E-2,2.5588434E-2,-7.418079E-3,-1.3689747E-2,-1.01566E-3],"split_indices":[3,7,0,0,0,7,9,1,0,0,0,3,3,1,1,0,0,0,0,0,0],"split_type":[0,0,0,0,0,0,0,0,0,0,0,0,0,0,0,0,0,0,0,0,0],"sum_hessian":[3.6848576E1,4.881989E0,3.1966585E1,3.24255E0,1.639439E0,2.949312E1,2.4734645E0,2.830389E1,1.1892306E0,1.4184613E0,1.0550032E0,2.5524942E1,2.7789483E0,8.487717E0,1.7037226E1,1.0607756E0,1.7181726E0,5.297034E0,3.1906834E0,8.940309E0,8.096917E0],"tree_param":{"num_deleted":"0","num_feature":"16","num_nodes":"21","size_leaf_vector":"1"}},{"base_weights":[-6.4819544E-3,-1.1819313E-2,2.6403356E-2,-6.9758174E-4,-8.683565E-2,-1.1371221E-2,6.956737E-2,-7.868299E-2,1.2884861E-2,-1.3188843E-1,3.5451872E-3,4.7633186E-2,-2.3587567E-3,-3.1821965E-4,-6.1775167E-2,4.787365E-2,-1.645425E-2,-1.8628975E-2,2.1903327E-2,-3.3522543E-2,1.4195022E-3],"categories":[],"categories_nodes":[],"categories_segments":[],"categories_sizes":[],"default_left":[0,0,0,0,0,0,0,0,0,0,0,0,0,0,0,0,0,0,0,0,0],"id":59,"left_children":[1,3,-1,5,7,9,11,-1,-1,13,15,-1,-1,-1,-1,17,19,-1,-1,-1,-1],"loss_changes":[2.0116597E-2,3.0544898E-2,0E0,2.5506897E-2,1.1892628E-1,5.3443152E-2,3.223829E-2,0E0,0E0,3.1469163E-2,2.4899056E-2,0E0,0E0,0E0,0E0,2.8614951E-2,3.9865583E-2,0E0,0E0,0E0,0E0],"parents":[2147483647,0,0,1,1,3,3,4,4,5,5,6,6,9,9,10,10,15,15,16,16],"right_children":[2,4,-1,6,8,10,12,-1,-1,14,16,-1,-1,-1,-1,18,20,-1,-1,-1,-1],"split_conditions":[6.087614E-1,-5E-1,2.6403356E-2,9.749279E-1,4E0,2.34E2,2E0,-7.868299E-2,1.2884861E-2,-4.422887E-1,-8.9687276E-1,4.7633186E-2,-2.3587567E-3,-3.1821965E-4,-6.1775167E-2,1E0,-7.933533E-1,-1.8628975E-2,2.1903327E-2,-3.3522543E-2,1.4195022E-3],"split_indices":[7,6,0,8,2,3,1,0,0,7,6,0,0,0,0,1,6,0,0,0,0],"split_type":[0,0,0,0,0,0,0,0,0,0,0,0,0,0,0,0,0,0,0,0,0],"sum_hessian":[3.6824135E1,3.5683506E1,1.1406312E0,3.1955206E1,3.7282982E0,2.8468801E1,3.486404E0,1.1512331E0,2.5770652E0,2.271816E0,2.6196985E1,1.1318092E0,2.3545947E0,1.1875107E0,1.0843052E0,7.711284E0,1.8485703E1,1.1611686E0,6.5501156E0,2.5849726E0,1.5900729E1],"tree_param":{"num_deleted":"0","num_feature":"16","num_nodes":"21","size_leaf_vector":"1"}},{"base_weights":[-6.7688297E-3,-8.887568E-4,-3.3259902E-2,-1.00628305E-2,3.790316E-2,-2.7537353E-3,-2.4835756E-2,7.8711575E-3,-6.825101E-2,4.106557E-2,-1.1014442E-2,4.792383E-3,-3.305724E-2,-1.4896231E-2,1.8870343E-2,-2.6573306E-2,1.9601989E-3],"categories":[],"categories_nodes":[],"categories_segments":[],"categories_sizes":[],"default_left":[0,0,0,0,0,0,0,0,0,0,0,0,0,0,0,0,0],"id":60,"left_children":[1,3,-1,5,-1,7,-1,9,11,13,15,-1,-1,-1,-1,-1,-1],"loss_changes":[2.3067215E-2,4.4261895E-2,0E0,1.8524764E-2,0E0,2.356628E-2,0E0,1.8864313E-2,1.8441461E-2,2.4639735E-2,2.7131665E-2,0E0,0E0,0E0,0E0,0E0,0E0],"parents":[2147483647,0,0,1,1,3,3,5,5,7,7,8,8,9,9,10,10],"right_children":[2,4,-1,6,-1,8,-1,10,12,14,16,-1,-1,-1,-1,-1,-1],"split_conditions":[6.593458E-1,-3.8268343E-1,-3.3259902E-2,-5E-1,3.790316E-2,-1.3052619E-1,-2.4835756E-2,2.38E2,3E0,2.32E2,-7.933533E-1,4.792383E-3,-3.305724E-2,-1.4896231E-2,1.8870343E-2,-2.6573306E-2,1.9601989E-3],"split_indices":[7,6,0,6,0,7,0,3,2,3,6,0,0,0,0,0,0],"split_type":[0,0,0,0,0,0,0,0,0,0,0,0,0,0,0,0,0],"sum_hessian":[3.6846287E1,3.5830875E1,1.0154124E0,3.4280033E1,1.5508425E0,3.209242E1,2.1876128E0,2.8370083E1,3.7223377E0,9.861865E0,1.8508217E1,1.4431785E0,2.279159E0,1.6660348E0,8.19583E0,2.6680326E0,1.5840185E1],"tree_param":{"num_deleted":"0","num_feature":"16","num_nodes":"17","size_leaf_vector":"1"}},{"base_weights":[-6.7489143E-3,5.360246E-2,-1.7278269E-2,5.482201E-2,-1.6893832E-2,-5.255641E-3,-3.6382243E-2,2.4048757E-2,-4.414517E-2,1.0345084E-2,-1.05526365E-1,-2.354778E-3,4.813426E-2,1.52640985E-2,-8.134563E-2,9.869522E-3,-2.3963878E-2,2.761204E-2,-1.7594707E-3],"categories":[],"categories_nodes":[],"categories_segments":[],"categories_sizes":[],"default_left":[0,0,0,0,0,0,0,0,0,0,0,0,0,0,0,0,0,0,0],"id":61,"left_children":[1,3,5,-1,7,9,-1,-1,-1,11,13,15,-1,-1,-1,17,-1,-1,-1],"loss_changes":[2.4975017E-2,5.6486093E-2,4.059656E-2,0E0,7.133685E-2,4.8969943E-2,0E0,0E0,0E0,5.2603744E-2,1.228599E-1,2.5660545E-2,0E0,0E0,0E0,3.100128E-2,0E0,0E0,0E0],"parents":[2147483647,0,0,1,1,2,2,4,4,5,5,9,9,10,10,11,11,15,15],"right_children":[2,4,6,-1,8,10,-1,-1,-1,12,14,16,-1,-1,-1,18,-1,-1,-1],"split_conditions":[2.28E2,-7.933533E-1,1.8E1,5.482201E-2,-8.660254E-1,4E0,-3.6382243E-2,2.4048757E-2,-4.414517E-2,-1.3052619E-1,-9.659258E-1,1E0,4.813426E-2,1.52640985E-2,-8.134563E-2,1E0,-2.3963878E-2,2.761204E-2,-1.7594707E-3],"split_indices":[3,6,0,0,7,2,0,0,0,7,6,12,0,0,0,2,0,0,0],"split_type":[0,0,0,0,0,0,0,0,0,0,0,0,0,0,0,0,0,0,0],"sum_hessian":[3.684475E1,4.8656144E0,3.1979134E1,1.1559365E0,3.7096777E0,2.9606913E1,2.3722224E0,2.346124E0,1.3635538E0,2.639677E1,3.2101407E0,2.5245144E1,1.1516279E0,2.0073361E0,1.2028046E0,2.256045E1,2.6846943E0,2.8463297E0,1.9714119E1],"tree_param":{"num_deleted":"0","num_feature":"16","num_nodes":"19","size_leaf_vector":"1"}},{"base_weights":[-6.1496724E-3,-1.1767331E-2,2.819887E-2,-8.097296E-4,-8.58464E-2,-1.0735013E-2,6.381604E-2,-7.666637E-2,1.0714882E-2,-1.2523153E-1,3.176536E-3,4.2208724E-2,-1.7248066E-3,5.0997094E-4,-5.9784E-2,1.2053891E-2,-2.883854E-2,1.8785663E-2,-2.6541573E-3],"categories":[],"categories_nodes":[],"categories_segments":[],"categories_sizes":[],"default_left":[0,0,0,0,0,0,0,0,0,0,0,0,0,0,0,0,0,0,0],"id":62,"left_children":[1,3,-1,5,7,9,11,-1,-1,13,15,-1,-1,-1,-1,17,-1,-1,-1],"loss_changes":[2.237097E-2,2.9704355E-2,0E0,2.1828277E-2,1.0643812E-1,4.727494E-2,2.5049202E-2,0E0,0E0,3.053955E-2,2.5152337E-2,0E0,0E0,0E0,0E0,2.7897386E-2,0E0,0E0,0E0],"parents":[2147483647,0,0,1,1,3,3,4,4,5,5,6,6,9,9,10,10,15,15],"right_children":[2,4,-1,6,8,10,12,-1,-1,14,16,-1,-1,-1,-1,18,-1,-1,-1],"split_conditions":[6.087614E-1,-5E-1,2.819887E-2,9.749279E-1,4E0,2.34E2,2E0,-7.666637E-2,1.0714882E-2,-4.422887E-1,1E0,4.2208724E-2,-1.7248066E-3,5.0997094E-4,-5.9784E-2,-8.9687276E-1,-2.883854E-2,1.8785663E-2,-2.6541573E-3],"split_indices":[7,6,0,8,2,3,1,0,0,7,13,0,0,0,0,6,0,0,0],"split_type":[0,0,0,0,0,0,0,0,0,0,0,0,0,0,0,0,0,0,0],"sum_hessian":[3.6798508E1,3.567957E1,1.1189378E0,3.196266E1,3.7169104E0,2.8430212E1,3.5324473E0,1.0912375E0,2.6256728E0,2.2131655E0,2.6217047E1,1.192295E0,2.3401523E0,1.1753914E0,1.037774E0,2.4872217E1,1.3448305E0,6.690427E0,1.818179E1],"tree_param":{"num_deleted":"0","num_feature":"16","num_nodes":"19","size_leaf_vector":"1"}},{"base_weights":[-6.252755E-3,4.898445E-2,-1.5996698E-2,-9.544388E-3,4.668047E-2,-1.1601909E-3,-1.0055774E-1,-1.5882201E-2,7.83289E-2,-8.140426E-2,8.588859E-3,-7.5539673E-4,-1.1568096E-1,-1.6215757E-2,7.476146E-2,7.1229205E-2,-1.7158095E-2,1.615767E-2,-7.5349644E-2,3.5323814E-2,4.9349237E-3,-3.0983867E-2,4.843999E-4],"categories":[],"categories_nodes":[],"categories_segments":[],"categories_sizes":[],"default_left":[0,0,0,0,0,0,0,0,0,0,0,0,0,0,0,0,0,0,0,0,0,0,0],"id":63,"left_children":[1,3,5,-1,-1,7,9,11,13,-1,-1,15,17,-1,-1,19,21,-1,-1,-1,-1,-1,-1],"loss_changes":[2.1132091E-2,5.5907823E-2,4.1148312E-2,0E0,0E0,3.5173226E-2,1.1583313E-1,3.809753E-2,1.1977129E-1,0E0,0E0,2.8345458E-2,8.985013E-2,0E0,0E0,9.420553E-3,3.1716272E-2,0E0,0E0,0E0,0E0,0E0,0E0],"parents":[2147483647,0,0,1,1,2,2,5,5,6,6,7,7,8,8,11,11,12,12,15,15,16,16],"right_children":[2,4,6,-1,-1,8,10,12,14,-1,-1,16,18,-1,-1,20,22,-1,-1,-1,-1,-1,-1],"split_conditions":[2.28E2,1.5E1,3E0,-9.544388E-3,4.668047E-2,9.749279E-1,2.37E2,-1.3052619E-1,-5.5557024E-1,-8.140426E-2,8.588859E-3,-8.9687276E-1,2.35E2,-1.6215757E-2,7.476146E-2,1E0,2.53E2,1.615767E-2,-7.5349644E-2,3.5323814E-2,4.9349237E-3,-3.0983867E-2,4.843999E-4],"split_indices":[3,0,1,0,0,8,3,7,6,0,0,6,3,0,0,2,3,0,0,0,0,0,0],"split_type":[0,0,0,0,0,0,0,0,0,0,0,0,0,0,0,0,0,0,0,0,0,0,0],"sum_hessian":[3.6806454E1,4.9152646E0,3.1891191E1,3.1953151E0,1.7199494E0,2.7993382E1,3.8978093E0,2.4294115E1,3.6992662E0,1.2047157E0,2.6930935E0,2.197141E1,2.3227048E0,2.4696484E0,1.229618E0,3.4571018E0,1.8514309E1,1.2992935E0,1.0234114E0,1.2479388E0,2.2091632E0,2.5078397E0,1.6006468E1],"tree_param":{"num_deleted":"0","num_feature":"16","num_nodes":"23","size_leaf_vector":"1"}},{"base_weights":[-5.8703637E-3,-7.0230875E-5,-3.276536E-2,-9.2357E-3,4.161284E-2,-3.2415856E-2,1.2193244E-2,-4.6850633E-2,-1.0170757E-2,1.1410385E-1,-1.376628E-2,3.2227695E-2,-6.847339E-2,5.3037994E-2,3.4666883E-3,-8.538069E-2,1.4134974E-2,2.884424E-2,4.186807E-3,5.4102694E-3,-8.022599E-2,8.057863E-3,-7.4526034E-2,-3.8786833E-3,2.116583E-2],"categories":[],"categories_nodes":[],"categories_segments":[],"categories_sizes":[],"default_left":[0,0,0,0,0,0,0,0,0,0,0,0,0,0,0,0,0,0,0,0,0,0,0,0,0],"id":64,"left_children":[1,3,-1,5,-1,7,9,-1,11,13,15,17,