{"learner":{"attributes":{"scikit_learn":"{\"_estimator_type\": \"regressor\"}"},"feature_names":["hour","quarter","dayofweek","dayofyear","weekofyear","month","tod_sin","tod_cos","dayofweek_sin","dayofweek_cos","is_weekend","is_business_hours","lag_15m","lag_1h","lag_1d","lag_1w"],"feature_types":["int","int","int","int","int","int","float","float","float","float","int","int","float","float","float","float"],"gradient_booster":{"model":{"gbtree_model_param":{"num_parallel_tree":"1","num_trees":"100"},"iteration_indptr":[0,1,2,3,4,5,6,7,8,9,10,11,12,13,14,15,16,17,18,19,20,21,22,23,24,25,26,27,28,29,30,31,32,33,34,35,36,37,38,39,40,41,42,43,44,45,46,47,48,49,50,51,52,53,54,55,56,57,58,59,60,61,62,63,64,65,66,67,68,69,70,71,72,73,74,75,76,77,78,79,80,81,82,83,84,85,86,87,88,89,90,91,92,93,94,95,96,97,98,99,100],"tree_info":[0,0,0,0,0,0,0,0,0,0,0,0,0,0,0,0,0,0,0,0,0,0,0,0,0,0,0,0,0,0,0,0,0,0,0,0,0,0,0,0,0,0,0,0,0,0,0,0,0,0,0,0,0,0,0,0,0,0,0,0,0,0,0,0,0,0,0,0,0,0,0,0,0,0,0,0,0,0,0,0,0,0,0,0,0,0,0,0,0,0,0,0,0,0,0,0,0,0,0,0],"trees":[{"base_weights":[-8.062493E-8,-3.136344E-1,2.1000001E-1,1.582334E-1,-4.197059E-1,-4.0519025E-2,-1.3594347E-1],"categories":[],"categories_nodes":[],"categories_segments":[],"categories_sizes":[],"default_left":[0,0,0,0,0,0,0],"id":0,"left_children":[1,3,-1,-1,5,-1,-1],"loss_changes":[6.60133E0,1.4974741E0,0E0,0E0,6.499529E-2,0E0,0E0],"parents":[2147483647,0,0,1,1,4,4],"right_children":[2,4,-1,-1,6,-1,-1],"split_conditions":[2.2E1,2.21E2,2.1000001E-1,1.582334E-1,2.42E2,-4.0519025E-2,-1.3594347E-1],"split_indices":[0,3,0,0,3,0,0],"split_type":[0,0,0,0,0,0,0],"sum_hessian":[1.4520666E1,1.3303753E1,1.2169131E0,1.0450035E0,1.225875E1,1.8184738E0,1.0440276E1],"tree_param":{"num_deleted":"0","num_feature":"16","num_nodes":"7","size_leaf_vector":"1"}},{"base_weights":[3.1859577E-2,-2.978063E-1,2.1000001E-1,1.5393876E-1,-4.0683234E-1,-3.8518727E-2,-1.3436618E-1],"categories":[],"categories_nodes":[],"categories_segments":[],"categories_sizes":[],"default_left":[0,0,0,0,0,0,0],"id":1,"left_children":[1,3,-1,-1,5,-1,-1],"loss_changes":[6.115935E0,1.373561E0,0E0,0E0,8.162212E-2,0E0,0E0],"parents":[2147483647,0,0,1,1,4,4],"right_children":[2,4,-1,-1,6,-1,-1],"split_conditions":[9.659258E-1,2.17E2,2.1000001E-1,1.5393876E-1,2.42E2,-3.8518727E-2,-1.3436618E-1],"split_indices":[7,3,0,0,3,0,0],"split_type":[0,0,0,0,0,0,0],"sum_hessian":[1.3584934E1,1.2174559E1,1.4103758E0,1.0035645E0,1.1170994E1,1.9658585E0,9.205135E0],"tree_param":{"num_deleted":"0","num_feature":"16","num_nodes":"7","size_leaf_vector":"1"}},{"base_weights":[5.990587E-2,-2.829197E-1,2.1000001E-1,1.5064278E-1,-3.9925888E-1,-1.4137381E-1,-1.3268094E-1,1.4741363E-2,-7.71181E-2],"categories":[],"categories_nodes":[],"categories_segments":[],"categories_sizes":[],"default_left":[0,0,0,0,0,0,0,0,0],"id":2,"left_children":[1,3,-1,-1,5,7,-1,-1,-1],"loss_changes":[5.6681824E0,1.3190982E0,0E0,0E0,6.196916E-2,8.038606E-2,0E0,0E0,0E0],"parents":[2147483647,0,0,1,1,4,4,5,5],"right_children":[2,4,-1,-1,6,8,-1,-1,-1],"split_conditions":[2.2E1,2.14E2,2.1000001E-1,1.5064278E-1,2.42E2,-1.3052619E-1,-1.3268094E-1,1.4741363E-2,-7.71181E-2],"split_indices":[0,3,0,0,3,7,0,0,0],"split_type":[0,0,0,0,0,0,0,0,0],"sum_hessian":[1.2849876E1,1.1247571E1,1.602305E0,1.023661E0,1.0223909E1,2.0742195E0,8.149691E0,1.0010111E0,1.0732082E0],"tree_param":{"num_deleted":"0","num_feature":"16","num_nodes":"9","size_leaf_vector":"1"}},{"base_weights":[8.23347E-2,-2.815997E-1,2.1000001E-1,1.2080228E-1,-3.9671806E-1,-1.5049839E-1,-1.320007E-1,1.353407E-2,-7.934114E-2],"categories":[],"categories_nodes":[],"categories_segments":[],"categories_sizes":[],"default_left":[0,0,0,0,0,0,0,0,0],"id":3,"left_children":[1,3,-1,-1,5,7,-1,-1,-1],"loss_changes":[6.1765137E0,1.1199971E0,0E0,0E0,5.0355554E-2,8.22758E-2,0E0,0E0,0E0],"parents":[2147483647,0,0,1,1,4,4,5,5],"right_children":[2,4,-1,-1,6,8,-1,-1,-1],"split_conditions":[2.3E1,2.14E2,2.1000001E-1,1.2080228E-1,2.42E2,-1.3052619E-1,-1.320007E-1,1.353407E-2,-7.934114E-2],"split_indices":[0,3,0,0,3,7,0,0,0],"split_type":[0,0,0,0,0,0,0,0,0],"sum_hessian":[1.2313297E1,1.1190153E1,1.123144E0,1.2517459E0,9.938407E0,2.1552713E0,7.783136E0,1.0158768E0,1.1393944E0],"tree_param":{"num_deleted":"0","num_feature":"16","num_nodes":"9","size_leaf_vector":"1"}},{"base_weights":[1.1024592E-1,-2.6497895E-1,2.1000001E-1,1.0282882E-1,-3.8627508E-1,-1.4229426E-1,-1.2991166E-1,1.2425773E-2,-7.639264E-2],"categories":[],"categories_nodes":[],"categories_segments":[],"categories_sizes":[],"default_left":[0,0,0,0,0,0,0,0,0],"id":4,"left_children":[1,3,-1,-1,5,7,-1,-1,-1],"loss_changes":[5.629164E0,9.665314E-1,0E0,0E0,5.136764E-2,7.416327E-2,0E0,0E0,0E0],"parents":[2147483647,0,0,1,1,4,4,5,5],"right_children":[2,4,-1,-1,6,8,-1,-1,-1],"split_conditions":[2.3E1,2.14E2,2.1000001E-1,1.0282882E-1,2.42E2,-1.3052619E-1,-1.2991166E-1,1.2425773E-2,-7.639264E-2],"split_indices":[0,3,0,0,3,7,0,0,0],"split_type":[0,0,0,0,0,0,0,0,0],"sum_hessian":[1.1700952E1,1.0315353E1,1.3855983E0,1.4124725E0,8.902881E0,2.0822062E0,6.8206744E0,1.0297192E0,1.052487E0],"tree_param":{"num_deleted":"0","num_feature":"16","num_nodes":"9","size_leaf_vector":"1"}},{"base_weights":[1.3093367E-1,-2.4871387E-1,2.1000001E-1,8.781413E-2,-3.7530854E-1,-4.0415324E-2,-1.2764533E-1],"categories":[],"categories_nodes":[],"categories_segments":[],"categories_sizes":[],"default_left":[0,0,0,0,0,0,0],"id":5,"left_children":[1,3,-1,-1,5,-1,-1],"loss_changes":[5.0487432E0,8.3454055E-1,0E0,0E0,5.141616E-2,0E0,0E0],"parents":[2147483647,0,0,1,1,4,4],"right_children":[2,4,-1,-1,6,-1,-1],"split_conditions":[2.3E1,2.14E2,2.1000001E-1,8.781413E-2,2.42E2,-4.0415324E-2,-1.2764533E-1],"split_indices":[0,3,0,0,3,0,0],"split_type":[0,0,0,0,0,0,0],"sum_hessian":[1.1282232E1,9.57285E0,1.7093825E0,1.5654459E0,8.007404E0,2.0176733E0,5.989731E0],"tree_param":{"num_deleted":"0","num_feature":"16","num_nodes":"7","size_leaf_vector":"1"}},{"base_weights":[1.4421514E-1,-2.3237014E-1,7E-1,7.525544E-2,-3.6352468E-1,2.1000001E-1,-7.598942E-2,-3.746204E-2,-1.2520425E-1],"categories":[],"categories_nodes":[],"categories_segments":[],"categories_sizes":[],"default_left":[0,0,0,0,0,0,0,0,0],"id":6,"left_children":[1,3,5,-1,7,-1,-1,-1,-1],"loss_changes":[4.417278E0,7.198141E-1,1.3658504E0,0E0,5.333686E-2,0E0,0E0,0E0,0E0],"parents":[2147483647,0,0,1,1,2,2,4,4],"right_children":[2,4,6,-1,8,-1,-1,-1,-1],"split_conditions":[2.3E1,2.14E2,2E0,7.525544E-2,2.42E2,2.1000001E-1,-7.598942E-2,-3.746204E-2,-1.2520425E-1],"split_indices":[0,3,1,0,3,0,0,0,0],"split_type":[0,0,0,0,0,0,0,0,0],"sum_hessian":[1.1027666E1,8.9188385E0,2.1088278E0,1.7091309E0,7.2097077E0,1.0666878E0,1.0421401E0,1.9377543E0,5.2719536E0],"tree_param":{"num_deleted":"0","num_feature":"16","num_nodes":"9","size_leaf_vector":"1"}},{"base_weights":[1.6540974E-1,7E-1,-2.4540809E-1,-6.900995E-2,2.1000001E-1,7.424607E-2,-3.7746292E-1,-2.4451805E-2,-1.2518914E-1],"categories":[],"categories_nodes":[],"categories_segments":[],"categories_sizes":[],"default_left":[0,0,0,0,0,0,0,0,0],"id":7,"left_children":[1,3,5,-1,-1,-1,7,-1,-1],"loss_changes":[4.102184E0,1.6957097E0,6.7013955E-1,0E0,0E0,0E0,5.3042293E-2,0E0,0E0],"parents":[2147483647,0,0,1,1,2,2,6,6],"right_children":[2,4,6,-1,-1,-1,8,-1,-1],"split_conditions":[1E0,1.7E1,2.14E2,-6.900995E-2,2.1000001E-1,7.424607E-2,-7.518398E-1,-2.4451805E-2,-1.2518914E-1],"split_indices":[1,0,3,0,0,0,7,0,0],"split_type":[0,0,0,0,0,0,0,0,0],"sum_hessian":[1.0642586E1,2.7820888E0,7.860497E0,1.5269436E0,1.2551451E0,1.4762541E0,6.384243E0,1.118705E0,5.265538E0],"tree_param":{"num_deleted":"0","num_feature":"16","num_nodes":"9","size_leaf_vector":"1"}},{"base_weights":[1.8540582E-1,-2.499516E-1,7E-1,4.4781927E-2,-3.579179E-1,2.1000001E-1,-5.7772335E-2,-3.433198E-2,-1.2134109E-1],"categories":[],"categories_nodes":[],"categories_segments":[],"categories_sizes":[],"default_left":[0,0,0,0,0,0,0,0,0],"id":8,"left_children":[1,3,5,-1,7,-1,-1,-1,-1],"loss_changes":[4.0859013E0,4.1493326E-1,1.5912476E0,0E0,3.1874835E-2,0E0,0E0,0E0,0E0],"parents":[2147483647,0,0,1,1,2,2,4,4],"right_children":[2,4,6,-1,8,-1,-1,-1,-1],"split_conditions":[7.818315E-1,2.14E2,-1.9509032E-1,4.4781927E-2,2.42E2,2.1000001E-1,-5.7772335E-2,-3.433198E-2,-1.2134109E-1],"split_indices":[8,3,6,0,3,0,0,0,0],"split_type":[0,0,0,0,0,0,0,0,0],"sum_hessian":[1.0301224E1,7.3870554E0,2.9141684E0,1.4910483E0,5.896007E0,1.3017985E0,1.6123698E0,1.5014472E0,4.39456E0],"tree_param":{"num_deleted":"0","num_feature":"16","num_nodes":"9","size_leaf_vector":"1"}},{"base_weights":[2.0215207E-1,-2.0142762E-1,2.1000001E-1,1.647665E-1,-3.363462E-1,1.3184819E-1,-5.751544E-2,-2.9275997E-2,-1.19628906E-1],"categories":[],"categories_nodes":[],"categories_segments":[],"categories_sizes":[],"default_left":[0,0,0,0,0,0,0,0,0],"id":9,"left_children":[1,3,-1,5,7,-1,-1,-1,-1],"loss_changes":[3.9909258E0,4.9409842E-1,0E0,3.8411632E-1,6.268066E-2,0E0,0E0,0E0,0E0],"parents":[2147483647,0,0,1,1,3,3,4,4],"right_children":[2,4,-1,6,8,-1,-1,-1,-1],"split_conditions":[2.3E1,2.14E2,2.1000001E-1,-1.8369701E-16,2.42E2,1.3184819E-1,-5.751544E-2,-2.9275997E-2,-1.19628906E-1],"split_indices":[0,3,0,7,3,0,0,0,0],"split_type":[0,0,0,0,0,0,0,0,0],"sum_hessian":[1.0030374E1,7.8790097E0,2.151364E0,2.0617657E0,5.817244E0,1.0328991E0,1.0288664E0,1.7368466E0,4.0803976E0],"tree_param":{"num_deleted":"0","num_feature":"16","num_nodes":"9","size_leaf_vector":"1"}},{"base_weights":[1.9708242E-1,-2.3719938E-1,7E-1,8.849462E-2,-1.1608187E-1,-1.5827109E-1,2.1000001E-1,1.0489667E-1,-7.543601E-2,4.040941E-3,-7.6083384E-2],"categories":[],"categories_nodes":[],"categories_segments":[],"categories_sizes":[],"default_left":[0,0,0,0,0,0,0,0,0,0,0],"id":10,"left_children":[1,3,5,7,-1,9,-1,-1,-1,-1,-1],"loss_changes":[3.7042787E0,4.2316502E-1,1.7937508E0,3.831674E-1,0E0,5.4179363E-2,0E0,0E0,0E0,0E0,0E0],"parents":[2147483647,0,0,1,1,2,2,3,3,5,5],"right_children":[2,4,6,8,-1,10,-1,-1,-1,-1,-1],"split_conditions":[7.818315E-1,-1.9509032E-1,9.238795E-1,2.42E2,-1.1608187E-1,3.6E1,2.1000001E-1,1.0489667E-1,-7.543601E-2,4.040941E-3,-7.6083384E-2],"split_indices":[8,7,7,3,0,4,0,0,0,0,0],"split_type":[0,0,0,0,0,0,0,0,0,0,0],"sum_hessian":[1.0110989E1,6.9747214E0,3.1362674E0,2.3255408E0,4.649181E0,2.1002707E0,1.0359968E0,1.2990247E0,1.0265161E0,1.0562732E0,1.0439975E0],"tree_param":{"num_deleted":"0","num_feature":"16","num_nodes":"11","size_leaf_vector":"1"}},{"base_weights":[2.1439642E-1,7E-1,-2.1479501E-1,-6.1915275E-2,2.1000001E-1,6.9492675E-2,-1.1217715E-1],"categories":[],"categories_nodes":[],"categories_segments":[],"categories_sizes":[],"default_left":[0,0,0,0,0,0,0],"id":11,"left_children":[1,3,5,-1,-1,-1,-1],"loss_changes":[3.563081E0,1.8721976E0,6.476924E-1,0E0,0E0,0E0,0E0],"parents":[2147483647,0,0,1,1,2,2],"right_children":[2,4,6,-1,-1,-1,-1],"split_conditions":[1E0,7.818315E-1,-6.087614E-1,-6.1915275E-2,2.1000001E-1,6.9492675E-2,-1.1217715E-1],"split_indices":[1,8,7,0,0,0,0],"split_type":[0,0,0,0,0,0,0],"sum_hessian":[9.840411E0,2.9424982E0,6.897913E0,1.875356E0,1.0671422E0,1.6928679E0,5.205045E0],"tree_param":{"num_deleted":"0","num_feature":"16","num_nodes":"7","size_leaf_vector":"1"}},{"base_weights":[2.3419744E-1,-1.6954176E-1,7E-1,1.5731013E-1,-3.119557E-1,-8.9626014E-2,2.1000001E-1,1.1911654E-1,-4.8916932E-2,-2.5991268E-2,-1.1391885E-1],"categories":[],"categories_nodes":[],"categories_segments":[],"categories_sizes":[],"default_left":[0,0,0,0,0,0,0,0,0,0,0],"id":12,"left_children":[1,3,5,7,9,-1,-1,-1,-1,-1,-1],"loss_changes":[3.2805667E0,4.220804E-1,2.017308E0,3.0258673E-1,5.745232E-2,0E0,0E0,0E0,0E0,0E0,0E0],"parents":[2147483647,0,0,1,1,2,2,3,3,4,4],"right_children":[2,4,6,8,10,-1,-1,-1,-1,-1,-1],"split_conditions":[2.3E1,2.14E2,7.818315E-1,-2.5881904E-1,2.42E2,-8.9626014E-2,2.1000001E-1,1.1911654E-1,-4.8916932E-2,-2.5991268E-2,-1.1391885E-1],"split_indices":[0,3,8,7,3,0,0,0,0,0,0],"split_type":[0,0,0,0,0,0,0,0,0,0,0],"sum_hessian":[9.546683E0,7.0133305E0,2.5333533E0,2.0966787E0,4.9166517E0,1.5135716E0,1.0197817E0,1.0623192E0,1.0343596E0,1.6637495E0,3.252902E0],"tree_param":{"num_deleted":"0","num_feature":"16","num_nodes":"11","size_leaf_vector":"1"}},{"base_weights":[2.4827825E-1,7E-1,-1.9125305E-1,2.1000001E-1,-5.8151606E-2,6.1365373E-2,-1.0739983E-1],"categories":[],"categories_nodes":[],"categories_segments":[],"categories_sizes":[],"default_left":[0,0,0,0,0,0,0],"id":13,"left_children":[1,3,5,-1,-1,-1,-1],"loss_changes":[3.1884606E0,1.8506541E0,5.542929E-1,0E0,0E0,0E0,0E0],"parents":[2147483647,0,0,1,1,2,2],"right_children":[2,4,6,-1,-1,-1,-1],"split_conditions":[1E0,2E0,-6.087614E-1,2.1000001E-1,-5.8151606E-2,6.1365373E-2,-1.0739983E-1],"split_indices":[1,2,7,0,0,0,0],"split_type":[0,0,0,0,0,0,0],"sum_hessian":[9.34731E0,3.0583484E0,6.288962E0,1.1286775E0,1.9296708E0,1.7969167E0,4.492045E0],"tree_param":{"num_deleted":"0","num_feature":"16","num_nodes":"7","size_leaf_vector":"1"}},{"base_weights":[2.6213565E-1,-1.5112454E-1,7E-1,1.4809012E-1,-2.9596865E-1,2.1000001E-1,-9.008076E-2,1.10221386E-1,-3.8374357E-2,-2.2752056E-2,-1.10247806E-1],"categories":[],"categories_nodes":[],"categories_segments":[],"categories_sizes":[],"default_left":[0,0,0,0,0,0,0,0,0,0,0],"id":14,"left_children":[1,3,5,7,9,-1,-1,-1,-1,-1,-1],"loss_changes":[3.0578794E0,3.7260866E-1,2.0409935E0,2.3712485E-1,5.7860404E-2,0E0,0E0,0E0,0E0,0E0,0E0],"parents":[2147483647,0,0,1,1,2,2,3,3,4,4],"right_children":[2,4,6,8,10,-1,-1,-1,-1,-1,-1],"split_conditions":[2.3E1,2.14E2,2E0,-5E-1,2.42E2,2.1000001E-1,-9.008076E-2,1.10221386E-1,-3.8374357E-2,-2.2752056E-2,-1.10247806E-1],"split_indices":[0,3,2,7,3,0,0,0,0,0,0],"split_type":[0,0,0,0,0,0,0,0,0,0,0],"sum_hessian":[9.158325E0,6.5861235E0,2.572202E0,2.140967E0,4.4451566E0,1.0425701E0,1.529632E0,1.0084748E0,1.1324921E0,1.595391E0,2.8497655E0],"tree_param":{"num_deleted":"0","num_feature":"16","num_nodes":"11","size_leaf_vector":"1"}},{"base_weights":[2.73248E-1,-1.3893795E-1,7E-1,5.1497087E-2,-2.618731E-1,2.1000001E-1,-8.684441E-2,-2.4487043E-3,-9.98333E-2],"categories":[],"categories_nodes":[],"categories_segments":[],"categories_sizes":[],"default_left":[0,0,0,0,0,0,0,0,0],"id":15,"left_children":[1,3,5,-1,7,-1,-1,-1,-1],"loss_changes":[2.8440084E0,3.2474348E-1,1.857686E0,0E0,9.884569E-2,0E0,0E0,0E0,0E0],"parents":[2147483647,0,0,1,1,2,2,4,4],"right_children":[2,4,6,-1,8,-1,-1,-1,-1],"split_conditions":[2.3E1,-2.2252093E-1,2E0,5.1497087E-2,-7.933533E-1,2.1000001E-1,-8.684441E-2,-2.4487043E-3,-9.98333E-2],"split_indices":[0,9,2,0,7,0,0,0,0],"split_type":[0,0,0,0,0,0,0,0,0],"sum_hessian":[9.011693E0,6.3276315E0,2.6840613E0,1.6819286E0,4.645703E0,1.286196E0,1.3978654E0,1.2583148E0,3.387388E0],"tree_param":{"num_deleted":"0","num_feature":"16","num_nodes":"9","size_leaf_vector":"1"}},{"base_weights":[2.772483E-1,7E-1,-1.6488555E-1,-5.220461E-2,2.1000001E-1,5.4039612E-2,-1.01521306E-1],"categories":[],"categories_nodes":[],"categories_segments":[],"categories_sizes":[],"default_left":[0,0,0,0,0,0,0],"id":16,"left_children":[1,3,5,-1,-1,-1,-1],"loss_changes":[2.7488928E0,1.6223662E0,4.6263823E-1,0E0,0E0,0E0,0E0],"parents":[2147483647,0,0,1,1,2,2],"right_children":[2,4,6,-1,-1,-1,-1],"split_conditions":[1E0,2.3E1,-6.087614E-1,-5.220461E-2,2.1000001E-1,5.4039612E-2,-1.01521306E-1],"split_indices":[1,0,7,0,0,0,0],"split_type":[0,0,0,0,0,0,0],"sum_hessian":[8.959937E0,3.25039E0,5.7095475E0,1.7652289E0,1.4851612E0,1.8978429E0,3.8117046E0],"tree_param":{"num_deleted":"0","num_feature":"16","num_nodes":"7","size_leaf_vector":"1"}},{"base_weights":[2.77663E-1,-1.6764197E-1,7E-1,8.361083E-2,-1.0175109E-1,-4.1535784E-2,2.1000001E-1,1.0078914E-1,-5.149505E-2],"categories":[],"categories_nodes":[],"categories_segments":[],"categories_sizes":[],"default_left":[0,0,0,0,0,0,0,0,0],"id":17,"left_children":[1,3,5,7,-1,-1,-1,-1,-1],"loss_changes":[2.4683435E0,2.9936966E-1,1.57002E0,2.7368897E-1,0E0,0E0,0E0,0E0,0E0],"parents":[2147483647,0,0,1,1,2,2,3,3],"right_children":[2,4,6,8,-1,-1,-1,-1,-1],"split_conditions":[7.818315E-1,-1.9509032E-1,2.3E1,-2.2252093E-1,-1.0175109E-1,-4.1535784E-2,2.1000001E-1,1.0078914E-1,-5.149505E-2],"split_indices":[8,7,0,9,0,0,0,0,0],"split_type":[0,0,0,0,0,0,0,0,0],"sum_hessian":[8.954603E0,5.28841E0,3.666193E0,2.3535335E0,2.9348767E0,1.9303164E0,1.7358767E0,1.0245236E0,1.3290098E0],"tree_param":{"num_deleted":"0","num_feature":"16","num_nodes":"9","size_leaf_vector":"1"}},{"base_weights":[2.7109993E-1,7E-1,-1.478709E-1,2.1000001E-1,-5.050182E-2,1.2787947E-1,-1.09939806E-1,-4.9634647E-2,1.1864538E-1],"categories":[],"categories_nodes":[],"categories_segments":[],"categories_sizes":[],"default_left":[0,0,0,0,0,0,0,0,0],"id":18,"left_children":[1,3,5,-1,-1,7,-1,-1,-1],"loss_changes":[2.2511911E0,1.5474062E0,4.315661E-1,0E0,0E0,3.4514993E-1,0E0,0E0,0E0],"parents":[2147483647,0,0,1,1,2,2,5,5],"right_children":[2,4,6,-1,-1,8,-1,-1,-1],"split_conditions":[1E0,2E0,2.38E2,2.1000001E-1,-5.050182E-2,2.11E2,-1.09939806E-1,-4.9634647E-2,1.1864538E-1],"split_indices":[1,2,3,0,0,3,0,0,0],"split_type":[0,0,0,0,0,0,0,0,0],"sum_hessian":[9.039706E0,3.6575346E0,5.382172E0,1.955451E0,1.7020837E0,2.5634546E0,2.8187172E0,1.4050684E0,1.1583861E0],"tree_param":{"num_deleted":"0","num_feature":"16","num_nodes":"9","size_leaf_vector":"1"}},{"base_weights":[2.5923935E-1,-1.5085815E-1,6.8010163E-1,4.0176407E-2,-2.9193196E-1,2.1000001E-1,-5.555908E-2,-2.0851513E-2,-1.030829E-1],"categories":[],"categories_nodes":[],"categories_segments":[],"categories_sizes":[],"default_left":[0,0,0,0,0,0,0,0,0],"id":19,"left_children":[1,3,5,-1,7,-1,-1,-1,-1],"loss_changes":[1.8625892E0,2.794677E-1,1.5064213E0,0E0,2.5722593E-2,0E0,0E0,0E0,0E0],"parents":[2147483647,0,0,1,1,2,2,4,4],"right_children":[2,4,6,-1,8,-1,-1,-1,-1],"split_conditions":[7.818315E-1,2.2E2,-1.9509032E-1,4.0176407E-2,2.42E2,2.1000001E-1,-5.555908E-2,-2.0851513E-2,-1.030829E-1],"split_indices":[8,3,6,0,3,0,0,0,0],"split_type":[0,0,0,0,0,0,0,0,0],"sum_hessian":[9.197252E0,4.98313E0,4.214122E0,1.6675731E0,3.315557E0,2.6636453E0,1.5504767E0,1.0671954E0,2.2483616E0],"tree_param":{"num_deleted":"0","num_feature":"16","num_nodes":"9","size_leaf_vector":"1"}},{"base_weights":[2.3313703E-1,-1.0764555E-1,6.608142E-1,1.4853552E-1,-2.5907242E-1,2.1000001E-1,-8.428487E-2,-6.4634524E-2,1.3676323E-1,-1.9820346E-2,-1.00297056E-1],"categories":[],"categories_nodes":[],"categories_segments":[],"categories_sizes":[],"default_left":[0,0,0,0,0,0,0,0,0,0,0],"id":20,"left_children":[1,3,5,7,9,-1,-1,-1,-1,-1,-1],"loss_changes":[1.6104933E0,2.9986987E-1,1.7186744E0,4.4934762E-1,4.4711024E-2,0E0,0E0,0E0,0E0,0E0,0E0],"parents":[2147483647,0,0,1,1,2,2,3,3,4,4],"right_children":[2,4,6,8,10,-1,-1,-1,-1,-1,-1],"split_conditions":[2.3E1,2.14E2,2E0,2.01E2,2.42E2,2.1000001E-1,-8.428487E-2,-6.4634524E-2,1.3676323E-1,-1.9820346E-2,-1.00297056E-1],"split_indices":[0,3,2,3,3,0,0,0,0,0,0],"split_type":[0,0,0,0,0,0,0,0,0,0,0],"sum_hessian":[9.56201E0,5.7380824E0,3.8239276E0,2.1387982E0,3.599284E0,2.5209353E0,1.3029922E0,1.1160538E0,1.0227444E0,1.5364779E0,2.0628061E0],"tree_param":{"num_deleted":"0","num_feature":"16","num_nodes":"11","size_leaf_vector":"1"}},{"base_weights":[2.1058731E-1,5.401141E-1,-1.3364846E-1,-7.139369E-2,2.1000001E-1,5.1375423E-2,-9.4554104E-2],"categories":[],"categories_nodes":[],"categories_segments":[],"categories_sizes":[],"default_left":[0,0,0,0,0,0,0],"id":21,"left_children":[1,3,5,-1,-1,-1,-1],"loss_changes":[1.3084898E0,1.674835E0,3.9337942E-1,0E0,0E0,0E0,0E0],"parents":[2147483647,0,0,1,1,2,2],"right_children":[2,4,6,-1,-1,-1,-1],"split_conditions":[1E0,2.41E2,-6.087614E-1,-7.139369E-2,2.1000001E-1,5.1375423E-2,-9.4554104E-2],"split_indices":[1,3,7,0,0,0,0],"split_type":[0,0,0,0,0,0,0],"sum_hessian":[9.898803E0,4.766729E0,5.1320734E0,1.6281433E0,3.1385858E0,1.9363773E0,3.1956959E0],"tree_param":{"num_deleted":"0","num_feature":"16","num_nodes":"7","size_leaf_vector":"1"}},{"base_weights":[1.8344586E-1,-1.4162973E-1,4.4641832E-1,8.526972E-2,-9.563352E-2,-4.4074E-2,7E-1,9.047249E-2,-4.726835E-2,4.709821E-2,2.1000001E-1],"categories":[],"categories_nodes":[],"categories_segments":[],"categories_sizes":[],"default_left":[0,0,0,0,0,0,0,0,0,0,0],"id":22,"left_children":[1,3,5,7,-1,-1,9,-1,-1,-1,-1],"loss_changes":[1.0321064E0,2.614212E-1,1.2442868E0,2.2316062E-1,0E0,0E0,2.0465875E-1,0E0,0E0,0E0,0E0],"parents":[2147483647,0,0,1,1,2,2,3,3,6,6],"right_children":[2,4,6,8,-1,-1,10,-1,-1,-1,-1],"split_conditions":[7.818315E-1,-1.9509032E-1,2.3E1,-2.2252093E-1,-9.563352E-2,-4.4074E-2,3.8E1,9.047249E-2,-4.726835E-2,4.709821E-2,2.1000001E-1],"split_indices":[8,7,0,9,0,0,4,0,0,0,0],"split_type":[0,0,0,0,0,0,0,0,0,0,0],"sum_hessian":[1.03337965E1,4.827576E0,5.5062203E0,2.3439724E0,2.4836037E0,2.0012188E0,3.5050015E0,1.1117505E0,1.232222E0,1.3559296E0,2.149072E0],"tree_param":{"num_deleted":"0","num_feature":"16","num_nodes":"11","size_leaf_vector":"1"}},{"base_weights":[1.657297E-1,-1.3043787E-1,3.81465E-1,6.348311E-2,-9.855571E-2,5.98184E-1,-4.4069625E-2,7.981721E-2,-5.0034963E-2,3.8559742E-2,2.1000001E-1],"categories":[],"categories_nodes":[],"categories_segments":[],"categories_sizes":[],"default_left":[0,0,0,0,0,0,0,0,0,0,0],"id":23,"left_children":[1,3,5,7,-1,9,-1,-1,-1,-1,-1],"loss_changes":[7.9328716E-1,2.3786247E-1,8.879881E-1,2.1662627E-1,0E0,2.9129112E-1,0E0,0E0,0E0,0E0,0E0],"parents":[2147483647,0,0,1,1,2,2,3,3,5,5],"right_children":[2,4,6,8,-1,10,-1,-1,-1,-1,-1],"split_conditions":[7.818315E-1,2.42E2,1E0,-2.2252093E-1,-9.855571E-2,3.8E1,-4.4069625E-2,7.981721E-2,-5.0034963E-2,3.8559742E-2,2.1000001E-1],"split_indices":[8,3,1,9,0,4,0,0,0,0,0],"split_type":[0,0,0,0,0,0,0,0,0,0,0],"sum_hessian":[1.0636962E1,4.6494474E0,5.9875145E0,2.6927555E0,1.956692E0,4.1522436E0,1.8352706E0,1.3498268E0,1.3429286E0,1.5559255E0,2.5963182E0],"tree_param":{"num_deleted":"0","num_feature":"16","num_nodes":"11","size_leaf_vector":"1"}},{"base_weights":[1.4098096E-1,-8.938433E-2,3.426456E-1,7.57901E-2,-9.680761E-2,5.490041E-1,-8.456528E-2,-5.8992494E-2,9.375012E-2,2.1000001E-1,-7.783747E-2],"categories":[],"categories_nodes":[],"categories_segments":[],"categories_sizes":[],"default_left":[0,0,0,0,0,0,0,0,0,0,0],"id":24,"left_children":[1,3,5,7,-1,9,-1,-1,-1,-1,-1],"loss_changes":[5.922252E-1,2.7247405E-1,1.012145E0,3.566719E-1,0E0,1.3160676E0,0E0,0E0,0E0,0E0,0E0],"parents":[2147483647,0,0,1,1,2,2,3,3,5,5],"right_children":[2,4,6,8,-1,10,-1,-1,-1,-1,-1],"split_conditions":[2.3E1,2.42E2,2E0,2.11E2,-9.680761E-2,1E0,-8.456528E-2,-5.8992494E-2,9.375012E-2,2.1000001E-1,-7.783747E-2],"split_indices":[0,3,2,3,0,15,0,0,0,0,0],"split_type":[0,0,0,0,0,0,0,0,0,0,0],"sum_hessian":[1.108868E1,5.4359083E0,5.652772E0,3.5779693E0,1.857939E0,4.339753E0,1.3130186E0,1.7421676E0,1.8358016E0,3.2455797E0,1.0941738E0],"tree_param":{"num_deleted":"0","num_feature":"16","num_nodes":"11","size_leaf_vector":"1"}},{"base_weights":[1.1667062E-1,2.759998E-1,-1.1482781E-1,-7.19003E-2,4.5459944E-1,5.8591526E-2,-2.8547865E-1,6.4422566E-1,-7.495799E-2,-2.1314742E-2,-1.0089512E-1,2.1000001E-1,-4.3310765E-2],"categories":[],"categories_nodes":[],"categories_segments":[],"categories_sizes":[],"default_left":[0,0,0,0,0,0,0,0,0,0,0,0,0],"id":25,"left_children":[1,3,5,-1,7,-1,9,11,-1,-1,-1,-1,-1],"loss_changes":[4.9525237E-1,8.2161915E-1,3.642923E-1,0E0,9.748547E-1,0E0,2.1527767E-2,9.3000627E-1,0E0,0E0,0E0,0E0,0E0],"parents":[2147483647,0,0,1,1,2,2,4,4,6,6,7,7],"right_children":[2,4,6,-1,8,-1,10,12,-1,-1,-1,-1,-1],"split_conditions":[1E0,2.41E2,2.14E2,-7.19003E-2,1E0,5.8591526E-2,2.38E2,2E0,-7.495799E-2,-2.1314742E-2,-1.0089512E-1,2.1000001E-1,-4.3310765E-2],"split_indices":[1,3,3,0,15,0,3,2,0,0,0,0,0],"split_type":[0,0,0,0,0,0,0,0,0,0,0,0,0],"sum_hessian":[1.1567893E1,6.7381306E0,4.829762E0,1.6454179E0,5.092713E0,1.6630113E0,3.1667507E0,4.079971E0,1.0127419E0,1.0663937E0,2.100357E0,3.0660994E0,1.0138713E0],"tree_param":{"num_deleted":"0","num_feature":"16","num_nodes":"13","size_leaf_vector":"1"}},{"base_weights":[9.9478155E-2,-1.2273407E-1,2.3404771E-1,8.650845E-2,-9.083631E-2,3.5040042E-1,-5.386072E-2,7.384813E-2,-3.9168585E-2,-4.46608E-2,4.7763512E-1,2.1000001E-1,1.270817E-1,-8.0536634E-2,1.16024524E-1],"categories":[],"categories_nodes":[],"categories_segments":[],"categories_sizes":[],"default_left":[0,0,0,0,0,0,0,0,0,0,0,0,0,0,0],"id":26,"left_children":[1,3,5,7,-1,9,-1,-1,-1,-1,11,-1,13,-1,-1],"loss_changes":[4.1538313E-1,2.3464997E-1,4.6700343E-1,1.4778075E-1,0E0,5.089426E-1,0E0,0E0,0E0,0E0,5.4062533E-1,0E0,5.1497644E-1,0E0,0E0],"parents":[2147483647,0,0,1,1,2,2,3,3,5,5,10,10,12,12],"right_children":[2,4,6,8,-1,10,-1,-1,-1,-1,12,-1,14,-1,-1],"split_conditions":[7.818315E-1,-1.9509032E-1,-1.9509032E-1,-2.2252093E-1,-9.083631E-2,2.4E2,-5.386072E-2,7.384813E-2,-3.9168585E-2,-4.46608E-2,2.6E2,2.1000001E-1,2.68E2,-8.0536634E-2,1.16024524E-1],"split_indices":[8,7,6,9,0,3,0,0,0,0,3,0,3,0,0],"split_type":[0,0,0,0,0,0,0,0,0,0,0,0,0,0,0],"sum_hessian":[1.1930392E1,4.5330315E0,7.397361E0,2.3368685E0,2.1961632E0,5.892425E0,1.5049359E0,1.2693033E0,1.0675652E0,1.1621407E0,4.730284E0,1.7271644E0,3.00312E0,1.1767658E0,1.8263541E0],"tree_param":{"num_deleted":"0","num_feature":"16","num_nodes":"15","size_leaf_vector":"1"}},{"base_weights":[8.714778E-2,-1.1342539E-1,2.0022874E-1,7.683753E-2,-8.714732E-2,-3.9790384E-2,3.099709E-1,6.468849E-2,-3.694669E-2,4.3001115E-1,1.1907914E-1,2.2800704E-2,2.0092905E-1,-7.931853E-2,1.07838914E-1],"categories":[],"categories_nodes":[],"categories_segments":[],"categories_sizes":[],"default_left":[0,0,0,0,0,0,0,0,0,0,0,0,0,0,0],"id":27,"left_children":[1,3,5,7,-1,-1,9,-1,-1,11,13,-1,-1,-1,-1],"loss_changes":[3.221803E-1,2.0419449E-1,3.6274874E-1,1.2074007E-1,0E0,0E0,1.0739738E-1,0E0,0E0,2.7724952E-1,4.6884432E-1,0E0,0E0,0E0,0E0],"parents":[2147483647,0,0,1,1,2,2,3,3,6,6,9,9,10,10],"right_children":[2,4,6,8,-1,-1,10,-1,-1,12,14,-1,-1,-1,-1],"split_conditions":[7.818315E-1,-1.9509032E-1,2.3E1,-2.2252093E-1,-8.714732E-2,-3.9790384E-2,2.6E2,6.468849E-2,-3.694669E-2,2.54E2,4E1,2.2800704E-2,2.0092905E-1,-7.931853E-2,1.07838914E-1],"split_indices":[8,7,0,9,0,0,3,0,0,3,4,0,0,0,0],"split_type":[0,0,0,0,0,0,0,0,0,0,0,0,0,0,0],"sum_hessian":[1.2203526E1,4.398609E0,7.804916E0,2.3931456E0,2.0054636E0,1.8834735E0,5.9214425E0,1.3665869E0,1.0265588E0,2.8663342E0,3.0551083E0,1.6891724E0,1.1771617E0,1.1387006E0,1.9164077E0],"tree_param":{"num_deleted":"0","num_feature":"16","num_nodes":"15","size_leaf_vector":"1"}},{"base_weights":[7.649003E-2,1.3054836E-1,-7.9925425E-2,-6.0969487E-2,2.7098265E-1,5.001847E-2,-2.2094303E-1,4.0017915E-1,8.6982355E-2,-1.3154713E-2,-9.053244E-2,2.336818E-2,1.8018611E-1,-7.9474986E-2,8.99605E-2],"categories":[],"categories_nodes":[],"categories_segments":[],"categories_sizes":[],"default_left":[0,0,0,0,0,0,0,0,0,0,0,0,0,0,0],"id":28,"left_children":[1,3,-1,5,7,-1,9,11,13,-1,-1,-1,-1,-1,-1],"loss_changes":[2.8408653E-1,3.4703535E-1,0E0,2.55943E-1,1.3810068E-1,0E0,4.349798E-2,2.1131754E-1,3.9993438E-1,0E0,0E0,0E0,0E0,0E0,0E0],"parents":[2147483647,0,0,1,1,3,3,4,4,6,6,7,7,8,8],"right_children":[2,4,-1,6,8,-1,10,12,14,-1,-1,-1,-1,-1,-1],"split_conditions":[9.8078525E-1,2.3E1,-7.9925425E-2,2.14E2,2.6E2,5.001847E-2,2.42E2,2.59E2,2.73E2,-1.3154713E-2,-9.053244E-2,2.336818E-2,1.8018611E-1,-7.9474986E-2,8.99605E-2],"split_indices":[7,0,0,3,3,0,3,3,3,0,0,0,0,0,0],"split_type":[0,0,0,0,0,0,0,0,0,0,0,0,0,0,0],"sum_hessian":[1.2449077E1,1.1288735E1,1.1603413E0,5.015152E0,6.273584E0,2.0520916E0,2.9630604E0,2.9954407E0,3.278143E0,1.4119962E0,1.5510641E0,1.6810799E0,1.314361E0,1.1435149E0,2.134628E0],"tree_param":{"num_deleted":"0","num_feature":"16","num_nodes":"15","size_leaf_vector":"1"}},{"base_weights":[6.495608E-2,-6.510147E-2,1.2991028E-1,2.5518224E-1,-5.260418E-2,-7.868085E-3,3.1360674E-1,-1.0094433E-1,6.36884E-2,1.2390295E-2,3.6368135E-1,1.9292815E-2,1.292049E-1],"categories":[],"categories_nodes":[],"categories_segments":[],"categories_sizes":[],"default_left":[0,0,0,0,0,0,0,0,0,0,0,0,0],"id":29,"left_children":[1,-1,3,5,7,-1,9,-1,-1,-1,11,-1,-1],"loss_changes":[2.7956417E-1,0E0,2.827839E-1,1.2589347E-1,4.9435547E-1,0E0,6.684345E-2,0E0,0E0,0E0,7.145256E-2,0E0,0E0],"parents":[2147483647,0,0,2,2,3,3,4,4,6,6,10,10],"right_children":[2,-1,4,6,8,-1,10,-1,-1,-1,12,-1,-1],"split_conditions":[2.11E2,-6.510147E-2,2.6E2,-2.5881904E-1,2.73E2,-7.868085E-3,4.3388373E-1,-1.0094433E-1,6.36884E-2,1.2390295E-2,2.41E2,1.9292815E-2,1.292049E-1],"split_indices":[3,0,3,6,3,0,8,0,0,0,3,0,0],"split_type":[0,0,0,0,0,0,0,0,0,0,0,0,0],"sum_hessian":[1.2725319E1,1.9443148E0,1.0781004E1,6.1569366E0,4.6240673E0,1.153251E0,5.0036855E0,2.1016376E0,2.5224297E0,1.0606515E0,3.9430337E0,1.0795012E0,2.8635325E0],"tree_param":{"num_deleted":"0","num_feature":"16","num_nodes":"13","size_leaf_vector":"1"}},{"base_weights":[5.4449555E-2,1.0019549E-1,-7.702533E-2,-5.820757E-2,1.6269158E-1,2.7928922E-1,-2.1933286E-2,-7.273276E-3,1.0303695E-1,-9.12486E-2,5.4584827E-2],"categories":[],"categories_nodes":[],"categories_segments":[],"categories_sizes":[],"default_left":[0,0,0,0,0,0,0,0,0,0,0],"id":30,"left_children":[1,3,-1,-1,5,7,9,-1,-1,-1,-1],"loss_changes":[2.2484685E-1,2.6901978E-1,0E0,0E0,2.47123E-1,1.4339077E-1,3.580477E-1,0E0,0E0,0E0,0E0],"parents":[2147483647,0,0,1,1,4,4,5,5,6,6],"right_children":[2,4,-1,-1,6,8,10,-1,-1,-1,-1],"split_conditions":[9.8078525E-1,2.11E2,-7.702533E-2,-5.820757E-2,2.6E2,-2.5881904E-1,2.73E2,-7.273276E-3,1.0303695E-1,-9.12486E-2,5.4584827E-2],"split_indices":[7,3,0,0,3,6,3,0,0,0,0],"split_type":[0,0,0,0,0,0,0,0,0,0,0],"sum_hessian":[1.2987018E1,1.19137535E1,1.0732646E0,1.718545E0,1.0195209E1,5.9345655E0,4.260643E0,1.1442126E0,4.790353E0,1.5806916E0,2.6799517E0],"tree_param":{"num_deleted":"0","num_feature":"16","num_nodes":"11","size_leaf_vector":"1"}},{"base_weights":[4.109597E-2,-5.8082223E-2,8.837803E-2,1.12611085E-1,3.0405285E-2,1.304609E-1,-2.48257E-1,-4.9127858E-2,1.8704835E-1,-2.2256419E-2,-8.696977E-2,2.523807E-1,2.1919385E-2,2.360521E-2,9.6238665E-2],"categories":[],"categories_nodes":[],"categories_segments":[],"categories_sizes":[],"default_left":[0,0,0,0,0,0,0,0,0,0,0,0,0,0,0],"id":31,"left_children":[1,-1,3,-1,5,7,9,-1,11,-1,-1,13,-1,-1,-1],"loss_changes":[1.7618309E-1,0E0,1.9851246E-1,0E0,3.554026E-1,1.8346953E-1,3.1761974E-3,0E0,4.237047E-2,0E0,0E0,3.1600535E-2,0E0,0E0,0E0],"parents":[2147483647,0,0,2,2,4,4,5,5,6,6,8,8,11,11],"right_children":[2,-1,4,-1,6,8,10,-1,12,-1,-1,14,-1,-1,-1],"split_conditions":[2.11E2,-5.8082223E-2,2.24E2,1.12611085E-1,2E0,2.3E1,2.43E2,-4.9127858E-2,2.6E2,-2.2256419E-2,-8.696977E-2,2.59E2,2.1919385E-2,2.360521E-2,9.6238665E-2],"split_indices":[3,0,3,0,2,0,3,0,3,0,0,3,0,0,0],"split_type":[0,0,0,0,0,0,0,0,0,0,0,0,0,0,0],"sum_hessian":[1.3334393E1,1.7169402E0,1.1617453E1,1.032273E0,1.0585179E1,8.179945E0,2.405234E0,1.0139742E0,7.165971E0,1.0012909E0,1.4039432E0,3.7833033E0,3.3826678E0,1.6766365E0,2.1066668E0],"tree_param":{"num_deleted":"0","num_feature":"16","num_nodes":"15","size_leaf_vector":"1"}},{"base_weights":[3.49259E-2,-5.472123E-2,7.642128E-2,1.11814976E-1,1.8964991E-2,1.11141056E-1,-7.5789206E-2,1.5933757E-1,-4.3892216E-2,2.2398393E-1,1.6028179E-2,2.1108147E-2,8.5001186E-2],"categories":[],"categories_nodes":[],"categories_segments":[],"categories_sizes":[],"default_left":[0,0,0,0,0,0,0,0,0,0,0,0,0],"id":32,"left_children":[1,-1,3,-1,5,7,-1,9,-1,11,-1,-1,-1],"loss_changes":[1.447105E-1,0E0,2.1221343E-1,0E0,3.245441E-1,1.4163643E-1,0E0,4.6305478E-2,0E0,2.539751E-2,0E0,0E0,0E0],"parents":[2147483647,0,0,2,2,4,4,5,5,7,7,9,9],"right_children":[2,-1,4,-1,6,8,-1,10,-1,12,-1,-1,-1],"split_conditions":[2.11E2,-5.472123E-2,2.21E2,1.11814976E-1,1E0,2E0,-7.5789206E-2,2.6E2,-4.3892216E-2,2.59E2,1.6028179E-2,2.1108147E-2,8.5001186E-2],"split_indices":[3,0,3,0,1,2,0,3,0,3,0,0,0],"split_type":[0,0,0,0,0,0,0,0,0,0,0,0,0],"sum_hessian":[1.3500793E1,1.6200575E0,1.1880736E1,1.0384768E0,1.0842259E1,8.536027E0,2.3062325E0,7.510995E0,1.0250322E0,3.9718072E0,3.5391877E0,1.7159331E0,2.2558742E0],"tree_param":{"num_deleted":"0","num_feature":"16","num_nodes":"13","size_leaf_vector":"1"}},{"base_weights":[3.0629562E-2,-5.739553E-2,6.434101E-2,1.2519287E-1,1.355047E-3,8.4659144E-2,-2.406779E-1,-4.6784163E-2,1.3150635E-1,-1.74379E-2,-8.767676E-2,1.797929E-1,1.4148584E-2,9.393341E-3,7.642177E-2],"categories":[],"categories_nodes":[],"categories_segments":[],"categories_sizes":[],"default_left":[0,0,0,0,0,0,0,0,0,0,0,0,0,0,0],"id":33,"left_children":[1,-1,3,-1,5,7,9,-1,11,-1,-1,13,-1,-1,-1],"loss_changes":[1.2169145E-1,0E0,2.9822516E-1,0E0,2.705456E-1,1.3289285E-1,1.5376508E-2,0E0,2.771911E-2,0E0,0E0,5.096568E-2,0E0,0E0,0E0],"parents":[2147483647,0,0,2,2,4,4,5,5,6,6,8,8,11,11],"right_children":[2,-1,4,-1,6,8,10,-1,12,-1,-1,14,-1,-1,-1],"split_conditions":[2.06E2,-5.739553E-2,2.14E2,1.2519287E-1,1E0,2.3E1,2.38E2,-4.6784163E-2,2.6E2,-1.74379E-2,-8.767676E-2,2.59E2,1.4148584E-2,9.393341E-3,7.642177E-2],"split_indices":[3,0,3,0,1,0,3,0,3,0,0,3,0,0,0],"split_type":[0,0,0,0,0,0,0,0,0,0,0,0,0,0,0],"sum_hessian":[1.3618962E1,1.1793344E0,1.2439629E1,1.0318396E0,1.1407788E1,8.970495E0,2.437293E0,1.0824103E0,7.8880854E0,1.0054904E0,1.4318026E0,4.2966394E0,3.591446E0,1.916835E0,2.3798044E0],"tree_param":{"num_deleted":"0","num_feature":"16","num_nodes":"15","size_leaf_vector":"1"}},{"base_weights":[2.5520643E-2,-5.0794836E-2,6.05895E-2,1.0119202E-1,9.449791E-3,8.519543E-2,-2.1946868E-1,5.881113E-2,4.251404E-2,-1.3785053E-2,-8.3526604E-2,-9.600347E-3,4.0426277E-2],"categories":[],"categories_nodes":[],"categories_segments":[],"categories_sizes":[],"default_left":[0,0,0,0,0,0,0,0,0,0,0,0,0],"id":34,"left_children":[1,-1,3,-1,5,7,9,-1,11,-1,-1,-1,-1],"loss_changes":[1.1112322E-1,0E0,1.842702E-1,0E0,2.3040195E-1,3.847386E-2,2.1118477E-2,0E0,6.2188193E-2,0E0,0E0,0E0,0E0],"parents":[2147483647,0,0,2,2,4,4,5,5,6,6,8,8],"right_children":[2,-1,4,-1,6,8,10,-1,12,-1,-1,-1,-1],"split_conditions":[2.11E2,-5.0794836E-2,2.18E2,1.0119202E-1,2E0,3.7E1,-1.9509032E-1,5.881113E-2,2.73E2,-1.3785053E-2,-8.3526604E-2,-9.600347E-3,4.0426277E-2],"split_indices":[3,0,3,0,2,4,7,0,3,0,0,0,0],"split_type":[0,0,0,0,0,0,0,0,0,0,0,0,0],"sum_hessian":[1.37620125E1,1.5152774E0,1.2246735E1,1.0374265E0,1.1209309E1,8.894191E0,2.3151176E0,1.47379E0,7.420401E0,1.038351E0,1.2767664E0,4.4658127E0,2.9545887E0],"tree_param":{"num_deleted":"0","num_feature":"16","num_nodes":"13","size_leaf_vector":"1"}},{"base_weights":[2.2447709E-2,-4.777542E-2,5.383965E-2,1.9427149E-1,-2.26144E-2,5.060355E-2,1.1043045E-1,-8.13579E-2,4.548029E-2,1.0372966E-1,-6.3249335E-2,5.3756505E-2,-5.2061245E-2,-9.034019E-2,3.4784053E-2],"categories":[],"categories_nodes":[],"categories_segments":[],"categories_sizes":[],"default_left":[0,0,0,0,0,0,0,0,0,0,0,0,0,0,0],"id":35,"left_children":[1,-1,3,5,7,9,-1,-1,11,-1,-1,-1,13,-1,-1],"loss_changes":[9.327342E-2,0E0,1.483621E-1,1.02024004E-1,1.7446072E-1,3.6646795E-1,0E0,0E0,1.18554436E-1,0E0,0E0,0E0,2.6997408E-1,0E0,0E0],"parents":[2147483647,0,0,2,2,3,3,4,4,5,5,8,8,12,12],"right_children":[2,-1,4,6,8,10,-1,-1,12,-1,-1,-1,14,-1,-1],"split_conditions":[2.11E2,-4.777542E-2,2.46E2,2.39E2,2.59E2,-6.087614E-1,1.1043045E-1,-8.13579E-2,2.6E2,1.0372966E-1,-6.3249335E-2,5.3756505E-2,2.73E2,-9.034019E-2,3.4784053E-2],"split_indices":[3,0,3,3,3,7,0,0,3,0,0,0,3,0,0],"split_type":[0,0,0,0,0,0,0,0,0,0,0,0,0,0,0],"sum_hessian":[1.3849411E1,1.4402314E0,1.240918E1,3.8311143E0,8.578065E0,2.8044152E0,1.026699E0,1.2032038E0,7.3748617E0,1.1657284E0,1.6386869E0,2.7576635E0,4.617198E0,1.5407103E0,3.0764878E0],"tree_param":{"num_deleted":"0","num_feature":"16","num_nodes":"15","size_leaf_vector":"1"}},{"base_weights":[1.850167E-2,-4.4910066E-2,4.6510853E-2,1.01601295E-1,-4.523857E-3,6.15998E-2,-2.1941824E-1,-4.2899087E-2,9.879896E-2,-1.7178306E-2,-8.035675E-2,5.4888494E-2,-2.2435365E-3],"categories":[],"categories_nodes":[],"categories_segments":[],"categories_sizes":[],"default_left":[0,0,0,0,0,0,0,0,0,0,0,0,0],"id":36,"left_children":[1,-1,3,-1,5,7,9,-1,11,-1,-1,-1,-1],"loss_changes":[7.745714E-2,0E0,2.0416507E-1,0E0,1.9193234E-1,9.314653E-2,9.589672E-3,0E0,8.523726E-2,0E0,0E0,0E0,0E0],"parents":[2147483647,0,0,2,2,4,4,5,5,6,6,8,8],"right_children":[2,-1,4,-1,6,8,10,-1,12,-1,-1,-1,-1],"split_conditions":[2.11E2,-4.4910066E-2,2.17E2,1.01601295E-1,1E0,2.45E2,-3.8268343E-1,-4.2899087E-2,2.6E2,-1.7178306E-2,-8.035675E-2,5.4888494E-2,-2.2435365E-3],"split_indices":[3,0,3,0,1,3,7,0,3,0,0,0,0],"split_type":[0,0,0,0,0,0,0,0,0,0,0,0,0],"sum_hessian":[1.3963171E1,1.3730417E0,1.259013E1,1.0340986E0,1.1556031E1,9.38239E0,2.1736412E0,1.0058867E0,8.376503E0,1.0018505E0,1.1717907E0,4.271941E0,4.104562E0],"tree_param":{"num_deleted":"0","num_feature":"16","num_nodes":"13","size_leaf_vector":"1"}},{"base_weights":[1.3985767E-2,-4.219681E-2,3.8919855E-2,9.672863E-2,-1.0421586E-2,5.0273024E-2,-2.1383178E-1,-4.293125E-2,8.549331E-2,-1.7322078E-2,-7.824705E-2,5.403984E-2,4.9315043E-2,-6.217965E-3,3.9256584E-2],"categories":[],"categories_nodes":[],"categories_segments":[],"categories_sizes":[],"default_left":[0,0,0,0,0,0,0,0,0,0,0,0,0,0,0],"id":37,"left_children":[1,-1,3,-1,5,7,9,-1,11,-1,-1,-1,13,-1,-1],"loss_changes":[6.368038E-2,0E0,1.9616386E-1,0E0,1.6764563E-1,8.4411465E-2,7.7583343E-3,0E0,2.3954205E-2,0E0,0E0,0E0,5.0202653E-2,0E0,0E0],"parents":[2147483647,0,0,2,2,4,4,5,5,6,6,8,8,12,12],"right_children":[2,-1,4,-1,6,8,10,-1,12,-1,-1,-1,14,-1,-1],"split_conditions":[2.11E2,-4.219681E-2,3.2E1,9.672863E-2,1E0,2.3E1,1.4E1,-4.293125E-2,2.46E2,-1.7322078E-2,-7.824705E-2,5.403984E-2,2.73E2,-6.217965E-3,3.9256584E-2],"split_indices":[3,0,4,0,1,0,0,0,3,0,0,0,3,0,0],"split_type":[0,0,0,0,0,0,0,0,0,0,0,0,0,0,0],"sum_hessian":[1.4095517E1,1.3127426E0,1.2782775E1,1.0744563E0,1.1708319E1,9.597434E0,2.1108842E0,1.00675E0,8.590684E0,1.0041502E0,1.1067342E0,1.275374E0,7.31531E0,4.33631E0,2.9789999E0],"tree_param":{"num_deleted":"0","num_feature":"16","num_nodes":"15","size_leaf_vector":"1"}},{"base_weights":[1.1453455E-2,-3.9632365E-2,3.393579E-2,9.630567E-2,-1.5190494E-2,4.2972043E-2,-2.1222976E-1,-4.4032194E-2,7.815545E-2,-7.7517E-2,-1.757781E-2,4.580191E-2,-4.809185E-3],"categories":[],"categories_nodes":[],"categories_segments":[],"categories_sizes":[],"default_left":[0,0,0,0,0,0,0,0,0,0,0,0,0],"id":38,"left_children":[1,-1,3,-1,5,7,9,-1,11,-1,-1,-1,-1],"loss_changes":[5.3448252E-2,0E0,2.0108557E-1,0E0,1.5620427E-1,8.317603E-2,6.798506E-3,0E0,7.062032E-2,0E0,0E0,0E0,0E0],"parents":[2147483647,0,0,2,2,4,4,5,5,6,6,8,8],"right_children":[2,-1,4,-1,6,8,10,-1,12,-1,-1,-1,-1],"split_conditions":[2.11E2,-3.9632365E-2,2.14E2,9.630567E-2,1E0,2.45E2,1E0,-4.4032194E-2,2.6E2,-7.7517E-2,-1.757781E-2,4.580191E-2,-4.809185E-3],"split_indices":[3,0,3,0,1,3,11,0,3,0,0,0,0],"split_type":[0,0,0,0,0,0,0,0,0,0,0,0,0],"sum_hessian":[1.4170761E1,1.2585015E0,1.2912259E1,1.078015E0,1.1834245E1,9.740832E0,2.093412E0,1.0275449E0,8.713287E0,1.0854636E0,1.0079482E0,4.517883E0,4.195405E0],"tree_param":{"num_deleted":"0","num_feature":"16","num_nodes":"13","size_leaf_vector":"1"}},{"base_weights":[7.832502E-3,7.6061904E-2,-3.7144035E-2,-4.746772E-2,1.092002E-1,-7.942313E-2,2.2890363E-2,1.6363317E-1,-7.4111335E-2,3.452173E-2,-4.9698345E-2,2.5564795E-3,7.202852E-2,-8.473938E-2,2.6525557E-2],"categories":[],"categories_nodes":[],"categories_segments":[],"categories_sizes":[],"default_left":[0,0,0,0,0,0,0,0,0,0,0,0,0,0,0],"id":39,"left_children":[1,3,5,7,-1,-1,9,11,-1,-1,13,-1,-1,-1,-1],"loss_changes":[4.9714282E-2,2.4487323E-1,1.4107177E-1,2.6633582E-1,0E0,0E0,6.41952E-2,3.5994567E-2,0E0,0E0,2.0460722E-1,0E0,0E0,0E0,0E0],"parents":[2147483647,0,0,1,1,2,2,3,3,6,6,7,7,10,10],"right_children":[2,4,6,8,-1,-1,10,12,-1,-1,14,-1,-1,-1,-1],"split_conditions":[2.46E2,2.41E2,2.59E2,-5.5557024E-1,1.092002E-1,-7.942313E-2,2.6E2,0E0,-7.4111335E-2,3.452173E-2,2.73E2,2.5564795E-3,7.202852E-2,-8.473938E-2,2.6525557E-2],"split_indices":[3,3,3,7,0,0,3,6,0,0,3,0,0,0,0],"split_type":[0,0,0,0,0,0,0,0,0,0,0,0,0,0,0],"sum_hessian":[1.4279664E1,5.3986964E0,8.880968E0,4.36234E0,1.0363563E0,1.1419166E0,7.739051E0,2.2074347E0,2.1549053E0,3.1515539E0,4.587497E0,1.0958426E0,1.1115919E0,1.3191837E0,3.2683134E0],"tree_param":{"num_deleted":"0","num_feature":"16","num_nodes":"15","size_leaf_vector":"1"}},{"base_weights":[6.001702E-3,7.149175E-2,-3.7338447E-2,-4.1690424E-2,9.4880305E-2,-7.647187E-2,1.7515298E-2,1.4642727E-1,-7.0271336E-2,2.9756043E-2,-4.8147157E-2,-2.0416098E-2,8.12871E-2,-8.162685E-2,2.2986105E-2],"categories":[],"categories_nodes":[],"categories_segments":[],"categories_sizes":[],"default_left":[0,0,0,0,0,0,0,0,0,0,0,0,0,0,0],"id":40,"left_children":[1,3,5,7,-1,-1,9,11,-1,-1,13,-1,-1,-1,-1],"loss_changes":[4.619638E-2,1.9188271E-1,1.2243819E-1,2.2606431E-1,0E0,0E0,5.213091E-2,1.0640014E-1,0E0,0E0,1.764263E-1,0E0,0E0,0E0,0E0],"parents":[2147483647,0,0,1,1,2,2,3,3,6,6,7,7,10,10],"right_children":[2,4,6,8,-1,-1,10,12,-1,-1,14,-1,-1,-1,-1],"split_conditions":[2.46E2,2.41E2,2.59E2,-5.5557024E-1,9.4880305E-2,-7.647187E-2,2.6E2,2E0,-7.0271336E-2,2.9756043E-2,2.73E2,-2.0416098E-2,8.12871E-2,-8.162685E-2,2.2986105E-2],"split_indices":[3,3,3,7,0,0,3,1,0,0,3,0,0,0,0],"split_type":[0,0,0,0,0,0,0,0,0,0,0,0,0,0,0],"sum_hessian":[1.4335323E1,5.4501734E0,8.88515E0,4.2942367E0,1.155937E0,1.0547302E0,7.8304195E0,2.29326E0,2.0009766E0,3.26225E0,4.5681696E0,1.0089804E0,1.2842796E0,1.2120024E0,3.3561673E0],"tree_param":{"num_deleted":"0","num_feature":"16","num_nodes":"15","size_leaf_vector":"1"}},{"base_weights":[3.6678643E-3,1.0304539E-1,-2.2379767E-2,-3.5737105E-2,8.2996815E-2,2.6421532E-2,-5.9464004E-2,3.335648E-2,-3.0260452E-3,-1.8041871E-2,2.2064243E-2],"categories":[],"categories_nodes":[],"categories_segments":[],"categories_sizes":[],"default_left":[0,0,0,0,0,0,0,0,0,0,0],"id":41,"left_children":[1,3,5,-1,-1,7,-1,-1,9,-1,-1],"loss_changes":[4.218756E-2,1.6325068E-1,1.17036164E-1,0E0,0E0,2.7995888E-2,0E0,0E0,4.4646505E-2,0E0,0E0],"parents":[2147483647,0,0,1,1,2,2,5,5,8,8],"right_children":[2,4,6,-1,-1,8,-1,-1,10,-1,-1],"split_conditions":[2.14E2,2.11E2,1E0,-3.5737105E-2,8.2996815E-2,2.46E2,-5.9464004E-2,3.335648E-2,2.73E2,-1.8041871E-2,2.2064243E-2],"split_indices":[3,3,1,0,0,3,0,0,3,0,0],"split_type":[0,0,0,0,0,0,0,0,0,0,0],"sum_hessian":[1.4406868E1,2.378048E0,1.202882E1,1.1808119E0,1.197236E0,1.0080725E1,1.9480947E0,1.8834089E0,8.197316E0,4.818203E0,3.3791134E0],"tree_param":{"num_deleted":"0","num_feature":"16","num_nodes":"11","size_leaf_vector":"1"}},{"base_weights":[3.5766885E-3,6.101987E-2,-3.515469E-2,-3.987989E-2,7.979909E-2,-9.5551305E-2,1.7252881E-2,9.885475E-2,-8.102824E-2,-3.789958E-3,-7.752064E-2,-1.8919615E-2,6.181085E-2],"categories":[],"categories_nodes":[],"categories_segments":[],"categories_sizes":[],"default_left":[0,0,0,0,0,0,0,0,0,0,0,0,0],"id":42,"left_children":[1,3,5,7,-1,9,-1,11,-1,-1,-1,-1,-1],"loss_changes":[3.642941E-2,1.4651662E-1,6.0556635E-2,1.9512074E-1,0E0,8.223778E-2,0E0,8.2802325E-2,0E0,0E0,0E0,0E0,0E0],"parents":[2147483647,0,0,1,1,2,2,3,3,5,5,7,7],"right_children":[2,4,6,8,-1,10,-1,12,-1,-1,-1,-1,-1],"split_conditions":[2.46E2,2.41E2,2.73E2,3.2143947E-1,7.979909E-2,2.6E2,1.7252881E-2,2E0,-8.102824E-2,-3.789958E-3,-7.752064E-2,-1.8919615E-2,6.181085E-2],"split_indices":[3,3,3,7,0,3,0,1,0,0,0,0,0],"split_type":[0,0,0,0,0,0,0,0,0,0,0,0,0],"sum_hessian":[1.4409677E1,5.571308E0,8.838368E0,4.2732487E0,1.2980598E0,5.3319564E0,3.5064118E0,3.02243E0,1.2508185E0,4.2470684E0,1.084888E0,1.3677526E0,1.6546774E0],"tree_param":{"num_deleted":"0","num_feature":"16","num_nodes":"13","size_leaf_vector":"1"}},{"base_weights":[1.8179809E-3,8.891414E-2,-2.1491993E-2,-3.35471E-2,7.070837E-2,-5.6293216E-2,2.283447E-2,2.9918464E-2,-4.1561634E-3,-1.6904997E-2,1.9328058E-2],"categories":[],"categories_nodes":[],"categories_segments":[],"categories_sizes":[],"default_left":[0,0,0,0,0,0,0,0,0,0,0],"id":43,"left_children":[1,3,5,-1,-1,-1,7,-1,9,-1,-1],"loss_changes":[3.33062E-2,1.2829053E-1,1.0006182E-1,0E0,0E0,0E0,2.3570387E-2,0E0,3.662887E-2,0E0,0E0],"parents":[2147483647,0,0,1,1,2,2,6,6,8,8],"right_children":[2,4,6,-1,-1,-1,8,-1,10,-1,-1],"split_conditions":[2.14E2,2.11E2,1.7E1,-3.35471E-2,7.070837E-2,-5.6293216E-2,2.46E2,2.9918464E-2,2.73E2,-1.6904997E-2,1.9328058E-2],"split_indices":[3,3,0,0,0,0,3,0,3,0,0],"split_type":[0,0,0,0,0,0,0,0,0,0,0],"sum_hessian":[1.4464052E1,2.4595783E0,1.2004474E1,1.1394358E0,1.3201426E0,1.8472114E0,1.0157263E1,1.9388227E0,8.21844E0,4.7681193E0,3.4503205E0],"tree_param":{"num_deleted":"0","num_feature":"16","num_nodes":"11","size_leaf_vector":"1"}},{"base_weights":[1.6789789E-3,-3.1482715E-2,1.7160987E-2,6.1916485E-2,-1.948078E-2,-6.566119E-2,1.6529363E-2,4.8004888E-2,-3.134684E-2,-2.4691267E-2,1.2873135E-2],"categories":[],"categories_nodes":[],"categories_segments":[],"categories_sizes":[],"default_left":[0,0,0,0,0,0,0,0,0,0,0],"id":44,"left_children":[1,-1,3,-1,5,-1,7,-1,9,-1,-1],"loss_changes":[2.733474E-2,0E0,1.03632644E-1,0E0,9.6597046E-2,0E0,8.6753845E-2,0E0,4.045496E-2,0E0,0E0],"parents":[2147483647,0,0,2,2,4,4,6,6,8,8],"right_children":[2,-1,4,-1,6,-1,8,-1,10,-1,-1],"split_conditions":[2.11E2,-3.1482715E-2,2.14E2,6.1916485E-2,2.32E2,-6.566119E-2,2.46E2,4.8004888E-2,2.73E2,-2.4691267E-2,1.2873135E-2],"split_indices":[3,0,3,0,3,0,3,0,3,0,0],"split_type":[0,0,0,0,0,0,0,0,0,0,0],"sum_hessian":[1.4468367E1,1.1018451E0,1.3366521E1,1.416867E0,1.1949655E1,1.0511822E0,1.0898472E1,2.1406283E0,8.757844E0,5.129485E0,3.6283584E0],"tree_param":{"num_deleted":"0","num_feature":"16","num_nodes":"11","size_leaf_vector":"1"}},{"base_weights":[1.140923E-3,-2.6244503E-2,2.0162918E-2,-2.4243556E-2,4.3387298E-2,6.180352E-2,-1.2467389E-2,9.283247E-2,3.2707131E-3,-9.116056E-4,4.3485723E-2],"categories":[],"categories_nodes":[],"categories_segments":[],"categories_sizes":[],"default_left":[0,0,0,0,0,0,0,0,0,0,0],"id":45,"left_children":[1,-1,3,-1,5,7,-1,9,-1,-1,-1],"loss_changes":[2.7868312E-2,0E0,3.5308708E-2,0E0,2.0834284E-2,1.477861E-2,0E0,3.0812766E-2,0E0,0E0,0E0],"parents":[2147483647,0,0,2,2,4,4,5,5,7,7],"right_children":[2,-1,4,-1,6,8,-1,10,-1,-1,-1],"split_conditions":[-2.5881904E-1,-2.6244503E-2,4.3388373E-1,-2.4243556E-2,-1.9509032E-1,2.6E2,-1.2467389E-2,2.55E2,3.2707131E-3,-9.116056E-4,4.3485723E-2],"split_indices":[6,0,8,0,6,3,0,3,0,0,0],"split_type":[0,0,0,0,0,0,0,0,0,0,0],"sum_hessian":[1.4485088E1,1.9236974E0,1.2561391E1,1.8852224E0,1.0676168E1,8.997855E0,1.6783134E0,5.078351E0,3.9195037E0,2.1201587E0,2.9581926E0],"tree_param":{"num_deleted":"0","num_feature":"16","num_nodes":"11","size_leaf_vector":"1"}},{"base_weights":[2.8718243E-4,7.840453E-2,-2.0921716E-2,-2.8262755E-2,5.679404E-2,1.7506978E-2,-5.181531E-2,5.019981E-2,-8.5005015E-3,-9.8513E-3,3.405963E-2],"categories":[],"categories_nodes":[],"categories_segments":[],"categories_sizes":[],"default_left":[0,0,0,0,0,0,0,0,0,0,0],"id":46,"left_children":[1,3,5,-1,-1,7,-1,9,-1,-1,-1],"loss_changes":[2.733987E-2,8.527721E-2,7.8792095E-2,0E0,0E0,1.8317107E-2,0E0,4.023023E-2,0E0,0E0,0E0],"parents":[2147483647,0,0,1,1,2,2,5,5,7,7],"right_children":[2,4,6,-1,-1,8,-1,10,-1,-1,-1],"split_conditions":[2.14E2,2.11E2,1E0,-2.8262755E-2,5.679404E-2,2.6E2,-5.181531E-2,2.59E2,-8.5005015E-3,-9.8513E-3,3.405963E-2],"split_indices":[3,3,1,0,0,3,0,3,0,0,0],"split_type":[0,0,0,0,0,0,0,0,0,0,0],"sum_hessian":[1.4511696E1,2.5228121E0,1.1988883E1,1.0457795E0,1.4770327E0,1.027287E1,1.7160137E0,5.9409432E0,4.3319263E0,2.778908E0,3.162035E0],"tree_param":{"num_deleted":"0","num_feature":"16","num_nodes":"11","size_leaf_vector":"1"}},{"base_weights":[-2.3004369E-4,5.0692793E-2,-3.488169E-2,-3.545584E-2,6.364557E-2,-2.5766877E-2,1.2135288E-2,8.928085E-2,-7.7325314E-2,-1.4801861E-2,5.673298E-2],"categories":[],"categories_nodes":[],"categories_segments":[],"categories_sizes":[],"default_left":[0,0,0,0,0,0,0,0,0,0,0],"id":47,"left_children":[1,3,5,7,-1,-1,-1,9,-1,-1,-1],"loss_changes":[2.9168088E-2,1.0065028E-1,4.125648E-2,1.6782801E-1,0E0,0E0,0E0,6.590398E-2,0E0,0E0,0E0],"parents":[2147483647,0,0,1,1,2,2,3,3,7,7],"right_children":[2,4,6,8,-1,-1,-1,10,-1,-1,-1],"split_conditions":[2.46E2,2.41E2,2.73E2,3.2143947E-1,6.364557E-2,-2.5766877E-2,1.2135288E-2,0E0,-7.7325314E-2,-1.4801861E-2,5.673298E-2],"split_indices":[3,3,3,7,0,0,0,6,0,0,0],"split_type":[0,0,0,0,0,0,0,0,0,0,0],"sum_hessian":[1.4527859E1,5.695308E0,8.83255E0,4.222657E0,1.472651E0,5.1829953E0,3.649555E0,3.0881622E0,1.1344949E0,1.5046287E0,1.5835336E0],"tree_param":{"num_deleted":"0","num_feature":"16","num_nodes":"11","size_leaf_vector":"1"}},{"base_weights":[-8.290813E-5,4.4016615E-2,-3.0746346E-2,-3.4208346E-2,5.5637427E-2,-2.3082381E-2,1.0605967E-2,1.1062771E-1,-5.992242E-2,-3.5583975E-3,5.2186776E-2],"categories":[],"categories_nodes":[],"categories_segments":[],"categories_sizes":[],"default_left":[0,0,0,0,0,0,0,0,0,0,0],"id":48,"left_children":[1,3,5,7,-1,-1,-1,9,-1,-1,-1],"loss_changes":[2.2344565E-2,8.1337616E-2,3.247694E-2,1.4697309E-1,0E0,0E0,0E0,2.860405E-2,0E0,0E0,0E0],"parents":[2147483647,0,0,1,1,2,2,3,3,7,7],"right_children":[2,4,6,8,-1,-1,-1,10,-1,-1,-1],"split_conditions":[2.46E2,2.41E2,2.73E2,-6.087614E-1,5.5637427E-2,-2.3082381E-2,1.0605967E-2,0E0,-5.992242E-2,-3.5583975E-3,5.2186776E-2],"split_indices":[3,3,3,7,0,0,0,6,0,0,0],"split_type":[0,0,0,0,0,0,0,0,0,0,0],"sum_hessian":[1.4523257E1,5.7779922E0,8.745265E0,4.2085667E0,1.5694257E0,5.0511518E0,3.6941133E0,2.421511E0,1.7870556E0,1.1022489E0,1.319262E0],"tree_param":{"num_deleted":"0","num_feature":"16","num_nodes":"11","size_leaf_vector":"1"}},{"base_weights":[6.619734E-4,2.775885E-2,-1.5590987E-2,-1.8607583E-2,3.1634495E-2,8.9320965E-2,-1.18777946E-1,-2.4430214E-3,4.7256105E-2,-6.932184E-2,1.6925695E-3],"categories":[],"categories_nodes":[],"categories_segments":[],"categories_sizes":[],"default_left":[0,0,0,0,0,0,0,0,0,0,0],"id":49,"left_children":[1,3,-1,5,-1,7,9,-1,-1,-1,-1],"loss_changes":[2.3548126E-2,4.1168153E-2,0E0,9.3488745E-2,0E0,2.960496E-2,6.285102E-2,0E0,0E0,0E0,0E0],"parents":[2147483647,0,0,1,1,3,3,5,5,6,6],"right_children":[2,4,-1,6,-1,8,10,-1,-1,-1,-1],"split_conditions":[2.6E2,2.59E2,-1.5590987E-2,-1.3052619E-1,3.1634495E-2,-8.314696E-1,2.45E2,-2.4430214E-3,4.7256105E-2,-6.932184E-2,1.6925695E-3],"split_indices":[3,3,0,7,0,7,3,0,0,0,0],"split_type":[0,0,0,0,0,0,0,0,0,0,0],"sum_hessian":[1.4500004E1,9.883959E0,4.6160445E0,6.6660385E0,3.2179205E0,3.260896E0,3.4051425E0,1.7049416E0,1.5559542E0,1.3392256E0,2.065917E0],"tree_param":{"num_deleted":"0","num_feature":"16","num_nodes":"11","size_leaf_vector":"1"}},{"base_weights":[1.18675416E-4,-5.6470662E-2,2.2615984E-2,-4.4947967E-2,2.0259101E-2,-1.9223314E-2,4.0684186E-2,-6.227396E-3,6.007754E-2,3.1552926E-2,2.801295E-3],"categories":[],"categories_nodes":[],"categories_segments":[],"categories_sizes":[],"default_left":[0,0,0,0,0,0,0,0,0,0,0],"id":50,"left_children":[1,3,5,-1,-1,-1,7,-1,9,-1,-1],"loss_changes":[2.1031901E-2,6.452587E-2,2.1117048E-2,0E0,0E0,0E0,1.3628168E-2,0E0,1.7678043E-2,0E0,0E0],"parents":[2147483647,0,0,1,1,2,2,6,6,8,8],"right_children":[2,4,6,-1,-1,-1,8,-1,10,-1,-1],"split_conditions":[7.818315E-1,6.5403126E-2,2.3E1,-4.4947967E-2,2.0259101E-2,-1.9223314E-2,3.8E1,-6.227396E-3,2.6E2,3.1552926E-2,2.801295E-3],"split_indices":[8,6,0,0,0,0,4,0,3,0,0],"split_type":[0,0,0,0,0,0,0,0,0,0,0],"sum_hessian":[1.4516957E1,3.6999817E0,1.0816976E1,1.9920043E0,1.7079774E0,1.4264134E0,9.390563E0,2.2360203E0,7.1545424E0,3.2198262E0,3.9347162E0],"tree_param":{"num_deleted":"0","num_feature":"16","num_nodes":"11","size_leaf_vector":"1"}},{"base_weights":[-5.402981E-4,4.6442762E-2,-3.286841E-2,-2.5175463E-2,5.024707E-2,-2.4252733E-2,1.1021299E-2,9.654158E-2,-5.3735137E-2,-2.1213673E-2,5.8169454E-2],"categories":[],"categories_nodes":[],"categories_segments":[],"categories_sizes":[],"default_left":[0,0,0,0,0,0,0,0,0,0,0],"id":51,"left_children":[1,3,5,7,-1,-1,-1,9,-1,-1,-1],"loss_changes":[2.5126109E-2,6.2713936E-2,3.5661086E-2,1.1301679E-1,0E0,0E0,0E0,7.0747465E-2,0E0,0E0,0E0],"parents":[2147483647,0,0,1,1,2,2,3,3,7,7],"right_children":[2,4,6,8,-1,-1,-1,10,-1,-1,-1],"split_conditions":[2.46E2,2.41E2,2.73E2,-6.087614E-1,5.024707E-2,-2.4252733E-2,1.1021299E-2,2E0,-5.3735137E-2,-2.1213673E-2,5.8169454E-2],"split_indices":[3,3,3,7,0,0,0,1,0,0,0],"split_type":[0,0,0,0,0,0,0,0,0,0,0],"sum_hessian":[1.4537571E1,5.7477093E0,8.789862E0,4.108763E0,1.6389464E0,5.107934E0,3.6819277E0,2.502768E0,1.6059949E0,1.0215218E0,1.4812462E0],"tree_param":{"num_deleted":"0","num_feature":"16","num_nodes":"11","size_leaf_vector":"1"}},{"base_weights":[-9.6934906E-5,6.901031E-2,-1.9212326E-2,-2.1494282E-3,3.40799E-2,-4.9842276E-2,1.7162723E-2,2.284721E-2,-4.275267E-3,-1.3080501E-2,1.3326502E-2],"categories":[],"categories_nodes":[],"categories_segments":[],"categories_sizes":[],"default_left":[0,0,0,0,0,0,0,0,0,0,0],"id":52,"left_children":[1,3,5,-1,-1,-1,7,-1,9,-1,-1],"loss_changes":[2.1832839E-2,1.2978222E-2,7.2022386E-2,0E0,0E0,0E0,1.4592261E-2,0E0,1.9595137E-2,0E0,0E0],"parents":[2147483647,0,0,1,1,2,2,6,6,8,8],"right_children":[2,4,6,-1,-1,-1,8,-1,10,-1,-1],"split_conditions":[2.14E2,-7.933533E-1,1.7E1,-2.1494282E-3,3.40799E-2,-4.9842276E-2,2.46E2,2.284721E-2,2.73E2,-1.3080501E-2,1.3326502E-2],"split_indices":[3,7,0,0,0,0,3,0,3,0,0],"split_type":[0,0,0,0,0,0,0,0,0,0,0],"sum_hessian":[1.4523696E1,2.581324E0,1.1942371E1,1.2629889E0,1.318335E0,1.6619338E0,1.0280438E1,2.059768E0,8.22067E0,4.605787E0,3.6148832E0],"tree_param":{"num_deleted":"0","num_feature":"16","num_nodes":"11","size_leaf_vector":"1"}},{"base_weights":[-4.675809E-5,2.530125E-2,-1.4895537E-2,-1.6985452E-2,2.8388979E-2,7.835178E-2,-1.1820624E-1,-1.730633E-3,3.9127097E-2,-7.311639E-2,6.0236943E-4],"categories":[],"categories_nodes":[],"categories_segments":[],"categories_sizes":[],"default_left":[0,0,0,0,0,0,0,0,0,0,0],"id":53,"left_children":[1,3,-1,5,-1,7,9,-1,-1,-1,-1],"loss_changes":[2.0773597E-2,3.3665884E-2,0E0,8.2989566E-2,0E0,2.0620523E-2,6.2418282E-2,0E0,0E0,0E0,0E0],"parents":[2147483647,0,0,1,1,3,3,5,5,6,6],"right_children":[2,4,-1,6,-1,8,10,-1,-1,-1,-1],"split_conditions":[2.6E2,2.59E2,-1.4895537E-2,3.2143947E-1,2.8388979E-2,-8.314696E-1,2.45E2,-1.730633E-3,3.9127097E-2,-7.311639E-2,6.0236943E-4],"split_indices":[3,3,0,7,0,7,3,0,0,0,0],"split_type":[0,0,0,0,0,0,0,0,0,0,0],"sum_hessian":[1.4522127E1,9.935212E0,4.586915E0,6.64011E0,3.2951026E0,3.5357811E0,3.1043286E0,1.6918548E0,1.8439263E0,1.0160658E0,2.0882628E0],"tree_param":{"num_deleted":"0","num_feature":"16","num_nodes":"11","size_leaf_vector":"1"}},{"base_weights":[-9.1970764E-4,2.5953868E-2,-1.4082601E-2,1.2162006E-2,-1.12454005E-1,-4.1098658E-2,4.735606E-2,9.272873E-3,-5.889732E-2,5.8710195E-2,1.0030434E-3,-1.0050066E-2,1.24701625E-2],"categories":[],"categories_nodes":[],"categories_segments":[],"categories_sizes":[],"default_left":[0,0,0,0,0,0,0,0,0,0,0,0,0],"id":54,"left_children":[1,-1,3,5,7,-1,9,-1,-1,-1,11,-1,-1],"loss_changes":[1.9113678E-2,0E0,3.847943E-2,7.079258E-2,4.3643057E-2,0E0,7.306555E-2,0E0,0E0,0E0,1.4160979E-2,0E0,0E0],"parents":[2147483647,0,0,2,2,3,3,4,4,6,6,10,10],"right_children":[2,-1,4,6,8,-1,10,-1,-1,-1,12,-1,-1],"split_conditions":[-9.238795E-1,2.5953868E-2,-1.9509032E-1,2.41E2,2.14E2,-4.1098658E-2,2.46E2,9.272873E-3,-5.889732E-2,5.8710195E-2,2.73E2,-1.0050066E-2,1.24701625E-2],"split_indices":[7,0,6,3,3,0,3,0,0,0,3,0,0],"split_type":[0,0,0,0,0,0,0,0,0,0,0,0,0],"sum_hessian":[1.4549464E1,1.1746356E0,1.3374829E1,1.1249839E1,2.1249897E0,1.5954624E0,9.654377E0,1.0173854E0,1.1076043E0,1.5314102E0,8.122967E0,4.483506E0,3.6394603E0],"tree_param":{"num_deleted":"0","num_feature":"16","num_nodes":"13","size_leaf_vector":"1"}},{"base_weights":[-1.1174701E-3,6.019573E-2,-1.829871E-2,-2.5832308E-2,4.4633195E-2,-4.5794703E-2,1.3558397E-2,4.0055297E-2,-7.332769E-3,-9.790072E-3,2.8397044E-2],"categories":[],"categories_nodes":[],"categories_segments":[],"categories_sizes":[],"default_left":[0,0,0,0,0,0,0,0,0,0,0],"id":55,"left_children":[1,3,5,-1,-1,-1,7,9,-1,-1,-1],"loss_changes":[1.7488418E-2,5.995886E-2,5.7357367E-2,0E0,0E0,0E0,1.2417665E-2,3.1157816E-2,0E0,0E0,0E0],"parents":[2147483647,0,0,1,1,2,2,6,6,7,7],"right_children":[2,4,6,-1,-1,-1,8,10,-1,-1,-1],"split_conditions":[2.14E2,2.11E2,1.7E1,-2.5832308E-2,4.4633195E-2,-4.5794703E-2,2.6E2,2.59E2,-7.332769E-3,-9.790072E-3,2.8397044E-2],"split_indices":[3,3,0,0,0,0,3,3,0,0,0],"split_type":[0,0,0,0,0,0,0,0,0,0,0],"sum_hessian":[1.4555671E1,2.6380212E0,1.191765E1,1.0054024E0,1.6326187E0,1.5575117E0,1.0360138E1,6.0721526E0,4.2879853E0,2.7772458E0,3.294907E0],"tree_param":{"num_deleted":"0","num_feature":"16","num_nodes":"11","size_leaf_vector":"1"}},{"base_weights":[-1.6165745E-3,3.801277E-2,-2.9402994E-2,-1.9624177E-2,3.8465947E-2,-2.1897784E-2,9.646754E-3,-4.26289E-2,1.0064008E-1,-1.4326312E-2,6.0165897E-2],"categories":[],"categories_nodes":[],"categories_segments":[],"categories_sizes":[],"default_left":[0,0,0,0,0,0,0,0,0,0,0],"id":56,"left_children":[1,3,5,7,-1,-1,-1,-1,9,-1,-1],"loss_changes":[1.8264204E-2,3.815251E-2,2.8421676E-2,8.8671885E-2,0E0,0E0,0E0,0E0,5.602889E-2,0E0,0E0],"parents":[2147483647,0,0,1,1,2,2,3,3,8,8],"right_children":[2,4,6,8,-1,-1,-1,-1,10,-1,-1],"split_conditions":[2.46E2,2.41E2,2.73E2,2E0,3.8465947E-2,-2.1897784E-2,9.646754E-3,-4.26289E-2,1.3052619E-1,-1.4326312E-2,6.0165897E-2],"split_indices":[3,3,3,1,0,0,0,0,6,0,0],"split_type":[0,0,0,0,0,0,0,0,0,0,0],"sum_hessian":[1.4571357E1,5.854113E0,8.717244E0,4.049303E0,1.8048102E0,4.994745E0,3.7224994E0,1.916294E0,2.1330087E0,1.0683279E0,1.0646809E0],"tree_param":{"num_deleted":"0","num_feature":"16","num_nodes":"11","size_leaf_vector":"1"}},{"base_weights":[-6.4613746E-4,2.4373556E-2,-1.3127373E-2,1.14905415E-2,-1.0689338E-1,-3.6274496E-2,4.0934324E-2,5.5522057E-3,-5.4731313E-2,4.7974065E-2,1.587586E-3,-8.415884E-3,1.0645047E-2],"categories":[],"categories_nodes":[],"categories_segments":[],"categories_sizes":[],"default_left":[0,0,0,0,0,0,0,0,0,0,0,0,0],"id":57,"left_children":[1,-1,3,5,7,-1,9,-1,-1,-1,11,-1,-1],"loss_changes":[1.6950952E-2,0E0,3.4344465E-2,5.276892E-2,3.2557998E-2,0E0,5.0219886E-2,0E0,0E0,0E0,1.0150438E-2,0E0,0E0],"parents":[2147483647,0,0,2,2,3,3,4,4,6,6,10,10],"right_children":[2,-1,4,6,8,-1,10,-1,-1,-1,12,-1,-1],"split_conditions":[-9.238795E-1,2.4373556E-2,-1.9509032E-1,2.41E2,2.14E2,-3.6274496E-2,2.46E2,5.5522057E-3,-5.4731313E-2,4.7974065E-2,2.73E2,-8.415884E-3,1.0645047E-2],"split_indices":[7,0,6,3,3,0,3,0,0,0,3,0,0],"split_type":[0,0,0,0,0,0,0,0,0,0,0,0,0],"sum_hessian":[1.4540887E1,1.1944604E0,1.3346427E1,1.1266028E1,2.0803983E0,1.4843639E0,9.781665E0,1.0659593E0,1.014439E0,1.6694027E0,8.112262E0,4.4197536E0,3.6925082E0],"tree_param":{"num_deleted":"0","num_feature":"16","num_nodes":"13","size_leaf_vector":"1"}},{"base_weights":[-1.0610659E-3,2.199636E-2,-1.39793595E-2,-1.8766882E-2,2.67036E-2,7.652685E-2,-3.584889E-2,-2.6840272E-3,3.933236E-2],"categories":[],"categories_nodes":[],"categories_segments":[],"categories_sizes":[],"default_left":[0,0,0,0,0,0,0,0,0],"id":58,"left_children":[1,3,-1,5,-1,7,-1,-1,-1],"loss_changes":[1.735598E-2,3.173339E-2,0E0,8.27546E-2,0E0,2.2400856E-2,0E0,0E0,0E0],"parents":[2147483647,0,0,1,1,3,3,5,5],"right_children":[2,4,-1,6,-1,8,-1,-1,-1],"split_conditions":[2.6E2,2.59E2,-1.39793595E-2,3.2143947E-1,2.67036E-2,-8.314696E-1,-3.584889E-2,-2.6840272E-3,3.933236E-2],"split_indices":[3,3,0,7,0,7,0,0,0],"split_type":[0,0,0,0,0,0,0,0,0],"sum_hessian":[1.4553901E1,1.0004902E1,4.548999E0,6.6685944E0,3.3363075E0,3.550224E0,3.11837E0,1.7093978E0,1.8408264E0],"tree_param":{"num_deleted":"0","num_feature":"16","num_nodes":"9","size_leaf_vector":"1"}},{"base_weights":[-6.3369126E-4,2.2351896E-2,-1.2239987E-2,1.1641838E-2,-1.0400895E-1,-3.4326725E-2,3.9018996E-2,-5.7896203E-3,-4.1688822E-2,4.607292E-2,9.031426E-4,-9.056861E-3,1.1064257E-2],"categories":[],"categories_nodes":[],"categories_segments":[],"categories_sizes":[],"default_left":[0,0,0,0,0,0,0,0,0,0,0,0,0],"id":59,"left_children":[1,-1,3,5,7,-1,9,-1,-1,-1,11,-1,-1],"loss_changes":[1.446478E-2,0E0,3.259502E-2,4.6785552E-2,6.3720606E-3,0E0,4.710729E-2,0E0,0E0,0E0,1.1320811E-2,0E0,0E0],"parents":[2147483647,0,0,2,2,3,3,4,4,6,6,10,10],"right_children":[2,-1,4,6,8,-1,10,-1,-1,-1,12,-1,-1],"split_conditions":[-9.238795E-1,2.2351896E-2,-1.9509032E-1,2.41E2,-5.5557024E-1,-3.4326725E-2,2.46E2,-5.7896203E-3,-4.1688822E-2,4.607292E-2,2.73E2,-9.056861E-3,1.1064257E-2],"split_indices":[7,0,6,3,7,0,3,0,0,0,3,0,0],"split_type":[0,0,0,0,0,0,0,0,0,0,0,0,0],"sum_hessian":[1.4540497E1,1.2203549E0,1.3320142E1,1.1262377E1,2.0577652E0,1.442157E0,9.82022E0,1.0544457E0,1.0033196E0,1.6954215E0,8.124799E0,4.444582E0,3.6802166E0],"tree_param":{"num_deleted":"0","num_feature":"16","num_nodes":"13","size_leaf_vector":"1"}},{"base_weights":[-1.037983E-3,2.0500973E-2,-1.3182808E-2,-1.7212832E-2,2.4436684E-2,7.077347E-2,-3.3864316E-2,-3.3558677E-3,3.7128456E-2],"categories":[],"categories_nodes":[],"categories_segments":[],"categories_sizes":[],"default_left":[0,0,0,0,0,0,0,0,0],"id":60,"left_children":[1,3,-1,5,-1,7,-1,-1,-1],"loss_changes":[1.5273911E-2,2.677366E-2,0E0,7.233005E-2,0E0,2.1345908E-2,0E0,0E0,0E0],"parents":[2147483647,0,0,1,1,3,3,5,5],"right_children":[2,4,-1,6,-1,8,-1,-1,-1],"split_conditions":[2.6E2,2.59E2,-1.3182808E-2,3.2143947E-1,2.4436684E-2,-8.314696E-1,-3.3864316E-2,-3.3558677E-3,3.7128456E-2],"split_indices":[3,3,0,7,0,7,0,0,0],"split_type":[0,0,0,0,0,0,0,0,0],"sum_hessian":[1.4553176E1,1.0036727E1,4.5164485E0,6.643734E0,3.3929935E0,3.5963664E0,3.0473676E0,1.7218981E0,1.8744683E0],"tree_param":{"num_deleted":"0","num_feature":"16","num_nodes":"9","size_leaf_vector":"1"}},{"base_weights":[-6.6978286E-4,-4.8151493E-2,1.7747175E-2,3.1941857E-2,-4.4614337E-2,-1.3762106E-2,3.004747E-2,-2.861474E-2,4.3674707E-2,-7.6201647E-3,4.81874E-2,2.4805622E-2,2.3676564E-3],"categories":[],"categories_nodes":[],"categories_segments":[],"categories_sizes":[],"default_left":[0,0,0,0,0,0,0,0,0,0,0,0,0],"id":61,"left_children":[1,3,5,7,-1,-1,9,-1,-1,-1,11,-1,-1],"loss_changes":[1.4445221E-2,4.1903578E-2,1.0713365E-2,6.294982E-2,0E0,0E0,1.18861385E-2,0E0,0E0,0E0,1.093051E-2,0E0,0E0],"parents":[2147483647,0,0,1,1,2,2,3,3,6,6,10,10],"right_children":[2,4,6,8,-1,-1,10,-1,-1,-1,12,-1,-1],"split_conditions":[7.818315E-1,-2.2252093E-1,2.3E1,-7.933533E-1,-4.4614337E-2,-1.3762106E-2,3.8E1,-2.861474E-2,4.3674707E-2,-7.6201647E-3,2.6E2,2.4805622E-2,2.3676564E-3],"split_indices":[8,9,0,7,0,0,4,0,0,0,3,0,0],"split_type":[0,0,0,0,0,0,0,0,0,0,0,0,0],"sum_hessian":[1.4541628E1,3.6127894E0,1.0928839E1,2.3909152E0,1.2218745E0,1.3284117E0,9.600427E0,1.2033408E0,1.1875744E0,2.2679048E0,7.3325224E0,3.3836672E0,3.9488552E0],"tree_param":{"num_deleted":"0","num_feature":"16","num_nodes":"13","size_leaf_vector":"1"}},{"base_weights":[-1.4575581E-3,3.7502453E-2,-2.884704E-2,-2.155814E-2,3.0719906E-2,-2.1278605E-2,9.060541E-3,3.6783475E-2,-3.097437E-2,1.8662786E-2,-2.347534E-3],"categories":[],"categories_nodes":[],"categories_segments":[],"categories_sizes":[],"default_left":[0,0,0,0,0,0,0,0,0,0,0],"id":62,"left_children":[1,3,5,7,-1,-1,-1,9,-1,-1,-1],"loss_changes":[1.7692609E-2,2.8503561E-2,2.6259579E-2,2.4853311E-2,0E0,0E0,0E0,4.2462456E-3,0E0,0E0,0E0],"parents":[2147483647,0,0,1,1,2,2,3,3,7,7],"right_children":[2,4,6,8,-1,-1,-1,10,-1,-1,-1],"split_conditions":[2.46E2,2.32E2,2.73E2,-6.087614E-1,3.0719906E-2,-2.1278605E-2,9.060541E-3,1.9509032E-1,-3.097437E-2,1.8662786E-2,-2.347534E-3],"split_indices":[3,3,3,7,0,0,0,6,0,0,0],"split_type":[0,0,0,0,0,0,0,0,0,0,0],"sum_hessian":[1.4566356E1,5.860662E0,8.705693E0,3.4179354E0,2.4427266E0,4.965677E0,3.7400167E0,2.3145998E0,1.1033355E0,1.2229751E0,1.0916247E0],"tree_param":{"num_deleted":"0","num_feature":"16","num_nodes":"11","size_leaf_vector":"1"}},{"base_weights":[-1.2197363E-3,2.2030491E-2,-1.2720203E-2,9.550364E-3,-9.9271625E-2,-3.2367285E-2,3.4517564E-2,-2.6546512E-3,-4.2075574E-2,4.1473754E-2,-5.437721E-4,-8.901671E-3,9.955576E-3],"categories":[],"categories_nodes":[],"categories_segments":[],"categories_sizes":[],"default_left":[0,0,0,0,0,0,0,0,0,0,0,0,0],"id":63,"left_children":[1,-1,3,5,7,-1,9,-1,-1,-1,11,-1,-1],"loss_changes":[1.4292405E-2,0E0,2.8578252E-2,3.9828215E-2,9.9545475E-3,0E0,3.9760243E-2,0E0,0E0,0E0,9.975713E-3,0E0,0E0],"parents":[2147483647,0,0,2,2,3,3,4,4,6,6,10,10],"right_children":[2,-1,4,6,8,-1,10,-1,-1,-1,12,-1,-1],"split_conditions":[-9.238795E-1,2.2030491E-2,-1.9509032E-1,2.41E2,-6.087614E-1,-3.2367285E-2,2.46E2,-2.6546512E-3,-4.2075574E-2,4.1473754E-2,2.73E2,-8.901671E-3,9.955576E-3],"split_indices":[7,0,6,3,7,0,3,0,0,0,3,0,0],"split_type":[0,0,0,0,0,0,0,0,0,0,0,0,0],"sum_hessian":[1.4558883E1,1.2245281E0,1.3334354E1,1.1313048E1,2.0213063E0,1.40112E0,9.911928E0,1.0095869E0,1.0117193E0,1.7605132E0,8.151415E0,4.438549E0,3.7128656E0],"tree_param":{"num_deleted":"0","num_feature":"16","num_nodes":"13","size_leaf_vector":"1"}},{"base_weights":[-1.5586895E-3,5.5917002E-2,-1.7768322E-2,-5.394215E-3,3.145479E-2,-4.140746E-2,9.54854E-3,3.267238E-2,-7.1006245E-3,-9.505036E-3,2.4110185E-2],"categories":[],"categories_nodes":[],"categories_segments":[],"categories_sizes":[],"default_left":[0,0,0,0,0,0,0,0,0,0,0],"id":64,"left_children":[1,3,5,-1,-1,-1,7,9,-1,-1,-1],"loss_changes":[1.5499062E-2,1.51421735E-2,4.3705814E-2,0E0,0E0,0E0,9.5682945E-3,2.4556708E-2,0E0,0E0,0E0],"parents":[2147483647,0,0,1,1,2,2,6,6,7,7],"right_children":[2,4,6,-1,-1,-1,8,10,-1,-1,-1],"split_conditions":[2.14E2,-7.933533E-1,1.7E1,-5.394215E-3,3.145479E-2,-4.140746E-2,2.6E2,2.59E2,-7.1006245E-3,-9.505036E-3,2.4110185E-2],"split_indices":[3,7,0,0,0,0,3,3,0,0,0],"split_type":[0,0,0,0,0,0,0,0,0,0,0],"sum_hessian":[1.4569536E1,2.666195E0,1.190334E1,1.3141302E0,1.3520648E0,1.4532018E0,1.0450139E1,6.1708064E0,4.2793326E0,2.7695262E0,3.4012802E0],"tree_param":{"num_deleted":"0","num_feature":"16","num_nodes":"11","size_leaf_vector":"1"}},{"base_weights":[-1.6767501E-3,3.291311E-2,-2.629981E-2,8.417882E-2,-1.3139593E-2,-1.9258203E-2,7.726646E-3,1.5386943E-3,3.8273748E-2],"categories":[],"categories_nodes":[],"categories_segments":[],"categories_sizes":[],"default_left":[0,0,0,0,0,0,0,0,0],"id":65,"left_children":[1,3,5,7,-1,-1,-1,-1,-1],"loss_changes":[1.4129474E-2,3.0901575E-2,2.0695036E-2,1.4750831E-2,0E0,0E0,0E0,0E0,0E0],"parents":[2147483647,0,0,1,1,2,2,3,3],"right_children":[2,4,6,8,-1,-1,-1,-1,-1],"split_conditions":[2.46E2,3.2143947E-1,2.73E2,-8.314696E-1,-1.3139593E-2,-1.9258203E-2,7.726646E-3,1.5386943E-3,3.8273748E-2],"split_indices":[3,7,3,7,0,0,0,0,0],"split_type":[0,0,0,0,0,0,0,0,0],"sum_hessian":[1.4573249E1,5.9201255E0,8.653124E0,3.4902718E0,2.4298537E0,4.872759E0,3.780365E0,1.633385E0,1.856887E0],"tree_param":{"num_deleted":"0","num_feature":"16","num_nodes":"9","size_leaf_vector":"1"}},{"base_weights":[-1.0283706E-3,2.168539E-2,-1.2365286E-2,9.348005E-3,-2.9169574E-2,-3.1645298E-2,3.356046E-2,3.9021846E-2,3.4150266E-4,-7.4757976E-3,8.6677605E-3],"categories":[],"categories_nodes":[],"categories_segments":[],"categories_sizes":[],"default_left":[0,0,0,0,0,0,0,0,0,0,0],"id":66,"left_children":[1,-1,3,5,-1,-1,7,-1,9,-1,-1],"loss_changes":[1.3820486E-2,0E0,2.730396E-2,3.7788652E-2,0E0,0E0,3.5002813E-2,0E0,7.308432E-3,0E0,0E0],"parents":[2147483647,0,0,2,2,3,3,6,6,8,8],"right_children":[2,-1,4,6,-1,-1,8,-1,10,-1,-1],"split_conditions":[-9.238795E-1,2.168539E-2,-1.9509032E-1,2.41E2,-2.9169574E-2,-3.1645298E-2,2.46E2,3.9021846E-2,2.73E2,-7.4757976E-3,8.6677605E-3],"split_indices":[7,0,6,3,0,0,3,0,3,0,0],"split_type":[0,0,0,0,0,0,0,0,0,0,0],"sum_hessian":[1.4552874E1,1.2290264E0,1.3323848E1,1.1317972E1,2.0058749E0,1.3863448E0,9.931627E0,1.7965165E0,8.135111E0,4.383746E0,3.751365E0],"tree_param":{"num_deleted":"0","num_feature":"16","num_nodes":"11","size_leaf_vector":"1"}},{"base_weights":[-9.5155777E-4,2.0124864E-2,-1.2917777E-2,-1.4873996E-2,2.2672689E-2,6.551817E-2,-3.154063E-2,7.244884E-3,4.06038E-2,-4.172421E-2,3.5577055E-2],"categories":[],"categories_nodes":[],"categories_segments":[],"categories_sizes":[],"default_left":[0,0,0,0,0,0,0,0,0,0,0],"id":67,"left_children":[1,3,-1,5,-1,7,-1,9,-1,-1,-1],"loss_changes":[1.4667278E-2,2.2558829E-2,0E0,6.2084302E-2,0E0,1.7897345E-2,0E0,7.4910246E-2,0E0,0E0,0E0],"parents":[2147483647,0,0,1,1,3,3,5,5,7,7],"right_children":[2,4,-1,6,-1,8,-1,10,-1,-1,-1],"split_conditions":[2.6E2,2.59E2,-1.2917777E-2,3.2143947E-1,2.2672689E-2,-6.593458E-1,-3.154063E-2,2E0,4.06038E-2,-4.172421E-2,3.5577055E-2],"split_indices":[3,3,0,7,0,7,0,1,0,0,0],"split_type":[0,0,0,0,0,0,0,0,0,0,0],"sum_hessian":[1.4550464E1,1.0044761E1,4.505703E0,6.6066213E0,3.4381392E0,3.6393394E0,2.9672818E0,2.5854566E0,1.0538828E0,1.0095942E0,1.5758624E0],"tree_param":{"num_deleted":"0","num_feature":"16","num_nodes":"11","size_leaf_vector":"1"}},{"base_weights":[-5.8065704E-4,-4.449427E-2,1.6262958E-2,-3.5530295E-2,1.5475673E-2,3.7027355E-2,-5.316248E-3,-2.2002407E-3,1.9676633E-2,4.817739E-3,-3.9726896E-3],"categories":[],"categories_nodes":[],"categories_segments":[],"categories_sizes":[],"default_left":[0,0,0,0,0,0,0,0,0,0,0],"id":68,"left_children":[1,3,5,-1,-1,7,-1,9,-1,-1,-1],"loss_changes":[1.2217128E-2,3.8614348E-2,9.098135E-3,0E0,0E0,8.827026E-3,0E0,1.0660617E-3,0E0,0E0,0E0],"parents":[2147483647,0,0,1,1,2,2,5,5,7,7],"right_children":[2,4,6,-1,-1,8,-1,10,-1,-1,-1],"split_conditions":[7.818315E-1,1.3052619E-1,2.6E2,-3.5530295E-2,1.5475673E-2,2.54E2,-5.316248E-3,2.39E2,1.9676633E-2,4.817739E-3,-3.9726896E-3],"split_indices":[8,6,3,0,0,3,0,3,0,0,0],"split_type":[0,0,0,0,0,0,0,0,0,0,0],"sum_hessian":[1.4538836E1,3.575474E0,1.0963362E1,1.8890526E0,1.6864214E0,6.7496843E0,4.213677E0,3.232703E0,3.5169814E0,1.0470009E0,2.185702E0],"tree_param":{"num_deleted":"0","num_feature":"16","num_nodes":"11","size_leaf_vector":"1"}},{"base_weights":[-7.178298E-4,3.2893706E-2,-2.4815582E-2,-2.0111261E-2,2.698208E-2,-1.8763948E-2,7.991888E-3,1.1324087E-2,-2.4522047E-2],"categories":[],"categories_nodes":[],"categories_segments":[],"categories_sizes":[],"default_left":[0,0,0,0,0,0,0,0,0],"id":69,"left_children":[1,3,5,7,-1,-1,-1,-1,-1],"loss_changes":[1.340563E-2,2.2734314E-2,2.0348327E-2,1.8790806E-2,0E0,0E0,0E0,0E0,0E0],"parents":[2147483647,0,0,1,1,2,2,3,3],"right_children":[2,4,6,8,-1,-1,-1,-1,-1],"split_conditions":[2.46E2,2.32E2,2.73E2,-2.2252093E-1,2.698208E-2,-1.8763948E-2,7.991888E-3,1.1324087E-2,-2.4522047E-2],"split_indices":[3,3,3,9,0,0,0,0,0],"split_type":[0,0,0,0,0,0,0,0,0],"sum_hessian":[1.4543134E1,5.9203796E0,8.622754E0,3.4045196E0,2.5158598E0,4.850467E0,3.7722874E0,1.9558488E0,1.4486707E0],"tree_param":{"num_deleted":"0","num_feature":"16","num_nodes":"9","size_leaf_vector":"1"}},{"base_weights":[-5.9314165E-4,2.0023169E-2,-1.115979E-2,9.889628E-3,-2.8270118E-2,-2.867017E-2,3.134661E-2,3.533782E-2,8.8908727E-4,-7.3665353E-3,8.863801E-3],"categories":[],"categories_nodes":[],"categories_segments":[],"categories_sizes":[],"default_left":[0,0,0,0,0,0,0,0,0,0,0],"id":70,"left_children":[1,-1,3,5,-1,-1,7,-1,9,-1,-1],"loss_changes":[1.1801424E-2,0E0,2.5917241E-2,3.0838838E-2,0E0,0E0,2.8798234E-2,0E0,7.379063E-3,0E0,0E0],"parents":[2147483647,0,0,2,2,3,3,6,6,8,8],"right_children":[2,-1,4,6,-1,-1,8,-1,10,-1,-1],"split_conditions":[-9.238795E-1,2.0023169E-2,-1.9509032E-1,2.41E2,-2.8270118E-2,-2.867017E-2,2.46E2,3.533782E-2,2.73E2,-7.3665353E-3,8.863801E-3],"split_indices":[7,0,6,3,0,0,3,0,3,0,0],"split_type":[0,0,0,0,0,0,0,0,0,0,0],"sum_hessian":[1.4539227E1,1.2509505E0,1.3288277E1,1.13048E1,1.9834762E0,1.3273311E0,9.977469E0,1.8524128E0,8.125056E0,4.3795924E0,3.7454638E0],"tree_param":{"num_deleted":"0","num_feature":"16","num_nodes":"11","size_leaf_vector":"1"}},{"base_weights":[-6.037197E-4,5.2020695E-2,-1.5680624E-2,-5.7795895E-3,2.9947817E-2,-3.8694415E-2,9.356962E-3,3.0925527E-2,-6.5770694E-3,-8.772976E-3,2.2418993E-2],"categories":[],"categories_nodes":[],"categories_segments":[],"categories_sizes":[],"default_left":[0,0,0,0,0,0,0,0,0,0,0],"id":71,"left_children":[1,3,5,-1,-1,-1,7,9,-1,-1,-1],"loss_changes":[1.3145009E-2,1.45057645E-2,3.7651874E-2,0E0,0E0,0E0,8.406057E-3,2.1147735E-2,0E0,0E0,0E0],"parents":[2147483647,0,0,1,1,2,2,6,6,7,7],"right_children":[2,4,6,-1,-1,-1,8,10,-1,-1,-1],"split_conditions":[2.14E2,-7.933533E-1,1.7E1,-5.7795895E-3,2.9947817E-2,-3.8694415E-2,2.6E2,2.59E2,-6.5770694E-3,-8.772976E-3,2.2418993E-2],"split_indices":[3,7,0,0,0,0,3,3,0,0,0],"split_type":[0,0,0,0,0,0,0,0,0,0,0],"sum_hessian":[1.4539557E1,2.692233E0,1.1847324E1,1.320358E0,1.371875E0,1.3928503E0,1.0454474E1,6.1945524E0,4.2599225E0,2.7498438E0,3.4447086E0],"tree_param":{"num_deleted":"0","num_feature":"16","num_nodes":"11","size_leaf_vector":"1"}},{"base_weights":[-8.393235E-4,-1.7283197E-2,4.8585743E-2,-3.8388804E-2,7.562849E-3,-6.116228E-3,3.2659702E-2,1.8910654E-2,-9.621519E-3,-1.2482401E-2,9.01919E-3],"categories":[],"categories_nodes":[],"categories_segments":[],"categories_sizes":[],"default_left":[0,0,0,0,0,0,0,0,0,0,0],"id":72,"left_children":[1,3,5,-1,7,-1,-1,-1,9,-1,-1],"loss_changes":[1.3475332E-2,3.507627E-2,1.944736E-2,0E0,1.11625595E-2,0E0,0E0,0E0,1.3084405E-2,0E0,0E0],"parents":[2147483647,0,0,1,1,2,2,4,4,8,8],"right_children":[2,4,6,-1,8,-1,-1,-1,10,-1,-1],"split_conditions":[1E0,2.45E2,-8.314696E-1,-3.8388804E-2,2.46E2,-6.116228E-3,3.2659702E-2,1.8910654E-2,2.73E2,-1.2482401E-2,9.01919E-3],"split_indices":[11,3,7,0,3,0,0,0,3,0,0],"split_type":[0,0,0,0,0,0,0,0,0,0,0],"sum_hessian":[1.4546943E1,1.1403334E1,3.1436095E0,1.3297209E0,1.0073612E1,1.7747276E0,1.368882E0,1.7514826E0,8.32213E0,4.581223E0,3.740907E0],"tree_param":{"num_deleted":"0","num_feature":"16","num_nodes":"11","size_leaf_vector":"1"}},{"base_weights":[-6.812687E-4,4.299208E-2,-1.7584778E-2,2.6126837E-2,-6.5419925E-3,-2.831537E-2,2.0627107E-2,2.0803262E-2,-7.3786722E-3],"categories":[],"categories_nodes":[],"categories_segments":[],"categories_sizes":[],"default_left":[0,0,0,0,0,0,0,0,0],"id":73,"left_children":[1,3,5,-1,-1,-1,7,-1,-1],"loss_changes":[1.2229612E-2,1.5121031E-2,3.6912903E-2,0E0,0E0,0E0,2.1042E-2,0E0,0E0],"parents":[2147483647,0,0,1,1,2,2,6,6],"right_children":[2,4,6,-1,-1,-1,8,-1,-1],"split_conditions":[-1.3052619E-1,1.9509032E-1,2.59E2,2.6126837E-2,-6.5419925E-3,-2.831537E-2,2.6E2,2.0803262E-2,-7.3786722E-3],"split_indices":[7,6,3,0,0,0,3,0,0],"split_type":[0,0,0,0,0,0,0,0,0],"sum_hessian":[1.4541988E1,3.6271617E0,1.0914826E1,1.9536486E0,1.6735132E0,3.137972E0,7.7768545E0,3.4870074E0,4.2898474E0],"tree_param":{"num_deleted":"0","num_feature":"16","num_nodes":"9","size_leaf_vector":"1"}},{"base_weights":[-5.2040396E-4,3.1747434E-2,-2.3773905E-2,7.471615E-2,-1.0757716E-2,-1.7305378E-2,6.5705483E-3,1.33464E-2,4.358446E-2,2.6252862E-2,-1.80479E-2],"categories":[],"categories_nodes":[],"categories_segments":[],"categories_sizes":[],"default_left":[0,0,0,0,0,0,0,0,0,0,0],"id":74,"left_children":[1,3,5,7,-1,-1,-1,9,-1,-1,-1],"loss_changes":[1.2412757E-2,2.282632E-2,1.6135199E-2,1.7828574E-2,0E0,0E0,0E0,2.4576575E-2,0E0,0E0,0E0],"parents":[2147483647,0,0,1,1,2,2,3,3,7,7],"right_children":[2,4,6,8,-1,-1,-1,10,-1,-1,-1],"split_conditions":[2.46E2,3.2143947E-1,2.73E2,-6.593458E-1,-1.0757716E-2,-1.7305378E-2,6.5705483E-3,-9.238795E-1,4.358446E-2,2.6252862E-2,-1.80479E-2],"split_indices":[3,7,3,7,0,0,0,7,0,0,0],"split_type":[0,0,0,0,0,0,0,0,0,0,0],"sum_hessian":[1.4536947E1,5.935394E0,8.601554E0,3.564646E0,2.3707478E0,4.785659E0,3.8158953E0,2.5425553E0,1.0220906E0,1.170791E0,1.3717643E0],"tree_param":{"num_deleted":"0","num_feature":"16","num_nodes":"11","size_leaf_vector":"1"}},{"base_weights":[4.44964E-4,1.927017E-2,-1.13683725E-2,-9.6642645E-3,1.8901983E-2,5.535659E-2,-2.6386546E-2,3.90892E-3,3.5090923E-2,-2.247457E-2,2.0133818E-2],"categories":[],"categories_nodes":[],"categories_segments":[],"categories_sizes":[],"default_left":[0,0,0,0,0,0,0,0,0,0,0],"id":75,"left_children":[1,3,-1,5,-1,7,-1,9,-1,-1,-1],"loss_changes":[1.1922241E-2,1.4609095E-2,0E0,4.3176413E-2,0E0,1.4519544E-2,0E0,2.3009522E-2,0E0,0E0,0E0],"parents":[2147483647,0,0,1,1,3,3,5,5,7,7],"right_children":[2,4,-1,6,-1,8,-1,10,-1,-1,-1],"split_conditions":[2.6E2,2.59E2,-1.13683725E-2,3.2143947E-1,1.8901983E-2,-6.593458E-1,-2.6386546E-2,0E0,3.5090923E-2,-2.247457E-2,2.0133818E-2],"split_indices":[3,3,0,7,0,7,0,6,0,0,0],"split_type":[0,0,0,0,0,0,0,0,0,0,0],"sum_hessian":[1.4506771E1,1.006306E1,4.443711E0,6.5252357E0,3.5378244E0,3.7247524E0,2.8004832E0,2.609355E0,1.1153976E0,1.0787293E0,1.5306256E0],"tree_param":{"num_deleted":"0","num_feature":"16","num_nodes":"11","size_leaf_vector":"1"}},{"base_weights":[7.227346E-4,-4.2673748E-2,1.7223913E-2,-3.3288028E-2,1.3203061E-2,5.737758E-2,-1.2083012E-3,3.8257937E-3,2.1029275E-2,-7.0045884E-3,7.1418937E-3],"categories":[],"categories_nodes":[],"categories_segments":[],"categories_sizes":[],"default_left":[0,0,0,0,0,0,0,0,0,0,0],"id":76,"left_children":[1,3,5,-1,-1,7,9,-1,-1,-1,-1],"loss_changes":[1.1833098E-2,3.185848E-2,8.907105E-3,0E0,0E0,1.2502782E-3,5.6308834E-3,0E0,0E0,0E0,0E0],"parents":[2147483647,0,0,1,1,2,2,5,5,6,6],"right_children":[2,4,6,-1,-1,8,10,-1,-1,-1,-1],"split_conditions":[7.818315E-1,1.3052619E-1,2.46E2,-3.3288028E-2,1.3203061E-2,2.4E2,4E1,3.8257937E-3,2.1029275E-2,-7.0045884E-3,7.1418937E-3],"split_indices":[8,6,3,0,0,3,4,0,0,0,0],"split_type":[0,0,0,0,0,0,0,0,0,0,0],"sum_hessian":[1.449811E1,3.557123E0,1.0940988E1,1.8330567E0,1.7240663E0,2.7774825E0,8.163505E0,1.0602894E0,1.7171931E0,4.365882E0,3.797623E0],"tree_param":{"num_deleted":"0","num_feature":"16","num_nodes":"11","size_leaf_vector":"1"}},{"base_weights":[7.162474E-4,1.8236982E-2,-1.0588917E-2,-8.3576245E-3,1.7350014E-2,5.565611E-2,-2.366644E-2,3.2566477E-2,-6.4709284E-3],"categories":[],"categories_nodes":[],"categories_segments":[],"categories_sizes":[],"default_left":[0,0,0,0,0,0,0,0,0],"id":77,"left_children":[1,3,-1,5,-1,7,-1,-1,-1],"loss_changes":[1.0422635E-2,1.2156695E-2,0E0,3.8275518E-2,0E0,2.0809032E-2,0E0,0E0,0E0],"parents":[2147483647,0,0,1,1,3,3,5,5],"right_children":[2,4,-1,6,-1,8,-1,-1,-1],"split_conditions":[2.6E2,2.59E2,-1.0588917E-2,-1.3052619E-1,1.7350014E-2,1.9509032E-1,-2.366644E-2,3.2566477E-2,-6.4709284E-3],"split_indices":[3,3,0,7,0,6,0,0,0],"split_type":[0,0,0,0,0,0,0,0,0],"sum_hessian":[1.4498312E1,1.0085262E1,4.4130497E0,6.505096E0,3.580166E0,3.5206418E0,2.984454E0,1.8486545E0,1.6719873E0],"tree_param":{"num_deleted":"0","num_feature":"16","num_nodes":"9","size_leaf_vector":"1"}},{"base_weights":[8.194695E-4,-4.1178126E-2,1.671014E-2,-3.2052916E-2,1.2317227E-2,5.6760777E-2,-1.62645E-3,3.343681E-3,2.1173954E-2,-7.553043E-3,7.5682974E-3],"categories":[],"categories_nodes":[],"categories_segments":[],"categories_sizes":[],"default_left":[0,0,0,0,0,0,0,0,0,0,0],"id":78,"left_children":[1,3,5,-1,-1,7,9,-1,-1,-1,-1],"loss_changes":[1.1029053E-2,2.8914299E-2,8.870461E-3,0E0,0E0,1.5971707E-3,6.435266E-3,0E0,0E0,0E0,0E0],"parents":[2147483647,0,0,1,1,2,2,5,5,6,6],"right_children":[2,4,6,-1,-1,8,10,-1,-1,-1,-1],"split_conditions":[7.818315E-1,1.3052619E-1,2.46E2,-3.2052916E-2,1.2317227E-2,2.4E2,4E1,3.343681E-3,2.1173954E-2,-7.553043E-3,7.5682974E-3],"split_indices":[8,6,3,0,0,3,4,0,0,0,0],"split_type":[0,0,0,0,0,0,0,0,0,0,0],"sum_hessian":[1.4495095E1,3.5421567E0,1.0952939E1,1.8031297E0,1.7390271E0,2.7816932E0,8.171246E0,1.0668106E0,1.7148826E0,4.3866906E0,3.7845547E0],"tree_param":{"num_deleted":"0","num_feature":"16","num_nodes":"11","size_leaf_vector":"1"}},{"base_weights":[7.9741696E-4,2.9747926E-2,-2.0425834E-2,-2.2116276E-2,2.5850888E-2,-1.58109E-2,6.653965E-3,2.0601362E-2,-2.5176046E-2,-6.1590886E-3,1.7918473E-2],"categories":[],"categories_nodes":[],"categories_segments":[],"categories_sizes":[],"default_left":[0,0,0,0,0,0,0,0,0,0,0],"id":79,"left_children":[1,3,5,7,-1,-1,-1,9,-1,-1,-1],"loss_changes":[1.0128606E-2,2.2277659E-2,1.4280076E-2,1.3406452E-2,0E0,0E0,0E0,6.7275055E-3,0E0,0E0,0E0],"parents":[2147483647,0,0,1,1,2,2,3,3,7,7],"right_children":[2,4,6,8,-1,-1,-1,10,-1,-1,-1],"split_conditions":[2.46E2,2.32E2,2.73E2,-6.087614E-1,2.5850888E-2,-1.58109E-2,6.653965E-3,-8.314696E-1,-2.5176046E-2,-6.1590886E-3,1.7918473E-2],"split_indices":[3,3,3,7,0,0,0,7,0,0,0],"split_type":[0,0,0,0,0,0,0,0,0,0,0],"sum_hessian":[1.4495783E1,5.961741E0,8.534041E0,3.4231322E0,2.5386086E0,4.720728E0,3.813314E0,2.4183095E0,1.0048229E0,1.4106597E0,1.0076498E0],"tree_param":{"num_deleted":"0","num_feature":"16","num_nodes":"11","size_leaf_vector":"1"}},{"base_weights":[7.184099E-4,1.7836288E-2,-1.036609E-2,-1.0307963E-2,1.8133227E-2,4.810147E-2,-2.4653738E-2,-5.5175275E-4,3.2476872E-2,-2.0330552E-2,2.6121194E-2],"categories":[],"categories_nodes":[],"categories_segments":[],"categories_sizes":[],"default_left":[0,0,0,0,0,0,0,0,0,0,0],"id":80,"left_children":[1,3,-1,5,-1,7,-1,9,-1,-1,-1],"loss_changes":[9.973877E-3,1.3926465E-2,0E0,3.5585348E-2,0E0,1.407196E-2,0E0,2.7349805E-2,0E0,0E0,0E0],"parents":[2147483647,0,0,1,1,3,3,5,5,7,7],"right_children":[2,4,-1,6,-1,8,-1,10,-1,-1,-1],"split_conditions":[2.6E2,2.59E2,-1.036609E-2,3.2143947E-1,1.8133227E-2,-6.593458E-1,-2.4653738E-2,-2.2252093E-1,3.2476872E-2,-2.0330552E-2,2.6121194E-2],"split_indices":[3,3,0,7,0,7,0,9,0,0,0],"split_type":[0,0,0,0,0,0,0,0,0,0,0],"sum_hessian":[1.4498245E1,1.0093898E1,4.404348E0,6.5351973E0,3.5587006E0,3.7876852E0,2.7475119E0,2.6418128E0,1.1458726E0,1.623206E0,1.0186067E0],"tree_param":{"num_deleted":"0","num_feature":"16","num_nodes":"11","size_leaf_vector":"1"}},{"base_weights":[1.2031923E-3,-3.7397977E-2,1.5619657E-2,2.2196503E-2,-3.5872888E-2,-1.3086892E-2,2.7028525E-2,-2.7808124E-2,3.7012E-2,-3.7755524E-3,3.8702536E-2,1.89727E-2,2.5085034E-3],"categories":[],"categories_nodes":[],"categories_segments":[],"categories_sizes":[],"default_left":[0,0,0,0,0,0,0,0,0,0,0,0,0],"id":81,"left_children":[1,3,5,7,-1,-1,9,-1,-1,-1,11,-1,-1],"loss_changes":[9.2004E-3,2.4715688E-2,9.275152E-3,5.159316E-2,0E0,0E0,5.417517E-3,0E0,0E0,0E0,5.785171E-3,0E0,0E0],"parents":[2147483647,0,0,1,1,2,2,3,3,6,6,10,10],"right_children":[2,4,6,8,-1,-1,10,-1,-1,-1,12,-1,-1],"split_conditions":[7.818315E-1,-2.2252093E-1,2.3E1,-7.933533E-1,-3.5872888E-2,-1.3086892E-2,3.8E1,-2.7808124E-2,3.7012E-2,-3.7755524E-3,2.6E2,1.89727E-2,2.5085034E-3],"split_indices":[8,9,0,7,0,0,4,0,0,0,3,0,0],"split_type":[0,0,0,0,0,0,0,0,0,0,0,0,0],"sum_hessian":[1.4483151E1,3.5047646E0,1.0978387E1,2.4546137E0,1.0501509E0,1.3168421E0,9.661545E0,1.188673E0,1.2659407E0,2.181377E0,7.4801674E0,3.5359137E0,3.9442537E0],"tree_param":{"num_deleted":"0","num_feature":"16","num_nodes":"13","size_leaf_vector":"1"}},{"base_weights":[2.2706087E-4,3.055136E-2,-2.1840023E-2,-1.97485E-2,2.5291795E-2,-1.6633026E-2,6.8850857E-3,8.361459E-3,-2.1448866E-2],"categories":[],"categories_nodes":[],"categories_segments":[],"categories_sizes":[],"default_left":[0,0,0,0,0,0,0,0,0],"id":82,"left_children":[1,3,5,7,-1,-1,-1,-1,-1],"loss_changes":[1.1048443E-2,2.0459732E-2,1.5664937E-2,1.2838192E-2,0E0,0E0,0E0,0E0,0E0],"parents":[2147483647,0,0,1,1,2,2,3,3],"right_children":[2,4,6,8,-1,-1,-1,-1,-1],"split_conditions":[2.46E2,2.32E2,2.73E2,-2.2252093E-1,2.5291795E-2,-1.6633026E-2,6.8850857E-3,8.361459E-3,-2.1448866E-2],"split_indices":[3,3,3,9,0,0,0,0,0],"split_type":[0,0,0,0,0,0,0,0,0],"sum_hessian":[1.4513573E1,5.9511304E0,8.562442E0,3.4011688E0,2.5499613E0,4.7562656E0,3.8061764E0,2.011507E0,1.3896619E0],"tree_param":{"num_deleted":"0","num_feature":"16","num_nodes":"9","size_leaf_vector":"1"}},{"base_weights":[2.0927841E-4,1.8772356E-2,-9.732683E-3,1.0454338E-2,-2.7119191E-2,-2.6523804E-2,3.0047014E-2,3.304227E-2,1.3738918E-3,-6.2585087E-3,7.777633E-3],"categories":[],"categories_nodes":[],"categories_segments":[],"categories_sizes":[],"default_left":[0,0,0,0,0,0,0,0,0,0,0],"id":83,"left_children":[1,-1,3,5,-1,-1,7,-1,9,-1,-1],"loss_changes":[1.0228286E-2,0E0,2.4143558E-2,2.646524E-2,0E0,0E0,2.5121104E-2,0E0,5.5175317E-3,0E0,0E0],"parents":[2147483647,0,0,2,2,3,3,6,6,8,8],"right_children":[2,-1,4,6,-1,-1,8,-1,10,-1,-1],"split_conditions":[-9.238795E-1,1.8772356E-2,-1.9509032E-1,2.41E2,-2.7119191E-2,-2.6523804E-2,2.46E2,3.304227E-2,2.73E2,-6.2585087E-3,7.777633E-3],"split_indices":[7,0,6,3,0,0,3,0,3,0,0],"split_type":[0,0,0,0,0,0,0,0,0,0,0],"sum_hessian":[1.4514128E1,1.2677346E0,1.3246393E1,1.1291096E1,1.9552974E0,1.2865369E0,1.0004559E1,1.8883866E0,8.116172E0,4.3378263E0,3.7783458E0],"tree_param":{"num_deleted":"0","num_feature":"16","num_nodes":"11","size_leaf_vector":"1"}},{"base_weights":[8.407295E-5,1.689175E-2,-1.0350364E-2,-8.615053E-3,1.6444124E-2,5.1027693E-2,-2.4635212E-2,3.1112825E-2,6.8731043E-3,-3.7012137E-2,4.180552E-2],"categories":[],"categories_nodes":[],"categories_segments":[],"categories_sizes":[],"default_left":[0,0,0,0,0,0,0,0,0,0,0],"id":84,"left_children":[1,3,-1,5,-1,7,-1,-1,9,-1,-1],"loss_changes":[9.603395E-3,1.12227425E-2,0E0,3.710906E-2,0E0,1.0364508E-2,0E0,0E0,8.0374666E-2,0E0,0E0],"parents":[2147483647,0,0,1,1,3,3,5,5,8,8],"right_children":[2,4,-1,6,-1,8,-1,-1,10,-1,-1],"split_conditions":[2.6E2,2.59E2,-1.0350364E-2,3.2143947E-1,1.6444124E-2,3E0,-2.4635212E-2,3.1112825E-2,-7.933533E-1,-3.7012137E-2,4.180552E-2],"split_indices":[3,3,0,7,0,2,0,0,7,0,0],"split_type":[0,0,0,0,0,0,0,0,0,0,0],"sum_hessian":[1.4518039E1,1.0114305E1,4.4037347E0,6.509055E0,3.6052494E0,3.762102E0,2.7469532E0,1.1004057E0,2.661696E0,1.3768083E0,1.2848877E0],"tree_param":{"num_deleted":"0","num_feature":"16","num_nodes":"11","size_leaf_vector":"1"}},{"base_weights":[4.9451145E-4,1.859806E-2,-9.347549E-3,9.802667E-3,-2.5992336E-2,-2.5618497E-2,2.8491613E-2,3.161649E-2,8.394725E-4,-6.778042E-3,8.0967555E-3],"categories":[],"categories_nodes":[],"categories_segments":[],"categories_sizes":[],"default_left":[0,0,0,0,0,0,0,0,0,0,0],"id":85,"left_children":[1,-1,3,5,-1,-1,7,-1,9,-1,-1],"loss_changes":[9.964445E-3,0E0,2.1919992E-2,2.4328807E-2,0E0,0E0,2.3380473E-2,0E0,6.20185E-3,0E0,0E0],"parents":[2147483647,0,0,2,2,3,3,6,6,8,8],"right_children":[2,-1,4,6,-1,-1,8,-1,10,-1,-1],"split_conditions":[-9.238795E-1,1.859806E-2,-1.9509032E-1,2.41E2,-2.5992336E-2,-2.5618497E-2,2.46E2,3.161649E-2,2.73E2,-6.778042E-3,8.0967555E-3],"split_indices":[7,0,6,3,0,0,3,0,3,0,0],"split_type":[0,0,0,0,0,0,0,0,0,0,0],"sum_hessian":[1.4505225E1,1.2700934E0,1.3235132E1,1.1306913E1,1.928219E0,1.2697563E0,1.0037157E1,1.9111904E0,8.125966E0,4.3573284E0,3.7686381E0],"tree_param":{"num_deleted":"0","num_feature":"16","num_nodes":"11","size_leaf_vector":"1"}},{"base_weights":[3.3918035E-4,4.6726085E-2,-1.3217494E-2,-3.4284717E-3,2.4572562E-2,-3.776634E-2,1.1374609E-2,2.9978031E-2,-4.977083E-3,-3.529695E-3,1.6891232E-2],"categories":[],"categories_nodes":[],"categories_segments":[],"categories_sizes":[],"default_left":[0,0,0,0,0,0,0,0,0,0,0],"id":86,"left_children":[1,3,5,-1,-1,-1,7,9,-1,-1,-1],"loss_changes":[1.0371144E-2,8.56404E-3,3.6847893E-2,0E0,0E0,0E0,6.4327787E-3,8.583114E-3,0E0,0E0,0E0],"parents":[2147483647,0,0,1,1,2,2,6,6,7,7],"right_children":[2,4,6,-1,-1,-1,8,10,-1,-1,-1],"split_conditions":[2.14E2,-7.933533E-1,1.7E1,-3.4284717E-3,2.4572562E-2,-3.776634E-2,2.6E2,2.59E2,-4.977083E-3,-3.529695E-3,1.6891232E-2],"split_indices":[3,7,0,0,0,0,3,3,0,0,0],"split_type":[0,0,0,0,0,0,0,0,0,0,0],"sum_hessian":[1.4510073E1,2.728214E0,1.1781858E1,1.2828758E0,1.4453384E0,1.3728812E0,1.04089775E1,6.2074986E0,4.201479E0,2.6146631E0,3.5928352E0],"tree_param":{"num_deleted":"0","num_feature":"16","num_nodes":"11","size_leaf_vector":"1"}},{"base_weights":[-3.9038092E-5,1.8328577E-2,-9.792248E-3,7.251707E-3,-2.3886027E-2,-2.4233103E-2,2.436079E-2,2.846372E-2,-1.1038166E-3,-7.4370163E-3,7.7401954E-3],"categories":[],"categories_nodes":[],"categories_segments":[],"categories_sizes":[],"default_left":[0,0,0,0,0,0,0,0,0,0,0],"id":87,"left_children":[1,-1,3,5,-1,-1,7,-1,9,-1,-1],"loss_changes":[9.853273E-3,0E0,1.7534692E-2,2.059696E-2,0E0,0E0,2.0081531E-2,0E0,6.478073E-3,0E0,0E0],"parents":[2147483647,0,0,2,2,3,3,6,6,8,8],"right_children":[2,-1,4,6,-1,-1,8,-1,10,-1,-1],"split_conditions":[-9.238795E-1,1.8328577E-2,-1.9509032E-1,2.41E2,-2.3886027E-2,-2.4233103E-2,2.46E2,2.846372E-2,2.73E2,-7.4370163E-3,7.7401954E-3],"split_indices":[7,0,6,3,0,0,3,0,3,0,0],"split_type":[0,0,0,0,0,0,0,0,0,0,0],"sum_hessian":[1.4521885E1,1.2737498E0,1.3248136E1,1.1369223E1,1.8789124E0,1.2445483E0,1.0124675E1,1.9629167E0,8.161757E0,4.382271E0,3.7794874E0],"tree_param":{"num_deleted":"0","num_feature":"16","num_nodes":"11","size_leaf_vector":"1"}},{"base_weights":[-1.3462498E-4,-1.4820784E-2,4.3201964E-2,-3.2392282E-2,5.006605E-3,3.6178906E-2,-2.0570247E-2,2.3335895E-2,-6.016175E-3,-2.460389E-2,1.6472735E-2,-7.1056783E-3,1.5400984E-2],"categories":[],"categories_nodes":[],"categories_segments":[],"categories_sizes":[],"default_left":[0,0,0,0,0,0,0,0,0,0,0,0,0],"id":88,"left_children":[1,3,5,-1,7,-1,9,11,-1,-1,-1,-1,-1],"loss_changes":[1.0521064E-2,2.3332335E-2,2.3135915E-2,0E0,5.580469E-3,0E0,1.910571E-2,1.02882525E-2,0E0,0E0,0E0,0E0,0E0],"parents":[2147483647,0,0,1,1,2,2,4,4,6,6,7,7],"right_children":[2,4,6,-1,8,-1,10,12,-1,-1,-1,-1,-1],"split_conditions":[1E0,2.45E2,3E0,-3.2392282E-2,2.6E2,3.6178906E-2,-8.660254E-1,2.59E2,-6.016175E-3,-2.460389E-2,1.6472735E-2,-7.1056783E-3,1.5400984E-2],"split_indices":[11,3,2,0,3,0,7,3,0,0,0,0,0],"split_type":[0,0,0,0,0,0,0,0,0,0,0,0,0],"sum_hessian":[1.4524875E1,1.1339937E1,3.1849375E0,1.2098905E0,1.0130047E1,1.0362676E0,2.1486697E0,5.8905277E0,4.239519E0,1.1367531E0,1.0119166E0,2.2560537E0,3.6344738E0],"tree_param":{"num_deleted":"0","num_feature":"16","num_nodes":"13","size_leaf_vector":"1"}},{"base_weights":[-2.560728E-4,4.8059482E-2,-1.4263837E-2,-3.0801878E-3,2.4833964E-2,-3.5381056E-2,7.944951E-3,1.3125215E-2,-5.478134E-3,-1.0076386E-2,8.421121E-3],"categories":[],"categories_nodes":[],"categories_segments":[],"categories_sizes":[],"default_left":[0,0,0,0,0,0,0,0,0,0,0],"id":89,"left_children":[1,3,5,-1,-1,-1,7,-1,9,-1,-1],"loss_changes":[1.1195208E-2,8.381557E-3,3.0430468E-2,0E0,0E0,0E0,5.760373E-3,0E0,9.659616E-3,0E0,0E0],"parents":[2147483647,0,0,1,1,2,2,6,6,8,8],"right_children":[2,4,6,-1,-1,-1,8,-1,10,-1,-1],"split_conditions":[2.14E2,-7.933533E-1,1.7E1,-3.0801878E-3,2.4833964E-2,-3.5381056E-2,2.46E2,1.3125215E-2,2.73E2,-1.0076386E-2,8.421121E-3],"split_indices":[3,7,0,0,0,0,3,0,3,0,0],"split_type":[0,0,0,0,0,0,0,0,0,0,0],"sum_hessian":[1.4528673E1,2.7190866E0,1.1809587E1,1.277426E0,1.4416606E0,1.3230549E0,1.0486532E1,2.2432775E0,8.243255E0,4.484545E0,3.758709E0],"tree_param":{"num_deleted":"0","num_feature":"16","num_nodes":"11","size_leaf_vector":"1"}},{"base_weights":[-3.4528252E-4,-1.4777989E-2,4.2212352E-2,-3.1145092E-2,4.003868E-3,3.0721923E-2,-8.646191E-3,2.1678198E-2,-6.023132E-3,-7.2364E-3,1.4728543E-2],"categories":[],"categories_nodes":[],"categories_segments":[],"categories_sizes":[],"default_left":[0,0,0,0,0,0,0,0,0,0,0],"id":90,"left_children":[1,3,5,-1,7,-1,-1,9,-1,-1,-1],"loss_changes":[1.0163578E-2,2.105013E-2,2.0878084E-2,0E0,5.181839E-3,0E0,0E0,9.864233E-3,0E0,0E0,0E0],"parents":[2147483647,0,0,1,1,2,2,4,4,7,7],"right_children":[2,4,6,-1,8,-1,-1,10,-1,-1,-1],"split_conditions":[1E0,2.45E2,4.3388373E-1,-3.1145092E-2,2.6E2,3.0721923E-2,-8.646191E-3,2.59E2,-6.023132E-3,-7.2364E-3,1.4728543E-2],"split_indices":[11,3,8,0,3,0,0,3,0,0,0],"split_type":[0,0,0,0,0,0,0,0,0,0,0],"sum_hessian":[1.4531466E1,1.1338841E1,3.1926239E0,1.1864996E0,1.0152342E1,1.4890848E0,1.7035391E0,5.912567E0,4.239774E0,2.2590566E0,3.6535108E0],"tree_param":{"num_deleted":"0","num_feature":"16","num_nodes":"11","size_leaf_vector":"1"}},{"base_weights":[-5.9657334E-4,2.8722266E-2,-2.1917371E-2,7.650555E-2,-8.630979E-3,-1.578303E-2,5.6530866E-3,2.638582E-3,3.1081313E-2],"categories":[],"categories_nodes":[],"categories_segments":[],"categories_sizes":[],"default_left":[0,0,0,0,0,0,0,0,0],"id":91,"left_children":[1,3,5,7,-1,-1,-1,-1,-1],"loss_changes":[1.0343171E-2,2.1363454E-2,1.295656E-2,6.5797977E-3,0E0,0E0,0E0,0E0,0E0],"parents":[2147483647,0,0,1,1,2,2,3,3],"right_children":[2,4,6,8,-1,-1,-1,-1,-1],"split_conditions":[2.46E2,6.234898E-1,2.73E2,-8.314696E-1,-8.630979E-3,-1.578303E-2,5.6530866E-3,2.638582E-3,3.1081313E-2],"split_indices":[3,9,3,7,0,0,0,0,0],"split_type":[0,0,0,0,0,0,0,0,0],"sum_hessian":[1.4539334E1,5.9753337E0,8.564E0,3.0825953E0,2.8927386E0,4.7195306E0,3.8444693E0,1.2596768E0,1.8229185E0],"tree_param":{"num_deleted":"0","num_feature":"16","num_nodes":"9","size_leaf_vector":"1"}},{"base_weights":[-8.240533E-5,1.7530471E-2,-9.4659915E-3,5.876955E-3,-2.1972073E-2,-2.4499113E-2,2.3004172E-2,2.6259098E-2,-6.5830094E-4,-6.224239E-3,6.5203034E-3],"categories":[],"categories_nodes":[],"categories_segments":[],"categories_sizes":[],"default_left":[0,0,0,0,0,0,0,0,0,0,0],"id":92,"left_children":[1,-1,3,5,-1,-1,7,-1,9,-1,-1],"loss_changes":[9.076991E-3,0E0,1.436268E-2,2.0474868E-2,0E0,0E0,1.7087666E-2,0E0,4.568642E-3,0E0,0E0],"parents":[2147483647,0,0,2,2,3,3,6,6,8,8],"right_children":[2,-1,4,6,-1,-1,8,-1,10,-1,-1],"split_conditions":[-9.238795E-1,1.7530471E-2,-1.9509032E-1,2.41E2,-2.1972073E-2,-2.4499113E-2,2.46E2,2.6259098E-2,2.73E2,-6.224239E-3,6.5203034E-3],"split_indices":[7,0,6,3,0,0,3,0,3,0,0],"split_type":[0,0,0,0,0,0,0,0,0,0,0],"sum_hessian":[1.4523242E1,1.2846485E0,1.3238593E1,1.1403067E1,1.835527E0,1.249345E0,1.0153722E1,2.0001934E0,8.153528E0,4.3365445E0,3.8169837E0],"tree_param":{"num_deleted":"0","num_feature":"16","num_nodes":"11","size_leaf_vector":"1"}},{"base_weights":[-2.0624608E-4,1.5828826E-2,-9.990828E-3,-5.814496E-3,5.4403186E-2,-6.5506086E-2,1.571363E-2,2.9507304E-2,-2.7109268E-3,-2.9041108E-2,-7.451718E-3],"categories":[],"categories_nodes":[],"categories_segments":[],"categories_sizes":[],"default_left":[0,0,0,0,0,0,0,0,0,0,0],"id":93,"left_children":[1,3,-1,5,7,9,-1,-1,-1,-1,-1],"loss_changes":[8.767461E-3,9.614658E-3,0E0,3.1351738E-2,1.2320149E-2,3.2111928E-3,0E0,0E0,0E0,0E0,0E0],"parents":[2147483647,0,0,1,1,3,3,4,4,5,5],"right_children":[2,4,-1,6,8,10,-1,-1,-1,-1,-1],"split_conditions":[2.6E2,1E0,-9.990828E-3,2.59E2,4.3388373E-1,2.45E2,1.571363E-2,2.9507304E-2,-2.7109268E-3,-2.9041108E-2,-7.451718E-3],"split_indices":[3,11,0,3,8,3,0,0,0,0,0],"split_type":[0,0,0,0,0,0,0,0,0,0,0],"sum_hessian":[1.4527115E1,1.013736E1,4.3897552E0,7.037833E0,3.0995257E0,3.4121573E0,3.6256762E0,1.5058056E0,1.5937202E0,1.1481423E0,2.2640147E0],"tree_param":{"num_deleted":"0","num_feature":"16","num_nodes":"11","size_leaf_vector":"1"}},{"base_weights":[-3.625522E-4,2.5788E-2,-1.959776E-2,7.078077E-2,-8.558401E-3,-1.4505769E-2,5.4039857E-3,7.184892E-4,3.0305905E-2],"categories":[],"categories_nodes":[],"categories_segments":[],"categories_sizes":[],"default_left":[0,0,0,0,0,0,0,0,0],"id":94,"left_children":[1,3,5,7,-1,-1,-1,-1,-1],"loss_changes":[8.318162E-3,1.91615E-2,1.1164137E-2,8.285698E-3,0E0,0E0,0E0,0E0,0E0],"parents":[2147483647,0,0,1,1,2,2,3,3],"right_children":[2,4,6,8,-1,-1,-1,-1,-1],"split_conditions":[2.46E2,6.234898E-1,2.73E2,-8.314696E-1,-8.558401E-3,-1.4505769E-2,5.4039857E-3,7.184892E-4,3.0305905E-2],"split_indices":[3,9,3,7,0,0,0,0,0],"split_type":[0,0,0,0,0,0,0,0,0],"sum_hessian":[1.4532005E1,6.0145154E0,8.51749E0,3.123789E0,2.8907263E0,4.6652036E0,3.8522866E0,1.2886612E0,1.8351278E0],"tree_param":{"num_deleted":"0","num_feature":"16","num_nodes":"9","size_leaf_vector":"1"}},{"base_weights":[7.076866E-5,1.4854566E-2,-9.216117E-3,-7.6656197E-3,1.4356822E-2,4.5507655E-2,-2.250632E-2,8.125873E-4,2.9737096E-2,-1.9104932E-2,2.4849625E-2],"categories":[],"categories_nodes":[],"categories_segments":[],"categories_sizes":[],"default_left":[0,0,0,0,0,0,0,0,0,0,0],"id":95,"left_children":[1,3,-1,5,-1,7,-1,9,-1,-1,-1],"loss_changes":[7.5204973E-3,8.659899E-3,0E0,3.025556E-2,0E0,1.1447417E-2,0E0,2.4487E-2,0E0,0E0,0E0],"parents":[2147483647,0,0,1,1,3,3,5,5,7,7],"right_children":[2,4,-1,6,-1,8,-1,10,-1,-1,-1],"split_conditions":[2.6E2,2.59E2,-9.216117E-3,3.2143947E-1,1.4356822E-2,-6.593458E-1,-2.250632E-2,-2.2252093E-1,2.9737096E-2,-1.9104932E-2,2.4849625E-2],"split_indices":[3,3,0,7,0,7,0,9,0,0,0],"split_type":[0,0,0,0,0,0,0,0,0,0,0],"sum_hessian":[1.4518455E1,1.0158575E1,4.3598795E0,6.4944735E0,3.6641018E0,3.8105934E0,2.68388E0,2.6318233E0,1.1787701E0,1.5984502E0,1.0333732E0],"tree_param":{"num_deleted":"0","num_feature":"16","num_nodes":"11","size_leaf_vector":"1"}},{"base_weights":[5.644526E-4,2.503208E-2,-1.7628742E-2,-1.7306248E-2,2.0704295E-2,-1.3922444E-2,5.8717434E-3,7.5865956E-3,-1.942501E-2],"categories":[],"categories_nodes":[],"categories_segments":[],"categories_sizes":[],"default_left":[0,0,0,0,0,0,0,0,0],"id":96,"left_children":[1,3,5,7,-1,-1,-1,-1,-1],"loss_changes":[7.3423767E-3,1.4275279E-2,1.1056133E-2,1.0486279E-2,0E0,0E0,0E0,0E0,0E0],"parents":[2147483647,0,0,1,1,2,2,3,3],"right_children":[2,4,6,8,-1,-1,-1,-1,-1],"split_conditions":[2.46E2,2.32E2,2.73E2,-2.2252093E-1,2.0704295E-2,-1.3922444E-2,5.8717434E-3,7.5865956E-3,-1.942501E-2],"split_indices":[3,3,3,9,0,0,0,0,0],"split_type":[0,0,0,0,0,0,0,0,0],"sum_hessian":[1.4503044E1,6.0246806E0,8.478364E0,3.378742E0,2.6459386E0,4.6407347E0,3.8376288E0,2.0264115E0,1.3523303E0],"tree_param":{"num_deleted":"0","num_feature":"16","num_nodes":"9","size_leaf_vector":"1"}},{"base_weights":[4.6164167E-4,1.4311508E-2,-8.5858E-3,-8.3346255E-3,1.4301089E-2,4.145136E-2,-2.160744E-2,2.7729278E-2,8.226892E-4,-3.480867E-2,3.4543607E-2],"categories":[],"categories_nodes":[],"categories_segments":[],"categories_sizes":[],"default_left":[0,0,0,0,0,0,0,0,0,0,0],"id":97,"left_children":[1,3,-1,5,-1,7,-1,-1,9,-1,-1],"loss_changes":[6.6550006E-3,8.835993E-3,0E0,2.6782151E-2,0E0,9.962932E-3,0E0,0E0,6.2871E-2,0E0,0E0],"parents":[2147483647,0,0,1,1,3,3,5,5,8,8],"right_children":[2,4,-1,6,-1,8,-1,-1,10,-1,-1],"split_conditions":[2.6E2,2.59E2,-8.5858E-3,3.2143947E-1,1.4301089E-2,3E0,-2.160744E-2,2.7729278E-2,-7.933533E-1,-3.480867E-2,3.4543607E-2],"split_indices":[3,3,0,7,0,2,0,0,7,0,0],"split_type":[0,0,0,0,0,0,0,0,0,0,0],"sum_hessian":[1.4506251E1,1.0170436E1,4.335815E0,6.504742E0,3.665694E0,3.846861E0,2.6578815E0,1.1406243E0,2.7062366E0,1.3309351E0,1.3753014E0],"tree_param":{"num_deleted":"0","num_feature":"16","num_nodes":"11","size_leaf_vector":"1"}},{"base_weights":[6.6053675E-4,1.6375838E-2,-8.123035E-3,-6.687902E-2,1.116848E-2,1.8278351E-2,-4.8368838E-2,1.1762552E-2,-4.6176402E-4,-7.860525E-3,8.664222E-3],"categories":[],"categories_nodes":[],"categories_segments":[],"categories_sizes":[],"default_left":[0,0,0,0,0,0,0,0,0,0,0],"id":98,"left_children":[1,-1,3,5,7,-1,-1,-1,9,-1,-1],"loss_changes":[7.7851475E-3,0E0,1.6841898E-2,5.3871974E-2,3.7835867E-3,0E0,0E0,0E0,7.6673417E-3,0E0,0E0],"parents":[2147483647,0,0,2,2,3,3,4,4,8,8],"right_children":[2,-1,4,6,8,-1,-1,-1,10,-1,-1],"split_conditions":[-9.238795E-1,1.6375838E-2,1.7E1,2.13E2,2.46E2,1.8278351E-2,-4.8368838E-2,1.1762552E-2,2.73E2,-7.860525E-3,8.664222E-3],"split_indices":[7,0,0,3,3,0,0,0,3,0,0],"split_type":[0,0,0,0,0,0,0,0,0,0,0],"sum_hessian":[1.4500049E1,1.3006021E0,1.3199447E1,2.6528692E0,1.0546577E1,1.2771218E0,1.3757473E0,2.3967824E0,8.149795E0,4.398424E0,3.7513704E0],"tree_param":{"num_deleted":"0","num_feature":"16","num_nodes":"11","size_leaf_vector":"1"}},{"base_weights":[4.4772562E-4,-1.3862138E-2,8.911105E-3,-7.1834517E-3,2.2013525E-2,-4.5038622E-2,2.0481512E-2,-4.1793366E-3,3.1772103E-2,1.7001346E-2,7.713128E-4],"categories":[],"categories_nodes":[],"categories_segments":[],"categories_sizes":[],"default_left":[0,0,0,0,0,0,0,0,0,0,0],"id":99,"left_children":[1,-1,3,5,-1,-1,7,-1,9,-1,-1],"loss_changes":[6.5346905E-3,0E0,1.5015742E-2,5.0866302E-2,0E0,0E0,4.7186534E-3,0E0,6.100945E-3,0E0,0E0],"parents":[2147483647,0,0,2,2,3,3,6,6,8,8],"right_children":[2,-1,4,6,-1,-1,8,-1,10,-1,-1],"split_conditions":[-3.2143947E-1,-1.3862138E-2,2E0,7.818315E-1,2.2013525E-2,-4.5038622E-2,3.8E1,-4.1793366E-3,2.6E2,1.7001346E-2,7.713128E-4],"split_indices":[6,0,1,8,0,0,4,0,3,0,0],"split_type":[0,0,0,0,0,0,0,0,0,0,0],"sum_hessian":[1.4506685E1,1.542717E0,1.2963968E1,1.1085095E1,1.8788722E0,1.0796831E0,1.0005413E1,2.4139762E0,7.5914364E0,3.589788E0,4.0016484E0],"tree_param":{"num_deleted":"0","num_feature":"16","num_nodes":"11","size_leaf_vector":"1"}}]},"name":"gbtree"},"learner_model_param":{"base_score":"3.6044738E-3","boost_from_average":"1","num_class":"0","num_feature":"16","num_target":"1"},"objective":{"name":"count:poisson",